<?xml version="1.0"?>
<MethodSetup Method="MLP::MLP_fold4">
  <GeneralInfo>
    <Info name="TMVA Release" value="4.2.1 [262657]"/>
    <Info name="ROOT Release" value="6.20/06 [398342]"/>
    <Info name="Creator" value="tfarooque"/>
    <Info name="Date" value="Sat Jul  8 02:15:39 2023"/>
    <Info name="Host" value="Linux aibuild16-017.cern.ch 3.10.0-1160.36.2.el7.x86_64 #1 SMP Wed Jul 21 11:57:15 UTC 2021 x86_64 x86_64 x86_64 GNU/Linux"/>
    <Info name="Dir" value="/data/at3/scratch2/farooque/DevPVLQ/VLQAnalysisFramework/run"/>
    <Info name="Training events" value="889806"/>
    <Info name="TrainingTime" value="2.92965106e+04"/>
    <Info name="AnalysisType" value="Classification"/>
  </GeneralInfo>
  <Options>
    <Option name="NCycles" modified="Yes">800</Option>
    <Option name="HiddenLayers" modified="Yes">30,10,10,5</Option>
    <Option name="NeuronType" modified="Yes">sigmoid</Option>
    <Option name="RandomSeed" modified="No">1</Option>
    <Option name="EstimatorType" modified="No">CE</Option>
    <Option name="NeuronInputType" modified="No">sum</Option>
    <Option name="V" modified="Yes">False</Option>
    <Option name="VerbosityLevel" modified="No">Default</Option>
    <Option name="VarTransform" modified="Yes">N</Option>
    <Option name="H" modified="No">False</Option>
    <Option name="CreateMVAPdfs" modified="No">False</Option>
    <Option name="IgnoreNegWeightsInTraining" modified="No">False</Option>
    <Option name="TrainingMethod" modified="No">BP</Option>
    <Option name="LearningRate" modified="Yes">1.000000e-02</Option>
    <Option name="DecayRate" modified="Yes">0.000000e+00</Option>
    <Option name="TestRate" modified="Yes">5</Option>
    <Option name="EpochMonitoring" modified="Yes">False</Option>
    <Option name="Sampling" modified="No">1.000000e+00</Option>
    <Option name="SamplingEpoch" modified="No">1.000000e+00</Option>
    <Option name="SamplingImportance" modified="No">1.000000e+00</Option>
    <Option name="SamplingTraining" modified="No">True</Option>
    <Option name="SamplingTesting" modified="No">False</Option>
    <Option name="ResetStep" modified="No">50</Option>
    <Option name="Tau" modified="No">3.000000e+00</Option>
    <Option name="BPMode" modified="No">sequential</Option>
    <Option name="BatchSize" modified="No">-1</Option>
    <Option name="ConvergenceImprove" modified="No">1.000000e-30</Option>
    <Option name="ConvergenceTests" modified="No">-1</Option>
    <Option name="UseRegulator" modified="No">False</Option>
    <Option name="UpdateLimit" modified="No">10000</Option>
    <Option name="CalculateErrors" modified="No">False</Option>
    <Option name="WeightRange" modified="No">1.000000e+00</Option>
  </Options>
  <Variables NVar="21">
    <Variable VarIndex="0" Expression="meff" Label="meff" Title="meff" Unit="" Internal="meff" Type="D" Min="1.00000494e+03" Max="8.86203418e+03"/>
    <Variable VarIndex="1" Expression="RCjet2_pt" Label="RCjet2_pt" Title="RCjet2_pt" Unit="" Internal="RCjet2_pt" Type="D" Min="0.00000000e+00" Max="1.62899829e+03"/>
    <Variable VarIndex="2" Expression="dRmin_RCjets" Label="dRmin_RCjets" Title="dRmin_RCjets" Unit="" Internal="dRmin_RCjets" Type="D" Min="2.50981618e-02" Max="5.06098366e+00"/>
    <Variable VarIndex="3" Expression="dPhiavg_RCjets" Label="dPhiavg_RCjets" Title="dPhiavg_RCjets" Unit="" Internal="dPhiavg_RCjets" Type="D" Min="1.79171562e-04" Max="3.14159131e+00"/>
    <Variable VarIndex="4" Expression="dRmin_RCMTT" Label="dRmin_RCMTT" Title="dRmin_RCMTT" Unit="" Internal="dRmin_RCMTT" Type="D" Min="5.58902733e-02" Max="5.06098366e+00"/>
    <Variable VarIndex="5" Expression="mtbmin" Label="mtbmin" Title="mtbmin" Unit="" Internal="mtbmin" Type="D" Min="4.88891819e-05" Max="1.86247595e+03"/>
    <Variable VarIndex="6" Expression="RCMTT_jets_n" Label="RCMTT_jets_n" Title="RCMTT_jets_n" Unit="" Internal="RCMTT_jets_n" Type="D" Min="2.00000000e+00" Max="6.00000000e+00"/>
    <Variable VarIndex="7" Expression="met" Label="met" Title="met" Unit="" Internal="met" Type="D" Min="2.00000107e+02" Max="4.06845288e+03"/>
    <Variable VarIndex="8" Expression="RCMTop0_pt" Label="RCMTop0_pt" Title="RCMTop0_pt" Unit="" Internal="RCMTop0_pt" Type="D" Min="0.00000000e+00" Max="3.64521851e+03"/>
    <Variable VarIndex="9" Expression="bjets_n" Label="bjets_n" Title="bjets_n" Unit="" Internal="bjets_n" Type="D" Min="2.00000000e+00" Max="9.00000000e+00"/>
    <Variable VarIndex="10" Expression="mvlq0_RCTTM_drmax" Label="mvlq0_RCTTM_drmax" Title="mvlq0_RCTTM_drmax" Unit="" Internal="mvlq0_RCTTM_drmax" Type="D" Min="3.78424713e+02" Max="7.19409668e+03"/>
    <Variable VarIndex="11" Expression="mvlq1_rcj_drmax" Label="mvlq1_rcj_drmax" Title="mvlq1_rcj_drmax" Unit="" Internal="mvlq1_rcj_drmax" Type="D" Min="0.00000000e+00" Max="5.65620898e+03"/>
    <Variable VarIndex="12" Expression="leadingdR_RCjets" Label="leadingdR_RCjets" Title="leadingdR_RCjets" Unit="" Internal="leadingdR_RCjets" Type="D" Min="9.84904543e-02" Max="5.06098366e+00"/>
    <Variable VarIndex="13" Expression="dEtamin_RCjets" Label="dEtamin_RCjets" Title="dEtamin_RCjets" Unit="" Internal="dEtamin_RCjets" Type="D" Min="1.43051147e-06" Max="3.97469997e+00"/>
    <Variable VarIndex="14" Expression="RCMV0_nconsts" Label="RCMV0_nconsts" Title="RCMV0_nconsts" Unit="" Internal="RCMV0_nconsts" Type="D" Min="0.00000000e+00" Max="2.00000000e+00"/>
    <Variable VarIndex="15" Expression="leadingdPhi_RCjets" Label="leadingdPhi_RCjets" Title="leadingdPhi_RCjets" Unit="" Internal="leadingdPhi_RCjets" Type="D" Min="1.79171562e-04" Max="3.14159131e+00"/>
    <Variable VarIndex="16" Expression="RCMHiggs0_pt" Label="RCMHiggs0_pt" Title="RCMHiggs0_pt" Unit="" Internal="RCMHiggs0_pt" Type="D" Min="0.00000000e+00" Max="3.57535034e+03"/>
    <Variable VarIndex="17" Expression="dEtamin_RCMTT" Label="dEtamin_RCMTT" Title="dEtamin_RCMTT" Unit="" Internal="dEtamin_RCMTT" Type="D" Min="1.43051147e-06" Max="3.97673726e+00"/>
    <Variable VarIndex="18" Expression="dPhiavg_RCMTTMET" Label="dPhiavg_RCMTTMET" Title="dPhiavg_RCMTTMET" Unit="" Internal="dPhiavg_RCMTTMET" Type="D" Min="1.43569708e-03" Max="3.13892746e+00"/>
    <Variable VarIndex="19" Expression="RCMHiggs0_nbconsts" Label="RCMHiggs0_nbconsts" Title="RCMHiggs0_nbconsts" Unit="" Internal="RCMHiggs0_nbconsts" Type="D" Min="0.00000000e+00" Max="5.00000000e+00"/>
    <Variable VarIndex="20" Expression="dEtaavg_RCjets" Label="dEtaavg_RCjets" Title="dEtaavg_RCjets" Unit="" Internal="dEtaavg_RCjets" Type="D" Min="1.43051147e-06" Max="3.97469997e+00"/>
  </Variables>
  <Spectators NSpec="7">
    <Spectator SpecIndex="0" Expression="VLQtype" Label="VLQtype" Title="VLQtype" Unit="" Internal="VLQtype" Type="F" Min="-1.00000000e+00" Max="6.00000000e+00"/>
    <Spectator SpecIndex="1" Expression="channel" Label="channel" Title="channel" Unit="" Internal="channel" Type="F" Min="0.00000000e+00" Max="6.00000000e+00"/>
    <Spectator SpecIndex="2" Expression="event_number" Label="event_number" Title="event_number" Unit="" Internal="event_number" Type="F" Min="1.00000000e+01" Max="2.84778752e+08"/>
    <Spectator SpecIndex="3" Expression="mc_campaign" Label="mc_campaign" Title="mc_campaign" Unit="" Internal="mc_campaign" Type="F" Min="1.00000000e+00" Max="3.00000000e+00"/>
    <Spectator SpecIndex="4" Expression="run_number" Label="run_number" Title="run_number" Unit="" Internal="run_number" Type="F" Min="2.76262000e+05" Max="3.64292000e+05"/>
    <Spectator SpecIndex="5" Expression="sampleID" Label="sampleID" Title="sampleID" Unit="" Internal="sampleID" Type="F" Min="3.02480000e+05" Max="7.00496000e+05"/>
    <Spectator SpecIndex="6" Expression="sampleName" Label="sampleName" Title="sampleName" Unit="" Internal="sampleName" Type="F" Min="3.00000000e+00" Max="1.70000000e+01"/>
  </Spectators>
  <Classes NClass="2">
    <Class Name="Signal" Index="0"/>
    <Class Name="Background" Index="1"/>
  </Classes>
  <Transformations NTransformations="1">
    <Transform Name="Normalize">
      <Selection>
        <Input NInputs="21">
          <Input Type="Variable" Label="meff" Expression="meff"/>
          <Input Type="Variable" Label="RCjet2_pt" Expression="RCjet2_pt"/>
          <Input Type="Variable" Label="dRmin_RCjets" Expression="dRmin_RCjets"/>
          <Input Type="Variable" Label="dPhiavg_RCjets" Expression="dPhiavg_RCjets"/>
          <Input Type="Variable" Label="dRmin_RCMTT" Expression="dRmin_RCMTT"/>
          <Input Type="Variable" Label="mtbmin" Expression="mtbmin"/>
          <Input Type="Variable" Label="RCMTT_jets_n" Expression="RCMTT_jets_n"/>
          <Input Type="Variable" Label="met" Expression="met"/>
          <Input Type="Variable" Label="RCMTop0_pt" Expression="RCMTop0_pt"/>
          <Input Type="Variable" Label="bjets_n" Expression="bjets_n"/>
          <Input Type="Variable" Label="mvlq0_RCTTM_drmax" Expression="mvlq0_RCTTM_drmax"/>
          <Input Type="Variable" Label="mvlq1_rcj_drmax" Expression="mvlq1_rcj_drmax"/>
          <Input Type="Variable" Label="leadingdR_RCjets" Expression="leadingdR_RCjets"/>
          <Input Type="Variable" Label="dEtamin_RCjets" Expression="dEtamin_RCjets"/>
          <Input Type="Variable" Label="RCMV0_nconsts" Expression="RCMV0_nconsts"/>
          <Input Type="Variable" Label="leadingdPhi_RCjets" Expression="leadingdPhi_RCjets"/>
          <Input Type="Variable" Label="RCMHiggs0_pt" Expression="RCMHiggs0_pt"/>
          <Input Type="Variable" Label="dEtamin_RCMTT" Expression="dEtamin_RCMTT"/>
          <Input Type="Variable" Label="dPhiavg_RCMTTMET" Expression="dPhiavg_RCMTTMET"/>
          <Input Type="Variable" Label="RCMHiggs0_nbconsts" Expression="RCMHiggs0_nbconsts"/>
          <Input Type="Variable" Label="dEtaavg_RCjets" Expression="dEtaavg_RCjets"/>
        </Input>
        <Output NOutputs="21">
          <Output Type="Variable" Label="meff" Expression="meff"/>
          <Output Type="Variable" Label="RCjet2_pt" Expression="RCjet2_pt"/>
          <Output Type="Variable" Label="dRmin_RCjets" Expression="dRmin_RCjets"/>
          <Output Type="Variable" Label="dPhiavg_RCjets" Expression="dPhiavg_RCjets"/>
          <Output Type="Variable" Label="dRmin_RCMTT" Expression="dRmin_RCMTT"/>
          <Output Type="Variable" Label="mtbmin" Expression="mtbmin"/>
          <Output Type="Variable" Label="RCMTT_jets_n" Expression="RCMTT_jets_n"/>
          <Output Type="Variable" Label="met" Expression="met"/>
          <Output Type="Variable" Label="RCMTop0_pt" Expression="RCMTop0_pt"/>
          <Output Type="Variable" Label="bjets_n" Expression="bjets_n"/>
          <Output Type="Variable" Label="mvlq0_RCTTM_drmax" Expression="mvlq0_RCTTM_drmax"/>
          <Output Type="Variable" Label="mvlq1_rcj_drmax" Expression="mvlq1_rcj_drmax"/>
          <Output Type="Variable" Label="leadingdR_RCjets" Expression="leadingdR_RCjets"/>
          <Output Type="Variable" Label="dEtamin_RCjets" Expression="dEtamin_RCjets"/>
          <Output Type="Variable" Label="RCMV0_nconsts" Expression="RCMV0_nconsts"/>
          <Output Type="Variable" Label="leadingdPhi_RCjets" Expression="leadingdPhi_RCjets"/>
          <Output Type="Variable" Label="RCMHiggs0_pt" Expression="RCMHiggs0_pt"/>
          <Output Type="Variable" Label="dEtamin_RCMTT" Expression="dEtamin_RCMTT"/>
          <Output Type="Variable" Label="dPhiavg_RCMTTMET" Expression="dPhiavg_RCMTTMET"/>
          <Output Type="Variable" Label="RCMHiggs0_nbconsts" Expression="RCMHiggs0_nbconsts"/>
          <Output Type="Variable" Label="dEtaavg_RCjets" Expression="dEtaavg_RCjets"/>
        </Output>
      </Selection>
      <Class ClassIndex="0">
        <Ranges>
          <Range Index="0" Min="1.0241549072265625e+03" Max="7.7109448242187500e+03"/>
          <Range Index="1" Min="0.0000000000000000e+00" Max="1.5845148925781250e+03"/>
          <Range Index="2" Min="5.5890273302793503e-02" Max="4.4837913513183594e+00"/>
          <Range Index="3" Min="5.7048797607421875e-03" Max="3.1406908035278320e+00"/>
          <Range Index="4" Min="5.5890273302793503e-02" Max="4.7766294479370117e+00"/>
          <Range Index="5" Min="1.8194746226072311e-03" Max="1.4513132324218750e+03"/>
          <Range Index="6" Min="2.0000000000000000e+00" Max="6.0000000000000000e+00"/>
          <Range Index="7" Min="2.0000108337402344e+02" Max="3.0140288085937500e+03"/>
          <Range Index="8" Min="0.0000000000000000e+00" Max="2.9307009277343750e+03"/>
          <Range Index="9" Min="2.0000000000000000e+00" Max="9.0000000000000000e+00"/>
          <Range Index="10" Min="4.1113641357421875e+02" Max="5.5463637695312500e+03"/>
          <Range Index="11" Min="0.0000000000000000e+00" Max="4.6034614257812500e+03"/>
          <Range Index="12" Min="2.9181510210037231e-01" Max="4.5615415573120117e+00"/>
          <Range Index="13" Min="1.2204051017761230e-05" Max="3.8593454360961914e+00"/>
          <Range Index="14" Min="0.0000000000000000e+00" Max="2.0000000000000000e+00"/>
          <Range Index="15" Min="3.8623809814453125e-04" Max="3.1415104866027832e+00"/>
          <Range Index="16" Min="0.0000000000000000e+00" Max="2.8632795410156250e+03"/>
          <Range Index="17" Min="5.1498413085937500e-05" Max="3.8990325927734375e+00"/>
          <Range Index="18" Min="9.1788351535797119e-02" Max="3.1327841281890869e+00"/>
          <Range Index="19" Min="0.0000000000000000e+00" Max="5.0000000000000000e+00"/>
          <Range Index="20" Min="3.5438500344753265e-04" Max="3.8593454360961914e+00"/>
        </Ranges>
      </Class>
      <Class ClassIndex="1">
        <Ranges>
          <Range Index="0" Min="1.0000263671875000e+03" Max="8.8620341796875000e+03"/>
          <Range Index="1" Min="0.0000000000000000e+00" Max="1.6289982910156250e+03"/>
          <Range Index="2" Min="2.5098161771893501e-02" Max="5.0609836578369141e+00"/>
          <Range Index="3" Min="1.7917156219482422e-04" Max="3.1415913105010986e+00"/>
          <Range Index="4" Min="7.0631481707096100e-02" Max="5.0609836578369141e+00"/>
          <Range Index="5" Min="4.8889181925915182e-05" Max="1.8624759521484375e+03"/>
          <Range Index="6" Min="2.0000000000000000e+00" Max="6.0000000000000000e+00"/>
          <Range Index="7" Min="2.0000010681152344e+02" Max="4.0684528808593750e+03"/>
          <Range Index="8" Min="0.0000000000000000e+00" Max="3.0215153808593750e+03"/>
          <Range Index="9" Min="2.0000000000000000e+00" Max="7.0000000000000000e+00"/>
          <Range Index="10" Min="3.7842471313476562e+02" Max="6.4963413085937500e+03"/>
          <Range Index="11" Min="0.0000000000000000e+00" Max="5.6562089843750000e+03"/>
          <Range Index="12" Min="9.8490454256534576e-02" Max="5.0609836578369141e+00"/>
          <Range Index="13" Min="1.4305114746093750e-06" Max="3.9746999740600586e+00"/>
          <Range Index="14" Min="0.0000000000000000e+00" Max="2.0000000000000000e+00"/>
          <Range Index="15" Min="1.7917156219482422e-04" Max="3.1415913105010986e+00"/>
          <Range Index="16" Min="0.0000000000000000e+00" Max="3.3105578613281250e+03"/>
          <Range Index="17" Min="1.4305114746093750e-06" Max="3.9767372608184814e+00"/>
          <Range Index="18" Min="1.4356970787048340e-03" Max="3.1389274597167969e+00"/>
          <Range Index="19" Min="0.0000000000000000e+00" Max="4.0000000000000000e+00"/>
          <Range Index="20" Min="1.4305114746093750e-06" Max="3.9746999740600586e+00"/>
        </Ranges>
      </Class>
      <Class ClassIndex="2">
        <Ranges>
          <Range Index="0" Min="1.0000263671875000e+03" Max="8.8620341796875000e+03"/>
          <Range Index="1" Min="0.0000000000000000e+00" Max="1.6289982910156250e+03"/>
          <Range Index="2" Min="2.5098161771893501e-02" Max="5.0609836578369141e+00"/>
          <Range Index="3" Min="1.7917156219482422e-04" Max="3.1415913105010986e+00"/>
          <Range Index="4" Min="5.5890273302793503e-02" Max="5.0609836578369141e+00"/>
          <Range Index="5" Min="4.8889181925915182e-05" Max="1.8624759521484375e+03"/>
          <Range Index="6" Min="2.0000000000000000e+00" Max="6.0000000000000000e+00"/>
          <Range Index="7" Min="2.0000010681152344e+02" Max="4.0684528808593750e+03"/>
          <Range Index="8" Min="0.0000000000000000e+00" Max="3.0215153808593750e+03"/>
          <Range Index="9" Min="2.0000000000000000e+00" Max="9.0000000000000000e+00"/>
          <Range Index="10" Min="3.7842471313476562e+02" Max="6.4963413085937500e+03"/>
          <Range Index="11" Min="0.0000000000000000e+00" Max="5.6562089843750000e+03"/>
          <Range Index="12" Min="9.8490454256534576e-02" Max="5.0609836578369141e+00"/>
          <Range Index="13" Min="1.4305114746093750e-06" Max="3.9746999740600586e+00"/>
          <Range Index="14" Min="0.0000000000000000e+00" Max="2.0000000000000000e+00"/>
          <Range Index="15" Min="1.7917156219482422e-04" Max="3.1415913105010986e+00"/>
          <Range Index="16" Min="0.0000000000000000e+00" Max="3.3105578613281250e+03"/>
          <Range Index="17" Min="1.4305114746093750e-06" Max="3.9767372608184814e+00"/>
          <Range Index="18" Min="1.4356970787048340e-03" Max="3.1389274597167969e+00"/>
          <Range Index="19" Min="0.0000000000000000e+00" Max="5.0000000000000000e+00"/>
          <Range Index="20" Min="1.4305114746093750e-06" Max="3.9746999740600586e+00"/>
        </Ranges>
      </Class>
    </Transform>
  </Transformations>
  <MVAPdfs/>
  <Weights>
    <Layout NLayers="6">
      <Layer Index="0" NNeurons="22">
        <Neuron NSynapses="30">
          9.4101855753788346e+00 1.5255540306421080e+00 9.6761712074156900e+00 -3.5416287969395155e-01 -2.0630984988208585e+01 -1.6070485565267305e+01 -1.3683664884115164e+01 4.9580568157153664e+00 -6.7831311563249586e-01 -8.6876489965260795e-01 3.3754899965268720e-01 4.7542363304628132e+00 -6.4066128463664143e+00 1.0732146644886962e+00 -2.9781232789082228e+00 5.1656143175540203e-01 -6.6146999217995042e+00 1.3720096621764353e+00 3.0599099233037683e+00 1.5266339800071553e+00 -9.0469869948239712e+00 -4.1810870121652588e-01 2.5812244700840945e+00 2.5513323926873483e+00 -3.7608180719677859e+00 -2.0233563924084877e-01 -1.4915342141460350e-01 -5.7769527218153254e+00 -1.8944886127108152e+01 -2.7829872066744792e-02 
        </Neuron>
        <Neuron NSynapses="30">
          5.2739861677740478e+00 2.6823104174647900e+00 2.8393368935155539e-01 -1.4617826937976430e+00 3.7803730681673282e+00 1.8279334604925583e+00 -1.1337582234047234e+00 6.8001594878377691e+00 -5.6498541537742530e-01 4.4834442413332898e-01 3.4615783624066654e+00 2.0869138126246919e-01 8.6049185429671002e+00 2.8764934166492835e+00 -2.7207829532982779e+00 -1.2856836793758901e+00 1.2168310516154257e+00 -5.4027862407067424e-02 5.7344172160756254e-02 2.6253077957844562e-01 1.3362170686074109e+00 1.5170847867185260e+00 -3.2852021040606947e+00 4.4446527947929448e+00 -1.3001274611787599e+00 -9.1728770852939556e-01 -7.5764720849149843e+00 -2.8452572664610449e+00 3.0555687903153134e-01 4.7242454185649813e-01 
        </Neuron>
        <Neuron NSynapses="30">
          -3.2551117739456044e+00 2.0471239459178543e+00 2.3007436378364363e+00 9.4144603726005971e-01 3.6773052595293088e-01 2.2467719052579396e-02 2.6467103873473530e+00 -8.0415673716195322e+00 3.8645966088957912e-01 -1.4733436459004248e+00 -1.6829090986636457e+00 -1.1057712953760428e+00 2.8922623116891701e+00 1.0879658228653886e+00 -2.4029728499033203e+00 6.5979324888421509e-02 -5.3347852597546002e+00 -1.1504003615595897e+00 -3.7460787581583432e-01 -2.9333028047352237e-02 2.1264449709086359e+00 7.9903462348726184e-01 8.3193556806438917e-01 1.0870768021483865e-03 -6.6950659827013995e-02 -2.5045744067578246e-01 -3.1904805868026056e+00 2.7130219400766792e-01 -4.8925580866691227e+00 -1.6522513135850094e+00 
        </Neuron>
        <Neuron NSynapses="30">
          3.7473299506562694e+00 -7.2633760560905603e-01 1.4316718518564979e+00 -8.3675961039229674e-01 7.3371117396496011e-01 -1.0643934208396171e+00 -6.5275301024952359e+00 3.9532364341205345e-01 -3.3312310768258184e+00 6.7444380775031854e-01 -1.6456927823084905e-01 -7.6026910322235670e+00 7.7643547221415044e-01 4.3011801891061676e+00 1.4300735934861211e+00 1.0184953979304656e+00 -8.6056709331893300e-02 -2.2139903339026525e+00 1.5506732505373919e+00 1.7920510551890585e+00 2.5669643102203582e-01 1.2464118363114053e-01 3.8494028254071431e+00 2.0386019425314474e+00 -7.4232939999547576e-01 1.7748046245433349e+00 3.2525764163896143e+00 1.2196328642149482e-01 2.2872691627732999e+00 -1.0231911253753159e+00 
        </Neuron>
        <Neuron NSynapses="30">
          -1.6301491759334246e+00 1.2292080540327667e-01 -4.7721312410984587e-03 8.8408917661366393e-01 1.7465446529391979e+00 -3.4379269654602789e+00 -4.4959663553032803e+00 2.0888307572008622e+00 2.6509912586392709e-01 8.9248320366017997e-01 -4.0425324766591979e+00 -3.5564365602835655e+00 -4.9103786437408044e-02 -3.5085407259144046e+00 3.1017331117137275e+00 2.0959781187284019e+00 4.7592613521854847e+00 -1.6994774133549742e+00 1.0977022133619689e+00 1.1315922313229310e+00 -2.8595548368690038e-01 3.3016549867852629e-01 -5.1013083650152791e-01 -4.8902028935287756e-01 9.6687917616835972e-01 1.5411946645932297e+00 -2.8084631616903657e+00 -1.9836045718411850e+00 -4.4613813069929442e+00 2.0699504061714299e-01 
        </Neuron>
        <Neuron NSynapses="30">
          -1.2238422764688628e+00 1.2872460716366909e+00 4.3076649982747099e+00 2.4979800644526775e+00 4.6701472610023187e-01 2.5624090346833023e-01 -1.5604286097286246e-01 3.2969530264171798e+00 4.0219663562173693e+00 -1.4140946798153631e+00 6.0758208305936234e+00 -3.1961175621778546e+00 3.4145579571269420e+00 -2.7569792949062788e+00 1.7930630740728506e+00 -1.3717835514226746e+00 6.1949364397149542e-01 2.8623708203598608e-01 -7.1660831924917912e-01 -4.4749274839433134e-01 5.1295721600160897e+00 1.3635570209057279e+00 -2.3489023717713700e+00 1.8259582646830803e+00 3.1425645858922255e+01 -1.9671260723607926e+00 2.7106042773046961e+00 2.9055100849405276e-02 -1.5879512964658475e+00 -1.7846152471646293e+00 
        </Neuron>
        <Neuron NSynapses="30">
          -3.7752993284934324e+00 2.6909080196531856e+00 -1.7849838674239848e+00 -4.4114698367279601e+00 -1.1477030830740165e+00 -1.2458362293373333e+00 -1.0102694942260226e+00 4.6103749879403511e+00 -6.6774348863349753e-01 -2.5177025687707555e-01 -4.1360597406980020e+00 -3.0388897876814509e+00 4.4727810347278490e-01 -1.3111364917301140e+00 -4.1718547905153436e+00 7.6418578728739928e-01 -3.0373772772001915e+00 1.2975390472075954e+00 1.4928606370471467e+00 -1.5784028729237827e+00 -1.8656813432778332e+00 6.6144596742431838e-01 2.9725835989452187e-01 1.0564827443832853e-01 1.3610109585112184e-01 8.1319248727937132e-01 -1.6022214749372041e+00 -2.6162901246482959e+00 8.2317965548853316e+00 8.6064450516640023e-01 
        </Neuron>
        <Neuron NSynapses="30">
          -2.8593826721485605e+00 -2.7545119154865185e+00 -6.8222620600970385e-01 -8.5702175103700728e-01 -2.3983579670082689e+00 9.7804406586493187e-01 -4.6418356178677267e-01 3.7751968597081200e+00 9.5327738667160844e+00 -1.1090291053192782e+00 5.0102886903228381e+00 1.6289758752728036e+00 -4.0019634097248700e+00 2.5886582899166610e+00 1.1013029353560746e+00 -1.6245971332298095e+00 -3.2591651698247639e+00 -7.3086319343584927e-01 -2.0110470802650013e+00 -5.7143756475758034e-01 7.2087671993463431e-01 4.8633078122645851e-01 5.0657367140776666e-01 -4.0730575791281662e+00 -1.5059124119129452e+00 -1.7849776609726937e+00 -1.2137112967920058e+00 -6.8598516442633084e-01 -6.8368466538139394e+00 -1.4797630369323262e+00 
        </Neuron>
        <Neuron NSynapses="30">
          3.8445142238654095e-01 -6.2143033042500457e+00 -5.1098812737872015e+00 -6.5629942584620582e-01 -1.9575425054297846e+00 -2.4502864614622943e+00 1.7223124800693621e+00 -1.3265848013876340e+00 9.7358965594863687e+00 -2.0513827631177528e+00 -8.8012241161235272e-01 1.8476591939998677e+00 -1.3619495462772233e+00 2.9766064936757295e+00 7.8539707397534220e-01 4.1382145824130201e-01 -6.3491917741971911e+00 -1.8336120997496295e+00 -3.6156800704529424e+00 -3.4733188148171705e+00 9.6867039809233002e-01 5.9821498314557076e-01 7.1722837171144374e+00 -1.9370899825589130e+00 2.7578496204820593e+00 -5.1323450372245671e-01 1.0182428121718397e-01 5.5021597867994929e+00 3.0934202922809657e+00 -1.0078729433659803e+00 
        </Neuron>
        <Neuron NSynapses="30">
          -3.4236336740801194e+00 6.1059067928408410e+00 1.4602272888845653e+00 4.6653898428301022e-01 -2.5360731396697984e+00 -3.7492779894822248e+00 2.6113764736391292e+00 5.5046274934817979e-02 2.2567844362891747e+00 -2.1168865646788397e+00 1.3540159114995247e+00 -2.8142714151125405e+00 -1.7351739337207175e+00 3.0049077151215675e+00 -2.6337238629357271e+00 1.5413243052430833e-01 1.6642108441738597e+00 1.2158236711341510e+00 -9.8621400363795466e+00 6.0374540802771182e-01 -2.2221027718389785e+00 1.4026497727448950e+00 -1.3617314858915688e+00 1.6497801217128640e+00 -3.4408487630420387e-01 -1.9789870281037447e+00 -1.6776851910255084e+00 -9.5118314640590318e-01 -1.4219195748104922e+00 -1.6097282725626458e+00 
        </Neuron>
        <Neuron NSynapses="30">
          -1.8542142972053404e+00 9.9117118224358891e-01 4.2070286262704428e+00 -2.0216527187616404e+00 1.2827355267788101e-01 -7.5418313332375225e-02 -5.3923578518568291e+00 -1.8961285459264701e+00 -2.4434345103177351e+00 -1.2224094539636210e+00 7.8815632444863892e-01 -2.3658433274031578e+00 1.4476067407495843e+00 1.6684085797490571e+00 6.6253203755971954e+00 1.5772351575839344e-01 5.3147840463712894e+00 -2.5721110544098318e+00 1.5849468834389508e+00 1.3169636810144592e+00 9.3553380050875767e-01 -4.6349732602038130e-01 -9.9040520091918910e-02 -5.4576471019143791e-01 -1.3745050110862564e+00 1.8982599247356455e+00 6.0018315562405631e+00 1.5656566657852722e+00 9.0414972943216587e-01 9.2415757435649093e-01 
        </Neuron>
        <Neuron NSynapses="30">
          -2.0222115808081256e+00 1.5344142099339297e+00 -1.7381802622636009e+00 -3.5631091774890598e+00 2.0314645285050994e+00 4.7456840716548578e+00 9.2533946289950408e-01 6.6337831023507619e+00 -2.5620714301412302e+00 2.9735207529767038e-01 -1.8895224805156097e+00 -5.6022287487080593e+00 4.9706911916910297e+00 -1.1917269587912624e+00 -1.2340623695059683e+00 -9.0960869642472486e-01 2.7002551077146075e-01 8.6287635820703812e-01 -5.4781661035997287e-01 -1.0350336167271192e+00 2.4314576052873058e-01 2.0212599745731925e+00 -4.5506191183283806e-01 8.2533601649651143e+00 -3.0425663759418096e+00 -1.4697308248115586e+00 -1.9426427572212677e+00 8.4829255539504000e-01 4.4657333714991561e+00 -1.3515546972629995e+00 
        </Neuron>
        <Neuron NSynapses="30">
          2.0611783077490338e+00 -2.9835479390436785e+00 -4.1526819979110554e+00 -3.5913784925468728e-01 -3.4563350483462827e+00 5.6520857943306151e+00 -2.9089928069024756e-01 5.8928105785674634e-01 -4.1210153354075851e+00 -1.0978158819038486e+00 1.7375863424782918e+00 -1.6293636058111454e+00 1.8259877405724594e+00 1.9000143930692548e+00 -1.1823847291011236e+00 -5.5303471097613188e-01 2.3166791772611468e+00 2.5365394963802351e-01 3.9622183325557661e+00 1.6235605173843043e-01 -1.7344273140107203e+00 -6.3456047973452034e-01 -3.4691446216201909e+00 -3.3059387895445944e+00 1.4848041090869510e-01 8.2845845247727770e-02 2.9705299329143231e+00 -1.8713879433600369e+00 3.1209200427522323e+00 -1.2853392325963524e+00 
        </Neuron>
        <Neuron NSynapses="30">
          -1.7413583276291440e+00 -3.0452101094355155e-01 3.3269352456499846e+00 2.2898450371410309e-01 -1.0488494547568454e-01 1.7713022918581292e+00 9.9454935680450207e-01 -2.1150575105114613e+00 2.6103356196472896e+00 1.1355686364498698e+00 1.5833258569447184e+00 3.8784751518836167e+00 1.1552520948197675e+00 4.0978505059916631e-01 2.5469832424532308e+00 -2.1066534128533956e+00 -4.5908960157468431e-01 1.1010503921912109e+00 -2.4426206159314814e-01 -1.0139558676266053e-01 3.1553007554515897e+00 -9.0419061390900479e-01 -3.3287988766442311e-01 -4.8522781852852004e-01 -5.0256985101908525e-01 -1.6460975972652769e-01 3.2421217697924081e+00 -1.1583806363193139e+00 6.4412394897934089e-01 -4.7089390506963713e-01 
        </Neuron>
        <Neuron NSynapses="30">
          -4.1484625506664252e-01 -1.6361462691750039e-01 7.0516412024821209e+00 -5.3882332076426716e+00 -2.0962889965949630e-01 -2.1154172392867371e-01 -4.5008512806272344e-01 -1.1453190833089431e+00 1.0049691488546044e+00 1.0459573318009284e-01 4.4990009756063065e-01 1.1934272825839392e+00 -1.0410691485513652e+00 2.6473050240906493e-01 5.0654335059057463e+00 1.5820234351798421e+00 2.5017573998812050e+00 5.6752471075174848e-01 -6.2909588274855432e-02 -7.4464411414364218e-01 -1.6266385794949518e+00 -1.1545692600069530e+00 -1.5990101386059379e+00 8.8816981348786195e-01 1.2911656258678975e-01 1.5411599611860338e+00 4.9175735404261101e+00 -4.5403863200981837e-01 6.3437175472776230e-01 -9.4656535785107321e-01 
        </Neuron>
        <Neuron NSynapses="30">
          -7.5693151409246495e-01 3.8929490303109265e-01 3.3172285996042423e+00 2.7293383933832915e+00 -1.7353440073055199e-01 -1.6920745635348160e+00 -1.2958612745695761e+00 -7.6739626663667271e-01 -8.0614371044861230e-02 1.5555088248970417e+00 -3.2678984448079501e-01 -5.0536375110249399e+00 -6.8662572995652649e-01 9.1596500891706789e-01 3.0575364458292524e+00 2.8353989806931285e-01 1.3900881046217630e+00 -9.7347650815083420e-01 -2.6538102999974869e+00 1.3442776203186562e+00 9.7994764252996835e-01 -8.6131712499980106e-01 -3.6321097556314133e+00 1.9491685418816929e+00 7.4950300856137875e-01 -1.1471089548476305e+00 -2.7326727963374182e+00 8.3533355810928211e-01 -8.0401003561492090e-01 1.4838550319380583e+00 
        </Neuron>
        <Neuron NSynapses="30">
          -1.7695346259115678e+00 -3.8634567124307823e-01 -9.4210827921000173e-01 7.3938667352745824e-01 -1.1091490544002003e+00 -9.9200480085750431e-01 -1.7337020596049313e+00 -3.0774403906148207e+00 8.1967207567451206e-01 7.9530604312865893e-01 6.0449685495349703e-01 -1.8857209454303767e+00 -2.6047778671605797e+00 -7.3494069808004925e+00 3.3520516024272684e+00 -1.9234412653022701e+00 5.8667710397165225e+00 -6.6623328992338671e-01 -2.3255453347490651e-01 2.4058945640880003e+00 -6.3094000171994855e+00 1.7740387879415642e+00 3.4637772281533996e-01 1.8069960163970076e+00 1.5452855979261646e+00 -9.9121707369639389e-01 1.4488868849621250e+00 -3.5268540342693506e+00 -3.1134521710098034e-01 -1.5561190915365721e+00 
        </Neuron>
        <Neuron NSynapses="30">
          -3.0527322876762625e-01 -1.9312114949891581e+00 -3.4740898370921154e+00 -8.7750150868923438e-01 6.2863105716358125e-01 -7.5945534892188871e-01 1.5889048974043403e+00 2.4597382366076359e+00 -2.9315262640689319e+00 1.6529764909779623e+00 2.3151660870697772e+00 -5.2636270289887683e+00 2.9803592624197437e+00 -7.0588562139011932e+00 9.0483207224265250e-01 3.3751304548264105e-01 -1.8398234549764516e+00 1.7413948569669786e+00 -2.4367326846637818e+00 -3.2303708606905490e-01 -1.5010373405061710e+00 -6.1435651398837965e-01 3.2906883517750658e+00 -6.3260251496433728e-01 -6.4199866097061498e-01 -5.8362703151884154e-01 5.2462349107162976e-01 -1.4201256301611300e+00 -1.0010861771222297e-01 -1.8430624785525465e+00 
        </Neuron>
        <Neuron NSynapses="30">
          -1.2540925812807854e-01 2.6230648448515925e+00 4.2554840150582857e-01 -1.9813798283339958e+00 2.7395442160107382e+00 -4.5056246308297315e-01 -3.2731432081120109e+00 1.0504371216808928e-01 6.0458174375652307e-01 -2.3300492208907672e-01 8.2809879823194184e+00 -4.7840979804284584e-01 -2.4141691544098411e+00 -2.1743741042861978e-01 1.2762447001716730e+00 -4.5139261275153908e+00 -9.7979060040241817e-01 -2.0234290117870435e+00 -4.3369661577696955e-01 -9.9816277889710336e-01 3.5744444218186593e+00 1.6003071903541548e+00 7.0411302240249263e-01 4.4480459267983746e-01 -2.3402087773008293e-01 7.7396296344600546e-02 -5.9331385733947490e+00 -1.5800809003959830e+00 -4.7268258801465685e-01 -7.0972858403953520e-01 
        </Neuron>
        <Neuron NSynapses="30">
          3.1458120721764576e-01 -9.8383388786370363e-01 2.3336528506321668e+00 3.2347834573757699e+00 1.5483680866044793e+00 -1.7997668565373226e+00 -7.0379414214674096e-01 -1.6875669313083444e-01 -9.7412877249182750e-01 -8.4185158465527365e-01 8.0384962056074405e-01 9.9076884277116162e-01 -1.8910235802806434e+00 7.2453949172632648e-01 5.6431407753729035e+00 -3.0973243351183699e+00 -3.0806878682643668e+00 2.5848353647223505e+00 -1.6574564628650199e+00 3.4963002558705492e-01 -7.8028474441632079e-01 1.3028296487271165e+00 3.0514859059207206e-01 -1.9794663283359084e+00 -8.0812515071310409e-01 -1.0307240041900587e+00 -5.8884948730536679e-01 -3.8778739296733447e+00 2.1279175204043708e+00 -1.0029545358279228e+00 
        </Neuron>
        <Neuron NSynapses="30">
          8.9083991419098503e+00 -1.5124650443225738e+00 -4.3368633880997015e-01 -5.0907390847647109e+00 7.9094113494811902e-01 -8.2688445798135621e+00 -5.4571591811604963e+00 3.7047671792861623e+00 1.0310012248568252e-01 9.2630599203967989e-01 -8.2589708010904095e-01 1.9512561208633208e+00 -3.7455076474685440e+00 1.5359137497965247e+00 -6.0762647207238469e+00 1.6053501451917500e+00 4.5923785142712905e+00 1.6063172016876965e+00 3.5268128298321633e-01 -6.3673261692266681e-01 2.9208201167197312e+00 4.8676671609576422e-01 7.6418900522382024e-02 -2.1722050344858581e+00 1.2277453684049129e+00 -1.1182043584259660e+00 -1.5006474275062489e+00 1.8339720574664775e+00 1.0618810050693916e+00 -2.4942843679590935e-02 
        </Neuron>
        <Neuron NSynapses="30">
          -7.5304624222446375e+00 1.9132062646343793e+00 1.2383606471831373e+01 -7.4578233894447621e-01 -1.7786787190720016e+01 -1.6290124659334158e+01 -1.3501990466014963e+01 1.7751487682921042e+01 1.6401713393042694e+01 -2.6901043418419168e+00 9.0276445219100161e+00 2.7273583936329642e+00 -1.7656768190710235e+00 2.9254371243511419e+00 -1.3295800872355366e+00 -5.8459309970211581e-01 -6.0968745061332106e+00 2.0926995011540392e+00 -1.0474668166869311e+01 1.2307176901822661e+00 -7.3300692144529620e+00 -1.6393269335295073e+00 -3.6784335237065635e+00 3.9604454797213631e+00 1.9330927070191141e+01 7.2773727569123170e-01 -1.5083349718812114e+00 -9.8727226616081136e+00 -7.1673943245893259e+00 2.3946605840453450e-01 
        </Neuron>
      </Layer>
      <Layer Index="1" NNeurons="31">
        <Neuron NSynapses="10">
          -3.8632927864853190e+00 3.5055868150243059e+00 -2.3254645451271760e+00 -1.2403397905019558e+00 -2.2152022722056377e+00 -5.1207854636584949e-01 -2.8393105311685685e-01 2.5483529591940974e+00 5.0879834279424596e+00 3.5842263261097718e+00 
        </Neuron>
        <Neuron NSynapses="10">
          -3.2645303471618075e+00 -2.4787011877014775e+00 7.5387762065949637e-01 -9.8699042782962465e-01 3.0271733699616394e+00 -2.5477315309745863e+00 4.2153200289661724e-01 -2.4832431063333500e+00 -9.3411088135367881e-01 -2.9095823564990799e+00 
        </Neuron>
        <Neuron NSynapses="10">
          1.1360211007037955e+00 -2.3178141910314187e-01 3.7162661591461559e+00 -1.2661458287272604e+00 5.6079324561624686e+00 -2.7230271142741054e+00 4.1556929955266799e+00 -2.2839747276330002e+00 -4.2089477210194675e+00 -1.7824847928966978e-01 
        </Neuron>
        <Neuron NSynapses="10">
          -5.7253584668995905e-01 1.0099785141113795e+00 1.0369632899542081e+00 5.7670321207082220e-01 -1.0421816491869791e+00 -3.2701904523320984e+00 3.5838749333249686e-01 2.7350221183378602e+00 -4.0120901323819522e+00 -2.0338399504111599e+00 
        </Neuron>
        <Neuron NSynapses="10">
          -2.1218634064109714e+00 4.2104121004367849e+00 -8.3916646628560754e-01 -1.6064959226211248e-01 -1.7221109463583955e+00 -2.5278784999275503e+00 -1.9249349422331277e+00 -6.0280569808452178e+00 1.2764498249727931e+00 1.1207178131536883e+00 
        </Neuron>
        <Neuron NSynapses="10">
          -1.6202181582253909e+00 6.9447552505814025e+00 -2.3638058759918348e+00 2.3986301012876959e-01 -1.7239283667364400e+00 -4.2223602040112551e-01 2.4742444659182655e-01 -2.4374238744965639e+00 2.4446221750556503e+00 -5.7786785060383994e-01 
        </Neuron>
        <Neuron NSynapses="10">
          -1.3325027103057419e+00 4.3532978482363314e+00 -1.6254689071983888e+00 -2.9368095993422266e-01 8.4104851639512201e-01 2.9356760951649075e-01 -1.2322012000107798e+00 -3.5900732940054803e+00 2.1112109333898759e+00 4.5761606455246895e+00 
        </Neuron>
        <Neuron NSynapses="10">
          1.8536288177879638e+00 6.6144364832188784e-01 -4.2794873889304735e-01 1.5999045337136324e+00 -3.9115955357463378e-01 -1.2584091146681313e+00 3.7296565960991179e-01 4.4793109097961192e+00 -7.9830932113494537e+00 -1.1281015881688363e+00 
        </Neuron>
        <Neuron NSynapses="10">
          3.4278995634064744e+00 7.6400054300424258e-01 -1.3613868286054180e+00 2.0751196097436025e-01 2.4537813959304584e+00 -5.1273723885122313e-01 1.8724185105522453e+00 2.9161450027965913e-01 -2.4638216179637822e+00 -2.2798137781819179e+00 
        </Neuron>
        <Neuron NSynapses="10">
          -2.1273509362121215e+00 4.3367539827471779e-01 1.9033849536572702e+00 9.8048362174043346e-01 4.8203217804244614e-01 1.5011086652451360e+00 1.1599708630876727e-01 9.2252260419080312e-01 -1.0818125639219454e+00 2.6022409573488776e+00 
        </Neuron>
        <Neuron NSynapses="10">
          2.7635157521059401e+00 1.9046900179945756e+00 -1.2655235517435561e+00 -1.3248355974242358e+00 4.3825018890620493e+00 -2.9134663580705206e-01 9.1565293999626096e-01 4.2251862400035423e+00 2.7965296199296552e-01 -1.0889879260899644e+00 
        </Neuron>
        <Neuron NSynapses="10">
          2.3243221325218584e+00 -2.4889365734548936e+00 2.0629919153263918e+00 9.4873634108978011e-01 1.0388545799883145e-01 -9.4896046648482146e-01 -3.3739435162967437e+00 3.7896713070970778e+00 -2.9309853064001987e+00 -1.1552841081568832e+00 
        </Neuron>
        <Neuron NSynapses="10">
          -6.6427781702806588e-01 4.4432931773901502e-01 -1.1372805412148945e+00 -4.3133376230665627e-01 3.2148953330327390e+00 3.9735670515115235e-01 -1.4504283208782058e+00 -4.1535107987454269e+00 1.1660842159498921e+00 -3.0275294760497347e+00 
        </Neuron>
        <Neuron NSynapses="10">
          1.2567271294649862e+00 -3.3981541049404225e+00 2.6876176808231431e+00 -4.3295694267489532e-01 6.3570310966739241e-01 5.0185566936021857e+00 -7.2224876365412694e-01 6.9253166772388415e+00 -2.6130349639235162e-01 -2.8049197050028063e+00 
        </Neuron>
        <Neuron NSynapses="10">
          1.4332327351083756e+00 1.8160729196634184e+00 1.8110728654341424e+00 -1.3549501980073939e+00 -2.8018246357061276e+00 -9.9428892161028648e-01 7.4271114812356787e-01 -4.8652575208054545e+00 1.0831055910910348e+00 1.1347465740420195e+00 
        </Neuron>
        <Neuron NSynapses="10">
          1.9002888728103453e+00 -1.7101560232550426e+00 2.5702445707283052e-02 -2.2821515269051898e-01 -2.5247398187958980e+00 -1.1504253762980734e+00 -1.8573346758400819e+00 6.3364288867048602e-01 1.9192318190725671e-01 -3.1471441752006886e+00 
        </Neuron>
        <Neuron NSynapses="10">
          5.1537282634847115e-01 2.7086637056934304e+00 1.2402940673927484e-01 -2.4252903366612326e+00 -1.1744544173385214e+00 1.5545771877462036e+00 2.4234132289579147e-01 -1.0887515403730108e+00 3.0190651543678606e+00 1.2149216166217016e+00 
        </Neuron>
        <Neuron NSynapses="10">
          -1.2390422215981907e-01 2.0636030659752507e+00 1.2245336252695473e+00 -9.9466863557718188e-01 -3.4070777061756989e+00 -6.3946042009245929e-01 1.2435322079646782e+00 1.1072280681002900e+00 -4.1126820607654913e-01 -1.6055265803447376e+00 
        </Neuron>
        <Neuron NSynapses="10">
          -2.1393621214741416e+00 8.6941583363130137e-01 -4.0112333161114133e+00 1.4643534652602738e-01 -3.6842026038425515e+00 -8.7328948196876288e-01 -1.9088481885607311e+00 8.1892828237226201e-01 -8.3394341723374710e-01 2.1521942019772280e+00 
        </Neuron>
        <Neuron NSynapses="10">
          -1.3465963236633030e+00 -6.7518082414299685e-01 -2.2031326891295069e+00 1.4534699762971928e+00 4.0534045477302536e+00 1.7836342138501369e+00 -1.0711964683225979e+00 8.2120688823745036e-01 2.0391856776495292e+00 1.6958009093999280e+00 
        </Neuron>
        <Neuron NSynapses="10">
          -2.3570382018797247e+00 2.6116471929644667e+00 -4.2423359749683325e+00 9.6371880882418681e-01 9.2769486203385487e-02 -2.2258922565076613e+00 2.5703053794777033e+00 -2.5858887208049732e+00 2.3375233570947196e+00 1.0009033146257424e+00 
        </Neuron>
        <Neuron NSynapses="10">
          -3.4207529188506691e-01 1.1099115048738384e+00 1.5979671231527663e+00 1.9754505694935311e+00 -1.6284424492048442e+00 5.4050110483851299e-01 1.0953941768137438e+00 -1.6507443278469889e+00 -1.7195145182028428e+00 8.1387355107245973e-01 
        </Neuron>
        <Neuron NSynapses="10">
          -1.6688260800502144e+00 2.2209095109346912e+00 -3.7552142173935166e+00 4.4661609231757765e-01 -2.3294839911478644e+00 -1.5854375060658852e+00 -2.3465309253593283e+00 -7.7240344078366618e-01 3.9295015165045641e+00 5.0028510876132497e+00 
        </Neuron>
        <Neuron NSynapses="10">
          2.1916382864319837e+00 8.1634728736989426e-01 2.2009323845359732e+00 -4.2839069834450533e-01 5.7260675525029772e+00 -1.2886059688785707e+00 -1.7789957234728242e+00 -1.2890507236604429e+00 -2.2457104299554945e-02 -1.3179511880868535e+00 
        </Neuron>
        <Neuron NSynapses="10">
          1.9354956010186943e+00 6.6880453842801550e+00 -3.4437248153596314e+00 2.2011304712004248e-01 6.9559025575763345e+00 5.8659442256058736e-01 2.2349925057893509e+00 3.3779196691501014e+00 -5.6200802877448064e-01 -3.1946211888187235e+00 
        </Neuron>
        <Neuron NSynapses="10">
          1.8225227519757359e-01 -1.0217909393497839e+00 2.5316577062043728e+00 1.6850411652543953e+00 -1.0122556153858679e+00 1.5147267942445175e+00 -1.2219916983949841e+00 1.7363935112724731e+00 -9.5334847720502791e-01 8.8157562555970692e-01 
        </Neuron>
        <Neuron NSynapses="10">
          -5.1320461530710837e+00 2.0953456268279709e+00 2.5178593838385837e+00 1.4702655158495330e+00 -1.1622854323210312e+00 5.2358202279032240e-01 -5.0439140928903936e-01 4.9937359900768614e+00 2.7955760303138057e+00 -2.0013685845845655e+00 
        </Neuron>
        <Neuron NSynapses="10">
          4.1492425647361131e-01 5.3420312473090181e-01 2.6086844415964991e+00 2.3949383552068571e+00 -2.6427228161834315e+00 2.3076563933767731e+00 9.7958048072821213e-02 -5.0657139848918602e+00 2.3419441621526951e+00 2.9923922468175324e+00 
        </Neuron>
        <Neuron NSynapses="10">
          3.5356963016875649e+00 7.1250773861446529e-02 -2.6548005249458662e+00 1.9630936553536300e+00 1.6035492120151765e-01 -2.5685016930523275e+00 -4.1650257970037552e-01 -2.6828104368716139e+00 3.7273117423368749e+00 2.9495610401202534e+00 
        </Neuron>
        <Neuron NSynapses="10">
          -2.5736444125843074e+00 -8.4971135730881198e-01 1.7723212954756431e+00 -3.8009477850829337e-01 7.1612026761713998e-01 1.7974907450098254e+00 -2.1571391968452214e+00 -3.5826898841884630e-01 6.3895291941698629e-01 2.4548313655904089e-01 
        </Neuron>
        <Neuron NSynapses="10">
          -1.4224605004408444e+00 1.4740126413963599e+00 2.3278695468509030e+00 1.2251578210449254e+00 -3.7595395604132814e-01 1.2738303239135438e+00 5.3438707501311267e-01 2.8916330772379245e-01 1.5846461937006706e-01 2.4528286415098144e+00 
        </Neuron>
      </Layer>
      <Layer Index="2" NNeurons="11">
        <Neuron NSynapses="10">
          9.9090828689814925e-01 3.4831761160908037e-01 -3.1080786862226368e+00 -4.6542529799504964e+00 -1.5228848369103281e+00 4.6174446222753307e+00 8.7203597839830449e-01 -2.8681637516409912e+00 -3.7881368744492780e+00 3.2071979109669391e+00 
        </Neuron>
        <Neuron NSynapses="10">
          -2.6096759395228046e+00 2.9517137780617382e-02 1.0998176414707621e+00 2.2538686920722721e+00 7.2756650036915649e-01 -8.9453378252415638e-01 -6.2781287901090899e+00 2.5833186716735894e+00 7.7064312729293871e-02 4.1049042899607119e-01 
        </Neuron>
        <Neuron NSynapses="10">
          4.5146471963257673e+00 8.3408479588735829e-01 3.3550031962368926e-01 2.4945390434230954e+00 2.2892455838640831e+00 4.4206634744700213e-01 2.2002475223002009e+00 -1.6826945734339407e+00 -1.0714247303024615e+00 -2.4360502571203368e+00 
        </Neuron>
        <Neuron NSynapses="10">
          -2.2406269004820691e+00 -8.7605062123980804e-01 -2.3450561292055734e+00 -1.7643854646452188e+00 3.3387413500938462e-01 -1.4823206127372888e+00 -1.0251249692183577e+00 4.8094424050869178e-01 -6.3009009239918090e-01 -2.8365776003188139e+00 
        </Neuron>
        <Neuron NSynapses="10">
          2.3283964661555210e+00 7.5880695723517366e+00 5.2829500854557505e+00 -2.8607953627139335e+00 -1.1943620187197070e+00 2.4065428885787044e+00 3.5054274356962281e+00 -2.9143203838792777e+00 -8.7163620182224797e+00 1.7442397191598686e+00 
        </Neuron>
        <Neuron NSynapses="10">
          1.7193708083365040e+00 -1.7237044253955105e+00 -2.7281133844061345e+00 8.8015412777575386e-01 -6.7796881662142860e-01 -1.0840506846642886e+00 -2.5330908144699542e+00 -6.2846881933791972e+00 1.8297585221147523e+00 -1.8063605912776173e+00 
        </Neuron>
        <Neuron NSynapses="10">
          4.1079452003437827e-01 1.1692008206229794e+00 2.7657544503088514e+00 -2.5531599834690235e+00 -1.6555646954631547e+00 1.5876419587210522e+00 1.9813976040530481e+00 1.1085452596887750e+00 1.9642548144860270e+00 8.8642428849870258e-01 
        </Neuron>
        <Neuron NSynapses="10">
          5.1473882677997773e+00 4.7911936380118070e-01 8.1146466636315095e-01 -7.4946541037807677e+00 7.9996099024760952e+00 7.4092646995210162e-02 4.7152159557854265e+00 -1.3380952103986226e+00 -2.3692864095389430e+00 1.6049088821883481e-01 
        </Neuron>
        <Neuron NSynapses="10">
          -8.6272348804510184e+00 9.7636947086695391e-01 -7.2039392960509394e+00 2.3336516985443647e+00 -5.5325028106139493e+00 9.1086652706731808e-01 6.7693996103027831e-01 5.1527640881943482e+00 -6.3289802974253739e-01 -3.2692074479588005e+00 
        </Neuron>
        <Neuron NSynapses="10">
          1.6394540783667926e+00 -8.8831957594408606e-01 -2.8987172225161966e+00 8.8113214828223345e+00 1.6920146935790232e+00 -2.9930868194789566e+00 -1.5884296856652809e+00 -1.4117245025556586e+00 3.4949637184891111e+00 -6.9996592698031801e+00 
        </Neuron>
        <Neuron NSynapses="10">
          -1.5813888746318250e-01 -1.2487615038385144e-01 -4.7756509688202442e-01 -3.4222922016326924e+00 9.5263926415490474e-01 -3.8895700263640409e-01 -1.4607101898750852e+00 8.9016504772758509e-01 -1.7652898027265465e+00 -3.6785274173419752e-03 
        </Neuron>
      </Layer>
      <Layer Index="3" NNeurons="11">
        <Neuron NSynapses="5">
          -1.4040377446975791e+00 -2.2241437096764480e+00 2.9475211513677548e+00 1.1227643123843236e+00 -2.5229359353476388e+00 
        </Neuron>
        <Neuron NSynapses="5">
          -3.0092841675429951e+00 1.5102122631793460e+00 -3.1211503915673211e-01 -3.0866077782629735e+00 -8.4963841796791884e-01 
        </Neuron>
        <Neuron NSynapses="5">
          -3.5054501669826785e+00 -3.9380983517820329e+00 1.1777465318837876e+00 -2.0809494469472436e+00 -3.1721130989229982e+00 
        </Neuron>
        <Neuron NSynapses="5">
          9.0233561379115901e-01 3.5800406528396458e+00 -7.2811753181923278e+00 -4.4038425575686468e-01 3.5889417398817383e+00 
        </Neuron>
        <Neuron NSynapses="5">
          -3.1629996346137887e+00 -1.6413470252821003e+00 -1.0559980918081360e+00 -3.5949504595861943e+00 -3.3806910385849496e+00 
        </Neuron>
        <Neuron NSynapses="5">
          -9.9699952867395536e-01 -2.2539005652105066e+00 1.6726914920487048e+00 -1.9379132057580162e+00 -1.3545047158778094e+00 
        </Neuron>
        <Neuron NSynapses="5">
          -1.6123667037545277e+00 -5.0824472776164873e+00 8.4284402991377155e-02 8.8913588216225936e-01 -1.6114133521048832e+00 
        </Neuron>
        <Neuron NSynapses="5">
          2.0845238088512512e+00 3.7608633679506456e+00 -1.8818562103074461e+00 -1.3718944760906158e+00 2.8515536321431085e+00 
        </Neuron>
        <Neuron NSynapses="5">
          2.6001602947659358e-01 1.5876405923682160e+00 -1.2020249510359160e+00 3.5259991456881261e+00 2.1176413895859527e+00 
        </Neuron>
        <Neuron NSynapses="5">
          -2.8593234153541430e-01 -2.6001594857047556e+00 5.3520158563192801e+00 3.3774991926082942e-01 4.7859419406635506e-01 
        </Neuron>
        <Neuron NSynapses="5">
          -1.3976841248045873e+00 2.9630792509452851e-02 -3.2755922887515352e+00 -3.4066428677845589e-01 6.9751924743799554e-01 
        </Neuron>
      </Layer>
      <Layer Index="4" NNeurons="6">
        <Neuron NSynapses="1">
          -4.0415417924708406e+00 
        </Neuron>
        <Neuron NSynapses="1">
          -2.4123064779259167e+00 
        </Neuron>
        <Neuron NSynapses="1">
          5.6593769192080954e+00 
        </Neuron>
        <Neuron NSynapses="1">
          -3.8659834948434972e+00 
        </Neuron>
        <Neuron NSynapses="1">
          -2.2212113844333805e+00 
        </Neuron>
        <Neuron NSynapses="1">
          3.2205671375200651e-01 
        </Neuron>
      </Layer>
      <Layer Index="5" NNeurons="1">
        <Neuron NSynapses="0"/>
      </Layer>
    </Layout>
  </Weights>
</MethodSetup>
