<?xml version="1.0"?>
<MethodSetup Method="MLP::MLP_fold5">
  <GeneralInfo>
    <Info name="TMVA Release" value="4.2.1 [262657]"/>
    <Info name="ROOT Release" value="6.20/06 [398342]"/>
    <Info name="Creator" value="tfarooque"/>
    <Info name="Date" value="Sat Jul  8 10:19:36 2023"/>
    <Info name="Host" value="Linux aibuild16-017.cern.ch 3.10.0-1160.36.2.el7.x86_64 #1 SMP Wed Jul 21 11:57:15 UTC 2021 x86_64 x86_64 x86_64 GNU/Linux"/>
    <Info name="Dir" value="/data/at3/scratch2/farooque/DevPVLQ/VLQAnalysisFramework/run"/>
    <Info name="Training events" value="889881"/>
    <Info name="TrainingTime" value="2.90015355e+04"/>
    <Info name="AnalysisType" value="Classification"/>
  </GeneralInfo>
  <Options>
    <Option name="NCycles" modified="Yes">800</Option>
    <Option name="HiddenLayers" modified="Yes">30,10,10,5</Option>
    <Option name="NeuronType" modified="Yes">sigmoid</Option>
    <Option name="RandomSeed" modified="No">1</Option>
    <Option name="EstimatorType" modified="No">CE</Option>
    <Option name="NeuronInputType" modified="No">sum</Option>
    <Option name="V" modified="Yes">False</Option>
    <Option name="VerbosityLevel" modified="No">Default</Option>
    <Option name="VarTransform" modified="Yes">N</Option>
    <Option name="H" modified="No">False</Option>
    <Option name="CreateMVAPdfs" modified="No">False</Option>
    <Option name="IgnoreNegWeightsInTraining" modified="No">False</Option>
    <Option name="TrainingMethod" modified="No">BP</Option>
    <Option name="LearningRate" modified="Yes">1.000000e-02</Option>
    <Option name="DecayRate" modified="Yes">0.000000e+00</Option>
    <Option name="TestRate" modified="Yes">5</Option>
    <Option name="EpochMonitoring" modified="Yes">False</Option>
    <Option name="Sampling" modified="No">1.000000e+00</Option>
    <Option name="SamplingEpoch" modified="No">1.000000e+00</Option>
    <Option name="SamplingImportance" modified="No">1.000000e+00</Option>
    <Option name="SamplingTraining" modified="No">True</Option>
    <Option name="SamplingTesting" modified="No">False</Option>
    <Option name="ResetStep" modified="No">50</Option>
    <Option name="Tau" modified="No">3.000000e+00</Option>
    <Option name="BPMode" modified="No">sequential</Option>
    <Option name="BatchSize" modified="No">-1</Option>
    <Option name="ConvergenceImprove" modified="No">1.000000e-30</Option>
    <Option name="ConvergenceTests" modified="No">-1</Option>
    <Option name="UseRegulator" modified="No">False</Option>
    <Option name="UpdateLimit" modified="No">10000</Option>
    <Option name="CalculateErrors" modified="No">False</Option>
    <Option name="WeightRange" modified="No">1.000000e+00</Option>
  </Options>
  <Variables NVar="21">
    <Variable VarIndex="0" Expression="meff" Label="meff" Title="meff" Unit="" Internal="meff" Type="D" Min="1.00000494e+03" Max="8.86203418e+03"/>
    <Variable VarIndex="1" Expression="RCjet2_pt" Label="RCjet2_pt" Title="RCjet2_pt" Unit="" Internal="RCjet2_pt" Type="D" Min="0.00000000e+00" Max="1.62899829e+03"/>
    <Variable VarIndex="2" Expression="dRmin_RCjets" Label="dRmin_RCjets" Title="dRmin_RCjets" Unit="" Internal="dRmin_RCjets" Type="D" Min="2.50981618e-02" Max="5.06098366e+00"/>
    <Variable VarIndex="3" Expression="dPhiavg_RCjets" Label="dPhiavg_RCjets" Title="dPhiavg_RCjets" Unit="" Internal="dPhiavg_RCjets" Type="D" Min="1.79171562e-04" Max="3.14159131e+00"/>
    <Variable VarIndex="4" Expression="dRmin_RCMTT" Label="dRmin_RCMTT" Title="dRmin_RCMTT" Unit="" Internal="dRmin_RCMTT" Type="D" Min="5.58902733e-02" Max="5.06098366e+00"/>
    <Variable VarIndex="5" Expression="mtbmin" Label="mtbmin" Title="mtbmin" Unit="" Internal="mtbmin" Type="D" Min="4.88891819e-05" Max="1.86247595e+03"/>
    <Variable VarIndex="6" Expression="RCMTT_jets_n" Label="RCMTT_jets_n" Title="RCMTT_jets_n" Unit="" Internal="RCMTT_jets_n" Type="D" Min="2.00000000e+00" Max="6.00000000e+00"/>
    <Variable VarIndex="7" Expression="met" Label="met" Title="met" Unit="" Internal="met" Type="D" Min="2.00000107e+02" Max="4.06845288e+03"/>
    <Variable VarIndex="8" Expression="RCMTop0_pt" Label="RCMTop0_pt" Title="RCMTop0_pt" Unit="" Internal="RCMTop0_pt" Type="D" Min="0.00000000e+00" Max="3.64521851e+03"/>
    <Variable VarIndex="9" Expression="bjets_n" Label="bjets_n" Title="bjets_n" Unit="" Internal="bjets_n" Type="D" Min="2.00000000e+00" Max="9.00000000e+00"/>
    <Variable VarIndex="10" Expression="mvlq0_RCTTM_drmax" Label="mvlq0_RCTTM_drmax" Title="mvlq0_RCTTM_drmax" Unit="" Internal="mvlq0_RCTTM_drmax" Type="D" Min="3.78424713e+02" Max="7.19409668e+03"/>
    <Variable VarIndex="11" Expression="mvlq1_rcj_drmax" Label="mvlq1_rcj_drmax" Title="mvlq1_rcj_drmax" Unit="" Internal="mvlq1_rcj_drmax" Type="D" Min="0.00000000e+00" Max="5.65620898e+03"/>
    <Variable VarIndex="12" Expression="leadingdR_RCjets" Label="leadingdR_RCjets" Title="leadingdR_RCjets" Unit="" Internal="leadingdR_RCjets" Type="D" Min="9.84904543e-02" Max="5.06098366e+00"/>
    <Variable VarIndex="13" Expression="dEtamin_RCjets" Label="dEtamin_RCjets" Title="dEtamin_RCjets" Unit="" Internal="dEtamin_RCjets" Type="D" Min="1.43051147e-06" Max="3.97469997e+00"/>
    <Variable VarIndex="14" Expression="RCMV0_nconsts" Label="RCMV0_nconsts" Title="RCMV0_nconsts" Unit="" Internal="RCMV0_nconsts" Type="D" Min="0.00000000e+00" Max="2.00000000e+00"/>
    <Variable VarIndex="15" Expression="leadingdPhi_RCjets" Label="leadingdPhi_RCjets" Title="leadingdPhi_RCjets" Unit="" Internal="leadingdPhi_RCjets" Type="D" Min="1.79171562e-04" Max="3.14159131e+00"/>
    <Variable VarIndex="16" Expression="RCMHiggs0_pt" Label="RCMHiggs0_pt" Title="RCMHiggs0_pt" Unit="" Internal="RCMHiggs0_pt" Type="D" Min="0.00000000e+00" Max="3.57535034e+03"/>
    <Variable VarIndex="17" Expression="dEtamin_RCMTT" Label="dEtamin_RCMTT" Title="dEtamin_RCMTT" Unit="" Internal="dEtamin_RCMTT" Type="D" Min="1.43051147e-06" Max="3.97673726e+00"/>
    <Variable VarIndex="18" Expression="dPhiavg_RCMTTMET" Label="dPhiavg_RCMTTMET" Title="dPhiavg_RCMTTMET" Unit="" Internal="dPhiavg_RCMTTMET" Type="D" Min="1.43569708e-03" Max="3.13892746e+00"/>
    <Variable VarIndex="19" Expression="RCMHiggs0_nbconsts" Label="RCMHiggs0_nbconsts" Title="RCMHiggs0_nbconsts" Unit="" Internal="RCMHiggs0_nbconsts" Type="D" Min="0.00000000e+00" Max="5.00000000e+00"/>
    <Variable VarIndex="20" Expression="dEtaavg_RCjets" Label="dEtaavg_RCjets" Title="dEtaavg_RCjets" Unit="" Internal="dEtaavg_RCjets" Type="D" Min="1.43051147e-06" Max="3.97469997e+00"/>
  </Variables>
  <Spectators NSpec="7">
    <Spectator SpecIndex="0" Expression="VLQtype" Label="VLQtype" Title="VLQtype" Unit="" Internal="VLQtype" Type="F" Min="-1.00000000e+00" Max="6.00000000e+00"/>
    <Spectator SpecIndex="1" Expression="channel" Label="channel" Title="channel" Unit="" Internal="channel" Type="F" Min="0.00000000e+00" Max="6.00000000e+00"/>
    <Spectator SpecIndex="2" Expression="event_number" Label="event_number" Title="event_number" Unit="" Internal="event_number" Type="F" Min="1.00000000e+01" Max="2.84778752e+08"/>
    <Spectator SpecIndex="3" Expression="mc_campaign" Label="mc_campaign" Title="mc_campaign" Unit="" Internal="mc_campaign" Type="F" Min="1.00000000e+00" Max="3.00000000e+00"/>
    <Spectator SpecIndex="4" Expression="run_number" Label="run_number" Title="run_number" Unit="" Internal="run_number" Type="F" Min="2.76262000e+05" Max="3.64292000e+05"/>
    <Spectator SpecIndex="5" Expression="sampleID" Label="sampleID" Title="sampleID" Unit="" Internal="sampleID" Type="F" Min="3.02480000e+05" Max="7.00496000e+05"/>
    <Spectator SpecIndex="6" Expression="sampleName" Label="sampleName" Title="sampleName" Unit="" Internal="sampleName" Type="F" Min="3.00000000e+00" Max="1.70000000e+01"/>
  </Spectators>
  <Classes NClass="2">
    <Class Name="Signal" Index="0"/>
    <Class Name="Background" Index="1"/>
  </Classes>
  <Transformations NTransformations="1">
    <Transform Name="Normalize">
      <Selection>
        <Input NInputs="21">
          <Input Type="Variable" Label="meff" Expression="meff"/>
          <Input Type="Variable" Label="RCjet2_pt" Expression="RCjet2_pt"/>
          <Input Type="Variable" Label="dRmin_RCjets" Expression="dRmin_RCjets"/>
          <Input Type="Variable" Label="dPhiavg_RCjets" Expression="dPhiavg_RCjets"/>
          <Input Type="Variable" Label="dRmin_RCMTT" Expression="dRmin_RCMTT"/>
          <Input Type="Variable" Label="mtbmin" Expression="mtbmin"/>
          <Input Type="Variable" Label="RCMTT_jets_n" Expression="RCMTT_jets_n"/>
          <Input Type="Variable" Label="met" Expression="met"/>
          <Input Type="Variable" Label="RCMTop0_pt" Expression="RCMTop0_pt"/>
          <Input Type="Variable" Label="bjets_n" Expression="bjets_n"/>
          <Input Type="Variable" Label="mvlq0_RCTTM_drmax" Expression="mvlq0_RCTTM_drmax"/>
          <Input Type="Variable" Label="mvlq1_rcj_drmax" Expression="mvlq1_rcj_drmax"/>
          <Input Type="Variable" Label="leadingdR_RCjets" Expression="leadingdR_RCjets"/>
          <Input Type="Variable" Label="dEtamin_RCjets" Expression="dEtamin_RCjets"/>
          <Input Type="Variable" Label="RCMV0_nconsts" Expression="RCMV0_nconsts"/>
          <Input Type="Variable" Label="leadingdPhi_RCjets" Expression="leadingdPhi_RCjets"/>
          <Input Type="Variable" Label="RCMHiggs0_pt" Expression="RCMHiggs0_pt"/>
          <Input Type="Variable" Label="dEtamin_RCMTT" Expression="dEtamin_RCMTT"/>
          <Input Type="Variable" Label="dPhiavg_RCMTTMET" Expression="dPhiavg_RCMTTMET"/>
          <Input Type="Variable" Label="RCMHiggs0_nbconsts" Expression="RCMHiggs0_nbconsts"/>
          <Input Type="Variable" Label="dEtaavg_RCjets" Expression="dEtaavg_RCjets"/>
        </Input>
        <Output NOutputs="21">
          <Output Type="Variable" Label="meff" Expression="meff"/>
          <Output Type="Variable" Label="RCjet2_pt" Expression="RCjet2_pt"/>
          <Output Type="Variable" Label="dRmin_RCjets" Expression="dRmin_RCjets"/>
          <Output Type="Variable" Label="dPhiavg_RCjets" Expression="dPhiavg_RCjets"/>
          <Output Type="Variable" Label="dRmin_RCMTT" Expression="dRmin_RCMTT"/>
          <Output Type="Variable" Label="mtbmin" Expression="mtbmin"/>
          <Output Type="Variable" Label="RCMTT_jets_n" Expression="RCMTT_jets_n"/>
          <Output Type="Variable" Label="met" Expression="met"/>
          <Output Type="Variable" Label="RCMTop0_pt" Expression="RCMTop0_pt"/>
          <Output Type="Variable" Label="bjets_n" Expression="bjets_n"/>
          <Output Type="Variable" Label="mvlq0_RCTTM_drmax" Expression="mvlq0_RCTTM_drmax"/>
          <Output Type="Variable" Label="mvlq1_rcj_drmax" Expression="mvlq1_rcj_drmax"/>
          <Output Type="Variable" Label="leadingdR_RCjets" Expression="leadingdR_RCjets"/>
          <Output Type="Variable" Label="dEtamin_RCjets" Expression="dEtamin_RCjets"/>
          <Output Type="Variable" Label="RCMV0_nconsts" Expression="RCMV0_nconsts"/>
          <Output Type="Variable" Label="leadingdPhi_RCjets" Expression="leadingdPhi_RCjets"/>
          <Output Type="Variable" Label="RCMHiggs0_pt" Expression="RCMHiggs0_pt"/>
          <Output Type="Variable" Label="dEtamin_RCMTT" Expression="dEtamin_RCMTT"/>
          <Output Type="Variable" Label="dPhiavg_RCMTTMET" Expression="dPhiavg_RCMTTMET"/>
          <Output Type="Variable" Label="RCMHiggs0_nbconsts" Expression="RCMHiggs0_nbconsts"/>
          <Output Type="Variable" Label="dEtaavg_RCjets" Expression="dEtaavg_RCjets"/>
        </Output>
      </Selection>
      <Class ClassIndex="0">
        <Ranges>
          <Range Index="0" Min="1.0241549072265625e+03" Max="7.7109448242187500e+03"/>
          <Range Index="1" Min="0.0000000000000000e+00" Max="1.5845148925781250e+03"/>
          <Range Index="2" Min="5.5890273302793503e-02" Max="4.5015749931335449e+00"/>
          <Range Index="3" Min="1.6407012939453125e-02" Max="3.1415436267852783e+00"/>
          <Range Index="4" Min="5.5890273302793503e-02" Max="4.6890749931335449e+00"/>
          <Range Index="5" Min="1.8194746226072311e-03" Max="1.4103383789062500e+03"/>
          <Range Index="6" Min="2.0000000000000000e+00" Max="6.0000000000000000e+00"/>
          <Range Index="7" Min="2.0000390625000000e+02" Max="3.0140288085937500e+03"/>
          <Range Index="8" Min="0.0000000000000000e+00" Max="2.9307009277343750e+03"/>
          <Range Index="9" Min="2.0000000000000000e+00" Max="9.0000000000000000e+00"/>
          <Range Index="10" Min="4.1113641357421875e+02" Max="5.5463637695312500e+03"/>
          <Range Index="11" Min="0.0000000000000000e+00" Max="4.6034614257812500e+03"/>
          <Range Index="12" Min="2.5897905230522156e-01" Max="4.5615415573120117e+00"/>
          <Range Index="13" Min="1.4066696166992188e-05" Max="3.8593454360961914e+00"/>
          <Range Index="14" Min="0.0000000000000000e+00" Max="2.0000000000000000e+00"/>
          <Range Index="15" Min="3.8623809814453125e-04" Max="3.1415436267852783e+00"/>
          <Range Index="16" Min="0.0000000000000000e+00" Max="2.8632795410156250e+03"/>
          <Range Index="17" Min="2.4199485778808594e-05" Max="3.8990325927734375e+00"/>
          <Range Index="18" Min="9.3501582741737366e-02" Max="3.1327841281890869e+00"/>
          <Range Index="19" Min="0.0000000000000000e+00" Max="5.0000000000000000e+00"/>
          <Range Index="20" Min="3.5438500344753265e-04" Max="3.8593454360961914e+00"/>
        </Ranges>
      </Class>
      <Class ClassIndex="1">
        <Ranges>
          <Range Index="0" Min="1.0000049438476562e+03" Max="8.5769736328125000e+03"/>
          <Range Index="1" Min="0.0000000000000000e+00" Max="1.4742102050781250e+03"/>
          <Range Index="2" Min="2.5098161771893501e-02" Max="5.0277214050292969e+00"/>
          <Range Index="3" Min="1.7917156219482422e-04" Max="3.1415913105010986e+00"/>
          <Range Index="4" Min="7.2055600583553314e-02" Max="5.0277214050292969e+00"/>
          <Range Index="5" Min="4.8889181925915182e-05" Max="1.8624759521484375e+03"/>
          <Range Index="6" Min="2.0000000000000000e+00" Max="6.0000000000000000e+00"/>
          <Range Index="7" Min="2.0000010681152344e+02" Max="3.9513378906250000e+03"/>
          <Range Index="8" Min="0.0000000000000000e+00" Max="3.6452185058593750e+03"/>
          <Range Index="9" Min="2.0000000000000000e+00" Max="8.0000000000000000e+00"/>
          <Range Index="10" Min="3.7842471313476562e+02" Max="7.1940966796875000e+03"/>
          <Range Index="11" Min="0.0000000000000000e+00" Max="5.6562089843750000e+03"/>
          <Range Index="12" Min="9.8490454256534576e-02" Max="5.0277214050292969e+00"/>
          <Range Index="13" Min="3.7550926208496094e-06" Max="3.9639787673950195e+00"/>
          <Range Index="14" Min="0.0000000000000000e+00" Max="2.0000000000000000e+00"/>
          <Range Index="15" Min="1.7917156219482422e-04" Max="3.1415913105010986e+00"/>
          <Range Index="16" Min="0.0000000000000000e+00" Max="3.5753503417968750e+03"/>
          <Range Index="17" Min="3.7550926208496094e-06" Max="3.9767372608184814e+00"/>
          <Range Index="18" Min="1.3157486915588379e-02" Max="3.1381878852844238e+00"/>
          <Range Index="19" Min="0.0000000000000000e+00" Max="4.0000000000000000e+00"/>
          <Range Index="20" Min="1.0132789611816406e-05" Max="3.9639787673950195e+00"/>
        </Ranges>
      </Class>
      <Class ClassIndex="2">
        <Ranges>
          <Range Index="0" Min="1.0000049438476562e+03" Max="8.5769736328125000e+03"/>
          <Range Index="1" Min="0.0000000000000000e+00" Max="1.5845148925781250e+03"/>
          <Range Index="2" Min="2.5098161771893501e-02" Max="5.0277214050292969e+00"/>
          <Range Index="3" Min="1.7917156219482422e-04" Max="3.1415913105010986e+00"/>
          <Range Index="4" Min="5.5890273302793503e-02" Max="5.0277214050292969e+00"/>
          <Range Index="5" Min="4.8889181925915182e-05" Max="1.8624759521484375e+03"/>
          <Range Index="6" Min="2.0000000000000000e+00" Max="6.0000000000000000e+00"/>
          <Range Index="7" Min="2.0000010681152344e+02" Max="3.9513378906250000e+03"/>
          <Range Index="8" Min="0.0000000000000000e+00" Max="3.6452185058593750e+03"/>
          <Range Index="9" Min="2.0000000000000000e+00" Max="9.0000000000000000e+00"/>
          <Range Index="10" Min="3.7842471313476562e+02" Max="7.1940966796875000e+03"/>
          <Range Index="11" Min="0.0000000000000000e+00" Max="5.6562089843750000e+03"/>
          <Range Index="12" Min="9.8490454256534576e-02" Max="5.0277214050292969e+00"/>
          <Range Index="13" Min="3.7550926208496094e-06" Max="3.9639787673950195e+00"/>
          <Range Index="14" Min="0.0000000000000000e+00" Max="2.0000000000000000e+00"/>
          <Range Index="15" Min="1.7917156219482422e-04" Max="3.1415913105010986e+00"/>
          <Range Index="16" Min="0.0000000000000000e+00" Max="3.5753503417968750e+03"/>
          <Range Index="17" Min="3.7550926208496094e-06" Max="3.9767372608184814e+00"/>
          <Range Index="18" Min="1.3157486915588379e-02" Max="3.1381878852844238e+00"/>
          <Range Index="19" Min="0.0000000000000000e+00" Max="5.0000000000000000e+00"/>
          <Range Index="20" Min="1.0132789611816406e-05" Max="3.9639787673950195e+00"/>
        </Ranges>
      </Class>
    </Transform>
  </Transformations>
  <MVAPdfs/>
  <Weights>
    <Layout NLayers="6">
      <Layer Index="0" NNeurons="22">
        <Neuron NSynapses="30">
          8.0512001889956561e+00 5.3773870504904620e-01 1.2474698384797243e+01 2.0474022655458546e+00 -2.0489077837185341e+01 -1.7964550793585023e+01 -1.4554635572068687e+01 4.8221885686887509e+00 5.0962206384697606e-01 -1.3055898638683916e+00 -4.7688017166155178e-01 4.7695936068381801e+00 -8.8805414945082202e+00 -1.3005710651683808e+00 -3.0981944162100845e+00 3.7323663162725162e-01 -5.9517575168514121e+00 2.3018363211017294e+00 4.8929102182795337e+00 2.4917398892484930e+00 -7.8437977402997054e+00 -4.7427952219471053e-01 -9.0991696231119490e-01 4.8299497095691173e+00 -4.6118629594544052e+00 -2.9197934751064225e-01 1.7559808751154240e+00 -4.8272219834777781e+00 -1.7922526201222045e+01 6.1071113447665237e-01 
        </Neuron>
        <Neuron NSynapses="30">
          4.2629989191294726e+00 2.5450067160919358e+00 1.0790100791720554e+00 -1.3251407453514259e+00 4.2423986596140772e-01 2.5211520388452113e+00 -1.1137306258886990e+00 4.7602207771962162e+00 -1.8515495550677230e+00 8.2838015550567401e-01 8.3999676595039645e+00 -3.5844897703964784e-01 5.7664926470217299e+00 1.3680056751908838e+00 -1.5965378410312079e+00 -1.1269262001806897e+00 2.8398912376827470e+00 -1.5972556939074820e+00 1.3391612306539316e+00 1.3026147985673393e+00 1.4230691602772856e+00 1.4626754284533592e+00 -1.6283506535260697e+00 -1.7425600052244350e+00 -2.0349044526537591e-01 -9.8398717276048531e-01 -8.5385253092540325e-01 -4.9753188364989018e+00 3.7968726322072945e+00 1.1263137230649094e+00 
        </Neuron>
        <Neuron NSynapses="30">
          -3.7463340400665426e+00 2.4307185282899111e+00 7.5901901974031660e-01 1.5242587804474230e+00 -2.4285359727449904e-01 -1.4083211498987034e+00 1.2220938835147301e+00 -7.1375588725648669e+00 -3.0868765789423604e+00 -8.5115656701211972e-01 2.8597563070612702e+00 -1.4165575225663880e+00 1.4532423884417209e-01 1.6837247382323177e+00 -5.9398459137661619e-01 -7.3458269487825378e-01 -9.5085217403418887e-01 -3.0875095436300781e+00 -3.0183141473942082e-01 -8.4194863149865781e-02 2.2772882736906084e+00 7.5734731430776581e-01 -3.9072753812645071e-02 2.2836241029348097e+00 1.6981850228988210e-02 -2.3736253869662111e-01 -3.4554002870668969e+00 -1.4469765692534973e+00 1.1063947648470318e+00 -1.0816456449880654e+00 
        </Neuron>
        <Neuron NSynapses="30">
          4.4149285591928029e+00 -7.2910635461418682e-01 1.7419936818239208e+00 -5.1413519367506808e+00 -3.6120893985954344e-01 2.8433486627454272e+00 -5.3371006843891902e+00 4.4096559682314975e+00 -3.9468498490857962e-01 1.5831734276424478e-01 -7.7017205172887149e-01 -3.6416523200179167e+00 4.7258165775987147e+00 4.5463734997063634e+00 2.3336696163131760e+00 5.9604320684780632e-01 5.0555476050196191e-01 -2.3083128302551263e+00 1.1807131241073232e+00 3.6118819667414330e+00 3.5018626482749365e-01 1.7061717251758735e-01 1.7120488375479836e+00 -2.2314761375327565e+00 -4.5302772976660366e-01 1.8050820694134690e+00 3.1103048581961259e+00 -1.2313536014854869e+00 -6.2316495209369127e-01 -4.6191388223971042e-01 
        </Neuron>
        <Neuron NSynapses="30">
          -5.1118581095955307e-01 -1.1744479265081473e-01 5.3092597328702391e+00 1.1527094158293154e+00 5.1626387521929225e+00 -7.5303290423680191e-01 -2.6767170352160212e+00 3.2066546729093420e-01 -5.7055352342415444e-01 1.0597200210636952e+00 1.7334426254045645e+00 -5.0602535380062195e+00 -1.5829308401136795e+00 -1.9148433115427661e+00 -3.1067755785375395e+00 1.6326563147496320e+00 -1.2480470045172234e+00 1.1339528781343597e+00 1.9764469205658954e+00 -1.4248761718996430e+00 3.0169773939572981e+00 2.7706551452758066e-01 -3.9340500465140456e+00 1.6431485254850753e-01 9.9020148098085969e-01 1.5661026945300522e+00 -1.3704427541702231e+00 8.5662916152767721e-01 -3.5167110480067074e+00 1.3472803694901136e-01 
        </Neuron>
        <Neuron NSynapses="30">
          -1.8928922282746530e+00 -5.8614780769168839e-01 3.3246911433908682e-01 4.2407537879203998e+00 -4.8092047021500184e+00 2.6885213201625056e+00 1.4378587269525789e-01 2.3802195017895847e-01 2.8223175120510002e+00 -1.7129857511109938e+00 5.9298621395630917e+00 -5.8953779853760435e-01 -1.4984799199045509e+00 1.3667774133738764e+00 3.4682396271752589e+00 2.4191072247863099e-01 2.8972710816311777e+00 2.8420874776134077e+00 4.6666732517517950e-01 -1.5522976860217566e+00 6.6414475749125588e+00 1.3028714548773075e+00 1.0636880657882015e+00 3.0815034340044827e+00 2.9215664719605503e+01 -2.0210949588934493e+00 -6.3050987553494406e-02 -2.7750044459308804e-01 -2.9726653440104616e+00 -1.6826622367935105e+00 
        </Neuron>
        <Neuron NSynapses="30">
          -3.6530915569075897e+00 2.4348220347370167e-01 8.5311355483714557e-01 -6.2023637115976262e+00 1.2250250369743960e+00 2.0386898718164845e+00 -1.0673618973764312e+00 5.3265314526146774e+00 2.2512884826242119e-01 -7.7459170479564587e-01 -5.6523325978744365e-01 -1.7107977046406395e-01 1.8786974574632072e+00 7.3249092263800863e-01 -8.8165611470217831e-01 1.1805738877870317e-01 -2.9467272125148130e+00 -4.0773102282729173e-01 -4.7845949292826967e-01 -2.7022911073830111e+00 -6.9728812760041803e-01 5.4374806011876164e-01 8.3809106269080469e-01 -6.6006929831778571e-01 -5.9753294052975492e-01 7.6007391212119990e-01 -2.4794376211555167e+00 -4.6753750647926107e-01 4.9146306827777897e+00 1.6657488473602373e+00 
        </Neuron>
        <Neuron NSynapses="30">
          -1.7835192630416192e+00 -1.6080940265379176e+00 4.0545613567871575e-01 9.7661330538307112e-01 -1.0736031412124092e+00 3.4280087573216957e+00 -5.7166226325768976e-01 4.3555723439033622e+00 9.9276154015549736e+00 -2.0194569810591338e+00 6.5178005480703627e-01 5.7295569191362927e-01 -3.4546085094884207e+00 -4.3833015293580502e-01 2.8349158449818348e+00 -4.5765421666908773e-01 -5.3839186089284645e+00 -3.4827929600708990e-01 -2.0187940206097639e+00 -1.2909360237051342e+00 -1.1186758509887400e+00 4.1416475610392561e-01 -5.4431839545586358e-01 -3.2539022560069504e+00 1.6165366495284541e+00 -1.8573471970322490e+00 -9.7902606564756223e-01 -9.9370171903247584e-01 -6.0241221847482089e+00 -1.6065664761637097e+00 
        </Neuron>
        <Neuron NSynapses="30">
          5.0654699213898779e-01 2.5103824889152110e-01 -8.3360909376157019e-02 -2.3987081054384535e-01 -7.6763513833574926e-01 -1.2807923499501122e+00 3.5046599373734275e+00 -2.0002222322779861e-01 4.0731511515444101e+00 -1.0718394181279021e+00 -7.1367508327816886e-01 -1.7114084502336251e+00 4.5978877248015797e+00 1.7301845198033077e+00 -1.4905311511697974e+00 -2.1040759356369029e-01 -5.5071129515573842e+00 1.0534204078956156e-02 -8.5925484636419984e+00 7.5184463791787448e-01 -2.3897064700365798e+00 6.0707699644350699e-01 2.7793028265632795e+00 4.0521925626874061e-01 4.3740645492075849e+00 -5.9201698414837978e-01 -5.7188992704067754e-01 1.1330918362579245e+01 2.2814940572615501e+00 4.6162191714558926e-01 
        </Neuron>
        <Neuron NSynapses="30">
          -3.0211421905107256e+00 1.1482949034646786e+00 3.1692994569374560e+00 4.0396091686045875e-02 -2.4550725700990093e+00 -3.5903278535319290e+00 4.4857525138591470e+00 1.5783592355134577e+00 2.0011249326575671e+00 -6.1323426532916891e-01 3.1998553346720047e+00 -6.5192580449031579e-01 -1.3948142133145964e+00 1.0232406834797196e+00 5.7297897188770808e-01 -1.0355636895715081e+00 1.9627669655170938e+00 3.3882503182029837e+00 -9.2582826750687595e+00 2.8187744824404093e+00 -1.3530048556138810e+00 1.3145319003132601e+00 -2.8834240414544596e+00 4.0407422431725477e+00 -1.7016674344969387e-01 -1.9082267532050994e+00 -1.3532042849078771e+00 -7.3650121608270713e-01 -2.1497771974960123e+00 -1.0472801412651075e-01 
        </Neuron>
        <Neuron NSynapses="30">
          -1.2210982322141848e+00 -6.4122949668871456e+00 5.0152597654078930e+00 -1.4209621143613995e+00 1.1653618041338403e+00 2.6940108355244883e+00 -3.7033787268924749e+00 -4.7838950486497724e+00 -9.6054617902180461e-01 -1.6072021906491891e+00 4.4314660291960921e+00 -1.8731337594140265e+00 1.3320788194817599e+00 7.6447624385994528e-01 3.0727909297333245e+00 -6.3179397749723407e-02 2.9626736304079060e+00 -4.0382526280898379e+00 2.1472058512844550e+00 3.6748735436079866e-01 -3.0249857166611677e-01 -5.1973494681273902e-01 -1.5606561717496874e+00 9.3638004864376978e-01 -1.6359540215025039e+00 1.8489855760834393e+00 6.2916767093420205e+00 -6.4220118575771801e-01 -1.4000411690759345e+00 1.8844214977967124e+00 
        </Neuron>
        <Neuron NSynapses="30">
          -2.0010402565949308e+00 2.9884447072619729e+00 -3.0792528562138486e+00 -1.4063615295849126e+00 1.7794882064491195e+00 1.2382056364827740e+00 4.0184863619831424e-01 2.5050577322366507e+00 -1.7096920534477227e+00 -4.6518482270827183e-01 7.5124365274464011e-01 -1.8274414128007008e+00 1.7197839763286232e-01 -1.2219494742579042e+00 -1.3942315970228789e+00 -4.9419359339009900e-01 -8.1233088103925455e-01 -1.1381659942665900e+00 -8.1087226836155890e-01 -1.6276265300338402e+00 3.4810664980630892e+00 1.9410757494758690e+00 -1.1881227510034706e+00 6.5676525808051407e+00 -1.6289362327185655e+00 -1.5533825502504506e+00 -3.1553841889515426e+00 -1.3818413644837954e-01 1.9236493203165279e+00 -9.4666311433381023e-01 
        </Neuron>
        <Neuron NSynapses="30">
          3.2239602385153926e-01 -9.9503627349071200e-01 -8.7816411787124053e+00 -5.7443574666396505e-02 -3.5557636769645091e+00 -3.2823961931033491e-01 -2.5220254793921786e+00 2.1892605013309435e-01 -5.6933375318877755e-01 -1.6316107812087861e+00 1.8395818491716096e-01 -4.6593703575933816e+00 6.0170918029199894e-01 2.0879643133940471e+00 -2.9010300924660619e+00 1.5246341220866200e+00 5.2548126235691619e+00 -1.5425195400242815e+00 2.2779540216508427e+00 -2.0243975470022164e+00 -1.5216057241147155e-01 -6.8772338448479198e-01 -1.2003557296086214e+00 -4.4199631002420556e+00 -8.3120002039747687e-01 8.4448376986602902e-02 7.3470474569833677e-01 -1.2274863595871544e+00 3.3168448648860580e+00 -1.2800541295217835e+00 
        </Neuron>
        <Neuron NSynapses="30">
          -1.5782793418742787e+00 1.4989791048918502e+00 -2.6027257344171311e+00 -4.4765084459159352e+00 -1.6122873434330467e+00 1.8780872325530812e-03 2.1363557180380712e+00 -3.4935462094839687e-01 4.0435461103171875e+00 -5.3193877970133829e-01 1.3077589046804476e+00 2.2684626584245944e+00 1.5590066045953379e+00 -2.6678498518255833e+00 4.1964576855265658e+00 -2.2171233313145029e+00 7.8778548063366094e-01 1.1883472088826674e+00 1.9060052503028266e+00 -2.2121816766523548e+00 -1.0287987244500427e+00 -1.0149452276261308e+00 1.7425062931161137e+00 -1.1377924475734413e+00 -4.5512183619836771e-01 -2.2537376758531921e-01 3.8919386389476900e+00 -2.4696365810920691e+00 -1.4465527105587008e+00 -4.3798908263732894e-01 
        </Neuron>
        <Neuron NSynapses="30">
          -2.0370909701608070e-01 7.6838261822494323e+00 1.5399141058161288e+00 -4.9571493305874199e+00 2.3837394491298497e-01 7.8480777456030915e-01 -6.8431352196846251e-01 -4.8875710317637261e-01 1.3994990423778415e+00 4.9723091893050214e-01 4.1695712591618589e-01 -4.2223100997555312e+00 -3.9561899953509791e+00 -2.8449589142240908e+00 5.3210182610856522e+00 2.1459281112724491e+00 3.1778032446105007e+00 5.8015356256000739e-02 -3.1144259705270166e-02 -1.2551359163983714e-01 1.6572432895873226e-01 -1.2576282565067194e+00 -1.0286256462232028e+00 1.6670684610135837e+00 3.6252349429952069e-01 1.4507451685464241e+00 5.6504447190093483e+00 1.8544929428755896e-01 2.0573586435288025e+00 -2.8380465159486432e+00 
        </Neuron>
        <Neuron NSynapses="30">
          -1.3802451460383591e+00 -1.4842820986864100e+00 3.5195149101925627e+00 1.4734552289521577e-01 3.5929238680563852e-01 -3.2113026643669540e-01 -1.9244304501689644e+00 -1.6672496509505816e+00 2.1982078007186465e+00 1.8386323593997924e+00 3.3427979607837238e-01 -6.1595897135517541e+00 1.0824679063298275e+00 2.6739191597295742e+00 4.7838865416278225e+00 3.7852543132263738e-01 1.6153677587436885e+00 -2.1337882814986502e+00 1.3863265241540765e+00 5.1321157450342829e+00 -1.9817169275481350e+00 -7.9854930525606771e-01 -1.4938473736689316e-02 4.2353844226837625e+00 9.4959223587517672e-01 -1.1336736272481527e+00 5.6209615095452203e-01 8.8109029468000288e-01 -2.1641250875660241e+00 1.5832829544848483e+00 
        </Neuron>
        <Neuron NSynapses="30">
          -1.2744951841187939e+00 8.5465518022297737e-01 2.5790107862324350e+00 4.6242843331766148e-01 3.4115442651888546e+00 -6.7322249548496960e-01 -3.0643740736326737e+00 -3.4431702542203396e-01 3.2598377593754773e+00 9.2230403902717376e-02 -3.6080394592123599e+00 -3.9456295882475234e+00 1.5041990716992744e+00 -3.0743802730359513e+00 -1.0196425837778591e+00 -1.5103754667000602e+00 5.1310582606531678e+00 1.3625353749805105e+00 3.9236826768360428e-01 2.5607888850399749e-02 -4.1834302695109704e+00 1.7251157463332314e+00 1.2272670734932924e+00 2.8620562324161289e+00 1.6684036228506884e+00 -1.0635403256448630e+00 2.5724289639138176e+00 -2.0233133039127771e+00 -8.4107580530483517e-01 -1.8713306048148175e+00 
        </Neuron>
        <Neuron NSynapses="30">
          -4.8500354926924527e-01 -1.5608822283197066e+00 1.6072964143124659e+00 -4.0349933640494298e+00 1.1399736265942253e+00 1.9083092121790721e-01 -8.2677827425442718e-01 2.1934138406330570e+00 -1.4492119418433966e+00 7.5174261362036021e-01 7.9968268258478936e-01 -5.9737487915018406e+00 1.1222416584923587e+00 -4.4320224625642481e+00 -1.7190343967658139e+00 1.3756273999158519e+00 2.9831235131580023e+00 -6.9925997958053532e-01 -2.3999738036545963e+00 -4.9991563807577384e+00 -2.5801479392634952e+00 -7.2328037673017098e-01 1.0282974893086625e+00 -3.5695008227893079e+00 -4.4151669456476600e-01 -6.2384769421967567e-01 -4.1207827879791470e+00 5.3764756872932584e-01 -1.2921094437322238e+00 -2.3722283769634482e+00 
        </Neuron>
        <Neuron NSynapses="30">
          -3.8022566990227563e-01 1.4798435488561518e-01 9.6281724130299706e-01 -1.7912527688095448e+00 2.5305177519542127e-01 3.3312474150526183e+00 -4.8701666239797845e+00 -1.1636418632329282e+00 3.9927456560965218e+00 -1.6569556062408286e-01 7.2524547884552215e-01 8.0562684082468239e-01 -5.2344796702675955e+00 -1.6970926611203296e+00 -4.3613833555595116e+00 -2.2729739690776314e+00 -1.9956649571229057e-01 -4.9752863758952701e+00 -2.6641368291049514e+00 1.2283955264193718e+00 4.3906258298963889e+00 1.6590488626805151e+00 4.8381637986849233e+00 5.8925402053194131e-01 3.4358996792304314e-01 9.3016907552196687e-02 -2.4850016354468059e+00 -2.1935713712381131e+00 -7.8439681514368365e-01 -1.4363153618162616e+00 
        </Neuron>
        <Neuron NSynapses="30">
          7.4665883955913404e-01 -2.3327100691985178e-01 -2.2260385593638263e+00 -5.3194278738065714e-01 -8.4434439036470174e-02 -3.9498859090390561e+00 -4.2418242831229985e-01 1.4984555475169564e-01 4.1340043850880970e-01 -2.0590682280610646e+00 -1.1632447250580986e+00 -6.9453472254791837e-01 -3.0670034817717853e+00 -2.1088225543354482e+00 1.1449244689645737e+00 -1.6061099371074112e+00 -2.5886770606981315e+00 8.0966577905038195e-01 -1.6560298993793678e+00 1.0194871975210573e+00 -3.9111763991951056e+00 1.2250751915961082e+00 2.0408316258718280e+00 -3.2116867000135478e+00 -1.7464667023125167e+00 -1.1168129987477482e+00 3.9206259525789711e-01 -8.2435266523761079e+00 4.6569891554859559e+00 -1.1187806312936812e+00 
        </Neuron>
        <Neuron NSynapses="30">
          1.1649697473217985e+01 8.9292015999708618e-01 6.7911336366652506e+00 -1.6051303153838221e+00 -1.5546918781745431e+00 -3.9658082676353810e+00 -3.9367586546132616e+00 3.3064354845118697e+00 8.8896142860115279e-01 4.9226591568058437e-03 -3.3890781978836166e+00 3.7194731832991441e+00 9.9206481626537724e-01 -9.7977828010835055e-01 -2.1967934638685311e+00 1.8901427655117744e+00 -5.7624004590561695e-01 -5.4336218509135659e-01 2.1748991606021097e+00 -3.5643346896535464e+00 3.1967987972720873e+00 3.3316145067710212e-01 -1.8193833379768578e+00 -2.0739861806769424e+00 9.8071202299938287e-01 -1.1373850952785642e+00 -1.2542736541045827e+00 1.7165174600022877e+00 2.0524397769196079e+00 2.6365329059199738e-01 
        </Neuron>
        <Neuron NSynapses="30">
          -5.7005233099081289e+00 5.8700463504550040e+00 1.6161013030398852e+01 -2.5492490949662516e-01 -1.8608881212724899e+01 -1.2679202171911957e+01 -1.1554943171175273e+01 1.4282991001518202e+01 1.5117886565023207e+01 -1.4542385773565967e+00 1.0921778703980623e+01 9.5976691834164141e-01 -6.2944015437335299e+00 1.0290345605245517e+00 -2.8997912726821733e+00 -2.2142678065867809e+00 -5.5390656387299604e+00 2.6495892417577536e+00 -1.1909350020003922e+01 1.2670623233059812e+00 -7.4899733995353834e+00 -1.5459276996718543e+00 -6.3345558303385197e+00 6.1271538887542416e+00 2.0667552952739452e+01 8.1758593460082651e-01 -1.9261660102966827e+00 -8.6169788048589115e+00 -8.1824202793191141e+00 -1.2776655942334905e-01 
        </Neuron>
      </Layer>
      <Layer Index="1" NNeurons="31">
        <Neuron NSynapses="10">
          -4.0227303388426057e+00 3.3666931129717792e+00 -5.1147041487868927e-01 -1.1850231469006245e+00 -2.7238005711824438e+00 5.0909249855947687e+00 7.2791337679243229e-01 6.2958803820813065e+00 5.1693527559682222e+00 4.6972618916292612e+00 
        </Neuron>
        <Neuron NSynapses="10">
          1.5312399562865957e+00 -1.8616171663630563e+00 -5.0528858011375499e-01 2.4451955202656428e-01 6.4757733934557269e+00 -9.3561801031187875e-01 2.0666637120134652e+00 1.6222578774657257e+00 -8.9149292660369484e-01 -7.3648111471095024e-01 
        </Neuron>
        <Neuron NSynapses="10">
          2.7939666559546819e+00 -4.5817227005788936e+00 2.6534708382459318e+00 -9.1256878927926688e-01 -1.4494938368954072e-01 1.3180988451389759e+00 8.1533791431029523e-01 1.7064619222394501e+00 -2.4405161045685682e+00 -2.5754919585338087e+00 
        </Neuron>
        <Neuron NSynapses="10">
          -2.2045910110537523e+00 1.8310958597101352e+00 6.3889147844380387e+00 2.5578591622815585e+00 -9.5546581424321686e-01 1.9530912372623572e+00 1.4146665307939286e+00 -1.1563100010982337e+00 -6.3103707781031000e+00 1.3489910294354637e+00 
        </Neuron>
        <Neuron NSynapses="10">
          3.1107476317636844e+00 3.3904941236123585e+00 -1.2333586404325050e+00 1.3769845639162259e-01 -1.0234208426207685e+00 -3.4325915157097571e+00 -2.4375912275637428e+00 -6.8206472997505667e+00 1.8351638619360136e+00 2.9654732900173926e+00 
        </Neuron>
        <Neuron NSynapses="10">
          -3.2878686431166115e-01 4.8571345041489975e+00 -2.7775451258928334e+00 5.6998974865993368e-01 9.6500086307630595e-01 -1.3275173068060717e+00 -6.4553166409588747e-02 -4.4775007205122721e+00 2.2450902434190274e+00 -1.2577221295350711e+00 
        </Neuron>
        <Neuron NSynapses="10">
          1.2822742838580616e+00 -4.3159687733312013e-01 -4.2811402048139167e+00 8.8292823527998693e-02 -7.6381754695795367e-01 2.5854626790248741e-01 1.5789189771248959e+00 -3.8995606614356433e+00 4.4643342662145233e+00 4.9101049007240469e+00 
        </Neuron>
        <Neuron NSynapses="10">
          4.8825820267230169e-01 7.7203368418126550e-01 2.5253361218541666e+00 1.6347879398725635e+00 8.4320659311694957e-01 -2.8200543638180484e+00 -2.3885807936451932e-02 6.0738158252970207e+00 -7.7128916977962989e+00 -1.9976885954799901e+00 
        </Neuron>
        <Neuron NSynapses="10">
          3.4221167871090352e+00 -2.3802828350010513e-01 -2.4654453810786934e+00 -2.0346196863840410e-01 4.2160838118696358e+00 -1.7066013864366263e+00 9.5254443073055861e-01 3.4184632815023255e+00 -2.3599506123394152e+00 -2.7656337324869509e+00 
        </Neuron>
        <Neuron NSynapses="10">
          -2.4555230711988574e-01 6.3519681218550583e-01 9.9561472518543426e-01 6.6524737340358511e-03 -3.5668043062546767e-01 -1.1950277016824613e+00 2.4947391878171687e-01 2.1231551072667019e+00 -9.8972562559766331e-01 2.0791249239391938e+00 
        </Neuron>
        <Neuron NSynapses="10">
          -1.2222192662065627e+00 -1.3049494816706184e-01 1.0290171228979337e+00 1.0554902683666640e+00 4.7405808716309963e+00 -4.8027709175665692e+00 8.1697165455243836e-01 3.8964105436938212e-01 -2.8097744695715030e+00 -9.4788424314544062e-01 
        </Neuron>
        <Neuron NSynapses="10">
          -9.4041932968378872e-01 -3.2929294638217366e+00 3.1353182977553553e+00 1.9198388937759432e+00 1.5607430078063509e+00 8.7726730900531336e-01 -2.4667049893063973e+00 2.5535162743376856e+00 1.1900818332791141e+00 -2.1636370969626504e+00 
        </Neuron>
        <Neuron NSynapses="10">
          -1.4402051800046684e-01 4.1149257450480450e+00 -4.0533965086460206e+00 7.5684838121039710e-01 1.2376855469130394e+00 1.5853506700548887e+00 -4.5192678648855089e-01 -5.1553380889621483e+00 2.0892685670459978e+00 2.4957205103640337e-01 
        </Neuron>
        <Neuron NSynapses="10">
          3.6717145261203119e+00 -2.0144622645357537e+00 -1.3878279771406635e-01 -1.9994824265497768e+00 -1.1090077688875124e+00 1.6964302700282887e+00 1.6901688760066889e+00 5.0465167059058142e+00 3.5891561035880852e+00 -4.7674876390483281e+00 
        </Neuron>
        <Neuron NSynapses="10">
          3.7593805334608960e-01 -3.2515507014795579e+00 2.9287065464832152e+00 -8.3591668147142151e-01 -3.6537090089012563e+00 1.4635784656183872e+00 1.0408025088393562e-01 -4.9051082688667780e+00 1.4917868650433068e+00 1.2992226980661430e+00 
        </Neuron>
        <Neuron NSynapses="10">
          3.7719504878643478e-01 -1.6012228672408477e+00 -8.1970928328300552e-01 -4.6143300662641135e-01 -1.5218606792411440e+00 7.8756330662909690e-01 -2.7243813179106646e+00 1.2330579329378057e+00 1.1482051476408683e+00 -1.1372562189327026e-01 
        </Neuron>
        <Neuron NSynapses="10">
          -4.0193249702588236e+00 2.6666374479679180e+00 -3.2029674625716759e-01 -2.2024017120592894e+00 1.8157295875857733e+00 3.7759842547576150e-01 -3.2634262570487582e+00 -2.2371172664701944e+00 2.3605590598624620e+00 1.0633527597042998e+00 
        </Neuron>
        <Neuron NSynapses="10">
          -4.7876052493282160e+00 1.6293558525675120e+00 3.1760874246088440e+00 -2.2850805067994528e+00 -1.3203626881950619e+00 3.1893181025117190e-01 2.9837863356607994e+00 9.7408890350384714e-01 1.8714905898209517e+00 -1.4911290817916119e+00 
        </Neuron>
        <Neuron NSynapses="10">
          -3.1058374092750967e+00 1.9043630643802882e+00 -2.0650777662803463e+00 -6.8830648582473042e-01 -2.6100919200258224e+00 -1.4387513195733121e+00 -1.5871026808194286e+00 -2.3030590331584673e+00 -2.7047460330475719e+00 1.6905861078288806e+00 
        </Neuron>
        <Neuron NSynapses="10">
          -2.6394394751641137e-01 -6.5842626225616263e-01 -4.2401353046502388e+00 1.9384919890086065e+00 4.8824521701060117e+00 2.0203701693146225e+00 6.7447558458063905e-01 4.0529479410329703e+00 -2.3376518078432742e+00 -3.2634996154296914e-01 
        </Neuron>
        <Neuron NSynapses="10">
          -2.3697175704016695e+00 5.3895813231080254e+00 -3.5571514849151606e+00 -6.8155236082106418e-01 7.9544170642863676e-01 3.2096226336372419e-01 -5.7763567134328031e-01 -3.1640970686236880e-01 1.0553465892878346e+00 1.6673414162419338e+00 
        </Neuron>
        <Neuron NSynapses="10">
          -3.5350063129938275e-01 1.1013341499046385e+00 1.6335799537110434e+00 1.9743610709360377e+00 -1.5882674954049427e+00 5.0924710314861921e-01 1.1528096691487917e+00 -1.6866630269699621e+00 -1.7448113845649702e+00 7.5895911818798523e-01 
        </Neuron>
        <Neuron NSynapses="10">
          -4.4576980100697078e-01 1.7718253981519432e+00 -6.6917917563758333e-01 3.2032408281628011e-01 -9.6455451159282035e-01 -9.7721563991512561e-01 -4.4883337459901789e+00 -1.6900396649731426e+00 1.3866244542052737e+00 6.2098942419249177e+00 
        </Neuron>
        <Neuron NSynapses="10">
          3.7824831331474664e+00 3.0733301665739239e+00 -1.9732363590726116e+00 -2.8844758134414312e+00 3.0245214638170208e+00 -1.6090906630003550e+00 8.8172038614950515e-02 6.1198959614833337e-01 -2.7107819713085672e+00 -1.2504533370552007e+00 
        </Neuron>
        <Neuron NSynapses="10">
          1.3479078881030144e+00 2.3128647808540106e+00 -1.3473542505770644e+00 2.4724036913065112e-01 7.9023548304187035e+00 -9.8911774772464134e-01 2.5512824604272417e+00 4.6107283042290641e+00 -2.9746692275908049e+00 -1.9985759858421450e+00 
        </Neuron>
        <Neuron NSynapses="10">
          1.2949190936393182e+00 -1.2052134303036330e+00 1.2109150362826802e+00 7.8019414494659955e-01 -1.3397159600108899e+00 -9.2074014402719606e-01 -1.4171049090242098e+00 2.8096591754994269e+00 -1.2976259316112908e+00 5.5619429675514387e-01 
        </Neuron>
        <Neuron NSynapses="10">
          -5.1859477309708621e+00 3.5354776747004530e+00 1.1539295105922895e+00 2.7670855223409374e+00 -3.8319843391337760e+00 1.2179307379911894e+00 -7.7225564967462235e-01 2.0764870525732246e+00 -2.4205153149271745e+00 1.4114467718870412e+00 
        </Neuron>
        <Neuron NSynapses="10">
          -1.7607110733455791e+00 -7.7640960777708767e-01 7.4496180768445015e+00 3.4677224443297852e+00 -3.8166044085310742e+00 4.7179410472295569e+00 7.0859892745503428e-01 -3.1572133903360209e+00 2.6738477076551419e+00 2.3162501124288455e+00 
        </Neuron>
        <Neuron NSynapses="10">
          5.1019737717795319e+00 -1.7509214843782411e-01 -3.5766147038494922e+00 1.0782072943099481e+00 -1.8174534572342345e+00 -1.1440274663601535e-01 1.1311406641916628e+00 -3.7660707730441931e+00 3.6669386793584748e+00 6.3633936706764727e-01 
        </Neuron>
        <Neuron NSynapses="10">
          -2.3029132941654340e+00 -2.5732303258995568e+00 5.4344185851555116e-01 -4.2672476026397721e-01 6.6643459670167604e-01 5.8916422124102086e-01 -2.2407647572390386e+00 -6.3443246495376693e-01 1.4525865936248774e+00 1.2553411231563186e-01 
        </Neuron>
        <Neuron NSynapses="10">
          -2.9456917066515298e-01 1.2666426176331613e+00 1.0123584310233655e+00 3.2325470122169014e-01 -6.9031512109512005e-01 -1.1237090028240788e+00 3.3613420486906426e-01 1.3657146919354821e+00 -1.8915667024379523e-01 2.1134332462090439e+00 
        </Neuron>
      </Layer>
      <Layer Index="2" NNeurons="11">
        <Neuron NSynapses="10">
          1.9411050677226069e-01 -1.3751440385798197e+00 -1.9726146960831268e+00 -1.8531249745741036e+00 -3.9209027581589724e+00 3.2138475878233796e+00 -5.3165792067522880e-02 -2.4875445821654911e+00 -7.6698418206601602e+00 1.7036689423587166e+00 
        </Neuron>
        <Neuron NSynapses="10">
          -1.8745565969883657e+00 1.8246080855611310e-01 3.3680830379551612e+00 3.0554628847745646e+00 1.0852179689304513e+00 -2.1818668998036759e+00 -1.0228160312939474e+00 2.2525063015163043e+00 9.0538438224420081e-01 -1.8793708426918252e+00 
        </Neuron>
        <Neuron NSynapses="10">
          -4.7198815210851452e-01 2.1170134860725842e-01 3.3284379767601568e+00 1.3010308166741948e+00 3.4535963400627665e+00 2.0278508654871730e+00 2.6343816774068816e+00 -2.6115195279109793e+00 -3.3372348374225034e+00 6.6481594120398657e-01 
        </Neuron>
        <Neuron NSynapses="10">
          -3.6521116719055784e+00 -7.4928548051666788e-01 -3.9457790539498236e+00 -3.0115761172550826e-01 2.1124921200594127e+00 -2.4546851704605719e+00 -3.6193504771803640e+00 2.8684015574734389e+00 1.6679439451950444e+00 -2.0180237146050541e+00 
        </Neuron>
        <Neuron NSynapses="10">
          7.9898200296319422e-01 4.3324665148502897e+00 6.1049444329478693e+00 -1.4895450866989430e+00 5.0155723290386922e-01 6.2385765825736468e-02 8.4261318643393390e-01 -5.3388202140092007e+00 -7.9538236658365191e+00 3.1873281503439310e+00 
        </Neuron>
        <Neuron NSynapses="10">
          3.6519567456147426e+00 -8.4982026167539659e-01 -4.9087694301404134e+00 1.2334865171627643e+00 -2.2745812138150909e+00 7.7890837821324677e-01 -1.5633684152240044e+00 -6.3201492041846352e+00 -1.3124780760011292e+00 -8.3781393581530195e-02 
        </Neuron>
        <Neuron NSynapses="10">
          1.2473109683207530e-01 1.2839706012151626e+00 1.5098197040737191e+00 -4.2485002098815530e+00 -1.6887604795633029e+00 1.3916906306256167e+00 4.2758428350092563e+00 1.4832898744555345e+00 3.0439653555907058e+00 4.2837541909911003e+00 
        </Neuron>
        <Neuron NSynapses="10">
          4.2844526998309274e+00 -2.6476227809403396e+00 7.7279718816247234e-01 -7.3185600693968107e+00 7.9227557780963931e+00 -1.4969074076809181e+00 3.2223129945515114e+00 -5.7402018212883665e-01 8.9473425026580311e-01 8.5185712260237789e-01 
        </Neuron>
        <Neuron NSynapses="10">
          -2.2016308517251280e+00 1.6396271294905231e+00 -1.7256233874322628e+00 1.3518490266197636e+00 -4.8839217862710766e+00 -1.8439710104119518e+00 -2.3728598124517322e+00 3.4413099925667598e+00 2.7691097056176794e-01 -3.2283164431092413e+00 
        </Neuron>
        <Neuron NSynapses="10">
          7.7120023791410708e-01 -1.1082232780949761e+00 -3.7002752926787297e+00 4.2128659621083333e+00 3.0983304667005207e+00 -3.0256834965767981e-01 -1.1085802301803787e+00 2.7376983932065874e-01 3.5294658485572667e+00 -4.1568527531080361e+00 
        </Neuron>
        <Neuron NSynapses="10">
          -2.3577227561308728e-01 8.3763763564549273e-02 -1.5323561941766064e+00 -1.6276031355412821e+00 1.6522858116082542e+00 -1.2006583139265217e+00 -2.5305705232171682e+00 1.3341737976513119e+00 -2.7822393069393980e+00 9.8545084398423255e-01 
        </Neuron>
      </Layer>
      <Layer Index="3" NNeurons="11">
        <Neuron NSynapses="5">
          -1.7331806022861274e+00 -2.5367726867499280e-01 -1.1023412055665527e+00 7.6451883736846504e-01 -2.9837950296895528e+00 
        </Neuron>
        <Neuron NSynapses="5">
          -2.1424890288104570e+00 4.5306799171073686e-01 1.3248997316670617e+00 1.8890942437695393e-01 6.5216588251253116e-01 
        </Neuron>
        <Neuron NSynapses="5">
          -3.3839298476695916e+00 -4.1836825303893601e+00 2.0777175578625759e+00 -2.3646902705227282e+00 -3.5711755517427428e+00 
        </Neuron>
        <Neuron NSynapses="5">
          1.3057389053207351e+00 3.0500067780526452e+00 -3.9314738254340416e+00 -1.6915264540038129e+00 8.2086994320978213e-01 
        </Neuron>
        <Neuron NSynapses="5">
          -3.9788051243491043e+00 -2.0460302443730460e-01 -1.1458808275980683e+00 -4.7285575589071387e+00 -2.7542341287649870e+00 
        </Neuron>
        <Neuron NSynapses="5">
          -8.8119539763789345e-01 -2.0775167841817956e+00 2.1449411314823568e+00 -2.0763699201939039e+00 -2.3944308508426593e+00 
        </Neuron>
        <Neuron NSynapses="5">
          -1.6124589398868958e+00 -4.1397549521737842e+00 4.6187156087158809e-01 -1.2318396315383118e+00 -1.0705137504655795e+00 
        </Neuron>
        <Neuron NSynapses="5">
          9.9075984660726382e-02 1.9972513998934791e+00 -5.7567738092763410e-01 5.6740973749349988e-01 5.1014755379675103e+00 
        </Neuron>
        <Neuron NSynapses="5">
          -1.0576510807444433e+00 1.6003402771110897e+00 -9.1317971612368709e-01 5.6473264912766128e+00 2.2770954968626738e+00 
        </Neuron>
        <Neuron NSynapses="5">
          -2.7135771948383375e-01 -2.9927705281524628e+00 1.5832357621999456e+00 -6.3804620897698883e-01 1.8666329437292556e-01 
        </Neuron>
        <Neuron NSynapses="5">
          -6.9234101832786410e-01 1.0677463760006465e+00 -2.7595433199040396e+00 9.6560746744471848e-01 1.9197371071816787e+00 
        </Neuron>
      </Layer>
      <Layer Index="4" NNeurons="6">
        <Neuron NSynapses="1">
          -4.4359646361366298e+00 
        </Neuron>
        <Neuron NSynapses="1">
          -2.4211334752953575e+00 
        </Neuron>
        <Neuron NSynapses="1">
          5.6741570737371658e+00 
        </Neuron>
        <Neuron NSynapses="1">
          -4.7818310005842335e+00 
        </Neuron>
        <Neuron NSynapses="1">
          -2.3343948830741099e+00 
        </Neuron>
        <Neuron NSynapses="1">
          9.8586566068302006e-01 
        </Neuron>
      </Layer>
      <Layer Index="5" NNeurons="1">
        <Neuron NSynapses="0"/>
      </Layer>
    </Layout>
  </Weights>
</MethodSetup>
