<?xml version="1.0"?>
<MethodSetup Method="MLP::MLP_fold2">
  <GeneralInfo>
    <Info name="TMVA Release" value="4.2.1 [262657]"/>
    <Info name="ROOT Release" value="6.20/06 [398342]"/>
    <Info name="Creator" value="tfarooque"/>
    <Info name="Date" value="Fri Jul  7 09:57:41 2023"/>
    <Info name="Host" value="Linux aibuild16-017.cern.ch 3.10.0-1160.36.2.el7.x86_64 #1 SMP Wed Jul 21 11:57:15 UTC 2021 x86_64 x86_64 x86_64 GNU/Linux"/>
    <Info name="Dir" value="/data/at3/scratch2/farooque/DevPVLQ/VLQAnalysisFramework/run"/>
    <Info name="Training events" value="889973"/>
    <Info name="TrainingTime" value="2.91857337e+04"/>
    <Info name="AnalysisType" value="Classification"/>
  </GeneralInfo>
  <Options>
    <Option name="NCycles" modified="Yes">800</Option>
    <Option name="HiddenLayers" modified="Yes">30,10,10,5</Option>
    <Option name="NeuronType" modified="Yes">sigmoid</Option>
    <Option name="RandomSeed" modified="No">1</Option>
    <Option name="EstimatorType" modified="No">CE</Option>
    <Option name="NeuronInputType" modified="No">sum</Option>
    <Option name="V" modified="Yes">False</Option>
    <Option name="VerbosityLevel" modified="No">Default</Option>
    <Option name="VarTransform" modified="Yes">N</Option>
    <Option name="H" modified="No">False</Option>
    <Option name="CreateMVAPdfs" modified="No">False</Option>
    <Option name="IgnoreNegWeightsInTraining" modified="No">False</Option>
    <Option name="TrainingMethod" modified="No">BP</Option>
    <Option name="LearningRate" modified="Yes">1.000000e-02</Option>
    <Option name="DecayRate" modified="Yes">0.000000e+00</Option>
    <Option name="TestRate" modified="Yes">5</Option>
    <Option name="EpochMonitoring" modified="Yes">False</Option>
    <Option name="Sampling" modified="No">1.000000e+00</Option>
    <Option name="SamplingEpoch" modified="No">1.000000e+00</Option>
    <Option name="SamplingImportance" modified="No">1.000000e+00</Option>
    <Option name="SamplingTraining" modified="No">True</Option>
    <Option name="SamplingTesting" modified="No">False</Option>
    <Option name="ResetStep" modified="No">50</Option>
    <Option name="Tau" modified="No">3.000000e+00</Option>
    <Option name="BPMode" modified="No">sequential</Option>
    <Option name="BatchSize" modified="No">-1</Option>
    <Option name="ConvergenceImprove" modified="No">1.000000e-30</Option>
    <Option name="ConvergenceTests" modified="No">-1</Option>
    <Option name="UseRegulator" modified="No">False</Option>
    <Option name="UpdateLimit" modified="No">10000</Option>
    <Option name="CalculateErrors" modified="No">False</Option>
    <Option name="WeightRange" modified="No">1.000000e+00</Option>
  </Options>
  <Variables NVar="21">
    <Variable VarIndex="0" Expression="meff" Label="meff" Title="meff" Unit="" Internal="meff" Type="D" Min="1.00000494e+03" Max="8.86203418e+03"/>
    <Variable VarIndex="1" Expression="RCjet2_pt" Label="RCjet2_pt" Title="RCjet2_pt" Unit="" Internal="RCjet2_pt" Type="D" Min="0.00000000e+00" Max="1.62899829e+03"/>
    <Variable VarIndex="2" Expression="dRmin_RCjets" Label="dRmin_RCjets" Title="dRmin_RCjets" Unit="" Internal="dRmin_RCjets" Type="D" Min="2.50981618e-02" Max="5.06098366e+00"/>
    <Variable VarIndex="3" Expression="dPhiavg_RCjets" Label="dPhiavg_RCjets" Title="dPhiavg_RCjets" Unit="" Internal="dPhiavg_RCjets" Type="D" Min="1.79171562e-04" Max="3.14159131e+00"/>
    <Variable VarIndex="4" Expression="dRmin_RCMTT" Label="dRmin_RCMTT" Title="dRmin_RCMTT" Unit="" Internal="dRmin_RCMTT" Type="D" Min="5.58902733e-02" Max="5.06098366e+00"/>
    <Variable VarIndex="5" Expression="mtbmin" Label="mtbmin" Title="mtbmin" Unit="" Internal="mtbmin" Type="D" Min="4.88891819e-05" Max="1.86247595e+03"/>
    <Variable VarIndex="6" Expression="RCMTT_jets_n" Label="RCMTT_jets_n" Title="RCMTT_jets_n" Unit="" Internal="RCMTT_jets_n" Type="D" Min="2.00000000e+00" Max="6.00000000e+00"/>
    <Variable VarIndex="7" Expression="met" Label="met" Title="met" Unit="" Internal="met" Type="D" Min="2.00000107e+02" Max="4.06845288e+03"/>
    <Variable VarIndex="8" Expression="RCMTop0_pt" Label="RCMTop0_pt" Title="RCMTop0_pt" Unit="" Internal="RCMTop0_pt" Type="D" Min="0.00000000e+00" Max="3.64521851e+03"/>
    <Variable VarIndex="9" Expression="bjets_n" Label="bjets_n" Title="bjets_n" Unit="" Internal="bjets_n" Type="D" Min="2.00000000e+00" Max="9.00000000e+00"/>
    <Variable VarIndex="10" Expression="mvlq0_RCTTM_drmax" Label="mvlq0_RCTTM_drmax" Title="mvlq0_RCTTM_drmax" Unit="" Internal="mvlq0_RCTTM_drmax" Type="D" Min="3.78424713e+02" Max="7.19409668e+03"/>
    <Variable VarIndex="11" Expression="mvlq1_rcj_drmax" Label="mvlq1_rcj_drmax" Title="mvlq1_rcj_drmax" Unit="" Internal="mvlq1_rcj_drmax" Type="D" Min="0.00000000e+00" Max="5.65620898e+03"/>
    <Variable VarIndex="12" Expression="leadingdR_RCjets" Label="leadingdR_RCjets" Title="leadingdR_RCjets" Unit="" Internal="leadingdR_RCjets" Type="D" Min="9.84904543e-02" Max="5.06098366e+00"/>
    <Variable VarIndex="13" Expression="dEtamin_RCjets" Label="dEtamin_RCjets" Title="dEtamin_RCjets" Unit="" Internal="dEtamin_RCjets" Type="D" Min="1.43051147e-06" Max="3.97469997e+00"/>
    <Variable VarIndex="14" Expression="RCMV0_nconsts" Label="RCMV0_nconsts" Title="RCMV0_nconsts" Unit="" Internal="RCMV0_nconsts" Type="D" Min="0.00000000e+00" Max="2.00000000e+00"/>
    <Variable VarIndex="15" Expression="leadingdPhi_RCjets" Label="leadingdPhi_RCjets" Title="leadingdPhi_RCjets" Unit="" Internal="leadingdPhi_RCjets" Type="D" Min="1.79171562e-04" Max="3.14159131e+00"/>
    <Variable VarIndex="16" Expression="RCMHiggs0_pt" Label="RCMHiggs0_pt" Title="RCMHiggs0_pt" Unit="" Internal="RCMHiggs0_pt" Type="D" Min="0.00000000e+00" Max="3.57535034e+03"/>
    <Variable VarIndex="17" Expression="dEtamin_RCMTT" Label="dEtamin_RCMTT" Title="dEtamin_RCMTT" Unit="" Internal="dEtamin_RCMTT" Type="D" Min="1.43051147e-06" Max="3.97673726e+00"/>
    <Variable VarIndex="18" Expression="dPhiavg_RCMTTMET" Label="dPhiavg_RCMTTMET" Title="dPhiavg_RCMTTMET" Unit="" Internal="dPhiavg_RCMTTMET" Type="D" Min="1.43569708e-03" Max="3.13892746e+00"/>
    <Variable VarIndex="19" Expression="RCMHiggs0_nbconsts" Label="RCMHiggs0_nbconsts" Title="RCMHiggs0_nbconsts" Unit="" Internal="RCMHiggs0_nbconsts" Type="D" Min="0.00000000e+00" Max="5.00000000e+00"/>
    <Variable VarIndex="20" Expression="dEtaavg_RCjets" Label="dEtaavg_RCjets" Title="dEtaavg_RCjets" Unit="" Internal="dEtaavg_RCjets" Type="D" Min="1.43051147e-06" Max="3.97469997e+00"/>
  </Variables>
  <Spectators NSpec="7">
    <Spectator SpecIndex="0" Expression="VLQtype" Label="VLQtype" Title="VLQtype" Unit="" Internal="VLQtype" Type="F" Min="-1.00000000e+00" Max="6.00000000e+00"/>
    <Spectator SpecIndex="1" Expression="channel" Label="channel" Title="channel" Unit="" Internal="channel" Type="F" Min="0.00000000e+00" Max="6.00000000e+00"/>
    <Spectator SpecIndex="2" Expression="event_number" Label="event_number" Title="event_number" Unit="" Internal="event_number" Type="F" Min="1.00000000e+01" Max="2.84778752e+08"/>
    <Spectator SpecIndex="3" Expression="mc_campaign" Label="mc_campaign" Title="mc_campaign" Unit="" Internal="mc_campaign" Type="F" Min="1.00000000e+00" Max="3.00000000e+00"/>
    <Spectator SpecIndex="4" Expression="run_number" Label="run_number" Title="run_number" Unit="" Internal="run_number" Type="F" Min="2.76262000e+05" Max="3.64292000e+05"/>
    <Spectator SpecIndex="5" Expression="sampleID" Label="sampleID" Title="sampleID" Unit="" Internal="sampleID" Type="F" Min="3.02480000e+05" Max="7.00496000e+05"/>
    <Spectator SpecIndex="6" Expression="sampleName" Label="sampleName" Title="sampleName" Unit="" Internal="sampleName" Type="F" Min="3.00000000e+00" Max="1.70000000e+01"/>
  </Spectators>
  <Classes NClass="2">
    <Class Name="Signal" Index="0"/>
    <Class Name="Background" Index="1"/>
  </Classes>
  <Transformations NTransformations="1">
    <Transform Name="Normalize">
      <Selection>
        <Input NInputs="21">
          <Input Type="Variable" Label="meff" Expression="meff"/>
          <Input Type="Variable" Label="RCjet2_pt" Expression="RCjet2_pt"/>
          <Input Type="Variable" Label="dRmin_RCjets" Expression="dRmin_RCjets"/>
          <Input Type="Variable" Label="dPhiavg_RCjets" Expression="dPhiavg_RCjets"/>
          <Input Type="Variable" Label="dRmin_RCMTT" Expression="dRmin_RCMTT"/>
          <Input Type="Variable" Label="mtbmin" Expression="mtbmin"/>
          <Input Type="Variable" Label="RCMTT_jets_n" Expression="RCMTT_jets_n"/>
          <Input Type="Variable" Label="met" Expression="met"/>
          <Input Type="Variable" Label="RCMTop0_pt" Expression="RCMTop0_pt"/>
          <Input Type="Variable" Label="bjets_n" Expression="bjets_n"/>
          <Input Type="Variable" Label="mvlq0_RCTTM_drmax" Expression="mvlq0_RCTTM_drmax"/>
          <Input Type="Variable" Label="mvlq1_rcj_drmax" Expression="mvlq1_rcj_drmax"/>
          <Input Type="Variable" Label="leadingdR_RCjets" Expression="leadingdR_RCjets"/>
          <Input Type="Variable" Label="dEtamin_RCjets" Expression="dEtamin_RCjets"/>
          <Input Type="Variable" Label="RCMV0_nconsts" Expression="RCMV0_nconsts"/>
          <Input Type="Variable" Label="leadingdPhi_RCjets" Expression="leadingdPhi_RCjets"/>
          <Input Type="Variable" Label="RCMHiggs0_pt" Expression="RCMHiggs0_pt"/>
          <Input Type="Variable" Label="dEtamin_RCMTT" Expression="dEtamin_RCMTT"/>
          <Input Type="Variable" Label="dPhiavg_RCMTTMET" Expression="dPhiavg_RCMTTMET"/>
          <Input Type="Variable" Label="RCMHiggs0_nbconsts" Expression="RCMHiggs0_nbconsts"/>
          <Input Type="Variable" Label="dEtaavg_RCjets" Expression="dEtaavg_RCjets"/>
        </Input>
        <Output NOutputs="21">
          <Output Type="Variable" Label="meff" Expression="meff"/>
          <Output Type="Variable" Label="RCjet2_pt" Expression="RCjet2_pt"/>
          <Output Type="Variable" Label="dRmin_RCjets" Expression="dRmin_RCjets"/>
          <Output Type="Variable" Label="dPhiavg_RCjets" Expression="dPhiavg_RCjets"/>
          <Output Type="Variable" Label="dRmin_RCMTT" Expression="dRmin_RCMTT"/>
          <Output Type="Variable" Label="mtbmin" Expression="mtbmin"/>
          <Output Type="Variable" Label="RCMTT_jets_n" Expression="RCMTT_jets_n"/>
          <Output Type="Variable" Label="met" Expression="met"/>
          <Output Type="Variable" Label="RCMTop0_pt" Expression="RCMTop0_pt"/>
          <Output Type="Variable" Label="bjets_n" Expression="bjets_n"/>
          <Output Type="Variable" Label="mvlq0_RCTTM_drmax" Expression="mvlq0_RCTTM_drmax"/>
          <Output Type="Variable" Label="mvlq1_rcj_drmax" Expression="mvlq1_rcj_drmax"/>
          <Output Type="Variable" Label="leadingdR_RCjets" Expression="leadingdR_RCjets"/>
          <Output Type="Variable" Label="dEtamin_RCjets" Expression="dEtamin_RCjets"/>
          <Output Type="Variable" Label="RCMV0_nconsts" Expression="RCMV0_nconsts"/>
          <Output Type="Variable" Label="leadingdPhi_RCjets" Expression="leadingdPhi_RCjets"/>
          <Output Type="Variable" Label="RCMHiggs0_pt" Expression="RCMHiggs0_pt"/>
          <Output Type="Variable" Label="dEtamin_RCMTT" Expression="dEtamin_RCMTT"/>
          <Output Type="Variable" Label="dPhiavg_RCMTTMET" Expression="dPhiavg_RCMTTMET"/>
          <Output Type="Variable" Label="RCMHiggs0_nbconsts" Expression="RCMHiggs0_nbconsts"/>
          <Output Type="Variable" Label="dEtaavg_RCjets" Expression="dEtaavg_RCjets"/>
        </Output>
      </Selection>
      <Class ClassIndex="0">
        <Ranges>
          <Range Index="0" Min="1.0241549072265625e+03" Max="7.5101684570312500e+03"/>
          <Range Index="1" Min="0.0000000000000000e+00" Max="1.5845148925781250e+03"/>
          <Range Index="2" Min="5.5890273302793503e-02" Max="4.5015749931335449e+00"/>
          <Range Index="3" Min="5.7048797607421875e-03" Max="3.1415436267852783e+00"/>
          <Range Index="4" Min="5.5890273302793503e-02" Max="4.7766294479370117e+00"/>
          <Range Index="5" Min="1.8194746226072311e-03" Max="1.4513132324218750e+03"/>
          <Range Index="6" Min="2.0000000000000000e+00" Max="6.0000000000000000e+00"/>
          <Range Index="7" Min="2.0000108337402344e+02" Max="3.0140288085937500e+03"/>
          <Range Index="8" Min="0.0000000000000000e+00" Max="2.8998303222656250e+03"/>
          <Range Index="9" Min="2.0000000000000000e+00" Max="8.0000000000000000e+00"/>
          <Range Index="10" Min="4.1113641357421875e+02" Max="5.0504750976562500e+03"/>
          <Range Index="11" Min="0.0000000000000000e+00" Max="4.6034614257812500e+03"/>
          <Range Index="12" Min="2.5897905230522156e-01" Max="4.5258812904357910e+00"/>
          <Range Index="13" Min="1.2204051017761230e-05" Max="3.8593454360961914e+00"/>
          <Range Index="14" Min="0.0000000000000000e+00" Max="2.0000000000000000e+00"/>
          <Range Index="15" Min="3.8623809814453125e-04" Max="3.1415436267852783e+00"/>
          <Range Index="16" Min="0.0000000000000000e+00" Max="2.5180991210937500e+03"/>
          <Range Index="17" Min="2.4199485778808594e-05" Max="3.8990325927734375e+00"/>
          <Range Index="18" Min="9.1788351535797119e-02" Max="3.1196963787078857e+00"/>
          <Range Index="19" Min="0.0000000000000000e+00" Max="5.0000000000000000e+00"/>
          <Range Index="20" Min="3.5438500344753265e-04" Max="3.8593454360961914e+00"/>
        </Ranges>
      </Class>
      <Class ClassIndex="1">
        <Ranges>
          <Range Index="0" Min="1.0000049438476562e+03" Max="8.8620341796875000e+03"/>
          <Range Index="1" Min="0.0000000000000000e+00" Max="1.6289982910156250e+03"/>
          <Range Index="2" Min="2.5098161771893501e-02" Max="5.0609836578369141e+00"/>
          <Range Index="3" Min="1.7917156219482422e-04" Max="3.1415913105010986e+00"/>
          <Range Index="4" Min="7.0631481707096100e-02" Max="5.0609836578369141e+00"/>
          <Range Index="5" Min="4.8889181925915182e-05" Max="1.5852106933593750e+03"/>
          <Range Index="6" Min="2.0000000000000000e+00" Max="6.0000000000000000e+00"/>
          <Range Index="7" Min="2.0000015258789062e+02" Max="4.0684528808593750e+03"/>
          <Range Index="8" Min="0.0000000000000000e+00" Max="3.6452185058593750e+03"/>
          <Range Index="9" Min="2.0000000000000000e+00" Max="8.0000000000000000e+00"/>
          <Range Index="10" Min="3.8608703613281250e+02" Max="7.1940966796875000e+03"/>
          <Range Index="11" Min="0.0000000000000000e+00" Max="5.6562089843750000e+03"/>
          <Range Index="12" Min="9.8490454256534576e-02" Max="5.0609836578369141e+00"/>
          <Range Index="13" Min="1.4305114746093750e-06" Max="3.9746999740600586e+00"/>
          <Range Index="14" Min="0.0000000000000000e+00" Max="2.0000000000000000e+00"/>
          <Range Index="15" Min="1.7917156219482422e-04" Max="3.1415913105010986e+00"/>
          <Range Index="16" Min="0.0000000000000000e+00" Max="3.5753503417968750e+03"/>
          <Range Index="17" Min="1.4305114746093750e-06" Max="3.9767372608184814e+00"/>
          <Range Index="18" Min="1.4356970787048340e-03" Max="3.1389274597167969e+00"/>
          <Range Index="19" Min="0.0000000000000000e+00" Max="4.0000000000000000e+00"/>
          <Range Index="20" Min="1.4305114746093750e-06" Max="3.9746999740600586e+00"/>
        </Ranges>
      </Class>
      <Class ClassIndex="2">
        <Ranges>
          <Range Index="0" Min="1.0000049438476562e+03" Max="8.8620341796875000e+03"/>
          <Range Index="1" Min="0.0000000000000000e+00" Max="1.6289982910156250e+03"/>
          <Range Index="2" Min="2.5098161771893501e-02" Max="5.0609836578369141e+00"/>
          <Range Index="3" Min="1.7917156219482422e-04" Max="3.1415913105010986e+00"/>
          <Range Index="4" Min="5.5890273302793503e-02" Max="5.0609836578369141e+00"/>
          <Range Index="5" Min="4.8889181925915182e-05" Max="1.5852106933593750e+03"/>
          <Range Index="6" Min="2.0000000000000000e+00" Max="6.0000000000000000e+00"/>
          <Range Index="7" Min="2.0000015258789062e+02" Max="4.0684528808593750e+03"/>
          <Range Index="8" Min="0.0000000000000000e+00" Max="3.6452185058593750e+03"/>
          <Range Index="9" Min="2.0000000000000000e+00" Max="8.0000000000000000e+00"/>
          <Range Index="10" Min="3.8608703613281250e+02" Max="7.1940966796875000e+03"/>
          <Range Index="11" Min="0.0000000000000000e+00" Max="5.6562089843750000e+03"/>
          <Range Index="12" Min="9.8490454256534576e-02" Max="5.0609836578369141e+00"/>
          <Range Index="13" Min="1.4305114746093750e-06" Max="3.9746999740600586e+00"/>
          <Range Index="14" Min="0.0000000000000000e+00" Max="2.0000000000000000e+00"/>
          <Range Index="15" Min="1.7917156219482422e-04" Max="3.1415913105010986e+00"/>
          <Range Index="16" Min="0.0000000000000000e+00" Max="3.5753503417968750e+03"/>
          <Range Index="17" Min="1.4305114746093750e-06" Max="3.9767372608184814e+00"/>
          <Range Index="18" Min="1.4356970787048340e-03" Max="3.1389274597167969e+00"/>
          <Range Index="19" Min="0.0000000000000000e+00" Max="5.0000000000000000e+00"/>
          <Range Index="20" Min="1.4305114746093750e-06" Max="3.9746999740600586e+00"/>
        </Ranges>
      </Class>
    </Transform>
  </Transformations>
  <MVAPdfs/>
  <Weights>
    <Layout NLayers="6">
      <Layer Index="0" NNeurons="22">
        <Neuron NSynapses="30">
          7.5215182687779132e+00 1.4047143711348924e+00 1.0219016495253005e+01 7.7078146419101679e-01 -2.0306206199329274e+01 -1.8157683958299621e+01 -8.0773230493290367e+00 7.4363855851011174e+00 -5.8248152501506363e+00 -1.2984578675327358e+00 -2.0006935362020672e+00 5.8724226756019604e+00 -1.1089462796723302e+01 4.4893761412803279e-01 -4.3571919238106958e+00 -6.2220151582828476e-01 -1.9052634398519868e+00 1.0853929511438947e+00 1.4508787691064982e+00 3.0944076148396200e+00 -6.8888637295696808e+00 -4.3294165714953187e-01 1.6274930226546487e+00 4.0983955564815738e-01 -4.6481883624834625e-01 -3.0334197164592902e-01 -1.0014474160172928e+00 -5.0858959841484195e+00 -1.7934455903213426e+01 7.0127244714460946e-01 
        </Neuron>
        <Neuron NSynapses="30">
          6.1144841452297198e+00 2.4919372632077130e+00 1.6651522920002357e+00 -1.0798310535551139e+00 2.0779653333239620e+00 2.7954793818776680e+00 1.1899018347947514e-01 7.1659810594406856e+00 -7.5881661809348111e-01 7.2358959154898217e-01 5.9834056910451139e+00 1.4484165441555266e+00 3.8676480934206698e+00 1.7183573513005963e+00 1.3620916827272844e+00 -2.5397406205835593e+00 7.3936047427844320e-01 2.5949354338560173e+00 4.0765247341071775e-01 3.8403122746785403e+00 4.1588464965504462e-01 1.4657081403278320e+00 -4.3921109275839232e+00 6.7227296673831258e+00 3.0645219381232308e-01 -1.0310291130293381e+00 1.2742107492610080e+00 -5.5794711140169699e+00 4.8989241279686162e+00 1.1618676678735942e+00 
        </Neuron>
        <Neuron NSynapses="30">
          -3.3789980424540942e+00 2.4463952773478215e+00 -6.2265796814517094e-01 -1.3155315324519639e+00 4.5902413852958562e-01 -2.4913488227777414e+00 7.7071443649367377e-01 -6.9145812760639229e+00 -2.1909071980157475e+00 -9.0272263486327520e-01 2.2189364172684276e+00 5.8167175515183978e-01 1.0895658763573846e+00 2.7637155240829070e-01 -1.8068632026811955e+00 7.4944669580207401e-01 -2.7363197353048291e-01 1.1809016603380298e+00 -2.1175469185874096e+00 4.7708173281435631e+00 3.4682606520311650e+00 8.0068315626398878e-01 9.1924733805723871e-02 -2.2650124058089793e+00 -6.5327650846985819e-01 -2.4153179377185521e-01 -1.9973537946520705e+00 -1.6127289308438701e+00 -3.1853411803586908e+00 -2.0958735338701509e+00 
        </Neuron>
        <Neuron NSynapses="30">
          8.8467716975276434e-01 -2.6686855855807710e+00 5.2824803754945791e+00 -5.3524864298765729e-01 5.6433885841056119e-01 2.9764205289792285e+00 -5.7131615470620245e-01 2.9389989532338739e-01 -2.1305340107910054e+00 1.5422652944730711e-01 1.2916528240704184e-02 -5.5087069234736328e+00 -2.2254120991005628e+00 2.6611810663702640e+00 4.2973311171209199e+00 -8.2632179333276345e-01 -1.3331191614523077e+00 -2.1091493808918635e-01 3.5637490492133161e+00 -3.8276435345817306e-01 -1.6398776899192931e+00 1.2318139252382260e-01 2.1797232072482573e+00 1.3224184802472521e+00 -1.5456121154608843e-01 1.7447351918519503e+00 3.2729714284063212e+00 -1.0037894371413625e+00 3.4108651627849246e-01 -1.8135967534973334e+00 
        </Neuron>
        <Neuron NSynapses="30">
          -3.1560555525512983e+00 4.0287142770088131e+00 4.9576314103590295e+00 -3.5463237951541859e-01 4.6461647884749664e-02 -3.8632811935435227e+00 -1.2623612015242174e+00 1.5344781525580544e+00 -1.6823620042957466e+00 1.0044107937226709e+00 1.5255408020196688e+00 -4.3485239197268610e+00 -8.9795017681550793e-01 -4.7076798933967456e+00 -1.2875732152015860e+00 4.4422813972197668e+00 8.4612118989603822e+00 -1.3452639247352840e+00 1.8676316993888440e+00 1.4411405342527939e+00 -7.8134040222627876e-01 2.7930303866395145e-01 -1.4269454736715912e+00 -2.3395231682404156e+00 1.7373507650761630e+00 1.5635771191849253e+00 -7.1321001275228668e-01 1.9614902955289986e+00 -2.1511064487524223e+00 2.0820006512117137e-01 
        </Neuron>
        <Neuron NSynapses="30">
          5.0126243659269487e-01 -7.3962393776219479e-02 1.4999780915739240e+00 -2.4440807301036505e-01 -4.8749082286296357e+00 -4.5722129437687924e+00 7.4807500437836488e-02 -9.3619341551166163e-03 2.2835694445776422e+00 -1.7995943260793335e+00 1.1173244312264588e+01 -4.1009119942284089e+00 2.8623949887699554e+00 1.0719164425580714e+00 -1.5585513694348776e+00 -3.2836215782787376e-01 3.5843003759909070e-01 -6.5171371566103065e-01 3.1001013669089855e-01 3.9258309078022422e+00 5.6667570246086765e+00 1.4066789634434012e+00 2.2357825939693687e+00 2.6651943679917531e+00 2.7999094362117525e+01 -1.9554083531236257e+00 2.1823279172542835e+00 -1.5492492778815106e+00 3.8108509267532349e+00 -1.3863291008799197e+00 
        </Neuron>
        <Neuron NSynapses="30">
          -4.0699063777462632e+00 4.5727154869902966e+00 1.1000335586818304e+00 -2.8014040936211235e+00 -3.2463647962677483e-01 -7.6341298337485919e-01 4.8081864310945349e-01 3.1414075922873037e+00 -1.2079636260890838e+00 -8.8234705478403530e-01 -5.4274527297431296e-01 -1.6937799518587671e+00 1.3856318821958062e+00 3.5352204767587243e+00 -2.1101963863955757e+00 2.0034341609651010e-01 -2.0682850614727610e+00 1.2076916423365940e+00 -1.2413145272131698e+00 -8.2123179602414464e-01 -1.9115375712264211e+00 6.1567121852507389e-01 -5.7748081180836486e-01 -6.8482442578558156e-01 -1.2514871119232491e+00 7.4112250545416325e-01 -1.6091166496367657e+00 1.1715287625462603e+00 4.0127571133253515e+00 1.2576256694396439e+00 
        </Neuron>
        <Neuron NSynapses="30">
          -4.0538740779821572e+00 1.3189345542823644e-01 -3.2544571569412362e-01 -5.1800330190905006e-02 -1.2313816069906669e+00 1.9712942569134037e-01 -2.3876161635740805e+00 2.8350299661481144e+00 1.0207858642843304e+01 -1.9806638193856623e+00 -5.2568638874973629e-02 3.6018656256492143e+00 -4.4949437980487925e+00 5.1272217136510099e+00 9.1273376755663960e-01 -3.7557573210758177e-01 -4.3116458664496733e+00 -1.6624018850609077e+00 -9.1258090727454066e-01 -2.8384946444990433e+00 3.6669198537912706e+00 5.3116259702976487e-01 -8.7563415372193074e-02 -2.6018061415337734e+00 5.9179533805280971e-01 -1.8584472322399914e+00 -2.5877203436324754e+00 -2.7298600780099314e+00 -7.5265980944565403e+00 -1.0006645237382339e+00 
        </Neuron>
        <Neuron NSynapses="30">
          -7.1146752899464116e-01 1.4016647786776440e-01 1.7368215337198130e+00 -7.1607750742664091e+00 -2.5792486862151072e+00 6.3647452428926254e-01 6.6443914329935714e+00 7.4666263340194761e-01 1.3256377469836393e+01 -1.0715903480675821e+00 -1.4523032693476419e+00 1.2226187796929371e-01 4.4890197839284314e+00 3.1881619694051646e+00 2.9528252607300214e+00 -1.3391841091065568e+00 -9.7845772336942982e+00 -5.4537120280190763e+00 -1.0520257607267895e+00 2.6775210460043150e-02 -9.6041863317262099e-01 6.4656728044835099e-01 4.2735842635290666e+00 -4.6905352299433432e+00 -4.4658513065856992e-01 -6.2838878777855156e-01 1.2003358978440914e+00 1.0631693154886138e+01 8.2169580304037704e-01 7.2312728293403267e-02 
        </Neuron>
        <Neuron NSynapses="30">
          -1.5559967526376313e+00 3.6480249346486446e+00 4.4045164084290561e-01 5.6243402522278236e+00 8.9842244738811833e-03 -5.6689440406691052e+00 4.1150613689547990e+00 1.1442675701173600e-01 9.1837912755484707e-01 -7.2814472397031671e-01 1.5366344976800923e+00 -2.2657662108304679e+00 -1.0165358207172153e+00 3.1384189655077601e+00 -4.3839481873584116e+00 8.4040125788777509e-01 -9.7675689309079949e-01 -3.5598695123155571e-01 -8.1176394564727694e+00 9.0353745312759137e-01 -1.8247670926497186e+00 1.3734529241017832e+00 -5.1037564285226633e+00 2.6763674152574741e+00 -7.6751443043631729e-01 -1.9684403840069844e+00 5.6279306005431816e-02 2.8498326012706493e-01 -7.4269250985419832e-01 -8.9013918646575829e-01 
        </Neuron>
        <Neuron NSynapses="30">
          -2.2314087005052841e+00 -1.9914060458185074e+00 4.9063163527867024e+00 -1.0899533709686839e+00 2.6711590331520996e+00 -9.3151637279407384e-01 -4.6087488152492631e+00 -3.4867613727646045e+00 -1.7837406615380860e+00 -1.6782697406165448e+00 3.9696585894166225e+00 -7.2450986616868978e+00 -5.6848407593557537e+00 1.6476631949220364e-02 4.4479185239315076e+00 -7.5191075992103695e-01 8.4818473697202990e+00 -1.2024963224340152e-01 1.7783099917313596e+00 -2.1431566166746016e-01 -2.7766062513318803e+00 -4.6115271962644155e-01 -2.1829981303463635e+00 -5.8976591610451312e-01 1.8946062332634495e-01 1.8438402030084227e+00 5.2556124073948718e+00 1.1884738472918204e+00 -4.7131259595599273e+00 1.7543302282730386e+00 
        </Neuron>
        <Neuron NSynapses="30">
          -3.3323256543548569e+00 -1.4732628585887817e+00 -2.1687587510119042e+00 -5.2542303967815425e+00 2.9688515927272947e+00 7.0029401120265575e+00 1.2235433747702544e+00 5.3470858625452218e+00 4.3132016766934506e-01 -6.0858497301073644e-01 2.6013304380724511e-01 -3.6628717725205693e+00 4.3342732370429360e+00 1.7368253435050443e+00 2.6069506773066355e+00 -9.9401684755002162e-01 -2.2775138658941483e+00 1.0355454041650980e+00 -9.1121075021213171e-01 -1.0989231501233594e+00 -3.6665528344114398e+00 2.0432455551025401e+00 1.5118892196395839e+00 5.3356557510312461e+00 -2.6668355002634341e+00 -1.6015081511234317e+00 -4.3175870677718322e+00 -6.6753704948767367e-01 1.0613932653676250e+00 -9.0090985156615422e-01 
        </Neuron>
        <Neuron NSynapses="30">
          6.4323046971252458e+00 -1.1642348868373886e+00 -5.5061572832243328e+00 -1.6990457154972511e+00 -3.6889551246250479e-01 2.5242073005958590e+00 -4.6708449126510310e+00 7.8966737013787508e-02 -2.2784093189208892e+00 -1.6430877444780809e+00 2.4684786103209659e+00 -3.6600283923860291e+00 -2.2894702905597435e+00 9.1490707272817440e-01 -3.0048066194325558e+00 1.9220377104276138e+00 8.1055279490195409e-01 1.7480220439352168e+00 1.3023003862033313e+00 4.9329208313195116e-01 -2.5987569848646225e-01 -6.7854549064841319e-01 -2.9105959137262354e+00 -3.6917032133650424e-01 7.3234563254787099e-01 1.4763397455015169e-02 3.9706930022936571e-01 1.2378637651003916e+00 3.2778047924332201e+00 -1.3640749405661174e+00 
        </Neuron>
        <Neuron NSynapses="30">
          1.5176737783487040e+00 -2.3512379369615330e+00 -2.4305137545202933e+00 3.0020711998713803e+00 -2.7829318703665479e-01 1.3274686792675585e+00 3.9930536274406041e+00 -1.0952367317570295e+00 2.2721017024713475e+00 -5.8025400757731838e-01 1.2111471621003453e+00 2.9626626689815332e+00 -1.1961149531994153e-01 1.5592278420966652e+00 -1.0692386301390864e+00 -2.2887893264298367e-01 8.5405524864734561e-01 9.1975058318848735e-01 -1.9506576566352010e-01 2.4815536203377668e+00 6.8400765317511580e-01 -9.1652636990515635e-01 8.9415882375079181e-01 1.9722774173354076e+00 1.1050105561296892e+00 -2.3984776947994729e-01 2.1906785877363788e+00 -1.6686803536068981e+00 3.5880084030108268e+00 -6.9113069289340034e-01 
        </Neuron>
        <Neuron NSynapses="30">
          -6.5342712180097262e-01 3.4156977696358308e+00 1.0607900057866460e+00 -7.4890612656353293e+00 -9.3545191925986583e-04 1.1303590510560915e+00 -1.3136901743223819e+00 -1.1772719909943097e+00 2.7605517916465067e-01 2.9762376521131656e-01 -5.7222027102855222e-01 1.4642699915278761e+00 -6.0202988980979386e+00 5.4107960080616035e-01 2.8188231331264166e+00 1.0741212040467312e+00 3.2103511115117653e+00 -1.8313845856648014e-01 -2.7567802947931672e+00 3.2575442122237468e+00 -2.0235261216033851e+00 -1.1041287719580659e+00 -7.4693430992446519e-01 1.8540309572888974e-01 1.4917297197731674e-01 1.4036728248380583e+00 6.9735597447230004e+00 9.5635540911749306e-01 8.1488690370482553e-01 -1.3092699859222956e+00 
        </Neuron>
        <Neuron NSynapses="30">
          -1.1850216794437842e+00 2.1506486700912979e+00 1.8487626286689335e-01 3.1946510397577521e+00 -1.5667796545752370e+00 -2.2266438718601660e+00 -4.3416959304850025e+00 -8.3598045230547513e-01 1.5905002196812275e+00 1.8661668055350584e+00 -1.0851544988309736e+00 -3.8249097684214437e+00 1.0767053726230773e+00 -2.1942087235583485e+00 4.1649775797064441e+00 1.6658853627196021e-01 -1.2617685158208611e+00 -1.9703148916258162e+00 -9.0933217529024046e-01 1.1971524883190079e+00 -1.3165744193459017e+00 -9.2050290877314422e-01 -3.5397698053935907e+00 -2.6101726209856380e-01 6.6895946709418272e-02 -1.2335291343781793e+00 1.6996019077294873e+00 -9.4912293072900822e-01 3.1427695909963758e+00 8.2222197020672672e-01 
        </Neuron>
        <Neuron NSynapses="30">
          -1.8729996623188028e+00 2.5732358984214816e+00 2.4183255124914740e+00 2.0443342984297289e-01 -3.2020410636252683e-01 3.0698432019094604e+00 -3.7753074419303903e+00 -1.3159134250934481e+00 6.4221365931970809e-01 3.0764629339462926e-03 -1.8890189150200316e+00 -3.7220144140609861e+00 -8.6691572803787476e-02 -5.7559544839656427e+00 -3.0851413616623042e+00 -1.3098925957882175e+00 4.1761340393422444e+00 1.4646898443242056e+00 -3.4363004619429489e+00 -7.2660391910099653e-01 -6.2650830199688148e+00 1.7928842333954760e+00 1.3322093918935560e+00 -4.0557764990906969e-01 -4.5717079071172984e-01 -1.0464762086483936e+00 3.9035896571847877e+00 -2.8211836916123061e+00 -1.7549338489046058e+00 -1.1983350709639586e+00 
        </Neuron>
        <Neuron NSynapses="30">
          -2.1560489592575154e+00 -1.2194620968804470e+00 6.8104255293164151e-01 2.3686012750915642e+00 -2.2858219718321457e+00 -1.0527045260003531e+00 -1.8078847014750539e+00 1.0858929209018564e+00 -8.2988554790284863e-01 6.7734312451350420e-01 9.4322252022510700e-01 -2.4980948185262419e+00 1.6318046394579773e+00 -9.0191530690842170e-01 1.9024558695247247e+00 2.8195248467372615e-02 -2.7960301896070650e-01 4.8478286044834168e-01 -7.1600079951967277e-01 -2.8352130053097411e+00 2.8232738176394778e-01 -5.7594456459446564e-01 4.3882594769752910e+00 1.0175622035611056e+00 -2.0783495590946917e+00 -6.3307362080031915e-01 -3.3093206730834899e+00 1.2748451350325405e+00 1.0730802503273338e+00 -1.7506921811409291e+00 
        </Neuron>
        <Neuron NSynapses="30">
          -2.3961986891935756e+00 1.0024738179671271e+00 9.9964119933509243e-01 -2.4792794109066083e+00 9.4005015345155940e-01 5.2210915343224795e-01 -1.0035811561495209e+00 -2.7955867626417615e-02 5.9621041567973765e-01 -9.0201954992280411e-02 -3.7034344619840504e-01 -1.7185774937386664e-01 -2.1245900244008777e+00 -9.7259784174122732e-01 -2.8193855174369284e+00 -3.1572482948081295e+00 -1.6263100120922789e+00 1.4328792750647790e+00 9.8624017245421047e-01 -4.9677741086333436e+00 3.9998628329463554e-01 1.6517569048252123e+00 -1.0416439081548969e+00 4.9524329732498176e+00 8.7162716563103437e-01 1.9246867447068047e-01 -6.9582581570418534e-01 -2.8363338533282549e+00 -1.3965765549352724e+00 -3.9072003088665092e-01 
        </Neuron>
        <Neuron NSynapses="30">
          2.4218231651936128e-01 4.1667458315038475e-01 8.8876400411983603e-01 -7.3278372299944150e-01 2.4618195563722685e+00 -3.2535693046873062e+00 -1.4232536571509580e+00 -1.1057939835928605e-01 1.0413097684102361e+00 -2.1203079899899246e+00 -7.8645882393324140e-01 1.7839693737033402e+00 -8.5959536212699572e-01 -3.8380307828186422e+00 6.4387182506928289e+00 -2.0968722697798099e+00 6.2897474161629496e-01 5.9981206699351617e+00 3.3932889557991777e+00 -2.0670029038475359e+00 -2.1197511321256459e+00 1.2979825810954944e+00 1.3210534569382082e+00 -7.2254736528680374e-01 -1.3270036540042440e-01 -1.0829847244057162e+00 3.1050777411923747e-01 -1.0484755861938831e+01 4.1980931527828984e+00 -1.6860673707189373e+00 
        </Neuron>
        <Neuron NSynapses="30">
          9.9943843951951372e+00 -3.0553828263623060e+00 8.4269031068479574e+00 -3.4766368898299560e+00 4.3992049465580102e-01 -1.3261939065460344e+00 -4.8997078462113333e+00 4.1778032951580766e+00 1.2747821629459317e+00 -2.0837555668642482e-02 -3.9898536188757454e+00 1.0589923947930135e-01 4.6146315776026753e-01 -7.3394440756039658e-01 -2.4215818260952418e+00 2.1608624458652330e+00 -1.9526096710245378e+00 1.3334724093210180e+00 3.8855984604654434e+00 3.9814083673119599e-01 4.4016666136976914e+00 4.1397256445706160e-01 6.0797788403423436e-01 -4.3488990760181343e+00 5.6793272737962863e-01 -1.1557187193178224e+00 -1.8408593941055343e-01 -1.3398713264855986e+00 -1.4931894068840608e+00 6.1484364998478779e-02 
        </Neuron>
        <Neuron NSynapses="30">
          -6.2448767010272270e+00 4.2671736261295132e+00 1.8855079982990205e+01 -1.0010983920786096e+00 -1.7669502176206908e+01 -1.4187021130016939e+01 -7.5462831688238721e+00 1.5856710695474561e+01 1.6375316267661319e+01 -1.3417098226467155e+00 9.3380955691275584e+00 2.3455374037081933e+00 -6.4699000514542986e+00 6.8030899084828862e+00 -5.0868053737322931e+00 2.3113092751172910e-02 -5.9297693915195646e+00 1.9142651122360566e+00 -1.1068292795225030e+01 2.6394190370918058e+00 -8.9168730585174423e+00 -1.6890748359324661e+00 -3.1328880476147765e+00 2.3988918022465975e+00 1.6938970771290432e+01 8.7310477808100995e-01 -6.3009676772722290e-01 -1.1942359310679089e+01 -1.0464458534924360e+01 -2.1317445459647261e-01 
        </Neuron>
      </Layer>
      <Layer Index="1" NNeurons="31">
        <Neuron NSynapses="10">
          -3.7829415138854650e+00 7.1721744028699606e+00 9.8219194967407719e-01 -1.3589102454884274e+00 -2.2310595645014453e+00 5.0665816470979019e-01 -2.3136425233669438e+00 2.4024765518763456e+00 -7.6669840423923363e-01 3.0360272070929306e+00 
        </Neuron>
        <Neuron NSynapses="10">
          -2.8779734424194601e+00 1.2708105148704290e+00 -7.1254681525721741e-01 -4.8914204739936085e-01 3.7840666500237479e+00 -4.7418365141113492e+00 3.0385393608011322e+00 2.8457645184138145e+00 -4.2620429374443131e-01 -2.1953415171970794e+00 
        </Neuron>
        <Neuron NSynapses="10">
          1.6916967781338095e+00 -5.0516384859226493e-01 1.8287260634423739e+00 -1.1652569535547233e+00 2.4397816410053488e+00 1.3972838859712267e-01 1.8692829373442632e+00 3.6684066054275588e-01 -2.5897414195895867e+00 -3.5377104779136448e+00 
        </Neuron>
        <Neuron NSynapses="10">
          -1.0264576240064580e+00 -8.1768834762504239e-02 7.8522785314673660e-01 9.1478047610288393e-01 1.0587828519178308e+00 -1.6439378135373202e+00 1.4158378304408179e+00 5.6089725159685280e+00 -2.4739098557956467e+00 -1.6571289538389395e+00 
        </Neuron>
        <Neuron NSynapses="10">
          1.5744904264844339e+00 3.3589022090963776e+00 8.3838884893826160e-01 -7.2054817048208364e-01 -4.0136936265417544e+00 -9.9559918603306019e-01 -6.5144241944127934e-01 -3.3150723075658006e+00 3.1007355664435208e+00 2.2611601427374528e+00 
        </Neuron>
        <Neuron NSynapses="10">
          -2.9959194414843986e+00 1.6274835120383144e+00 1.1367734621250170e+00 5.3128087661884149e-02 -1.5301739375524870e+00 1.1080901021504992e+00 -1.6457532841574862e-01 -4.7727011993803137e+00 4.9900554701124582e+00 -1.7454264474165184e+00 
        </Neuron>
        <Neuron NSynapses="10">
          -4.2111663679193022e-02 6.7298455791087139e+00 -1.4605773586963244e+00 -6.1882500611749480e-01 2.2800846342925887e+00 -1.6357544329965357e+00 2.6818301763752213e+00 2.4836486879873793e-01 4.9823130535030797e+00 -6.8101682284106702e-01 
        </Neuron>
        <Neuron NSynapses="10">
          1.8699860388553717e+00 -2.4210404338805658e+00 1.9861586256296573e+00 1.9095188461453647e+00 -1.6783177413831477e-01 -3.2540938679051355e-02 -1.0104148208744754e+00 9.0677889523681774e+00 -4.0167139565636791e+00 -1.8369237180145950e-01 
        </Neuron>
        <Neuron NSynapses="10">
          3.6782590630960166e+00 -4.6429883039228681e-01 -1.8272148227028977e+00 6.8914220951046823e-02 2.0944027700304559e+00 -2.6239618151179052e+00 -1.3635757613160890e-01 -6.2198135469366311e-01 -4.5242320473264588e+00 -3.3867783574124175e+00 
        </Neuron>
        <Neuron NSynapses="10">
          -8.3175640844167856e-02 2.5142139624739818e-01 1.4094947167963612e+00 1.1566519145013487e+00 3.2501419477484489e-01 -7.2275375314464207e-02 1.0443084021274298e+00 1.1389113808835010e+00 -2.1495244843425771e+00 2.2483994773857510e+00 
        </Neuron>
        <Neuron NSynapses="10">
          1.5166074242612304e+00 -3.9921520743443573e+00 3.5070551318418802e-01 -8.7448163389827083e-01 8.0524034006150185e+00 -4.9226383528133627e-01 2.2349386551087713e-02 -1.8894342028064068e+00 9.1969612693157898e-01 -3.2397205585989237e+00 
        </Neuron>
        <Neuron NSynapses="10">
          6.1119685698170638e+00 -2.7654387338112940e+00 1.0269159259114446e+00 1.3889240217601793e+00 9.9750005707572598e-01 -1.0370304994774431e+00 -5.2179227986251835e+00 2.4160198851229664e+00 -3.5243868229887809e+00 1.0139063267765482e+00 
        </Neuron>
        <Neuron NSynapses="10">
          -4.8146002525333440e+00 1.8373906752564413e+00 1.1457610728825529e+00 -7.9263107237504182e-01 -1.1821913812620142e+00 2.4665107240776951e+00 -9.6422863106029311e-01 -3.3060458107974653e+00 3.1692516335767653e+00 -1.1084160505971092e+00 
        </Neuron>
        <Neuron NSynapses="10">
          3.0526986398653446e+00 -3.5620126167600237e+00 -4.9187895593110559e-01 1.2344366552419354e-03 -2.3057763752235458e+00 -6.2876502256367109e-02 1.1357086055726697e+00 4.2140234263739931e+00 1.8942347622599212e+00 -2.5707801330518882e+00 
        </Neuron>
        <Neuron NSynapses="10">
          -2.1097600180246383e+00 2.7450840568193273e+00 1.2355407358878134e+00 -9.3908720557276071e-01 -3.8655207474576798e+00 3.8879387000110577e+00 3.5053991238912880e+00 -2.4672828280081212e+00 3.4008896049882253e-01 -2.5586725807904629e+00 
        </Neuron>
        <Neuron NSynapses="10">
          2.0068364624578265e+00 -3.8947259595153088e+00 -1.1479618189381464e+00 -3.1773156298008948e-02 1.1790537847842406e+00 1.6308828095538719e+00 -9.4388460664113683e-01 1.3133109568969348e+00 -1.7169795250143354e+00 -2.0841878652544721e+00 
        </Neuron>
        <Neuron NSynapses="10">
          -2.3535538997561956e+00 1.5853081941958658e+00 5.0287198944208011e-01 -1.7754923229958623e+00 -2.7052502099922062e+00 2.4265479625546146e-01 -1.7757868051896939e+00 -1.5441953113699673e+00 -2.7439725741782262e-01 1.3909524123956429e+00 
        </Neuron>
        <Neuron NSynapses="10">
          6.9973666025857095e-01 -1.4347221209745304e+00 1.3719148558048182e+00 -8.9989973844832727e-01 -9.0678050625570550e-01 -3.3707761129649788e-01 6.5155715130115577e-01 3.1251354481611351e+00 1.4386438851603087e+00 -6.5482385890681867e+00 
        </Neuron>
        <Neuron NSynapses="10">
          -1.1688002735503316e+00 -1.4228397143978706e+00 -1.7007138835637612e+00 5.1917612791662615e-01 -3.8977479067595433e+00 1.6113731698957561e+00 3.8339427816528049e-02 9.1929315380361976e-01 -1.9923625547837087e+00 5.5292082196474013e+00 
        </Neuron>
        <Neuron NSynapses="10">
          -3.2011579424142322e-01 -1.4474595704485234e+00 -1.9630784134290067e+00 1.8752562269923052e+00 4.1240851035900929e+00 -1.3185055755783155e+00 7.1992433509266256e-03 6.2845669381281088e-01 3.1443284156941895e+00 5.6700210102674176e-01 
        </Neuron>
        <Neuron NSynapses="10">
          -1.7349050778577637e+00 5.0235082084229523e+00 -2.4683305050519053e-01 4.4856613598414707e-01 -1.0911257569205257e+00 -1.2642167139095870e-01 -2.2535154319508238e-01 -1.2683337055696331e+00 -2.0750909919402423e+00 9.0086436526438163e-01 
        </Neuron>
        <Neuron NSynapses="10">
          -3.5239533772558884e-01 1.0106702758026005e+00 1.6197283486263878e+00 1.9763470126533105e+00 -1.6508446533278638e+00 5.0854629341070934e-01 1.1290909356984711e+00 -1.6730185203997234e+00 -1.6941947118854965e+00 7.6226204165017541e-01 
        </Neuron>
        <Neuron NSynapses="10">
          -3.0433301051626498e+00 4.9120808878659759e+00 -1.9175841745723257e+00 3.8463407520524845e-01 -4.4076913476259589e+00 -3.0132618873745245e+00 -2.1499353507782342e+00 -3.7708658996202455e+00 1.3186842140292050e+00 5.2641954965491742e+00 
        </Neuron>
        <Neuron NSynapses="10">
          2.5419844663673650e+00 1.6285635359365849e+00 1.1674367788614544e+00 -1.1838841919995870e-02 2.4902594991117231e+00 -2.4664872450218795e+00 2.0626399724494564e+00 -4.0298101763899687e+00 -5.5654361342940621e+00 -2.2545784115325174e+00 
        </Neuron>
        <Neuron NSynapses="10">
          -4.9241795271539850e+00 8.9215978166499210e-01 5.6049852967177938e-01 8.1707327397136775e-01 1.0913263143021744e+01 -4.8393431748442595e+00 2.7786945482038115e+00 7.5938473592475864e-01 -2.1116680279180104e+00 -4.2361510389081873e+00 
        </Neuron>
        <Neuron NSynapses="10">
          1.5103302055420271e+00 -1.6994737397825381e+00 1.5982248011737519e+00 1.9312453582090174e+00 -7.1395084273932352e-01 2.6865594063901455e-01 -6.6121099124234450e-01 1.8590359635728297e+00 -2.3633621784616725e+00 8.5875578999760582e-01 
        </Neuron>
        <Neuron NSynapses="10">
          -2.4189132048202087e+00 1.0823969601103123e+00 1.2500843733235685e+00 1.3820339923115552e+00 -2.9272169927580149e+00 2.8858752345832510e+00 -8.7525429735334348e-01 4.3069701199294634e+00 6.6323343508903454e-01 1.1674562327074602e+00 
        </Neuron>
        <Neuron NSynapses="10">
          -1.8670569975193638e+00 -7.9107029094923564e-01 1.8762602802697375e+00 2.0568089527181961e+00 -3.3314648549907200e+00 2.3276554343106723e+00 -2.7963041932351049e+00 -4.1472838235799676e+00 2.8370157448678794e+00 1.7720303151420040e+00 
        </Neuron>
        <Neuron NSynapses="10">
          -8.7351074674661511e-01 7.0033927386613515e-01 -6.1389575886709891e-01 1.8919073183241550e+00 2.8648112399994474e+00 -1.1249619733677514e+00 3.2343600612157686e-01 -5.1470589364503656e+00 9.0572235634678044e+00 2.2840250307295027e+00 
        </Neuron>
        <Neuron NSynapses="10">
          -6.1106542743598169e-01 -8.5473490679582653e-01 8.3286239304313969e-01 -1.5354150228649457e-01 8.0406610925738309e-01 1.0793599734061537e-01 -2.1302590566241117e+00 -5.4666280150447366e-01 -2.1794958429402373e+00 3.1426012605276726e-01 
        </Neuron>
        <Neuron NSynapses="10">
          -6.0481714033805478e-02 7.4737800254462283e-01 1.3990001251764133e+00 1.4778336023997543e+00 -7.0719440108985857e-02 1.3950455810923884e-02 1.1284799940080701e+00 4.0514282507600013e-01 -1.2729084899119036e+00 2.4058104217372676e+00 
        </Neuron>
      </Layer>
      <Layer Index="2" NNeurons="11">
        <Neuron NSynapses="10">
          4.3369805680059565e+00 -6.4413853583682013e-01 -4.6472873585721315e+00 -5.3702410456598138e+00 -2.6612318181310251e+00 1.4589979565192630e+00 1.8862613704846927e+00 -3.5583786271856086e+00 -3.9155058153546145e+00 2.0017931265015361e+00 
        </Neuron>
        <Neuron NSynapses="10">
          -2.6605583463992297e+00 -1.6293593500891277e+00 -3.4215384812294607e+00 -1.8263884032416853e+00 1.0206875053708007e+00 -5.2571724492422767e-01 -3.1593746638675193e+00 3.6517852850434744e+00 5.5336929240212500e+00 -5.6573114697480866e+00 
        </Neuron>
        <Neuron NSynapses="10">
          2.1028970811005232e+00 2.4125382085244379e-01 2.1593196314433705e+00 1.0102785771391709e+00 1.2793737120063911e+00 -4.3908100796536337e-01 1.2598556792874402e+00 6.1846552138611011e-01 -2.8723831979033703e+00 -1.6872065346505556e+00 
        </Neuron>
        <Neuron NSynapses="10">
          -1.3037622333673660e+00 -1.6521375252377917e+00 -6.7965711360988046e-01 1.1465261423438267e-01 -8.4887338471614060e-01 -1.3483927093805912e+00 -1.7903095753246212e+00 1.4599031371305158e+00 -1.3666787568649688e+00 -1.8882727651503981e+00 
        </Neuron>
        <Neuron NSynapses="10">
          1.2858578856933545e+00 2.4501444260226051e+00 7.1190009052564083e+00 -1.2438841254527582e+00 1.3181153826788423e+00 -1.2278766148851034e-01 -1.0959693989368338e+00 -4.8299898540912816e+00 -5.8071827764248756e+00 4.5326820853108485e+00 
        </Neuron>
        <Neuron NSynapses="10">
          -4.6986070409152951e+00 6.3831777978663695e-01 -2.9781351332258654e+00 -6.1659310433163750e-01 -2.5636255045474337e+00 -6.1169182731161467e+00 -2.0957829605516900e+00 -5.8856526320737830e+00 5.4610180880794401e-01 -1.6257233628903816e+00 
        </Neuron>
        <Neuron NSynapses="10">
          5.9378963024843412e-01 -6.4826451122754036e-02 4.8152060078434040e+00 -2.5843450155447103e+00 -3.1941566644533688e+00 2.3333200330418853e+00 -1.4108513596360608e+00 1.9973911156446780e+00 1.1671088684490796e+00 -1.0466609290677542e+00 
        </Neuron>
        <Neuron NSynapses="10">
          1.0026324206604951e+00 -3.2079716935472637e+00 -1.2289002666821296e+00 -5.1231713986568224e+00 7.3817162457692422e+00 -4.8296701087033728e-01 2.7721923135690436e+00 -4.8717088773365100e+00 3.9401174417420841e+00 3.1866703070263642e+00 
        </Neuron>
        <Neuron NSynapses="10">
          -5.9085324458691595e+00 4.8383069946884399e-01 -6.9956106229575239e+00 3.7777976233827335e+00 -3.0509399687700816e+00 -1.9882481937842658e+00 1.4533805149666013e-03 8.8435901254176408e-01 1.6323893120357003e+00 -2.0239710908367115e+00 
        </Neuron>
        <Neuron NSynapses="10">
          -9.1210073552633697e-01 2.7946195770149087e+00 -5.0817428345474012e+00 3.3280678094664897e+00 3.2550181505384432e+00 -6.2162149578763417e+00 -9.7339982618687204e-01 -1.6047457118283071e-01 -1.9273314117014231e-01 -4.8078569636256132e+00 
        </Neuron>
        <Neuron NSynapses="10">
          8.8332545369931526e-01 -7.9296844770115327e-01 1.0559490784859171e+00 -1.0586909614513575e+00 -2.0046384167372830e-01 -6.5577949085437270e-01 -2.3985903303574183e+00 2.0014899430378814e+00 -2.3541611728116147e+00 8.2244794269183430e-01 
        </Neuron>
      </Layer>
      <Layer Index="3" NNeurons="11">
        <Neuron NSynapses="5">
          -1.7825954061016056e+00 -1.5555897214604362e+00 2.0022418958968191e+00 -3.9894896395538698e-02 -1.1246639123925792e+00 
        </Neuron>
        <Neuron NSynapses="5">
          -2.0531283922375922e+00 1.5328649831591490e+00 -1.7672081764497769e+00 -1.3123260841131410e+00 -3.0448529361800725e-01 
        </Neuron>
        <Neuron NSynapses="5">
          -3.5158998194267865e+00 -3.2017764107676108e+00 8.6369402986727761e-01 -1.3803474534393754e+00 -3.7841361068482793e+00 
        </Neuron>
        <Neuron NSynapses="5">
          7.4330380281903285e-01 2.8834718335592733e+00 -3.9473723208779519e+00 -4.2687079231862279e+00 2.6526901430714775e+00 
        </Neuron>
        <Neuron NSynapses="5">
          -4.4605877042207451e+00 -2.2050053943386523e+00 -1.1996062842175088e+00 -3.0953378007229126e+00 -2.7946015388038283e+00 
        </Neuron>
        <Neuron NSynapses="5">
          -1.0207010329148687e+00 -7.1428305264582115e-01 6.1017505233612788e+00 -1.8056838263680453e+00 -1.6199229504906028e+00 
        </Neuron>
        <Neuron NSynapses="5">
          -1.8615446528863349e+00 -2.3689878243179887e+00 1.0125900645324857e+00 -8.2447105050489655e-01 -1.6601992798155689e+00 
        </Neuron>
        <Neuron NSynapses="5">
          3.8103274417147239e+00 3.1562495755544133e+00 -1.9322528477041543e+00 1.7358726995834306e+00 2.1816637197623443e+00 
        </Neuron>
        <Neuron NSynapses="5">
          6.9121761638337109e-01 1.7321971718442701e+00 -9.4049941133046056e-01 3.9386100804152711e+00 2.3039851370812072e+00 
        </Neuron>
        <Neuron NSynapses="5">
          -3.1170837486932790e-01 -4.1531671826925889e+00 1.3948563311508724e+00 -1.9050138230828668e+00 -2.0192389407738651e-01 
        </Neuron>
        <Neuron NSynapses="5">
          -2.6359995335050996e+00 2.4650423147185565e+00 -3.7650051428378672e+00 1.1009155682951723e+00 4.3126017996427152e-01 
        </Neuron>
      </Layer>
      <Layer Index="4" NNeurons="6">
        <Neuron NSynapses="1">
          -4.6105387011833212e+00 
        </Neuron>
        <Neuron NSynapses="1">
          -2.6192280097134399e+00 
        </Neuron>
        <Neuron NSynapses="1">
          5.5213156721312853e+00 
        </Neuron>
        <Neuron NSynapses="1">
          -3.9490904520133032e+00 
        </Neuron>
        <Neuron NSynapses="1">
          -2.1483856276809048e+00 
        </Neuron>
        <Neuron NSynapses="1">
          6.0727001407950232e-01 
        </Neuron>
      </Layer>
      <Layer Index="5" NNeurons="1">
        <Neuron NSynapses="0"/>
      </Layer>
    </Layout>
  </Weights>
</MethodSetup>
