<?xml version="1.0"?>
<MethodSetup Method="MLP::MLP_fold3">
  <GeneralInfo>
    <Info name="TMVA Release" value="4.2.1 [262657]"/>
    <Info name="ROOT Release" value="6.20/06 [398342]"/>
    <Info name="Creator" value="tfarooque"/>
    <Info name="Date" value="Fri Jul  7 18:06:46 2023"/>
    <Info name="Host" value="Linux aibuild16-017.cern.ch 3.10.0-1160.36.2.el7.x86_64 #1 SMP Wed Jul 21 11:57:15 UTC 2021 x86_64 x86_64 x86_64 GNU/Linux"/>
    <Info name="Dir" value="/data/at3/scratch2/farooque/DevPVLQ/VLQAnalysisFramework/run"/>
    <Info name="Training events" value="889719"/>
    <Info name="TrainingTime" value="2.93087627e+04"/>
    <Info name="AnalysisType" value="Classification"/>
  </GeneralInfo>
  <Options>
    <Option name="NCycles" modified="Yes">800</Option>
    <Option name="HiddenLayers" modified="Yes">30,10,10,5</Option>
    <Option name="NeuronType" modified="Yes">sigmoid</Option>
    <Option name="RandomSeed" modified="No">1</Option>
    <Option name="EstimatorType" modified="No">CE</Option>
    <Option name="NeuronInputType" modified="No">sum</Option>
    <Option name="V" modified="Yes">False</Option>
    <Option name="VerbosityLevel" modified="No">Default</Option>
    <Option name="VarTransform" modified="Yes">N</Option>
    <Option name="H" modified="No">False</Option>
    <Option name="CreateMVAPdfs" modified="No">False</Option>
    <Option name="IgnoreNegWeightsInTraining" modified="No">False</Option>
    <Option name="TrainingMethod" modified="No">BP</Option>
    <Option name="LearningRate" modified="Yes">1.000000e-02</Option>
    <Option name="DecayRate" modified="Yes">0.000000e+00</Option>
    <Option name="TestRate" modified="Yes">5</Option>
    <Option name="EpochMonitoring" modified="Yes">False</Option>
    <Option name="Sampling" modified="No">1.000000e+00</Option>
    <Option name="SamplingEpoch" modified="No">1.000000e+00</Option>
    <Option name="SamplingImportance" modified="No">1.000000e+00</Option>
    <Option name="SamplingTraining" modified="No">True</Option>
    <Option name="SamplingTesting" modified="No">False</Option>
    <Option name="ResetStep" modified="No">50</Option>
    <Option name="Tau" modified="No">3.000000e+00</Option>
    <Option name="BPMode" modified="No">sequential</Option>
    <Option name="BatchSize" modified="No">-1</Option>
    <Option name="ConvergenceImprove" modified="No">1.000000e-30</Option>
    <Option name="ConvergenceTests" modified="No">-1</Option>
    <Option name="UseRegulator" modified="No">False</Option>
    <Option name="UpdateLimit" modified="No">10000</Option>
    <Option name="CalculateErrors" modified="No">False</Option>
    <Option name="WeightRange" modified="No">1.000000e+00</Option>
  </Options>
  <Variables NVar="21">
    <Variable VarIndex="0" Expression="meff" Label="meff" Title="meff" Unit="" Internal="meff" Type="D" Min="1.00000494e+03" Max="8.86203418e+03"/>
    <Variable VarIndex="1" Expression="RCjet2_pt" Label="RCjet2_pt" Title="RCjet2_pt" Unit="" Internal="RCjet2_pt" Type="D" Min="0.00000000e+00" Max="1.62899829e+03"/>
    <Variable VarIndex="2" Expression="dRmin_RCjets" Label="dRmin_RCjets" Title="dRmin_RCjets" Unit="" Internal="dRmin_RCjets" Type="D" Min="2.50981618e-02" Max="5.06098366e+00"/>
    <Variable VarIndex="3" Expression="dPhiavg_RCjets" Label="dPhiavg_RCjets" Title="dPhiavg_RCjets" Unit="" Internal="dPhiavg_RCjets" Type="D" Min="1.79171562e-04" Max="3.14159131e+00"/>
    <Variable VarIndex="4" Expression="dRmin_RCMTT" Label="dRmin_RCMTT" Title="dRmin_RCMTT" Unit="" Internal="dRmin_RCMTT" Type="D" Min="5.58902733e-02" Max="5.06098366e+00"/>
    <Variable VarIndex="5" Expression="mtbmin" Label="mtbmin" Title="mtbmin" Unit="" Internal="mtbmin" Type="D" Min="4.88891819e-05" Max="1.86247595e+03"/>
    <Variable VarIndex="6" Expression="RCMTT_jets_n" Label="RCMTT_jets_n" Title="RCMTT_jets_n" Unit="" Internal="RCMTT_jets_n" Type="D" Min="2.00000000e+00" Max="6.00000000e+00"/>
    <Variable VarIndex="7" Expression="met" Label="met" Title="met" Unit="" Internal="met" Type="D" Min="2.00000107e+02" Max="4.06845288e+03"/>
    <Variable VarIndex="8" Expression="RCMTop0_pt" Label="RCMTop0_pt" Title="RCMTop0_pt" Unit="" Internal="RCMTop0_pt" Type="D" Min="0.00000000e+00" Max="3.64521851e+03"/>
    <Variable VarIndex="9" Expression="bjets_n" Label="bjets_n" Title="bjets_n" Unit="" Internal="bjets_n" Type="D" Min="2.00000000e+00" Max="9.00000000e+00"/>
    <Variable VarIndex="10" Expression="mvlq0_RCTTM_drmax" Label="mvlq0_RCTTM_drmax" Title="mvlq0_RCTTM_drmax" Unit="" Internal="mvlq0_RCTTM_drmax" Type="D" Min="3.78424713e+02" Max="7.19409668e+03"/>
    <Variable VarIndex="11" Expression="mvlq1_rcj_drmax" Label="mvlq1_rcj_drmax" Title="mvlq1_rcj_drmax" Unit="" Internal="mvlq1_rcj_drmax" Type="D" Min="0.00000000e+00" Max="5.65620898e+03"/>
    <Variable VarIndex="12" Expression="leadingdR_RCjets" Label="leadingdR_RCjets" Title="leadingdR_RCjets" Unit="" Internal="leadingdR_RCjets" Type="D" Min="9.84904543e-02" Max="5.06098366e+00"/>
    <Variable VarIndex="13" Expression="dEtamin_RCjets" Label="dEtamin_RCjets" Title="dEtamin_RCjets" Unit="" Internal="dEtamin_RCjets" Type="D" Min="1.43051147e-06" Max="3.97469997e+00"/>
    <Variable VarIndex="14" Expression="RCMV0_nconsts" Label="RCMV0_nconsts" Title="RCMV0_nconsts" Unit="" Internal="RCMV0_nconsts" Type="D" Min="0.00000000e+00" Max="2.00000000e+00"/>
    <Variable VarIndex="15" Expression="leadingdPhi_RCjets" Label="leadingdPhi_RCjets" Title="leadingdPhi_RCjets" Unit="" Internal="leadingdPhi_RCjets" Type="D" Min="1.79171562e-04" Max="3.14159131e+00"/>
    <Variable VarIndex="16" Expression="RCMHiggs0_pt" Label="RCMHiggs0_pt" Title="RCMHiggs0_pt" Unit="" Internal="RCMHiggs0_pt" Type="D" Min="0.00000000e+00" Max="3.57535034e+03"/>
    <Variable VarIndex="17" Expression="dEtamin_RCMTT" Label="dEtamin_RCMTT" Title="dEtamin_RCMTT" Unit="" Internal="dEtamin_RCMTT" Type="D" Min="1.43051147e-06" Max="3.97673726e+00"/>
    <Variable VarIndex="18" Expression="dPhiavg_RCMTTMET" Label="dPhiavg_RCMTTMET" Title="dPhiavg_RCMTTMET" Unit="" Internal="dPhiavg_RCMTTMET" Type="D" Min="1.43569708e-03" Max="3.13892746e+00"/>
    <Variable VarIndex="19" Expression="RCMHiggs0_nbconsts" Label="RCMHiggs0_nbconsts" Title="RCMHiggs0_nbconsts" Unit="" Internal="RCMHiggs0_nbconsts" Type="D" Min="0.00000000e+00" Max="5.00000000e+00"/>
    <Variable VarIndex="20" Expression="dEtaavg_RCjets" Label="dEtaavg_RCjets" Title="dEtaavg_RCjets" Unit="" Internal="dEtaavg_RCjets" Type="D" Min="1.43051147e-06" Max="3.97469997e+00"/>
  </Variables>
  <Spectators NSpec="7">
    <Spectator SpecIndex="0" Expression="VLQtype" Label="VLQtype" Title="VLQtype" Unit="" Internal="VLQtype" Type="F" Min="-1.00000000e+00" Max="6.00000000e+00"/>
    <Spectator SpecIndex="1" Expression="channel" Label="channel" Title="channel" Unit="" Internal="channel" Type="F" Min="0.00000000e+00" Max="6.00000000e+00"/>
    <Spectator SpecIndex="2" Expression="event_number" Label="event_number" Title="event_number" Unit="" Internal="event_number" Type="F" Min="1.00000000e+01" Max="2.84778752e+08"/>
    <Spectator SpecIndex="3" Expression="mc_campaign" Label="mc_campaign" Title="mc_campaign" Unit="" Internal="mc_campaign" Type="F" Min="1.00000000e+00" Max="3.00000000e+00"/>
    <Spectator SpecIndex="4" Expression="run_number" Label="run_number" Title="run_number" Unit="" Internal="run_number" Type="F" Min="2.76262000e+05" Max="3.64292000e+05"/>
    <Spectator SpecIndex="5" Expression="sampleID" Label="sampleID" Title="sampleID" Unit="" Internal="sampleID" Type="F" Min="3.02480000e+05" Max="7.00496000e+05"/>
    <Spectator SpecIndex="6" Expression="sampleName" Label="sampleName" Title="sampleName" Unit="" Internal="sampleName" Type="F" Min="3.00000000e+00" Max="1.70000000e+01"/>
  </Spectators>
  <Classes NClass="2">
    <Class Name="Signal" Index="0"/>
    <Class Name="Background" Index="1"/>
  </Classes>
  <Transformations NTransformations="1">
    <Transform Name="Normalize">
      <Selection>
        <Input NInputs="21">
          <Input Type="Variable" Label="meff" Expression="meff"/>
          <Input Type="Variable" Label="RCjet2_pt" Expression="RCjet2_pt"/>
          <Input Type="Variable" Label="dRmin_RCjets" Expression="dRmin_RCjets"/>
          <Input Type="Variable" Label="dPhiavg_RCjets" Expression="dPhiavg_RCjets"/>
          <Input Type="Variable" Label="dRmin_RCMTT" Expression="dRmin_RCMTT"/>
          <Input Type="Variable" Label="mtbmin" Expression="mtbmin"/>
          <Input Type="Variable" Label="RCMTT_jets_n" Expression="RCMTT_jets_n"/>
          <Input Type="Variable" Label="met" Expression="met"/>
          <Input Type="Variable" Label="RCMTop0_pt" Expression="RCMTop0_pt"/>
          <Input Type="Variable" Label="bjets_n" Expression="bjets_n"/>
          <Input Type="Variable" Label="mvlq0_RCTTM_drmax" Expression="mvlq0_RCTTM_drmax"/>
          <Input Type="Variable" Label="mvlq1_rcj_drmax" Expression="mvlq1_rcj_drmax"/>
          <Input Type="Variable" Label="leadingdR_RCjets" Expression="leadingdR_RCjets"/>
          <Input Type="Variable" Label="dEtamin_RCjets" Expression="dEtamin_RCjets"/>
          <Input Type="Variable" Label="RCMV0_nconsts" Expression="RCMV0_nconsts"/>
          <Input Type="Variable" Label="leadingdPhi_RCjets" Expression="leadingdPhi_RCjets"/>
          <Input Type="Variable" Label="RCMHiggs0_pt" Expression="RCMHiggs0_pt"/>
          <Input Type="Variable" Label="dEtamin_RCMTT" Expression="dEtamin_RCMTT"/>
          <Input Type="Variable" Label="dPhiavg_RCMTTMET" Expression="dPhiavg_RCMTTMET"/>
          <Input Type="Variable" Label="RCMHiggs0_nbconsts" Expression="RCMHiggs0_nbconsts"/>
          <Input Type="Variable" Label="dEtaavg_RCjets" Expression="dEtaavg_RCjets"/>
        </Input>
        <Output NOutputs="21">
          <Output Type="Variable" Label="meff" Expression="meff"/>
          <Output Type="Variable" Label="RCjet2_pt" Expression="RCjet2_pt"/>
          <Output Type="Variable" Label="dRmin_RCjets" Expression="dRmin_RCjets"/>
          <Output Type="Variable" Label="dPhiavg_RCjets" Expression="dPhiavg_RCjets"/>
          <Output Type="Variable" Label="dRmin_RCMTT" Expression="dRmin_RCMTT"/>
          <Output Type="Variable" Label="mtbmin" Expression="mtbmin"/>
          <Output Type="Variable" Label="RCMTT_jets_n" Expression="RCMTT_jets_n"/>
          <Output Type="Variable" Label="met" Expression="met"/>
          <Output Type="Variable" Label="RCMTop0_pt" Expression="RCMTop0_pt"/>
          <Output Type="Variable" Label="bjets_n" Expression="bjets_n"/>
          <Output Type="Variable" Label="mvlq0_RCTTM_drmax" Expression="mvlq0_RCTTM_drmax"/>
          <Output Type="Variable" Label="mvlq1_rcj_drmax" Expression="mvlq1_rcj_drmax"/>
          <Output Type="Variable" Label="leadingdR_RCjets" Expression="leadingdR_RCjets"/>
          <Output Type="Variable" Label="dEtamin_RCjets" Expression="dEtamin_RCjets"/>
          <Output Type="Variable" Label="RCMV0_nconsts" Expression="RCMV0_nconsts"/>
          <Output Type="Variable" Label="leadingdPhi_RCjets" Expression="leadingdPhi_RCjets"/>
          <Output Type="Variable" Label="RCMHiggs0_pt" Expression="RCMHiggs0_pt"/>
          <Output Type="Variable" Label="dEtamin_RCMTT" Expression="dEtamin_RCMTT"/>
          <Output Type="Variable" Label="dPhiavg_RCMTTMET" Expression="dPhiavg_RCMTTMET"/>
          <Output Type="Variable" Label="RCMHiggs0_nbconsts" Expression="RCMHiggs0_nbconsts"/>
          <Output Type="Variable" Label="dEtaavg_RCjets" Expression="dEtaavg_RCjets"/>
        </Output>
      </Selection>
      <Class ClassIndex="0">
        <Ranges>
          <Range Index="0" Min="1.0241549072265625e+03" Max="7.7109448242187500e+03"/>
          <Range Index="1" Min="0.0000000000000000e+00" Max="1.3930786132812500e+03"/>
          <Range Index="2" Min="5.5890273302793503e-02" Max="4.5015749931335449e+00"/>
          <Range Index="3" Min="5.7048797607421875e-03" Max="3.1415436267852783e+00"/>
          <Range Index="4" Min="5.5890273302793503e-02" Max="4.7766294479370117e+00"/>
          <Range Index="5" Min="9.7481906414031982e-03" Max="1.4513132324218750e+03"/>
          <Range Index="6" Min="2.0000000000000000e+00" Max="6.0000000000000000e+00"/>
          <Range Index="7" Min="2.0000108337402344e+02" Max="2.6473117675781250e+03"/>
          <Range Index="8" Min="0.0000000000000000e+00" Max="2.9307009277343750e+03"/>
          <Range Index="9" Min="2.0000000000000000e+00" Max="9.0000000000000000e+00"/>
          <Range Index="10" Min="4.1113641357421875e+02" Max="5.5463637695312500e+03"/>
          <Range Index="11" Min="0.0000000000000000e+00" Max="4.6034614257812500e+03"/>
          <Range Index="12" Min="2.5897905230522156e-01" Max="4.5615415573120117e+00"/>
          <Range Index="13" Min="1.2204051017761230e-05" Max="3.7182879447937012e+00"/>
          <Range Index="14" Min="0.0000000000000000e+00" Max="2.0000000000000000e+00"/>
          <Range Index="15" Min="6.3955783843994141e-04" Max="3.1415436267852783e+00"/>
          <Range Index="16" Min="0.0000000000000000e+00" Max="2.8632795410156250e+03"/>
          <Range Index="17" Min="2.4199485778808594e-05" Max="3.8990325927734375e+00"/>
          <Range Index="18" Min="9.1788351535797119e-02" Max="3.1327841281890869e+00"/>
          <Range Index="19" Min="0.0000000000000000e+00" Max="5.0000000000000000e+00"/>
          <Range Index="20" Min="5.4621696472167969e-04" Max="3.7182879447937012e+00"/>
        </Ranges>
      </Class>
      <Class ClassIndex="1">
        <Ranges>
          <Range Index="0" Min="1.0000049438476562e+03" Max="8.8620341796875000e+03"/>
          <Range Index="1" Min="0.0000000000000000e+00" Max="1.6289982910156250e+03"/>
          <Range Index="2" Min="7.0631481707096100e-02" Max="5.0609836578369141e+00"/>
          <Range Index="3" Min="3.1706690788269043e-04" Max="3.1415913105010986e+00"/>
          <Range Index="4" Min="7.0631481707096100e-02" Max="5.0609836578369141e+00"/>
          <Range Index="5" Min="4.8889181925915182e-05" Max="1.8624759521484375e+03"/>
          <Range Index="6" Min="2.0000000000000000e+00" Max="5.0000000000000000e+00"/>
          <Range Index="7" Min="2.0000010681152344e+02" Max="4.0684528808593750e+03"/>
          <Range Index="8" Min="0.0000000000000000e+00" Max="3.6452185058593750e+03"/>
          <Range Index="9" Min="2.0000000000000000e+00" Max="8.0000000000000000e+00"/>
          <Range Index="10" Min="3.7842471313476562e+02" Max="7.1940966796875000e+03"/>
          <Range Index="11" Min="0.0000000000000000e+00" Max="5.6562089843750000e+03"/>
          <Range Index="12" Min="9.8490454256534576e-02" Max="5.0609836578369141e+00"/>
          <Range Index="13" Min="1.4305114746093750e-06" Max="3.9746999740600586e+00"/>
          <Range Index="14" Min="0.0000000000000000e+00" Max="2.0000000000000000e+00"/>
          <Range Index="15" Min="3.1706690788269043e-04" Max="3.1415913105010986e+00"/>
          <Range Index="16" Min="0.0000000000000000e+00" Max="3.5753503417968750e+03"/>
          <Range Index="17" Min="1.4305114746093750e-06" Max="3.9746999740600586e+00"/>
          <Range Index="18" Min="1.4356970787048340e-03" Max="3.1389274597167969e+00"/>
          <Range Index="19" Min="0.0000000000000000e+00" Max="4.0000000000000000e+00"/>
          <Range Index="20" Min="1.4305114746093750e-06" Max="3.9746999740600586e+00"/>
        </Ranges>
      </Class>
      <Class ClassIndex="2">
        <Ranges>
          <Range Index="0" Min="1.0000049438476562e+03" Max="8.8620341796875000e+03"/>
          <Range Index="1" Min="0.0000000000000000e+00" Max="1.6289982910156250e+03"/>
          <Range Index="2" Min="5.5890273302793503e-02" Max="5.0609836578369141e+00"/>
          <Range Index="3" Min="3.1706690788269043e-04" Max="3.1415913105010986e+00"/>
          <Range Index="4" Min="5.5890273302793503e-02" Max="5.0609836578369141e+00"/>
          <Range Index="5" Min="4.8889181925915182e-05" Max="1.8624759521484375e+03"/>
          <Range Index="6" Min="2.0000000000000000e+00" Max="6.0000000000000000e+00"/>
          <Range Index="7" Min="2.0000010681152344e+02" Max="4.0684528808593750e+03"/>
          <Range Index="8" Min="0.0000000000000000e+00" Max="3.6452185058593750e+03"/>
          <Range Index="9" Min="2.0000000000000000e+00" Max="9.0000000000000000e+00"/>
          <Range Index="10" Min="3.7842471313476562e+02" Max="7.1940966796875000e+03"/>
          <Range Index="11" Min="0.0000000000000000e+00" Max="5.6562089843750000e+03"/>
          <Range Index="12" Min="9.8490454256534576e-02" Max="5.0609836578369141e+00"/>
          <Range Index="13" Min="1.4305114746093750e-06" Max="3.9746999740600586e+00"/>
          <Range Index="14" Min="0.0000000000000000e+00" Max="2.0000000000000000e+00"/>
          <Range Index="15" Min="3.1706690788269043e-04" Max="3.1415913105010986e+00"/>
          <Range Index="16" Min="0.0000000000000000e+00" Max="3.5753503417968750e+03"/>
          <Range Index="17" Min="1.4305114746093750e-06" Max="3.9746999740600586e+00"/>
          <Range Index="18" Min="1.4356970787048340e-03" Max="3.1389274597167969e+00"/>
          <Range Index="19" Min="0.0000000000000000e+00" Max="5.0000000000000000e+00"/>
          <Range Index="20" Min="1.4305114746093750e-06" Max="3.9746999740600586e+00"/>
        </Ranges>
      </Class>
    </Transform>
  </Transformations>
  <MVAPdfs/>
  <Weights>
    <Layout NLayers="6">
      <Layer Index="0" NNeurons="22">
        <Neuron NSynapses="30">
          6.3097395050932086e+00 6.0087162260954079e+00 6.8038700169147157e+00 2.7917705818790166e+00 -2.0836921146797263e+01 -1.9547062249691308e+01 -1.0814881053014249e+01 5.6233504675279766e+00 -5.8001096348106262e-01 -1.1991311396900037e+00 -1.9747558484186036e+00 4.1837844659586478e+00 -7.3224648491500517e+00 -1.1282085442134364e+00 -3.7127815736473311e+00 4.9482596175775362e-01 -3.8683507516263016e+00 2.2517778588645112e+00 7.2024932738261818e+00 1.4375020631177653e+00 -7.1188631691783222e+00 -4.4052498763703835e-01 1.5132596966620164e+00 3.2546931181192700e+00 -3.4172533875360687e+00 -3.1507554955514655e-01 9.1531532333608856e-01 -5.1204168876846152e+00 -1.9512692000653374e+01 -1.5872737131422360e-01 
        </Neuron>
        <Neuron NSynapses="30">
          4.4754096893423885e+00 -6.6874056998340592e-02 -2.8606816083903279e+00 -7.9072053913314766e-01 2.6438521738061569e+00 -2.3740049396202942e-01 -1.1679550727766042e+00 6.5941299481013500e+00 -6.2918758339344416e-01 9.2396820814217351e-01 1.2468973559264205e+00 -1.7638269448171762e+00 1.5845378634018675e-01 7.5892343917072069e-01 -5.6548956808503426e-01 -1.7395933595190998e+00 1.6846894522809626e+00 2.4410335330586763e+00 -1.8670550511440678e+00 4.1620102721000078e+00 1.3974269081520374e+00 1.4856627066629233e+00 -1.9649287051050444e+00 5.3497057960010936e+00 8.6340868473492338e-01 -9.8947170371850057e-01 -3.6112459529258705e+00 -5.0151194566422159e+00 4.6318614667178037e+00 3.3833623589909878e-01 
        </Neuron>
        <Neuron NSynapses="30">
          -3.5375170585149105e+00 -4.0083172053949856e-01 -4.4824296615661663e-01 -9.0427033868151230e-01 -3.3889143892925251e+00 9.8412382558012401e-01 1.4422288337900166e-01 -5.4628323995092378e+00 -2.2703791908127080e+00 -7.9514118649346555e-01 -5.5351751584756037e-01 1.7733339117869409e+00 -3.5556800259749615e+00 8.3602808459870470e-01 1.5055930081418893e+00 -4.7708931655445397e-01 -3.7684130370803715e+00 -2.4182486935420657e+00 1.9159219763501740e+00 -8.5622998760305685e-02 2.4032946140001408e+00 8.3316136248129979e-01 -1.7220786401892366e-01 2.2751207164934768e+00 -1.4256576801529202e+00 -2.3975452259920230e-01 -5.0616707554376612e+00 -2.6087373707274231e-01 -1.8023505887297140e+00 -1.6236367985300513e+00 
        </Neuron>
        <Neuron NSynapses="30">
          3.6562340539716884e+00 -2.0091175252714386e+00 7.4981222608607545e-01 8.7088622692257367e-01 -1.9755523515233692e-01 -2.6189186423432811e+00 -3.7928987318343788e-01 1.4685986937922508e+00 -5.9127003571900649e-01 3.6924911777250302e-01 -4.3100487912776630e-01 -6.0410695972429149e+00 4.8640750159977580e-01 2.5733804301743621e+00 4.9142525522071772e+00 1.6567283316995998e+00 1.6531703544320737e+00 -4.2584908208457645e-01 -2.7477217896980777e-01 -1.8203768032385605e+00 8.9538531848916170e-01 1.4431828365031313e-01 1.5574473416278751e+00 -4.3019669333485105e-01 5.1424774050923916e-01 1.8176238138721486e+00 3.3846096157485790e+00 -7.4750050103949772e-01 3.3058361377553394e+00 -9.4508895261435444e-01 
        </Neuron>
        <Neuron NSynapses="30">
          -1.7770239303637436e+00 3.7825062980273279e+00 1.9667786939372833e+00 2.9268774425252764e-01 5.1022008999546244e+00 -1.6983697810513383e+00 -7.1338252369834416e+00 1.7767079003021478e+00 3.2166665163424318e-01 1.0943290643786778e+00 -1.8395222573135452e+00 -4.0183880202927149e+00 8.9300560082691405e-01 -3.2889637117612978e+00 1.0673117547602413e+00 1.0517548733990569e+00 2.2303245280852364e+00 1.9265202604115332e+00 -5.0169157589610258e-01 2.7131672634166470e+00 3.3777626337716744e+00 3.0466644205572591e-01 -3.5405825222677230e+00 -6.0170271919716400e-01 1.0398627987144686e+00 1.5708023327082978e+00 -1.7966243668598083e-02 3.4385598932593875e-01 -6.0020582391230208e+00 2.5787718714383501e-01 
        </Neuron>
        <Neuron NSynapses="30">
          -3.3609521571741614e+00 -3.7211580737129917e+00 -1.8300763453498603e+00 -4.1119296833307001e-01 -7.6233466331747080e-01 6.0482307841730587e-01 -3.7304279106148991e-01 1.0191865988049398e+00 5.5481144069920578e+00 -1.6590960280688896e+00 1.0683108668490590e+01 -7.6056319917255688e-01 -1.8773827792030597e+00 -9.4138067398359826e-01 -9.5090064869391433e-01 -8.4496547592899462e-01 4.8738199666581368e+00 8.2830174518151733e-01 -1.1162346139830002e+00 1.2390705416005081e+00 6.7965556645184941e+00 1.4212298447813030e+00 4.4978141608433347e-01 5.6856494220543468e+00 3.2339527389294616e+01 -2.0595124444544091e+00 2.9522172284829193e+00 -3.3193934944540677e+00 -3.1369052123494172e+00 -1.8872811380919290e+00 
        </Neuron>
        <Neuron NSynapses="30">
          -2.4981601298327223e+00 1.2681111283673210e+00 2.4033235689964427e+00 -3.9081699441600928e+00 6.6279249284705077e-02 -1.3241382673894813e+00 3.7729941128002498e+00 2.8729304223419039e+00 5.6547899917527955e-02 -6.6249705413338011e-01 -2.2361524983965786e-01 -1.1047522888001138e-01 1.1041610672116706e+00 -7.1645362351561148e-01 1.2246838232743902e+00 -9.3626570205918269e-01 -6.3483537814241595e+00 2.9047250832489282e+00 -6.8772673718698374e-01 -3.4201572598931831e+00 -1.3216932959010141e+00 6.1975173760774471e-01 -1.5706564602084666e-01 -7.4803862049066128e-01 -3.3919424783163010e-01 7.7337780672486611e-01 -2.6070525141607597e+00 -6.6460111600010174e-01 3.3850131526628826e+00 7.0757190819420990e-01 
        </Neuron>
        <Neuron NSynapses="30">
          -9.6069982337984960e-01 -1.8052360878795468e+00 -2.5746371464841422e+00 -1.4055238859357806e+00 -1.4979792648366836e+00 3.8183955018934101e-01 2.7737737593188938e+00 2.5822223391039847e+00 1.2927522976211980e+01 -1.8081792061855539e+00 2.0123585640005190e+00 3.5557428233188570e+00 1.4391025460345064e+00 3.7326178659039777e+00 4.4910448200362918e+00 -1.5596725417521122e+00 -2.7036676151929517e-01 1.0043484991119722e+00 -1.4500808266007921e+00 -2.9444832153395555e+00 -2.6058258856570132e-01 5.1358335653682308e-01 1.6673625320731584e+00 -4.0952501870434626e+00 -8.6184291171402172e-01 -1.9239751184851090e+00 -9.5151152311531240e-01 -1.9689755513485803e+00 -4.5076904833488474e+00 -1.6150503887657821e+00 
        </Neuron>
        <Neuron NSynapses="30">
          2.9693421956202093e-01 1.6749427085045796e+00 6.4817509471270043e+00 2.1503883161150745e+00 -6.4412552535072543e-01 2.0500990666246817e+00 -3.6421976056561163e+00 4.2548453952053988e-01 4.9938703938696092e+00 -9.2683051242288483e-01 -3.4346054118074814e+00 -1.8940138018351675e+00 4.4016140828741062e+00 3.6111306051324545e+00 -9.4042670000596934e-02 -1.1196750410398557e+00 -3.0653187873692360e+00 -3.0769664081770380e+00 -8.3007523200682662e+00 -4.2890217883233586e+00 -7.0982627364230932e-01 6.2088195208908115e-01 4.0102584857222325e+00 -3.0348337251948645e+00 2.4751438588726136e+00 -6.1617215654195068e-01 -8.4424245890251803e-01 1.0391984020102223e+01 6.0615402004453767e+00 -1.1467969892204357e+00 
        </Neuron>
        <Neuron NSynapses="30">
          -1.4864047646193865e+00 7.4093000281868715e-01 5.2697736732933294e+00 -1.0421322468062506e+00 -2.3493623052341372e+00 3.9047906852397056e+00 -2.7701612774883377e-01 -6.0719036819506855e-01 5.8216644759052805e-01 -5.9633822725503871e-01 1.0714997001184918e+00 -1.5446167407566236e+00 -2.2856808698175359e+00 3.7324888739707949e+00 -2.3076039735648193e+00 -1.5219894025095746e+00 -1.0379992171808663e+01 2.3635333770839639e+00 -6.8255771300232855e+00 4.6561365316680248e-01 -6.3273387847679983e+00 1.4138722184776051e+00 -5.4758281034998415e+00 1.5727230795547398e+00 1.3427731610901483e-01 -1.9729559892295216e+00 -2.2493320941809242e-01 6.3830171922274626e-01 -1.7250862538750261e-01 -1.6810556312924470e+00 
        </Neuron>
        <Neuron NSynapses="30">
          -1.5815745565048676e+00 -3.4149581601769978e+00 3.4436280621803914e+00 4.7359074260099299e-01 1.1001180467022791e+00 -5.5616177476812290e+00 -1.0364389161248522e+00 1.4194376012962708e+00 -1.4942414393849892e+00 -1.4988851334694715e+00 2.9708076235507233e+00 -4.0985784946242942e+00 -3.5919434369171150e+00 -1.2422652410035072e-01 2.2904722872695107e+00 -7.3498341871043460e-01 1.2990067440145852e+00 -4.7838737580018631e-01 4.7642774593874060e-01 2.8502417624295320e+00 7.1680516893582991e-01 -4.4568050020055205e-01 -5.4436456971995317e-01 -2.5275244819181739e+00 -2.9565862894997901e+00 1.8396524710113806e+00 5.9941430650074574e+00 3.3555558691514092e-01 -1.0480685651275612e+00 7.9165650128783638e-01 
        </Neuron>
        <Neuron NSynapses="30">
          -2.5644717560322712e+00 4.4504104387361663e+00 -4.0077972614455390e+00 -2.1033177681332846e+00 1.8321712091435938e-01 2.8203004189035998e+00 2.2544302480681000e+00 5.5004459355367512e+00 -1.6183007917851908e+00 -3.7624242935335200e-01 -2.1648948551053313e+00 -2.5578176539671729e+00 3.3845376295543854e+00 -1.7159233865343160e+00 6.0706995397533592e-01 -1.6694983242548131e+00 3.9074225487905834e-01 -1.4095719537664819e+00 -1.4339757146441152e+00 -2.5434287317415655e-01 3.3289679283367840e-01 2.0345905726800053e+00 1.2089300417260009e+00 6.0287073003430693e+00 -2.4862545340089759e+00 -1.5631911827027527e+00 -9.1329860740223956e-01 8.3067339776565541e-01 2.7668522110433340e+00 -1.5056947290363289e+00 
        </Neuron>
        <Neuron NSynapses="30">
          7.3511275831035960e-01 -1.0452197150798732e+00 -3.7776523050424471e+00 1.3938117087778219e+00 3.5713461418303680e+00 -2.9538005507133920e+00 1.9281778665312315e+00 -2.3316809762692561e+00 -1.6406103339428304e+00 -1.5245431013117583e+00 5.4217845544413725e+00 -3.2393291744763077e+00 -1.5726309559077254e-02 -1.4200638297583723e+00 1.4301395791101024e+00 2.8446750629397866e-01 2.8065360312464915e+00 6.5155350654099320e-01 -5.1501429684436689e-02 2.4895524806728662e+00 -6.7328407798336831e-01 -6.4389796836423907e-01 -5.1206721639126818e-01 -1.9404793432768648e+00 -1.8814534594488500e-01 4.7474313544549278e-02 4.8973437155064908e-01 2.7416417540165605e-01 3.4731977621731756e+00 -1.2365727189764648e+00 
        </Neuron>
        <Neuron NSynapses="30">
          -5.9425596286783422e-01 -7.2702232054960875e-02 -2.7196075970792943e+00 5.7613131709711596e-01 -7.7835476009056836e-01 3.1048321673759558e+00 9.6223952018877157e-01 -4.0532619228575530e+00 1.9255639609263684e+00 -5.4568508286893158e-01 2.2555328269135400e+00 -3.1793606077054237e-01 -1.7310756634200491e-01 2.4068991610107560e+00 2.6502217915578905e+00 -2.2028029601104686e+00 6.2135439446602181e-01 -1.3005447719835386e+00 -2.4634979853609904e+00 1.9433272437427060e+00 2.7830139341184995e-01 -9.1687490431748320e-01 -8.5950562387177898e-01 8.7485934226107065e-01 8.8170138318611246e-01 -2.8478922409206525e-01 1.8155215264838649e+00 -2.3703789400513431e+00 -2.3546148212439597e-02 -4.7589421771218110e-01 
        </Neuron>
        <Neuron NSynapses="30">
          -1.5853250333623817e-01 2.7296066985988392e+00 4.7476905873609194e+00 -4.5666653157820498e+00 4.0654111092987077e-01 -1.6461585265036702e+00 5.5872063595995713e-01 -1.5925350672638088e+00 -2.7042139829597772e-01 5.7343122021686754e-01 -1.5980325742249613e-02 1.1550170453948072e+00 -4.9511569900163801e+00 3.0763486991366364e+00 4.8134432654189423e+00 1.5055476728097652e+00 1.0448073088521721e+00 2.7872896856689316e-01 -4.5625995100368000e-01 -1.1837394299769242e+00 8.2683574865634735e-01 -1.1241999580597166e+00 -7.6000210793622724e-01 -4.4926528380815567e-01 2.1572313041276636e-01 1.4027518844786402e+00 7.1581196283545427e+00 4.6306955875088091e-01 2.8383126294221739e-01 -7.6525211511228342e-01 
        </Neuron>
        <Neuron NSynapses="30">
          -1.2294664760222171e+00 1.0032908103771792e+00 1.0260067489962406e+00 3.3011674297815308e+00 -1.8006973379408677e+00 -2.7889097847865245e+00 3.1050097099172120e+00 -2.8600719193406916e+00 1.7008794414941291e+00 2.0251292834710117e+00 -7.5965577133413664e-01 -5.3477454840215692e+00 1.4073373088441721e+00 2.9737460911431257e+00 3.3988181428994726e+00 3.9570167140029877e-01 -2.3447898966438543e+00 -9.7823606084524917e-01 -6.7949214732123553e-01 3.6558015672608675e+00 -1.5205723835417398e-01 -8.6399574080741937e-01 -5.6822936705580351e-01 4.7089203617129072e-01 5.5295704332455786e-01 -1.1004226776162620e+00 6.3897244498378392e-01 -9.6359075893942325e-01 -2.9346095222304998e+00 1.5627644790128394e+00 
        </Neuron>
        <Neuron NSynapses="30">
          -1.3130993807288331e+00 3.3404010058296225e+00 -1.1917632015195914e+00 2.4341108050399671e-01 -1.8092059586972693e+00 2.3925623208906677e+00 -3.1814022648757221e+00 -1.5986917565918273e+00 1.4078364680956785e+00 1.9071544798467754e-01 -9.8518651163197801e-02 -6.1083243874644495e+00 -5.2199168157625964e-01 -5.4314580833469179e+00 2.3746130878682803e+00 -2.0202181302250568e+00 1.3444337380357646e-01 -1.6798688039054197e+00 2.3623754090540145e-02 1.3732311867604170e+00 -2.2221670598436813e+00 1.7993557429765576e+00 -6.6281801939495499e-01 6.8266950899101464e-01 -5.7893814472861974e-02 -1.0713031604419083e+00 3.5309427395666284e+00 -2.6482370190836777e+00 -3.0163344808702046e+00 -1.6911545345037768e+00 
        </Neuron>
        <Neuron NSynapses="30">
          -6.7949063850965774e-01 -2.0066069446935804e+00 4.0774418027897319e+00 -2.3629582048650959e+00 -1.7113859189569243e+00 -1.4659496755108701e+00 1.9712928325691548e-01 2.5454528687515426e-01 -1.0264418909654680e+00 7.4076406420324303e-01 3.3255586665767307e+00 -2.1492468423090738e+00 2.0305788691934525e+00 -7.0373738818002707e+00 -2.2475182702016001e+00 9.1503580602118828e-01 -4.0282048031838524e-01 1.2517779039295625e+00 1.8717028843901933e+00 -5.2680072947107293e-01 -4.7833631728282300e-01 -5.7287418432654358e-01 2.5761883614736258e+00 6.9867624997208644e-01 -2.2310532601401872e-01 -6.7101103932023021e-01 -1.8606188832649280e+00 4.9602453875678104e-01 6.5990916497606045e-01 -1.8120807347861889e+00 
        </Neuron>
        <Neuron NSynapses="30">
          -1.1281094679738444e+00 1.6130530161297385e-01 -9.8661631317156009e-02 -1.8791868260255808e+00 1.5431933224247854e+00 -2.8437323270258603e+00 3.0209037104296871e-02 -2.1914194764752186e+00 2.3021903939459563e+00 -2.3158890595127221e-01 2.8671768426354425e+00 -4.9403493068252722e+00 1.0850351540536076e+00 -3.9899208248107709e-01 3.0394629499668002e+00 -1.8699682534788564e+00 -6.2180073623691010e+00 7.4042655795150891e-01 -3.2322664587252401e+00 -4.6042033151618780e+00 -3.3987140404759870e+00 1.6377032082728251e+00 4.5197225311763987e+00 -2.2251377766751242e-02 2.2563849649103050e-03 1.1329272566723587e-01 -1.4091262735105416e+00 -2.6044691597949363e+00 -2.6930064042137301e+00 -6.6227897030054006e-01 
        </Neuron>
        <Neuron NSynapses="30">
          2.1030149285411928e+00 -5.4031414508506108e+00 3.3152456973339386e+00 1.8048473519213426e-01 1.7346943309891607e+00 -4.3590748546772469e+00 1.1248259956693447e+00 -9.6772822876106701e-01 8.0717569020225044e-01 -1.9710051431225999e+00 2.7023691894611375e+00 1.9678444197715872e+00 1.0754976126352207e+00 -2.3208435096013651e+00 2.7296367247555184e+00 -1.8528930422356338e+00 3.2206160122984890e+00 2.7040680050833168e+00 -2.1019223494614900e+00 -2.8039905979890400e-01 -1.5813626090735120e+00 1.3030129481883432e+00 2.5707211540356476e+00 5.6992268558570214e-01 -1.0565488869172033e+00 -1.0780102692174995e+00 4.2642094034034128e-01 -7.7905122561426392e+00 2.2152622635421828e+00 -1.1219539187411627e+00 
        </Neuron>
        <Neuron NSynapses="30">
          1.1054399331675492e+01 8.2679781704673239e-01 7.3170463673313457e-01 -2.4615354676387082e+00 1.5800798489057406e+00 -3.8800020266000903e+00 -4.4556190307319161e+00 6.5924988364784127e+00 1.0294371302533223e+00 5.8053684817430506e-02 -3.0201721039803266e+00 -2.1248660668389232e-02 2.6849720213700629e-01 -2.2365993426004458e+00 -3.3735152476716475e+00 1.2549423780014628e+00 2.2242003236657987e-01 3.5124551179374569e-01 1.3643288304865644e+00 3.0487125559486694e+00 1.5084602865237823e-01 4.4069210704463935e-01 -1.2703467277232585e+00 -2.8457976206954494e+00 -8.2086341578155558e-02 -1.1726209179098785e+00 -2.2075154339166665e+00 7.7744899052907812e-01 1.7699812099644001e+00 -1.3618795639671928e-02 
        </Neuron>
        <Neuron NSynapses="30">
          -3.3219306402859798e+00 1.1933273058238612e+00 1.5591692161396068e+01 1.3598304746472140e-02 -1.7372962587696449e+01 -1.4255887974964500e+01 -9.8563415364474647e+00 1.6566578859361037e+01 1.6780286381345181e+01 -1.5846901495474259e+00 9.5639860849074108e+00 3.5421423117235320e+00 -5.7826510324633356e+00 2.7475778127855475e+00 -3.6550483217201628e+00 -3.5749979892728107e-01 -1.0951863993649289e+01 3.6186738946358026e+00 -1.0669281354697015e+01 1.5409746353136569e+00 -6.6334959919607170e+00 -1.6714704314224900e+00 -3.4423716423402473e+00 7.4752936579936291e+00 2.0197467223616844e+01 8.7745985941136850e-01 -4.7692728884148816e-01 -1.0845423185514479e+01 -6.7383620952853862e+00 3.9136767190977073e-01 
        </Neuron>
      </Layer>
      <Layer Index="1" NNeurons="31">
        <Neuron NSynapses="10">
          -2.7121361181657622e+00 2.5518243499712692e+00 1.8147019968975562e+00 -1.4605945434278076e+00 -3.9143419116607894e+00 -7.0195911890419860e-01 -3.9257377165810306e-02 1.0298761584652802e+01 3.6078969697145560e+00 3.7012625198354403e+00 
        </Neuron>
        <Neuron NSynapses="10">
          -1.5265962492928515e+00 -1.5490775069465068e+00 -3.1725264734133568e-01 -4.4081190166179063e-01 1.4588133463646427e+00 -1.3243652508061863e+00 1.5309536201582723e+00 3.3093730362467393e+00 -1.0837764420690488e+00 -3.7717773163351636e+00 
        </Neuron>
        <Neuron NSynapses="10">
          5.1962715253408853e-01 2.9159496778378780e-01 1.6983724769853346e+00 -1.2427893714536566e+00 2.0513476662281493e+00 1.1548568242715118e+00 1.3779171264656671e+00 8.0722016172278619e-03 -1.5252584951581409e+00 -4.7273377779088577e+00 
        </Neuron>
        <Neuron NSynapses="10">
          2.9278626356885096e-01 -2.9774678878206735e-02 4.6906050199577060e-01 1.0134085211469479e+00 8.8538645125935134e-01 -1.4277471284631758e+00 1.1901762753627618e+00 4.5941266168220860e+00 -5.8225486540845861e-01 -3.7680735202161122e+00 
        </Neuron>
        <Neuron NSynapses="10">
          2.7416721684806578e-01 2.8408271655140340e+00 -1.0237788218754225e-01 -8.2865811337397444e-01 -1.8929756361490817e+00 -5.2070650273555552e-01 -1.0325083274781006e+00 -2.5952053024527157e+00 5.2531805622030587e+00 2.1160001616858239e+00 
        </Neuron>
        <Neuron NSynapses="10">
          -3.0583142628431794e+00 1.5428287667473317e-01 -5.3685992775211899e-01 8.7598447487265474e-02 -9.7641936492417214e-01 -1.7950249488174554e+00 1.4659078155400265e+00 -3.0120008874732744e+00 4.7814560683400735e+00 3.7791102524589287e-01 
        </Neuron>
        <Neuron NSynapses="10">
          -1.0759809883963254e+00 1.5421684582188955e+00 -2.2728603059732753e+00 -4.9787817943434109e-01 5.9407173835638605e-01 -2.9192592241702320e+00 4.5781342869272335e-01 -1.4065479807182373e+00 4.1951033305718566e+00 2.3484450019202248e+00 
        </Neuron>
        <Neuron NSynapses="10">
          2.0015235837833423e+00 -7.7314072122361521e-02 9.3467740757841211e-01 1.8580575940289816e+00 -5.5940975514188085e-01 1.2284019673677957e+00 1.0969851077110893e-01 4.0104292338861125e+00 -4.0545776000828857e+00 -2.3446673208272872e+00 
        </Neuron>
        <Neuron NSynapses="10">
          4.5464170638380743e+00 4.7667881985264360e-01 -1.8564733230279129e+00 1.5650118038674030e-01 2.3320452414691628e+00 4.3920953637129662e-01 1.0331265345477205e+00 3.6617207465659773e+00 -5.7773974224593667e+00 -5.9818446344271292e-01 
        </Neuron>
        <Neuron NSynapses="10">
          -7.1753196882169445e-01 9.2944005401886232e-01 9.9014509368568326e-01 1.1989546483071540e+00 8.8405631672204066e-01 -6.8718600693808274e-01 8.0213248750401778e-01 5.7202047735849060e-01 -1.6612263146570001e+00 9.0951651322486271e-01 
        </Neuron>
        <Neuron NSynapses="10">
          2.6234650056370462e-01 4.5787154121129964e-01 5.7863373425356257e-01 -1.0025951120267047e+00 5.0985740569926623e+00 5.1583939357992403e-01 -1.2025168881632569e+00 -3.0198686242456634e+00 -2.0888762576121125e+00 -2.6783492189637315e+00 
        </Neuron>
        <Neuron NSynapses="10">
          -7.4227614554535248e-01 -2.9618818568051469e-01 6.0062185789896883e-01 1.7397823497539651e+00 1.4167165907175849e+00 -5.7684999253022022e+00 -1.3281498576732449e+00 2.1443645106814619e+00 -3.6584793551773065e+00 -2.8868349355092913e+00 
        </Neuron>
        <Neuron NSynapses="10">
          -2.5995106274454041e+00 1.8800132341126292e+00 1.4963843701528181e+00 -7.7034824194511797e-01 -4.1381038298812198e+00 1.5928956547408224e+00 -1.8205029352634787e+00 -2.0522145914139021e+00 7.4774546700159961e-01 -2.3551417278448472e+00 
        </Neuron>
        <Neuron NSynapses="10">
          8.4996695199892580e-01 -2.0328254621304946e+00 6.0104522686737127e-01 1.5215879759177467e-01 2.3906846624523923e+00 2.1197667958793285e+00 1.3440019240867801e-01 -2.2295344378452966e+00 -5.8394078264195075e+00 -3.4751170219787402e+00 
        </Neuron>
        <Neuron NSynapses="10">
          2.5347200251783839e+00 1.6328495437592507e+00 -7.5676711994672863e-01 -9.7794378723261732e-01 -1.3951410647909273e+00 3.2407085575083245e+00 7.4432955459185290e-01 -5.2013686986967338e+00 2.5624885315903092e+00 -1.6354671729706833e+00 
        </Neuron>
        <Neuron NSynapses="10">
          1.5888988067967684e+00 -1.6880694991713590e+00 -1.5860937087617861e+00 -3.9917948922314543e-05 -7.6557222031966810e-01 1.4718624988366186e-01 -1.6323628631897982e+00 5.3577237554393753e-01 -8.3661242426965166e-01 -9.6195873875309745e-01 
        </Neuron>
        <Neuron NSynapses="10">
          -6.1165567037605373e-01 2.0438186353383436e+00 1.0830728365991602e+00 -1.8555574936347583e+00 -1.8265409555637486e+00 1.5784516630389833e+00 6.5736667752102573e-01 -2.8415433167142692e+00 3.4482977365364738e+00 1.5750599207588734e-01 
        </Neuron>
        <Neuron NSynapses="10">
          3.0444009793644540e+00 6.5357032509130286e-01 1.3963325381816025e-01 -9.7120812006104129e-01 1.0910912003541935e+00 6.1445019332321771e-01 1.4501770208047726e+00 3.5384975521658326e+00 7.5062693856861951e-01 -4.4428360772455537e+00 
        </Neuron>
        <Neuron NSynapses="10">
          -2.2902758090612823e+00 3.0324309901411644e+00 -1.5097257256313434e+00 3.9394050349523146e-01 -3.1266763176697330e+00 1.1991435406055468e+00 -1.8584729913214757e+00 -2.9315961397478241e-01 -3.5047352441391086e+00 6.8054594295907203e+00 
        </Neuron>
        <Neuron NSynapses="10">
          -1.2201823903292550e+00 1.2728860661805022e+00 -4.1778520468207034e+00 1.7558993205364248e+00 4.9912283394335066e-01 2.9238255139580009e+00 -8.2608515317697362e-01 2.1708966490178656e+00 7.9473943479881937e-01 4.0897490619939045e+00 
        </Neuron>
        <Neuron NSynapses="10">
          9.8441801792296668e-01 1.0903592551526671e+00 1.5192646453695562e+00 3.6413716770575882e-01 -3.4027656682726453e+00 -1.2407360191360266e+00 -4.5357146169753249e-01 -1.8230027477363131e+00 1.9233994479363952e+00 -1.4711061529121574e+00 
        </Neuron>
        <Neuron NSynapses="10">
          -2.2982082921427596e-01 1.0838548398626504e+00 1.6092815241103959e+00 1.9769114255314204e+00 -1.6286949760177125e+00 6.0550806417026715e-01 1.0926346102587343e+00 -1.6432187792244894e+00 -1.7024989478010648e+00 8.3279702947728473e-01 
        </Neuron>
        <Neuron NSynapses="10">
          -3.2161625871126418e+00 -2.5719050188161319e-01 -2.5613113877938867e+00 4.4431880833415321e-01 -2.9561323235210907e-01 -2.0283690581089511e+00 -1.8968295503041634e+00 -2.0036805311466712e+00 2.9848250486301957e+00 4.7224955975056364e+00 
        </Neuron>
        <Neuron NSynapses="10">
          4.3899028435135410e+00 -9.2940284091393641e-02 -1.1762870455048208e-01 8.3737475927928955e-03 6.5904618103728501e+00 1.1035625175273725e-01 -1.3694130502576256e+00 1.4911635832934098e+00 -3.4764885470527380e+00 4.0462712692079028e-01 
        </Neuron>
        <Neuron NSynapses="10">
          9.7021750473112689e-01 -2.6412293145910022e+00 2.1424854541663572e+00 8.4992784225689444e-01 7.3621971179796537e+00 -1.5396020292263355e+00 1.7842201377967599e+00 3.0247288088566231e+00 -2.3273023279499530e+00 -3.3700236011786990e+00 
        </Neuron>
        <Neuron NSynapses="10">
          8.5688046995332223e-01 -9.7198723487967331e-01 1.1668243756463756e+00 1.9758995769901440e+00 -1.9349694863090669e-01 -3.2272770096314746e-01 -9.6209719266728466e-01 1.2994383377802861e+00 -1.8622984808172667e+00 -4.6417442565785910e-01 
        </Neuron>
        <Neuron NSynapses="10">
          -4.5251777926247139e-01 1.9390633310569010e+00 -7.9433815385066497e-01 1.4491625533549986e+00 -2.4100706367961005e+00 2.9228275273251576e+00 -8.2206203966424340e-01 1.8396308846384477e+00 8.4214941748666461e-01 4.2471381099264489e+00 
        </Neuron>
        <Neuron NSynapses="10">
          -9.0299883780247203e-01 7.7860352312618020e-01 4.4430789688410988e+00 2.0311433064057582e+00 -7.2985984415288940e-01 5.9306987692406610e-01 1.6942816813525396e-01 -1.3456564817646874e+00 6.0683546321731918e-01 4.5342454884198071e+00 
        </Neuron>
        <Neuron NSynapses="10">
          -1.9307182349500512e-01 -1.2691698669447486e+00 1.4749158971211880e+00 1.7020298433483081e+00 1.1887963915205932e+00 -5.5559249360465950e+00 1.9455355433681989e-01 -4.1209150849652714e+00 6.4013742780654521e+00 9.7620803646638099e-01 
        </Neuron>
        <Neuron NSynapses="10">
          -1.8241562043725508e+00 -8.3431787628673371e-01 3.8547549935203945e-01 -8.3762986784923943e-02 1.6729828425188582e+00 -3.0920407268819235e-02 -1.8532139382045769e+00 -7.5991548153057187e-01 -3.2628739270268076e-01 -1.1259978752345201e+00 
        </Neuron>
        <Neuron NSynapses="10">
          -6.9586554501566034e-01 1.4957264465802624e+00 9.5738828595084624e-01 1.5230329390091353e+00 4.7873089564395416e-01 -5.6779002423347269e-01 7.9821870441828591e-01 -1.4058838978306029e-01 -7.8368491430889753e-01 1.0985660426922479e+00 
        </Neuron>
      </Layer>
      <Layer Index="2" NNeurons="11">
        <Neuron NSynapses="10">
          3.4505064138699963e+00 1.0106032656507290e-01 3.2180075302665795e-01 -7.7213691506851232e+00 -1.4550399993020477e+00 7.0440298565461328e+00 1.3295912065377344e+00 -2.9683451162980039e+00 -1.8299985146804905e+00 1.8819154772514008e+00 
        </Neuron>
        <Neuron NSynapses="10">
          -3.5086157062014078e-01 1.4537566077372643e+00 1.1343489213178672e+00 3.1757484103346942e+00 -5.4273795515878342e-01 -2.0363037031062241e+00 -1.3416104750368225e+00 2.5593115326407515e-02 -1.0235002689156922e+00 -1.9352577951935352e+00 
        </Neuron>
        <Neuron NSynapses="10">
          -1.1602263998137701e+00 2.3743304335599853e+00 7.5347273537833215e-01 7.6954182163309259e-01 2.1408911800555415e+00 -1.4759554217809778e+00 1.5941254773619634e-01 4.7046106410065031e-01 -2.8625244035000463e+00 -3.3571069560334115e+00 
        </Neuron>
        <Neuron NSynapses="10">
          -2.0913901630569511e+00 -2.5802606862610988e-01 -1.5789816492093487e+00 8.5533097847802064e-01 -1.0872222954247621e+00 -2.4908474692026279e+00 -2.2430244351911055e+00 -8.7773715621830478e-02 -1.0157330309476252e-01 -2.5814243187018215e+00 
        </Neuron>
        <Neuron NSynapses="10">
          8.5438901743038387e-01 5.3793955160333784e+00 2.7068877392721040e+00 -3.8708669973621457e+00 2.4994923958553490e+00 -9.7414982450411991e-01 1.6598364263115482e+00 -1.3160190555210791e+00 -6.0882602120004190e+00 3.5229942238633529e+00 
        </Neuron>
        <Neuron NSynapses="10">
          -1.8347957921223821e+00 1.6389334490312590e-01 9.5940708488642845e-01 -1.1971092473582052e+00 -1.4756862117839489e+00 -2.8029308824947780e-01 -7.4396184957539591e-01 -8.7631263085440310e+00 3.5970574843741834e+00 -1.0011856363486338e+00 
        </Neuron>
        <Neuron NSynapses="10">
          4.3480005920189463e-01 1.1324028223012126e+00 4.3711805467584203e-01 -2.0478280316741713e+00 -1.1590925419771720e+00 9.0056494412521981e-01 6.6212332757395276e-01 1.3591705603084783e+00 1.7879062992403831e+00 -8.0777624569949891e-01 
        </Neuron>
        <Neuron NSynapses="10">
          2.7421763787557509e+00 -1.8905535043685811e+00 3.4147395468761825e+00 -1.8811021621012165e+00 7.5192199973759424e+00 -2.2831213229135663e-01 3.3674956262293771e+00 -3.8329094635143690e+00 1.5967173382759137e+00 4.1496528725060386e+00 
        </Neuron>
        <Neuron NSynapses="10">
          -6.0856909217450488e+00 -2.4017674415317738e+00 -4.4911543538692795e+00 4.8621196796723509e-01 -5.0313040564758200e+00 -1.9357000710694305e+00 -1.3886444472225055e+00 5.1424173514780263e+00 2.7544997299076504e+00 -1.6024316799392266e+00 
        </Neuron>
        <Neuron NSynapses="10">
          -1.6565789960059076e+00 -2.2903473460067407e+00 -5.3436097671451943e+00 6.9871181751527827e+00 2.8034748860830980e+00 -8.3660603216207141e-01 -4.2024408189845208e-01 8.1232725071416201e-01 4.4211577873180268e+00 -4.1893236792786457e+00 
        </Neuron>
        <Neuron NSynapses="10">
          8.2975238748729793e-02 6.6411018486357809e-01 1.8796388742368814e-01 -3.4775748019409819e-01 -3.8445803760052966e-01 -1.7887484681470287e+00 -2.8923422252518334e+00 4.0199274595780271e-01 -1.1700928435704485e+00 1.0005512504194446e-01 
        </Neuron>
      </Layer>
      <Layer Index="3" NNeurons="11">
        <Neuron NSynapses="5">
          -1.5077376172234191e+00 -3.3811064129973021e+00 7.3881827231860453e-01 -3.3363186576766796e-01 -3.0265687483784696e+00 
        </Neuron>
        <Neuron NSynapses="5">
          -1.2139279520399515e+00 -2.3943039172918976e-01 -7.1072202061000544e-01 -3.2693708174855605e+00 -2.4058338419352894e+00 
        </Neuron>
        <Neuron NSynapses="5">
          -3.7787641972706538e+00 -8.1354040994185772e-01 1.6698162487906278e+00 -1.3231762641674376e+00 -3.6098125262841831e+00 
        </Neuron>
        <Neuron NSynapses="5">
          7.5550435836762275e-01 2.4200673861261026e+00 -5.1055645690809488e+00 -1.0751333784524719e+00 2.0677532825688885e+00 
        </Neuron>
        <Neuron NSynapses="5">
          -4.0616881638783164e+00 -6.3839939875107077e-01 -1.2398325638660432e+00 -5.2132262353487500e+00 -3.6501227375674214e+00 
        </Neuron>
        <Neuron NSynapses="5">
          -1.0194669072654625e+00 -6.2715726300722752e-01 4.9420809796802114e+00 -1.5730481405583125e+00 -1.5781582269037111e+00 
        </Neuron>
        <Neuron NSynapses="5">
          -1.8155452417761189e+00 -3.1208888117457607e+00 5.5617939890012036e-01 1.6164075774292724e-01 -5.5628150795359321e-01 
        </Neuron>
        <Neuron NSynapses="5">
          1.1055500352557923e+00 3.1912416942297468e+00 -1.3799359464843799e+00 -3.1562666792655281e-01 3.8433643740336167e+00 
        </Neuron>
        <Neuron NSynapses="5">
          -8.5511343619629143e-01 1.5339941595181985e+00 -3.4565016657498282e-01 5.0780344850134442e+00 3.6333373535416573e+00 
        </Neuron>
        <Neuron NSynapses="5">
          -2.5393305588707332e-01 -4.3092456383447226e+00 1.4653764627235857e+00 3.8592755815759761e-01 2.6934671128403437e-01 
        </Neuron>
        <Neuron NSynapses="5">
          -1.3219602041772534e+00 -5.7765143274355957e-01 -1.7874721643460281e+00 -4.7880538744105033e-01 1.1933592926032368e+00 
        </Neuron>
      </Layer>
      <Layer Index="4" NNeurons="6">
        <Neuron NSynapses="1">
          -3.4007435894190650e+00 
        </Neuron>
        <Neuron NSynapses="1">
          -2.2326956982842590e+00 
        </Neuron>
        <Neuron NSynapses="1">
          5.4966783459475099e+00 
        </Neuron>
        <Neuron NSynapses="1">
          -4.4032583901608700e+00 
        </Neuron>
        <Neuron NSynapses="1">
          -1.7078487368153041e+00 
        </Neuron>
        <Neuron NSynapses="1">
          5.9850289618621222e-01 
        </Neuron>
      </Layer>
      <Layer Index="5" NNeurons="1">
        <Neuron NSynapses="0"/>
      </Layer>
    </Layout>
  </Weights>
</MethodSetup>
