<?xml version="1.0"?>
<MethodSetup Method="MLP::MLP_fold1">
  <GeneralInfo>
    <Info name="TMVA Release" value="4.2.1 [262657]"/>
    <Info name="ROOT Release" value="6.20/06 [398342]"/>
    <Info name="Creator" value="tfarooque"/>
    <Info name="Date" value="Fri Jul  7 01:50:39 2023"/>
    <Info name="Host" value="Linux aibuild16-017.cern.ch 3.10.0-1160.36.2.el7.x86_64 #1 SMP Wed Jul 21 11:57:15 UTC 2021 x86_64 x86_64 x86_64 GNU/Linux"/>
    <Info name="Dir" value="/data/at3/scratch2/farooque/DevPVLQ/VLQAnalysisFramework/run"/>
    <Info name="Training events" value="889321"/>
    <Info name="TrainingTime" value="2.84391214e+04"/>
    <Info name="AnalysisType" value="Classification"/>
  </GeneralInfo>
  <Options>
    <Option name="NCycles" modified="Yes">800</Option>
    <Option name="HiddenLayers" modified="Yes">30,10,10,5</Option>
    <Option name="NeuronType" modified="Yes">sigmoid</Option>
    <Option name="RandomSeed" modified="No">1</Option>
    <Option name="EstimatorType" modified="No">CE</Option>
    <Option name="NeuronInputType" modified="No">sum</Option>
    <Option name="V" modified="Yes">False</Option>
    <Option name="VerbosityLevel" modified="No">Default</Option>
    <Option name="VarTransform" modified="Yes">N</Option>
    <Option name="H" modified="No">False</Option>
    <Option name="CreateMVAPdfs" modified="No">False</Option>
    <Option name="IgnoreNegWeightsInTraining" modified="No">False</Option>
    <Option name="TrainingMethod" modified="No">BP</Option>
    <Option name="LearningRate" modified="Yes">1.000000e-02</Option>
    <Option name="DecayRate" modified="Yes">0.000000e+00</Option>
    <Option name="TestRate" modified="Yes">5</Option>
    <Option name="EpochMonitoring" modified="Yes">False</Option>
    <Option name="Sampling" modified="No">1.000000e+00</Option>
    <Option name="SamplingEpoch" modified="No">1.000000e+00</Option>
    <Option name="SamplingImportance" modified="No">1.000000e+00</Option>
    <Option name="SamplingTraining" modified="No">True</Option>
    <Option name="SamplingTesting" modified="No">False</Option>
    <Option name="ResetStep" modified="No">50</Option>
    <Option name="Tau" modified="No">3.000000e+00</Option>
    <Option name="BPMode" modified="No">sequential</Option>
    <Option name="BatchSize" modified="No">-1</Option>
    <Option name="ConvergenceImprove" modified="No">1.000000e-30</Option>
    <Option name="ConvergenceTests" modified="No">-1</Option>
    <Option name="UseRegulator" modified="No">False</Option>
    <Option name="UpdateLimit" modified="No">10000</Option>
    <Option name="CalculateErrors" modified="No">False</Option>
    <Option name="WeightRange" modified="No">1.000000e+00</Option>
  </Options>
  <Variables NVar="21">
    <Variable VarIndex="0" Expression="meff" Label="meff" Title="meff" Unit="" Internal="meff" Type="D" Min="1.00000494e+03" Max="8.86203418e+03"/>
    <Variable VarIndex="1" Expression="RCjet2_pt" Label="RCjet2_pt" Title="RCjet2_pt" Unit="" Internal="RCjet2_pt" Type="D" Min="0.00000000e+00" Max="1.62899829e+03"/>
    <Variable VarIndex="2" Expression="dRmin_RCjets" Label="dRmin_RCjets" Title="dRmin_RCjets" Unit="" Internal="dRmin_RCjets" Type="D" Min="2.50981618e-02" Max="5.06098366e+00"/>
    <Variable VarIndex="3" Expression="dPhiavg_RCjets" Label="dPhiavg_RCjets" Title="dPhiavg_RCjets" Unit="" Internal="dPhiavg_RCjets" Type="D" Min="1.79171562e-04" Max="3.14159131e+00"/>
    <Variable VarIndex="4" Expression="dRmin_RCMTT" Label="dRmin_RCMTT" Title="dRmin_RCMTT" Unit="" Internal="dRmin_RCMTT" Type="D" Min="5.58902733e-02" Max="5.06098366e+00"/>
    <Variable VarIndex="5" Expression="mtbmin" Label="mtbmin" Title="mtbmin" Unit="" Internal="mtbmin" Type="D" Min="4.88891819e-05" Max="1.86247595e+03"/>
    <Variable VarIndex="6" Expression="RCMTT_jets_n" Label="RCMTT_jets_n" Title="RCMTT_jets_n" Unit="" Internal="RCMTT_jets_n" Type="D" Min="2.00000000e+00" Max="6.00000000e+00"/>
    <Variable VarIndex="7" Expression="met" Label="met" Title="met" Unit="" Internal="met" Type="D" Min="2.00000107e+02" Max="4.06845288e+03"/>
    <Variable VarIndex="8" Expression="RCMTop0_pt" Label="RCMTop0_pt" Title="RCMTop0_pt" Unit="" Internal="RCMTop0_pt" Type="D" Min="0.00000000e+00" Max="3.64521851e+03"/>
    <Variable VarIndex="9" Expression="bjets_n" Label="bjets_n" Title="bjets_n" Unit="" Internal="bjets_n" Type="D" Min="2.00000000e+00" Max="9.00000000e+00"/>
    <Variable VarIndex="10" Expression="mvlq0_RCTTM_drmax" Label="mvlq0_RCTTM_drmax" Title="mvlq0_RCTTM_drmax" Unit="" Internal="mvlq0_RCTTM_drmax" Type="D" Min="3.78424713e+02" Max="7.19409668e+03"/>
    <Variable VarIndex="11" Expression="mvlq1_rcj_drmax" Label="mvlq1_rcj_drmax" Title="mvlq1_rcj_drmax" Unit="" Internal="mvlq1_rcj_drmax" Type="D" Min="0.00000000e+00" Max="5.65620898e+03"/>
    <Variable VarIndex="12" Expression="leadingdR_RCjets" Label="leadingdR_RCjets" Title="leadingdR_RCjets" Unit="" Internal="leadingdR_RCjets" Type="D" Min="9.84904543e-02" Max="5.06098366e+00"/>
    <Variable VarIndex="13" Expression="dEtamin_RCjets" Label="dEtamin_RCjets" Title="dEtamin_RCjets" Unit="" Internal="dEtamin_RCjets" Type="D" Min="1.43051147e-06" Max="3.97469997e+00"/>
    <Variable VarIndex="14" Expression="RCMV0_nconsts" Label="RCMV0_nconsts" Title="RCMV0_nconsts" Unit="" Internal="RCMV0_nconsts" Type="D" Min="0.00000000e+00" Max="2.00000000e+00"/>
    <Variable VarIndex="15" Expression="leadingdPhi_RCjets" Label="leadingdPhi_RCjets" Title="leadingdPhi_RCjets" Unit="" Internal="leadingdPhi_RCjets" Type="D" Min="1.79171562e-04" Max="3.14159131e+00"/>
    <Variable VarIndex="16" Expression="RCMHiggs0_pt" Label="RCMHiggs0_pt" Title="RCMHiggs0_pt" Unit="" Internal="RCMHiggs0_pt" Type="D" Min="0.00000000e+00" Max="3.57535034e+03"/>
    <Variable VarIndex="17" Expression="dEtamin_RCMTT" Label="dEtamin_RCMTT" Title="dEtamin_RCMTT" Unit="" Internal="dEtamin_RCMTT" Type="D" Min="1.43051147e-06" Max="3.97673726e+00"/>
    <Variable VarIndex="18" Expression="dPhiavg_RCMTTMET" Label="dPhiavg_RCMTTMET" Title="dPhiavg_RCMTTMET" Unit="" Internal="dPhiavg_RCMTTMET" Type="D" Min="1.43569708e-03" Max="3.13892746e+00"/>
    <Variable VarIndex="19" Expression="RCMHiggs0_nbconsts" Label="RCMHiggs0_nbconsts" Title="RCMHiggs0_nbconsts" Unit="" Internal="RCMHiggs0_nbconsts" Type="D" Min="0.00000000e+00" Max="5.00000000e+00"/>
    <Variable VarIndex="20" Expression="dEtaavg_RCjets" Label="dEtaavg_RCjets" Title="dEtaavg_RCjets" Unit="" Internal="dEtaavg_RCjets" Type="D" Min="1.43051147e-06" Max="3.97469997e+00"/>
  </Variables>
  <Spectators NSpec="7">
    <Spectator SpecIndex="0" Expression="VLQtype" Label="VLQtype" Title="VLQtype" Unit="" Internal="VLQtype" Type="F" Min="-1.00000000e+00" Max="6.00000000e+00"/>
    <Spectator SpecIndex="1" Expression="channel" Label="channel" Title="channel" Unit="" Internal="channel" Type="F" Min="0.00000000e+00" Max="6.00000000e+00"/>
    <Spectator SpecIndex="2" Expression="event_number" Label="event_number" Title="event_number" Unit="" Internal="event_number" Type="F" Min="1.00000000e+01" Max="2.84778752e+08"/>
    <Spectator SpecIndex="3" Expression="mc_campaign" Label="mc_campaign" Title="mc_campaign" Unit="" Internal="mc_campaign" Type="F" Min="1.00000000e+00" Max="3.00000000e+00"/>
    <Spectator SpecIndex="4" Expression="run_number" Label="run_number" Title="run_number" Unit="" Internal="run_number" Type="F" Min="2.76262000e+05" Max="3.64292000e+05"/>
    <Spectator SpecIndex="5" Expression="sampleID" Label="sampleID" Title="sampleID" Unit="" Internal="sampleID" Type="F" Min="3.02480000e+05" Max="7.00496000e+05"/>
    <Spectator SpecIndex="6" Expression="sampleName" Label="sampleName" Title="sampleName" Unit="" Internal="sampleName" Type="F" Min="3.00000000e+00" Max="1.70000000e+01"/>
  </Spectators>
  <Classes NClass="2">
    <Class Name="Signal" Index="0"/>
    <Class Name="Background" Index="1"/>
  </Classes>
  <Transformations NTransformations="1">
    <Transform Name="Normalize">
      <Selection>
        <Input NInputs="21">
          <Input Type="Variable" Label="meff" Expression="meff"/>
          <Input Type="Variable" Label="RCjet2_pt" Expression="RCjet2_pt"/>
          <Input Type="Variable" Label="dRmin_RCjets" Expression="dRmin_RCjets"/>
          <Input Type="Variable" Label="dPhiavg_RCjets" Expression="dPhiavg_RCjets"/>
          <Input Type="Variable" Label="dRmin_RCMTT" Expression="dRmin_RCMTT"/>
          <Input Type="Variable" Label="mtbmin" Expression="mtbmin"/>
          <Input Type="Variable" Label="RCMTT_jets_n" Expression="RCMTT_jets_n"/>
          <Input Type="Variable" Label="met" Expression="met"/>
          <Input Type="Variable" Label="RCMTop0_pt" Expression="RCMTop0_pt"/>
          <Input Type="Variable" Label="bjets_n" Expression="bjets_n"/>
          <Input Type="Variable" Label="mvlq0_RCTTM_drmax" Expression="mvlq0_RCTTM_drmax"/>
          <Input Type="Variable" Label="mvlq1_rcj_drmax" Expression="mvlq1_rcj_drmax"/>
          <Input Type="Variable" Label="leadingdR_RCjets" Expression="leadingdR_RCjets"/>
          <Input Type="Variable" Label="dEtamin_RCjets" Expression="dEtamin_RCjets"/>
          <Input Type="Variable" Label="RCMV0_nconsts" Expression="RCMV0_nconsts"/>
          <Input Type="Variable" Label="leadingdPhi_RCjets" Expression="leadingdPhi_RCjets"/>
          <Input Type="Variable" Label="RCMHiggs0_pt" Expression="RCMHiggs0_pt"/>
          <Input Type="Variable" Label="dEtamin_RCMTT" Expression="dEtamin_RCMTT"/>
          <Input Type="Variable" Label="dPhiavg_RCMTTMET" Expression="dPhiavg_RCMTTMET"/>
          <Input Type="Variable" Label="RCMHiggs0_nbconsts" Expression="RCMHiggs0_nbconsts"/>
          <Input Type="Variable" Label="dEtaavg_RCjets" Expression="dEtaavg_RCjets"/>
        </Input>
        <Output NOutputs="21">
          <Output Type="Variable" Label="meff" Expression="meff"/>
          <Output Type="Variable" Label="RCjet2_pt" Expression="RCjet2_pt"/>
          <Output Type="Variable" Label="dRmin_RCjets" Expression="dRmin_RCjets"/>
          <Output Type="Variable" Label="dPhiavg_RCjets" Expression="dPhiavg_RCjets"/>
          <Output Type="Variable" Label="dRmin_RCMTT" Expression="dRmin_RCMTT"/>
          <Output Type="Variable" Label="mtbmin" Expression="mtbmin"/>
          <Output Type="Variable" Label="RCMTT_jets_n" Expression="RCMTT_jets_n"/>
          <Output Type="Variable" Label="met" Expression="met"/>
          <Output Type="Variable" Label="RCMTop0_pt" Expression="RCMTop0_pt"/>
          <Output Type="Variable" Label="bjets_n" Expression="bjets_n"/>
          <Output Type="Variable" Label="mvlq0_RCTTM_drmax" Expression="mvlq0_RCTTM_drmax"/>
          <Output Type="Variable" Label="mvlq1_rcj_drmax" Expression="mvlq1_rcj_drmax"/>
          <Output Type="Variable" Label="leadingdR_RCjets" Expression="leadingdR_RCjets"/>
          <Output Type="Variable" Label="dEtamin_RCjets" Expression="dEtamin_RCjets"/>
          <Output Type="Variable" Label="RCMV0_nconsts" Expression="RCMV0_nconsts"/>
          <Output Type="Variable" Label="leadingdPhi_RCjets" Expression="leadingdPhi_RCjets"/>
          <Output Type="Variable" Label="RCMHiggs0_pt" Expression="RCMHiggs0_pt"/>
          <Output Type="Variable" Label="dEtamin_RCMTT" Expression="dEtamin_RCMTT"/>
          <Output Type="Variable" Label="dPhiavg_RCMTTMET" Expression="dPhiavg_RCMTTMET"/>
          <Output Type="Variable" Label="RCMHiggs0_nbconsts" Expression="RCMHiggs0_nbconsts"/>
          <Output Type="Variable" Label="dEtaavg_RCjets" Expression="dEtaavg_RCjets"/>
        </Output>
      </Selection>
      <Class ClassIndex="0">
        <Ranges>
          <Range Index="0" Min="1.0312340087890625e+03" Max="7.7109448242187500e+03"/>
          <Range Index="1" Min="0.0000000000000000e+00" Max="1.5845148925781250e+03"/>
          <Range Index="2" Min="6.6968202590942383e-02" Max="4.5015749931335449e+00"/>
          <Range Index="3" Min="5.7048797607421875e-03" Max="3.1415436267852783e+00"/>
          <Range Index="4" Min="7.6592735946178436e-02" Max="4.7766294479370117e+00"/>
          <Range Index="5" Min="1.8194746226072311e-03" Max="1.4513132324218750e+03"/>
          <Range Index="6" Min="2.0000000000000000e+00" Max="6.0000000000000000e+00"/>
          <Range Index="7" Min="2.0000108337402344e+02" Max="3.0140288085937500e+03"/>
          <Range Index="8" Min="0.0000000000000000e+00" Max="2.9307009277343750e+03"/>
          <Range Index="9" Min="2.0000000000000000e+00" Max="9.0000000000000000e+00"/>
          <Range Index="10" Min="4.2777478027343750e+02" Max="5.5463637695312500e+03"/>
          <Range Index="11" Min="0.0000000000000000e+00" Max="4.1497021484375000e+03"/>
          <Range Index="12" Min="2.5897905230522156e-01" Max="4.5615415573120117e+00"/>
          <Range Index="13" Min="1.2204051017761230e-05" Max="3.8593454360961914e+00"/>
          <Range Index="14" Min="0.0000000000000000e+00" Max="2.0000000000000000e+00"/>
          <Range Index="15" Min="3.8623809814453125e-04" Max="3.1415436267852783e+00"/>
          <Range Index="16" Min="0.0000000000000000e+00" Max="2.8632795410156250e+03"/>
          <Range Index="17" Min="2.4199485778808594e-05" Max="3.8593454360961914e+00"/>
          <Range Index="18" Min="9.1788351535797119e-02" Max="3.1327841281890869e+00"/>
          <Range Index="19" Min="0.0000000000000000e+00" Max="5.0000000000000000e+00"/>
          <Range Index="20" Min="3.5438500344753265e-04" Max="3.8593454360961914e+00"/>
        </Ranges>
      </Class>
      <Class ClassIndex="1">
        <Ranges>
          <Range Index="0" Min="1.0000049438476562e+03" Max="8.8620341796875000e+03"/>
          <Range Index="1" Min="0.0000000000000000e+00" Max="1.6289982910156250e+03"/>
          <Range Index="2" Min="2.5098161771893501e-02" Max="5.0609836578369141e+00"/>
          <Range Index="3" Min="1.7917156219482422e-04" Max="3.1415903568267822e+00"/>
          <Range Index="4" Min="7.0631481707096100e-02" Max="5.0609836578369141e+00"/>
          <Range Index="5" Min="1.2608713586814702e-04" Max="1.8624759521484375e+03"/>
          <Range Index="6" Min="2.0000000000000000e+00" Max="6.0000000000000000e+00"/>
          <Range Index="7" Min="2.0000010681152344e+02" Max="4.0684528808593750e+03"/>
          <Range Index="8" Min="0.0000000000000000e+00" Max="3.6452185058593750e+03"/>
          <Range Index="9" Min="2.0000000000000000e+00" Max="8.0000000000000000e+00"/>
          <Range Index="10" Min="3.7842471313476562e+02" Max="7.1940966796875000e+03"/>
          <Range Index="11" Min="0.0000000000000000e+00" Max="4.6766250000000000e+03"/>
          <Range Index="12" Min="1.2764616310596466e-01" Max="5.0609836578369141e+00"/>
          <Range Index="13" Min="1.4305114746093750e-06" Max="3.9746999740600586e+00"/>
          <Range Index="14" Min="0.0000000000000000e+00" Max="2.0000000000000000e+00"/>
          <Range Index="15" Min="1.7917156219482422e-04" Max="3.1415903568267822e+00"/>
          <Range Index="16" Min="0.0000000000000000e+00" Max="3.5753503417968750e+03"/>
          <Range Index="17" Min="1.4305114746093750e-06" Max="3.9767372608184814e+00"/>
          <Range Index="18" Min="1.4356970787048340e-03" Max="3.1389274597167969e+00"/>
          <Range Index="19" Min="0.0000000000000000e+00" Max="4.0000000000000000e+00"/>
          <Range Index="20" Min="1.4305114746093750e-06" Max="3.9746999740600586e+00"/>
        </Ranges>
      </Class>
      <Class ClassIndex="2">
        <Ranges>
          <Range Index="0" Min="1.0000049438476562e+03" Max="8.8620341796875000e+03"/>
          <Range Index="1" Min="0.0000000000000000e+00" Max="1.6289982910156250e+03"/>
          <Range Index="2" Min="2.5098161771893501e-02" Max="5.0609836578369141e+00"/>
          <Range Index="3" Min="1.7917156219482422e-04" Max="3.1415903568267822e+00"/>
          <Range Index="4" Min="7.0631481707096100e-02" Max="5.0609836578369141e+00"/>
          <Range Index="5" Min="1.2608713586814702e-04" Max="1.8624759521484375e+03"/>
          <Range Index="6" Min="2.0000000000000000e+00" Max="6.0000000000000000e+00"/>
          <Range Index="7" Min="2.0000010681152344e+02" Max="4.0684528808593750e+03"/>
          <Range Index="8" Min="0.0000000000000000e+00" Max="3.6452185058593750e+03"/>
          <Range Index="9" Min="2.0000000000000000e+00" Max="9.0000000000000000e+00"/>
          <Range Index="10" Min="3.7842471313476562e+02" Max="7.1940966796875000e+03"/>
          <Range Index="11" Min="0.0000000000000000e+00" Max="4.6766250000000000e+03"/>
          <Range Index="12" Min="1.2764616310596466e-01" Max="5.0609836578369141e+00"/>
          <Range Index="13" Min="1.4305114746093750e-06" Max="3.9746999740600586e+00"/>
          <Range Index="14" Min="0.0000000000000000e+00" Max="2.0000000000000000e+00"/>
          <Range Index="15" Min="1.7917156219482422e-04" Max="3.1415903568267822e+00"/>
          <Range Index="16" Min="0.0000000000000000e+00" Max="3.5753503417968750e+03"/>
          <Range Index="17" Min="1.4305114746093750e-06" Max="3.9767372608184814e+00"/>
          <Range Index="18" Min="1.4356970787048340e-03" Max="3.1389274597167969e+00"/>
          <Range Index="19" Min="0.0000000000000000e+00" Max="5.0000000000000000e+00"/>
          <Range Index="20" Min="1.4305114746093750e-06" Max="3.9746999740600586e+00"/>
        </Ranges>
      </Class>
    </Transform>
  </Transformations>
  <MVAPdfs/>
  <Weights>
    <Layout NLayers="6">
      <Layer Index="0" NNeurons="22">
        <Neuron NSynapses="30">
          1.1161519972552819e+01 -1.2997712816809357e+00 9.8911004689231632e+00 9.5455896778630522e-01 -1.7723592454908765e+01 -2.2008606050172826e+01 -1.3369105769101910e+01 7.8673932806585931e+00 8.2446218901551660e-01 -1.2413702332717984e+00 2.2990460086025397e+00 6.3437914145208705e+00 -5.7320848234435458e+00 7.9234797940669877e-01 -3.2779563525950999e+00 1.5311558335321087e+00 -3.4495029636633046e+00 7.4030560606814444e-01 3.5165316300329397e+00 2.5524635778378566e+00 -4.7585116762120814e+00 -4.2377325011336658e-01 1.1661167446196894e+00 3.4261925224744600e+00 -1.3778113164525376e+00 -2.7699009859796342e-01 -1.0156574614627842e+00 -6.6292869336645355e+00 -2.0916466461789170e+01 5.5925592436240923e-01 
        </Neuron>
        <Neuron NSynapses="30">
          5.7695881273269300e+00 3.5171858649617045e+00 -2.0588116082506480e+00 1.8665232931312146e+00 1.0131236646726829e+00 3.9005610033324891e+00 -1.5712940067160215e+00 4.2677105011835099e+00 -2.6050325403461336e+00 8.4500954504136494e-01 3.3669964525021903e+00 1.7799135399143703e-01 9.4912101441790249e+00 2.9286231889800560e+00 9.2886881642128508e-02 -1.2210128594927143e+00 -5.5237024379755733e+00 1.6148387794743522e+00 7.6696412953019333e-01 3.2235106385090684e+00 1.5381566307817720e+00 1.5177425794402495e+00 -1.3802059719382986e+00 4.4895232695766660e+00 -1.4119494404762876e+00 -9.6787031710467109e-01 -2.8200471345389770e+00 -3.9861024640108589e+00 2.1144836269168348e+00 1.2154944850086808e+00 
        </Neuron>
        <Neuron NSynapses="30">
          -4.4590969519234305e+00 6.0910174654005701e-02 2.7625860954917774e+00 -9.8969490752654310e-01 3.9671735084604265e-01 2.4976613163831263e+00 1.3175136557158298e+00 -6.9885732729084014e+00 -3.1909005119651696e-01 -8.0653806668177441e-01 -2.7559795696333960e+00 -1.9400156653595912e+00 2.6994420318136125e+00 1.1704608948402426e+00 -4.5791308489518121e+00 1.7314239898367099e+00 -1.3824681691708329e+00 -1.4773517432215546e+00 -3.1377935405085114e-02 -1.6976327386553489e+00 3.1456286796112596e+00 7.7384215191922323e-01 -5.6452715624249228e-01 2.4047585654445947e-01 -8.3901432470870008e-01 -2.3183940813128912e-01 -4.6220467551489586e+00 -1.9140046487641982e+00 -4.1846592539332690e+00 -2.2845319417016627e+00 
        </Neuron>
        <Neuron NSynapses="30">
          5.3921570807425265e+00 9.1954807559644014e-01 1.5111240529091554e+00 -1.6197991101788496e+00 2.1777826123137464e-01 2.6493566703785909e+00 -5.0783702670569806e+00 2.9238939278065827e+00 -1.1401007479286311e+00 1.7642543005695874e-01 3.5456826208177750e-01 -6.0752581362113052e+00 2.5411568933393682e+00 6.5295601862282284e+00 2.5268977726833457e+00 3.1507046383534867e+00 9.3939029287643302e-03 -9.8631081849987134e-01 -5.2654493933824464e-01 2.3878438946937912e+00 -1.3643022158348965e+00 1.6305408116973155e-01 2.9062446452096693e+00 1.7414049766683787e-02 -2.2087850729610989e-01 1.8279043080169082e+00 2.6383267614129111e+00 -1.8917589155061278e+00 -1.9434066554636376e+00 -1.9620670865629817e+00 
        </Neuron>
        <Neuron NSynapses="30">
          -9.9605563918152518e-01 7.4697485727302859e-01 -1.5340983479542799e-02 2.0042871453798781e+00 -1.8858674397977493e-01 1.5359422204417403e+00 -5.6013530641921871e+00 2.1907222246752438e+00 -1.4264733264789740e+00 1.0969267971140328e+00 -1.2183838990658344e+00 -2.9689364829386933e+00 4.3109064941190232e-02 -1.2225038826068744e+00 -2.4694610524823076e-02 2.0110888014395436e+00 4.9958589159847282e+00 -1.6035751510112053e+00 -4.1971250405597965e-01 2.1776810083850057e-01 7.7066591454980210e-02 3.5051821465754518e-01 -3.2949004846130618e+00 -2.2801336225741737e+00 8.7979801495320797e-01 1.5401155388070216e+00 -1.6069683522595968e+00 -1.7567271795605310e+00 -5.0962287441550673e+00 -4.1835711361005840e-01 
        </Neuron>
        <Neuron NSynapses="30">
          -1.7732617918544789e+00 2.3233775872387956e+00 3.0819169337248655e+00 2.0666296701836919e+00 -8.2619427171907389e-01 1.1457605861728384e+00 3.0242723024778977e+00 3.3778243842647084e+00 7.5311221012969867e+00 -1.7823642146598331e+00 5.4027613697434811e+00 -1.1863478127082354e+00 1.1362459429646403e+00 8.1764641422842965e-01 -1.0183376944517998e-01 -5.9085404181270118e-01 3.9704287224998538e+00 6.4449709938706842e-02 -9.3552832700017896e-01 -4.3039427045998618e-01 4.0667807611129003e+00 1.3435243250696935e+00 1.0165564172663148e+00 1.0686688125967139e+00 2.9148827064980647e+01 -2.0220160288164339e+00 1.3379304573492519e+00 -3.1012947300839646e+00 2.9946847214042815e-01 -9.8600260510723825e-01 
        </Neuron>
        <Neuron NSynapses="30">
          -4.4816545691591019e+00 1.6562447761383550e+00 -1.8552326940786950e+00 -4.1041993851742387e+00 -5.3931247355122958e-01 -9.6415056753146211e-01 -1.5933140191320501e+00 4.3828293741922844e+00 -4.4925467829822358e-01 -7.6686865120673431e-01 1.7237321163215324e+00 -2.1778449316329827e+00 -4.9043801020616201e-01 3.0107620021626724e-01 -1.2629327579409058e+00 9.8347859175180652e-01 -3.7036698626737099e+00 1.7711818525875449e+00 -5.5168327488301272e-01 -6.1064724071812382e-01 -1.6173270133106001e+00 5.7769449138780271e-01 8.4860792117044126e-01 1.6561717193119618e-01 8.9144366138698017e-01 7.5248588615254730e-01 -2.0216181799914428e+00 -2.4439342167888181e-01 4.7300242150992711e+00 1.1420888296916845e+00 
        </Neuron>
        <Neuron NSynapses="30">
          2.4868685716405622e-01 3.3280919668653131e-01 -1.8801760296388732e+00 -1.0841752396953508e+00 -3.5102002282427276e-02 -6.4982097411487905e-01 -2.1972839172661862e+00 3.3613573610471721e+00 1.0795026126316280e+01 -1.9753691651827605e+00 4.3929596894501470e+00 2.2538012270908632e+00 -3.0158919691242656e+00 1.7719940898093542e-01 -2.9754642862102121e-01 -1.1762930461472354e+00 1.2680269155369617e+00 3.6759198803935289e-01 -4.4626535858629586e+00 -1.8196006287722137e+00 8.9364345622217589e-01 4.5225444241503859e-01 6.1922213859689146e-01 -3.5784672344331687e+00 -7.3468349448112691e-01 -1.8563799200275062e+00 -5.2452404056934236e+00 1.2141360029624637e+00 -3.7980342018808795e+00 -1.1253234988132799e+00 
        </Neuron>
        <Neuron NSynapses="30">
          -4.1424229516445404e-01 1.3174153578449812e+00 -6.1306219220122831e+00 1.5514376884889647e+00 -3.9271999537794113e+00 -3.6854048612871422e+00 1.6341728465472249e-01 -2.7402361486029223e+00 2.9111348659725256e-01 -1.0067754026803062e+00 -5.8965201931352498e+00 -6.1664223261254669e-01 -1.5453839632608559e+00 9.4165360974334744e-01 5.1292052083842741e+00 -3.9435871067668199e-01 -1.4519186307742296e+00 -3.3316803696603259e+00 -1.6573600692247702e+01 3.1869568991641222e+00 9.5097754490832209e-01 5.5539731466012898e-01 4.2992967570119420e+00 -1.0798953099681006e+00 5.0884693542725490e+00 -5.9308927982103066e-01 -4.0395293736428597e+00 1.0739917567388655e+01 2.0526129927683159e+00 -4.2673409453381644e-01 
        </Neuron>
        <Neuron NSynapses="30">
          -3.9242633306213976e+00 4.8995368414586613e+00 2.1419924762438791e+00 -1.3233058722785283e+00 -4.1425888750171174e+00 -3.5713206160552335e-01 4.1077256545217029e+00 1.6318143223240273e+00 2.5953320818156675e+00 -6.1623294469186030e-01 1.9267291587172128e-01 -3.4937336762833184e+00 -1.5706357207344182e-01 -6.4126729877522948e-01 -5.1506780094052305e+00 -1.7448489631854338e+00 -9.5000679198853000e+00 9.4474544507026997e-02 -3.5364259110932630e+00 4.6734798367281041e+00 -2.9269636325128472e+00 1.3346863784156573e+00 -2.8195193879768952e+00 6.9421531844597792e+00 -9.4510125823344526e-01 -1.9185905374575420e+00 9.3089132711163691e-01 4.7383652702375917e-01 3.0092730819013774e-01 -1.4085013781765019e+00 
        </Neuron>
        <Neuron NSynapses="30">
          -2.0934438373799642e+00 5.0176719899112077e-01 7.5412313273816380e+00 -1.5188121944421180e+00 -9.3397421646351864e-01 6.0673831449165910e-02 -5.5643816423160972e+00 -1.4040732791682180e+00 2.0954819341336184e-01 -1.5329294512457754e+00 1.4675028529362071e+00 -6.4427345992455818e+00 2.4831910453362176e+00 4.8995756847558286e-01 5.8335705679797396e+00 7.6412168084373477e-01 6.3549078626686937e+00 -1.8392594049563753e+00 3.7828489912405154e+00 7.6418013566881515e-01 1.6942364802191612e+00 -4.8329389173934434e-01 -1.3806659608420000e+00 -5.3646603983469108e+00 -2.9972414896050359e+00 1.8550670055129319e+00 6.5742062045306291e+00 2.5588336504022609e+00 -2.7396722538267024e+00 1.2062140079107100e+00 
        </Neuron>
        <Neuron NSynapses="30">
          -1.4113226486986845e+00 -2.5073811502075749e-01 -6.4994780013527831e-01 -4.7950040550650650e+00 4.0796935614099352e+00 2.5791576149186510e+00 3.1615792110776053e+00 5.6652991604604352e+00 -1.0984261153893153e+00 -4.4740693145686727e-01 -2.9454544104226419e+00 -3.8208829063464607e+00 6.5762167055806202e+00 3.9559698483867001e-01 2.7428802500717770e+00 -1.3113733284012170e+00 7.0263679481814212e-01 1.0350690591775245e+00 -5.9895604358129406e-02 -5.1479726281917531e+00 -2.4179986632959976e+00 1.9804444735323501e+00 -1.1693002890248374e+00 6.5438916507840794e+00 -2.6019343112078541e+00 -1.5757813321584937e+00 -2.8550706151083811e+00 -9.2285126344223645e-01 4.5612759382610513e+00 -8.1702911281634794e-01 
        </Neuron>
        <Neuron NSynapses="30">
          2.0647422282640155e+00 -4.4924276401149649e-01 -1.7858143524913983e+00 -1.7986086488411063e-01 3.1057703464782453e+00 -4.2507246561133121e+00 -2.2477845430926299e-01 -9.3865903680381080e-01 -2.8392234321443839e+00 -1.5525384648026075e+00 3.7049506325632531e+00 -2.4673811552300289e+00 9.6341910451283697e-01 4.8266741040557681e+00 -2.9763279022000405e-01 1.6105706382842608e+00 2.2415691365581312e+00 1.6802166332192821e+00 1.1620170093110582e+00 4.2299776058116351e-01 5.2995449340676204e-01 -6.3119170064094521e-01 -1.6605708862416188e-01 -3.0283945630363278e+00 -1.9440160721244848e+00 1.1128061594815057e-01 3.2547980271649632e+00 -1.1541007089179183e+00 3.7636832915551133e+00 -1.7780416598047262e+00 
        </Neuron>
        <Neuron NSynapses="30">
          -1.7473669447325633e+00 2.7081159372013501e+00 -8.6252294372746319e-01 -1.1133727405142932e+00 -1.3097590735437181e+00 1.6148938217264226e+00 1.3401165950545837e+00 -2.9227259626987738e+00 8.3551651506235691e-01 -4.2707042574983695e-01 5.2094311602106318e+00 3.1071780984770903e+00 -9.5287431124722421e-01 -1.4368496329313538e+00 1.5741282404829984e+00 -1.9368015804261767e+00 9.6102074189927778e-01 -6.0666207410783024e-01 6.5800282776805274e-01 -4.7758552199792401e+00 4.7962494491530738e-01 -9.6945307164654770e-01 4.3813127877607905e-01 -1.7423991742590845e+00 -3.2588929704060987e-01 -1.9052302080267550e-01 3.8473880284243180e+00 -8.3679168413330496e-01 1.8527016586718614e+00 -7.2655638995692540e-01 
        </Neuron>
        <Neuron NSynapses="30">
          -6.1392886730332552e-01 1.0807839697477462e+00 8.3391184286013615e+00 -4.6249476893676889e+00 4.8424183802518147e-03 3.0293486829222133e-01 -1.0825753349340372e+00 -1.1840415998365421e+00 1.7383702514697205e-01 4.7820019568710942e-01 -4.7758327269018745e-03 1.4389817248957715e+00 -8.3907031922722486e-01 -3.4989033118627932e+00 2.4929461731591940e+00 3.0566040369659331e+00 -8.9278397234937723e-01 4.2062129648109553e-01 4.6994198485411609e-01 3.1497967495787669e+00 1.0789094578997323e-02 -1.1958067954444564e+00 -7.8616363554556057e-01 5.8284784028367376e-01 9.0048019195898537e-03 1.4630523590444946e+00 5.1114072114978848e+00 -1.7861878784796054e-01 5.7966305560922038e-01 -1.6155330877125842e+00 
        </Neuron>
        <Neuron NSynapses="30">
          -1.2060368710531892e+00 -6.5446842261192251e-01 6.6435939789150811e-01 2.4453920279336279e+00 -7.4706844003982975e-01 -3.3414661771236176e-01 -1.0154946499065414e+00 -6.9168744826762874e-01 2.3680143130676523e+00 1.9681696339430277e+00 -1.3622928570337849e+00 -2.5176501425601501e+00 -1.9403466357868298e+00 3.9886155636483913e+00 5.3649802471628174e+00 -8.6070389550068249e-01 -3.8415290499872832e+00 -2.7159489481878167e+00 -8.9813756215092022e-01 1.6973034981644461e+00 -1.5986436797711587e+00 -8.1177120728286967e-01 -1.0629996553390142e+00 1.8332548388495684e+00 1.5773091724181973e+00 -1.1269782461431357e+00 1.0870262886582296e+00 1.0297375173163499e+00 3.4903473940733134e+00 9.6359007272868447e-01 
        </Neuron>
        <Neuron NSynapses="30">
          -1.2337936237673284e+00 -1.0819880392091472e+00 -1.6534012236079243e+00 -2.7901595136842811e-01 1.3711836152490913e+00 1.4750414553519692e-01 2.9174232396233629e-01 -1.4410337622538896e+00 1.6655937321976362e+00 8.9905418037330473e-02 -4.0980204120795811e+00 -1.0627497183575636e+00 -4.0968052128348403e-01 -1.5207562217706971e+00 -2.4902117996116573e+00 -3.4291086724619646e+00 -7.0395867341015805e-01 -9.2837557416293315e-01 2.2777095511753226e-01 -2.5514435839136618e+00 -8.3819213190753512e+00 1.7667642193504915e+00 1.2859944405381560e-01 -5.3476303165974459e-01 -1.9833727126762435e-01 -1.0257966674902885e+00 6.1241479979559177e+00 -1.0250224678830884e+00 1.3931666968233871e+00 -9.2869136232916316e-01 
        </Neuron>
        <Neuron NSynapses="30">
          -4.1308698954823886e-01 -2.1508174229256980e+00 -1.0255346100902545e+00 -9.9393482266191546e-01 4.8382230283902561e-01 -1.4835571723370964e+00 2.1329113271121907e+00 2.5425179426730495e+00 3.2996013721930401e-01 7.9800064001146775e-01 3.8726052281088026e+00 -4.5765344914545585e+00 1.2269241527014828e-01 -2.7836599780350020e+00 7.2803661021365884e-01 5.1116670592289992e-01 -2.1469219071575685e-01 1.8601387609072129e+00 -1.0452706418109612e+00 1.3319482468115877e+00 -1.9695023803296428e+00 -6.7046878014921496e-01 2.7732984830010410e+00 1.1382148888682477e+00 3.1172947461472394e-01 -5.9175971480317435e-01 2.4861274141538652e+00 1.4891920685967548e+00 2.2370735088418389e-01 -2.0114379113356975e+00 
        </Neuron>
        <Neuron NSynapses="30">
          -5.8829523591844179e-01 3.8492804976004149e+00 3.6690233244334508e-01 -3.2332202359296569e+00 -9.2457692145400905e-01 3.8154671056826217e+00 -2.8845040190944347e+00 -3.4081594626207057e-01 3.3313499319483877e+00 -2.0274299136218280e-01 3.1833912538478084e+00 -1.8370624116249985e+00 -2.8630397144735364e+00 2.6696581416547699e-01 -1.4921815866597374e+00 -5.9725275825782786e-01 -3.4381908970446426e+00 4.2523781613265937e-01 -5.8443039369269578e-01 -2.3773247463483309e+00 1.5418693020380607e+00 1.6227989567303602e+00 5.1648191312085254e+00 3.6523926358832952e+00 -1.0075107959644201e+00 1.3400196356395522e-01 -2.7944214142398152e+00 -3.6748710079334908e+00 -2.6217956448193380e-01 -5.8994485532987184e-01 
        </Neuron>
        <Neuron NSynapses="30">
          6.3585401285746357e-01 -9.4948972272197818e-01 1.2014108099250562e-01 8.8518623435053223e-01 1.3369169641122236e+00 1.7705199979885502e+00 -2.6176499859126041e+00 -4.1545148333937021e-01 2.0823686525589848e+00 -2.0718250878415692e+00 1.5127296416389657e+00 2.2079720194548114e+00 -7.9695646563418376e-01 -2.2954575039479583e+00 4.7869000161063031e+00 -6.9527857073074661e-01 1.6406855596858152e+00 2.9360799655665870e+00 1.8225196685817921e-01 9.6709638341781801e-01 -1.1451165777873249e+00 1.2822560294030454e+00 1.9773059325868052e+00 -1.7809018762141307e+00 -2.2950920285529683e+00 -1.0354964393666539e+00 2.5278427554449059e+00 -9.3197019659205989e+00 -1.7472312511523251e+00 -1.6316362809323648e-01 
        </Neuron>
        <Neuron NSynapses="30">
          1.1860448345052895e+01 -2.3712991130957803e+00 2.3280473872452029e-01 -1.9830725623122156e+00 -6.2152121243568068e+00 7.4143180452864721e-01 -6.9890166074045981e+00 3.1569546104047208e+00 9.0443077405491807e-03 7.8188290818859627e-02 -3.8210516406128853e-01 7.5926801871182348e-01 -3.5593445673124799e+00 1.2574040801333060e+00 -4.0880062121340659e+00 6.3833055110179782e-01 -7.0445985558266966e-01 1.4557623179159789e+00 -8.4627954487715995e-01 -6.0055352192898752e+00 1.2235681210516727e+00 4.5286166278020229e-01 -1.9267140878407725e+00 -3.5940378882617385e+00 6.0175554093867278e-01 -1.1482752131684160e+00 -1.6735703945434584e+00 2.2755999951149759e+00 -5.0913818266500332e-01 1.5426161443723255e-01 
        </Neuron>
        <Neuron NSynapses="30">
          -3.5924402459666980e+00 6.6062343363169962e+00 1.1543592135468010e+01 -8.0405217208891422e-01 -1.8582128314516059e+01 -1.5131633713335805e+01 -1.2577714257573458e+01 1.8124105789621975e+01 1.7925671115870170e+01 -1.4710403441356619e+00 6.9792292003642284e+00 2.4494327247938927e+00 1.2800161275978292e+00 2.6182311757895094e+00 -3.2301251450711366e+00 -2.4369677403907386e+00 -9.4893706593628639e+00 2.4319608843825233e+00 -1.2304344198931686e+01 1.7536120157806798e+00 -8.0367769213813656e+00 -1.5853349674547950e+00 -4.2762201675205977e+00 2.0700336736916864e+00 1.8130007032236367e+01 7.9329311961867743e-01 5.1728709461459477e-01 -7.3074304590650252e+00 -1.0467260624170541e+01 -1.5409928098754389e-01 
        </Neuron>
      </Layer>
      <Layer Index="1" NNeurons="31">
        <Neuron NSynapses="10">
          -3.6459256385309997e+00 3.3045155388166552e+00 6.2518184476356697e-01 -1.3059425651726406e+00 -2.3401933930327714e+00 2.0528719511438940e+00 1.9298217626740952e+00 -2.8784607703733511e-01 3.9532822249376549e+00 4.3564538285634908e+00 
        </Neuron>
        <Neuron NSynapses="10">
          1.4758475419412782e+00 -2.1268535837365983e+00 -4.4564663952344380e-01 -1.1122161216849302e+00 2.9672569113892191e+00 -2.4939033368399963e+00 1.4681490142767915e+00 -2.2744464417667656e+00 9.4175937133061860e-01 -2.2485759515053396e+00 
        </Neuron>
        <Neuron NSynapses="10">
          3.7954180782483524e+00 -2.6731524121630050e+00 2.2769960079976412e+00 -1.6450909661292044e+00 2.7193138171125493e+00 -2.0539896359639833e+00 3.3239896026252752e-01 -5.3352054622186595e-01 -2.1981846535389300e+00 -3.1743158051554272e+00 
        </Neuron>
        <Neuron NSynapses="10">
          2.6117862525737476e+00 1.0171450759274518e+00 8.0081235620514413e-01 4.1231611419665298e-01 6.0479669010989034e-01 -1.3515658685827061e+00 6.3617391344011634e-02 3.4111390201617744e+00 -3.2049185166231551e+00 -8.6020901328354482e-01 
        </Neuron>
        <Neuron NSynapses="10">
          -1.2057430950492358e+00 6.7562489926744664e+00 -7.5099354931892448e-01 1.9595613940216750e-01 -2.1688957423405406e+00 -5.1513846215176573e-01 -1.5145591388910220e+00 -5.3661039968901356e+00 1.4643824679540756e+00 1.4931342676592205e+00 
        </Neuron>
        <Neuron NSynapses="10">
          2.8850646354287002e-01 4.1278055653529915e+00 6.1591026530368986e-01 -5.5331967354493605e-01 3.7817531519347769e-01 6.5911634271042263e-01 -1.2421464446426378e+00 -7.7817700333067670e+00 4.3740945410984082e+00 1.5247574992636919e+00 
        </Neuron>
        <Neuron NSynapses="10">
          2.9884773094127151e+00 3.5851934124519356e+00 -1.2842894247913255e+00 -1.6307618491404776e+00 1.3802901782838366e-02 5.6723149346392421e-01 -2.2441715597659989e-01 -3.7481497741064200e+00 5.2347591166156215e+00 4.4008754983265179e+00 
        </Neuron>
        <Neuron NSynapses="10">
          1.4352152121250834e+00 -1.1655809821020395e+00 2.2385283169445933e+00 1.3498059752864300e+00 2.4275558581951295e-01 -1.1858227659766218e+00 9.2656989250078314e-01 3.5014702377865188e+00 -6.0784554809418996e+00 -2.0440042759915662e+00 
        </Neuron>
        <Neuron NSynapses="10">
          3.4074067685014096e+00 -1.0874215463694288e+00 -1.5627446028362817e+00 7.0327982487799345e-01 -2.3258218661949570e-01 -2.5175885835776226e+00 3.1487823199214318e+00 2.0918400589656172e+00 -2.7343164220816480e+00 -3.5509784223889711e+00 
        </Neuron>
        <Neuron NSynapses="10">
          -5.8187198519316397e-01 8.4079111671674633e-01 1.4803017879648834e+00 6.8414732023628011e-01 -1.8069601983162428e-01 1.3469563622094802e-01 2.3787693182504954e-01 9.3110817387254630e-01 -1.9565067080890441e+00 2.3073368159173131e+00 
        </Neuron>
        <Neuron NSynapses="10">
          -7.0043945753340031e-01 -4.1026925959878353e+00 6.2507797985714353e-01 -1.9798706727222166e+00 7.3899301076192572e+00 -6.8085849610123805e-01 -1.8771884955537779e+00 -3.1974924734609638e+00 4.3607968176240623e+00 -1.7406143921396529e+00 
        </Neuron>
        <Neuron NSynapses="10">
          2.5991826339104733e+00 -3.8510110043452053e+00 8.5076699293827207e-01 2.7749697537444762e+00 1.0198496765963585e+00 -2.0496142618867146e+00 1.0877376890771184e+00 3.5079238713531438e+00 -9.0095151879760704e-01 -1.5156429874116080e+00 
        </Neuron>
        <Neuron NSynapses="10">
          -2.1031174933733204e-01 -4.8908028518900643e-01 6.0226259459158249e-01 -6.2041555982894681e-01 -7.6493218320928125e-01 -2.6667420762172895e+00 8.0139478686018650e-01 -3.4346869652400369e+00 2.3195258397093781e+00 -4.1760514768014776e+00 
        </Neuron>
        <Neuron NSynapses="10">
          5.5075973467925712e+00 -3.4125443357297640e+00 -3.1997438837632558e-01 -4.4563219372620866e-02 3.0823261337152195e+00 5.1597890696668642e+00 -1.6483539273150860e+00 2.9659641455504078e+00 8.5777306309094214e-01 -3.6548841225752939e+00 
        </Neuron>
        <Neuron NSynapses="10">
          -2.4008703526912631e-01 2.3524829648403176e+00 1.0629016466361261e+00 -1.5546194534133544e+00 -1.5028103899193959e+00 9.8206644594008474e-01 3.4735937873590993e-02 -7.1749948557270518e+00 1.1997837063475638e+00 -1.2452265040537436e-01 
        </Neuron>
        <Neuron NSynapses="10">
          1.5353516658756068e+00 -5.9412233026148953e-01 -9.7608674451455368e-01 1.3556102493264063e-01 -3.6248931409432070e+00 2.1544096781790475e-01 -1.6583596494950441e+00 8.9344820412869697e-01 -1.2326567975386717e+00 3.3839850237471070e+00 
        </Neuron>
        <Neuron NSynapses="10">
          -4.6110669017615589e+00 1.6103750672932895e+00 5.7961786097370893e-01 -1.6006788649140231e+00 -1.7041685500638553e+00 -2.3182429022008780e-01 2.8499543092989130e+00 1.1706482464383778e+00 2.1489014012273353e+00 1.4203440807204009e+00 
        </Neuron>
        <Neuron NSynapses="10">
          -4.3019055702650792e+00 2.2879174336664883e+00 1.4495993479161653e+00 -1.5732112149772390e+00 8.6438079786033573e-01 1.6741499609791996e-01 1.6969795247538663e-01 2.5846616800263402e+00 -3.3098207249667357e+00 -1.6592122789100987e+00 
        </Neuron>
        <Neuron NSynapses="10">
          -4.5024473520158699e+00 1.9569358201868110e+00 -3.0309167137383684e+00 7.6123781312868816e-02 -5.2943486689489094e-01 1.7927977972519067e+00 1.5589185615015899e+00 1.1240725617523772e+00 2.9773629583202682e-01 2.0915908306297522e+00 
        </Neuron>
        <Neuron NSynapses="10">
          -4.3437190197963700e+00 -1.1797961334813287e+00 -2.1633915013982308e+00 2.0666223189819743e+00 2.6026316489467827e+00 2.0402839531959209e+00 -2.5901326628534451e+00 8.7350092319034667e-01 2.3957880777135427e+00 -3.1492983410175697e+00 
        </Neuron>
        <Neuron NSynapses="10">
          -2.0008446081907341e+00 2.5439620245413797e+00 -1.0847618438724427e+00 -9.1356814292334843e-01 -1.9618979252347526e+00 1.2288889287351408e+00 2.3861610593493214e+00 -1.2638812494019216e+00 1.6324261585253192e+00 2.0917732574071985e+00 
        </Neuron>
        <Neuron NSynapses="10">
          -4.0136286837504537e-01 1.1304120746371218e+00 1.6220371447209057e+00 1.9724514479299622e+00 -1.5676180102847577e+00 5.2712364953689506e-01 1.1048978239226033e+00 -1.6407036003337527e+00 -1.7770109448305649e+00 7.9309303583559465e-01 
        </Neuron>
        <Neuron NSynapses="10">
          -2.3485157641112946e+00 3.0776433488308403e+00 -1.5461993677915020e+00 5.3158852402920587e-01 -1.4762252001682568e+00 4.7670620894808530e-01 -2.2662465856552743e+00 -7.5483542233409129e-01 4.1191137378264839e+00 5.6919898174694543e+00 
        </Neuron>
        <Neuron NSynapses="10">
          5.0063926687804976e+00 3.2082197968816906e+00 9.0638274883599479e-01 -3.7573817500457252e-01 4.3441523626222844e+00 5.9854900345386909e-02 -2.0788090739362199e+00 1.5521555494254700e+00 -3.2311833713516656e+00 9.2742407059832788e-01 
        </Neuron>
        <Neuron NSynapses="10">
          -8.6691569294667459e-01 3.1745832713121365e+00 -3.2248594983840156e-01 6.1117673703201403e-01 8.2906198424446433e+00 -1.3388427525684228e+00 1.5260308775228462e+00 2.6997964009168709e+00 -3.8409016179234965e+00 -1.1576366667185334e+00 
        </Neuron>
        <Neuron NSynapses="10">
          9.0180791836292051e-01 -9.9661365348118280e-01 1.6689503250988216e+00 1.4526994535613240e+00 -1.2417413381816809e+00 4.7617893043363752e-01 -1.5118566149594816e+00 1.6202004244602684e+00 -2.1870419709470834e+00 8.3175847917046875e-01 
        </Neuron>
        <Neuron NSynapses="10">
          -2.1952044421266588e+00 2.9950690548567214e+00 1.8445662975429931e+00 1.7623378659534088e+00 -8.3942100016072851e-01 -6.9809127421889836e-03 -4.6181567006331319e+00 1.6661957008396648e+00 -1.0124086430409776e+00 1.5134147882749682e+00 
        </Neuron>
        <Neuron NSynapses="10">
          -3.4410549200032108e+00 1.0592991249999428e+00 2.2916895171211782e+00 1.7694610448959032e+00 -4.0791930706846236e+00 1.8401802885644591e+00 1.6595628906425854e+00 1.9634156692749680e+00 1.7783517975697907e+00 1.0925555996972482e-01 
        </Neuron>
        <Neuron NSynapses="10">
          6.4644546579881224e-01 1.4387800907091839e+00 -1.7004557026963874e+00 2.0338028447733998e+00 -1.0188555947196900e+00 -2.8379589838950581e-03 4.9693654243923430e-01 -4.4660222105593670e+00 4.8296854751977136e+00 1.3733942114006503e+00 
        </Neuron>
        <Neuron NSynapses="10">
          -3.0859954509677623e+00 -2.0728930872571585e-01 8.0362698776414998e-01 2.8672912837590570e-01 -1.8442069440477366e-01 -1.2562279109273428e-01 -2.1080701486072777e+00 1.5725073246152519e+00 -7.3701336875305978e-01 -8.4845830004985934e-01 
        </Neuron>
        <Neuron NSynapses="10">
          -7.1212244186948259e-01 1.5037187696878915e+00 1.4717678113333117e+00 9.9277231286133383e-01 -5.5641639991495340e-01 2.3193659105415068e-01 2.5236676405403408e-01 1.7924451328032465e-01 -1.1260302663483801e+00 2.3981729821092137e+00 
        </Neuron>
      </Layer>
      <Layer Index="2" NNeurons="11">
        <Neuron NSynapses="10">
          2.7374590484720476e+00 -1.6358654681757994e+00 2.3676769927484476e-01 -3.0552135038475385e+00 -2.3486463401419888e+00 4.2652696512428676e+00 1.6906813188252656e-01 -3.5996252743473058e+00 -4.4001592533431024e+00 3.0887682469702686e+00 
        </Neuron>
        <Neuron NSynapses="10">
          -1.6150527799377112e+00 1.2903609998951316e-02 5.4902587245000571e+00 3.5455256415199892e+00 -2.9717553129508911e-01 -1.9268161387698424e+00 -1.8528938887810340e+00 1.7622492378090959e+00 1.2608008605696848e+00 -3.0514545592461157e+00 
        </Neuron>
        <Neuron NSynapses="10">
          4.6697310070467057e-01 3.5385739845653774e-01 5.3402348329442506e-01 1.0644144154093376e+00 2.3784561513705267e+00 -1.4293888426453177e-01 1.1389627963792843e+00 1.5009062394926140e-01 -1.5063719005104734e+00 -1.4689497077412816e+00 
        </Neuron>
        <Neuron NSynapses="10">
          -1.8609921371940572e+00 -1.4883966469938046e+00 -4.6864279472631845e+00 -2.9825762224689184e-01 -4.0627592006137769e-01 -7.4836645832375837e-01 -2.0290434171894596e+00 4.9939498056637777e-01 -6.4628762707367976e-02 -1.4582228241114203e+00 
        </Neuron>
        <Neuron NSynapses="10">
          2.2207000337248678e-02 4.0650117071896501e+00 6.0602915210243546e+00 -3.3542674940965203e+00 1.9481758975266523e+00 -1.9389873745718158e+00 3.9427655417505143e+00 -5.9281213219099991e+00 -6.9385620434491235e+00 3.3090214376987634e+00 
        </Neuron>
        <Neuron NSynapses="10">
          1.6441046720087009e+00 -2.1404298991972306e+00 -4.3171427749580964e+00 -1.7680117119803971e+00 -2.1807620329590680e+00 -2.1887956502245660e+00 -1.9346008449524734e+00 -3.2820458396608969e+00 -4.0162864365816286e-01 -1.3102771808620985e+00 
        </Neuron>
        <Neuron NSynapses="10">
          -3.7021530904069883e-01 1.4169842258759862e+00 2.4563980781374375e+00 -4.4736228922935819e+00 -1.3647125061165002e+00 7.2753514370594130e-02 1.2098071016286792e-01 2.7457848050931069e+00 3.3192350984076948e+00 1.0368255336688317e+00 
        </Neuron>
        <Neuron NSynapses="10">
          3.8055737347625822e+00 -1.7231770615225417e+00 2.3294401586771649e-01 -5.6860039155528250e+00 5.9586265156800318e+00 3.6504968573114244e-01 2.2562024597123123e+00 -1.5563011060443714e+00 -2.7602781247746377e+00 2.3379745942293382e+00 
        </Neuron>
        <Neuron NSynapses="10">
          -4.3947303134584903e+00 1.7277645828591441e+00 -6.4088448978034522e+00 1.8520407668489980e+00 -4.3062290081104040e+00 -2.5804815490548476e+00 -1.2677585781848066e+00 3.1624489116529482e+00 -3.5276031204846270e-01 -7.5055042939250516e-01 
        </Neuron>
        <Neuron NSynapses="10">
          -8.0151306278390422e-01 -3.8608382618672096e-02 -3.6751011211043703e+00 6.8115354026912724e+00 1.8469698097881633e+00 -2.6085145254242095e+00 -4.6973302919996049e+00 -1.6309408450876531e-01 3.5826691243836248e+00 -4.2156814346674025e+00 
        </Neuron>
        <Neuron NSynapses="10">
          1.2072379313498538e-01 -4.9718822764675308e-01 -1.5003607285683367e+00 -2.0479645071333370e+00 3.0786651169060780e-01 -1.0809098568659306e-01 -2.7441406479912844e+00 6.6028710307523586e-01 -1.5998434737678562e+00 1.3396702591265537e+00 
        </Neuron>
      </Layer>
      <Layer Index="3" NNeurons="11">
        <Neuron NSynapses="5">
          -2.1564747761681660e+00 -1.2527547399741594e+00 2.3634271919826097e-01 -8.0691880421767132e-03 -2.2890526900456525e+00 
        </Neuron>
        <Neuron NSynapses="5">
          -2.5816578820799885e+00 1.4631853324932189e+00 1.1262332781118893e+00 -1.4720684570095925e+00 -9.9112230441457505e-01 
        </Neuron>
        <Neuron NSynapses="5">
          -3.2735706820315338e+00 -6.0069475048127696e+00 1.9440165196379910e+00 -1.9686573456206591e+00 -3.2203468053454154e+00 
        </Neuron>
        <Neuron NSynapses="5">
          -3.2912145786487174e-01 3.8887395933227986e+00 -2.3103868055578509e+00 -2.3445668581425543e+00 3.5322689863113386e+00 
        </Neuron>
        <Neuron NSynapses="5">
          -2.2587771167974680e+00 1.6694077516234543e-02 -1.4274016882689222e+00 -2.4452360610896320e+00 -2.4778568978640214e+00 
        </Neuron>
        <Neuron NSynapses="5">
          -1.0321385435687007e+00 -2.6245566671340002e+00 2.2753070722036144e+00 -2.1980065046436401e+00 -1.8932179435400589e+00 
        </Neuron>
        <Neuron NSynapses="5">
          -1.3777582595910800e+00 -3.4834791727456649e+00 2.2031092204308598e+00 -3.5264163596771397e-01 -1.0529721104604099e+00 
        </Neuron>
        <Neuron NSynapses="5">
          3.4200818421863941e+00 2.0491174903745248e+00 -1.8562445000417824e+00 9.8627783268105884e-01 1.6006814481637941e+00 
        </Neuron>
        <Neuron NSynapses="5">
          6.9649516116739441e-01 1.6923517518094073e+00 -6.5392043448974235e-01 4.2332358123406761e+00 2.7238105291933414e+00 
        </Neuron>
        <Neuron NSynapses="5">
          -3.1666212737319571e-01 -4.5042860697395000e+00 1.2511460162384727e+00 -4.9845894195508295e-01 -2.5223566728287677e-01 
        </Neuron>
        <Neuron NSynapses="5">
          -2.2395749295466043e+00 6.3255583112322578e-01 -2.6367391567390221e+00 -1.0331964760920609e+00 -6.2562287192675814e-01 
        </Neuron>
      </Layer>
      <Layer Index="4" NNeurons="6">
        <Neuron NSynapses="1">
          -3.4980315359302425e+00 
        </Neuron>
        <Neuron NSynapses="1">
          -2.6202269702192993e+00 
        </Neuron>
        <Neuron NSynapses="1">
          5.3521843778873492e+00 
        </Neuron>
        <Neuron NSynapses="1">
          -3.5066036678545043e+00 
        </Neuron>
        <Neuron NSynapses="1">
          -1.8276345616981611e+00 
        </Neuron>
        <Neuron NSynapses="1">
          8.8310922390002178e-01 
        </Neuron>
      </Layer>
      <Layer Index="5" NNeurons="1">
        <Neuron NSynapses="0"/>
      </Layer>
    </Layout>
  </Weights>
</MethodSetup>
