<?xml version="1.0"?>
<MethodSetup Method="MLP::MLP_fold1">
  <GeneralInfo>
    <Info name="TMVA Release" value="4.2.1 [262657]"/>
    <Info name="ROOT Release" value="6.20/06 [398342]"/>
    <Info name="Creator" value="tfarooque"/>
    <Info name="Date" value="Wed May  3 10:52:43 2023"/>
    <Info name="Host" value="Linux aibuild16-017.cern.ch 3.10.0-1160.36.2.el7.x86_64 #1 SMP Wed Jul 21 11:57:15 UTC 2021 x86_64 x86_64 x86_64 GNU/Linux"/>
    <Info name="Dir" value="/data/at3/scratch2/farooque/DevPVLQ/VLQAnalysisFramework/run"/>
    <Info name="Training events" value="103324"/>
    <Info name="TrainingTime" value="3.70562385e+03"/>
    <Info name="AnalysisType" value="Classification"/>
  </GeneralInfo>
  <Options>
    <Option name="NCycles" modified="Yes">800</Option>
    <Option name="HiddenLayers" modified="Yes">30,10,10,5</Option>
    <Option name="NeuronType" modified="Yes">sigmoid</Option>
    <Option name="RandomSeed" modified="No">1</Option>
    <Option name="EstimatorType" modified="No">CE</Option>
    <Option name="NeuronInputType" modified="No">sum</Option>
    <Option name="V" modified="Yes">False</Option>
    <Option name="VerbosityLevel" modified="No">Default</Option>
    <Option name="VarTransform" modified="Yes">N</Option>
    <Option name="H" modified="No">False</Option>
    <Option name="CreateMVAPdfs" modified="No">False</Option>
    <Option name="IgnoreNegWeightsInTraining" modified="No">False</Option>
    <Option name="TrainingMethod" modified="No">BP</Option>
    <Option name="LearningRate" modified="Yes">1.000000e-02</Option>
    <Option name="DecayRate" modified="Yes">0.000000e+00</Option>
    <Option name="TestRate" modified="Yes">5</Option>
    <Option name="EpochMonitoring" modified="Yes">False</Option>
    <Option name="Sampling" modified="No">1.000000e+00</Option>
    <Option name="SamplingEpoch" modified="No">1.000000e+00</Option>
    <Option name="SamplingImportance" modified="No">1.000000e+00</Option>
    <Option name="SamplingTraining" modified="No">True</Option>
    <Option name="SamplingTesting" modified="No">False</Option>
    <Option name="ResetStep" modified="No">50</Option>
    <Option name="Tau" modified="No">3.000000e+00</Option>
    <Option name="BPMode" modified="No">sequential</Option>
    <Option name="BatchSize" modified="No">-1</Option>
    <Option name="ConvergenceImprove" modified="No">1.000000e-30</Option>
    <Option name="ConvergenceTests" modified="No">-1</Option>
    <Option name="UseRegulator" modified="No">False</Option>
    <Option name="UpdateLimit" modified="No">10000</Option>
    <Option name="CalculateErrors" modified="No">False</Option>
    <Option name="WeightRange" modified="No">1.000000e+00</Option>
  </Options>
  <Variables NVar="20">
    <Variable VarIndex="0" Expression="meff" Label="meff" Title="meff" Unit="" Internal="meff" Type="D" Min="1.00073407e+03" Max="7.93033350e+03"/>
    <Variable VarIndex="1" Expression="RCjet2_pt" Label="RCjet2_pt" Title="RCjet2_pt" Unit="" Internal="RCjet2_pt" Type="D" Min="2.00002106e+02" Max="1.63844312e+03"/>
    <Variable VarIndex="2" Expression="leptop_pt" Label="leptop_pt" Title="leptop_pt" Unit="" Internal="leptop_pt" Type="D" Min="-1.00000000e+02" Max="3.42010815e+03"/>
    <Variable VarIndex="3" Expression="RCjets_n" Label="RCjets_n" Title="RCjets_n" Unit="" Internal="RCjets_n" Type="D" Min="3.00000000e+00" Max="7.00000000e+00"/>
    <Variable VarIndex="4" Expression="RCMHiggs0_pt" Label="RCMHiggs0_pt" Title="RCMHiggs0_pt" Unit="" Internal="RCMHiggs0_pt" Type="D" Min="0.00000000e+00" Max="2.74079712e+03"/>
    <Variable VarIndex="5" Expression="dPhiavg_RCjets" Label="dPhiavg_RCjets" Title="dPhiavg_RCjets" Unit="" Internal="dPhiavg_RCjets" Type="D" Min="4.63033348e-01" Max="2.09439516e+00"/>
    <Variable VarIndex="6" Expression="mvlq1_RCTTM_drmax" Label="mvlq1_RCTTM_drmax" Title="mvlq1_RCTTM_drmax" Unit="" Internal="mvlq1_RCTTM_drmax" Type="D" Min="-1.52543213e+03" Max="5.04842090e+03"/>
    <Variable VarIndex="7" Expression="RCMHiggs0_nconsts" Label="RCMHiggs0_nconsts" Title="RCMHiggs0_nconsts" Unit="" Internal="RCMHiggs0_nconsts" Type="D" Min="0.00000000e+00" Max="2.00000000e+00"/>
    <Variable VarIndex="8" Expression="RCMHiggs0_nbconsts" Label="RCMHiggs0_nbconsts" Title="RCMHiggs0_nbconsts" Unit="" Internal="RCMHiggs0_nbconsts" Type="D" Min="0.00000000e+00" Max="4.00000000e+00"/>
    <Variable VarIndex="9" Expression="dRmin_RCMTT" Label="dRmin_RCMTT" Title="dRmin_RCMTT" Unit="" Internal="dRmin_RCMTT" Type="D" Min="4.93207015e-02" Max="4.92609024e+00"/>
    <Variable VarIndex="10" Expression="dRmin_RCjets" Label="dRmin_RCjets" Title="dRmin_RCjets" Unit="" Internal="dRmin_RCjets" Type="D" Min="4.93207015e-02" Max="3.49933314e+00"/>
    <Variable VarIndex="11" Expression="mvlq1_rcj_drmax" Label="mvlq1_rcj_drmax" Title="mvlq1_rcj_drmax" Unit="" Internal="mvlq1_rcj_drmax" Type="D" Min="-1.86745874e+03" Max="5.04842090e+03"/>
    <Variable VarIndex="12" Expression="mtbmin" Label="mtbmin" Title="mtbmin" Unit="" Internal="mtbmin" Type="D" Min="3.86307569e-04" Max="1.42423145e+03"/>
    <Variable VarIndex="13" Expression="met" Label="met" Title="met" Unit="" Internal="met" Type="D" Min="1.02333152e+00" Max="1.94994263e+03"/>
    <Variable VarIndex="14" Expression="bjets_n" Label="bjets_n" Title="bjets_n" Unit="" Internal="bjets_n" Type="D" Min="3.00000000e+00" Max="9.00000000e+00"/>
    <Variable VarIndex="15" Expression="dPhimin_RCMTT" Label="dPhimin_RCMTT" Title="dPhimin_RCMTT" Unit="" Internal="dPhimin_RCMTT" Type="D" Min="1.90258026e-04" Max="3.14156938e+00"/>
    <Variable VarIndex="16" Expression="dRavg_RCjets" Label="dRavg_RCjets" Title="dRavg_RCjets" Unit="" Internal="dRavg_RCjets" Type="D" Min="1.16793573e+00" Max="3.80160737e+00"/>
    <Variable VarIndex="17" Expression="dPhimin_RCjets" Label="dPhimin_RCjets" Title="dPhimin_RCjets" Unit="" Internal="dPhimin_RCjets" Type="D" Min="5.45978546e-05" Max="2.09194827e+00"/>
    <Variable VarIndex="18" Expression="RCMV0_nconsts" Label="RCMV0_nconsts" Title="RCMV0_nconsts" Unit="" Internal="RCMV0_nconsts" Type="D" Min="0.00000000e+00" Max="2.00000000e+00"/>
    <Variable VarIndex="19" Expression="RCMV0_pt" Label="RCMV0_pt" Title="RCMV0_pt" Unit="" Internal="RCMV0_pt" Type="D" Min="0.00000000e+00" Max="2.66518701e+03"/>
  </Variables>
  <Spectators NSpec="7">
    <Spectator SpecIndex="0" Expression="VLQtype" Label="VLQtype" Title="VLQtype" Unit="" Internal="VLQtype" Type="F" Min="-1.00000000e+00" Max="3.00000000e+00"/>
    <Spectator SpecIndex="1" Expression="channel" Label="channel" Title="channel" Unit="" Internal="channel" Type="F" Min="1.00000000e+00" Max="5.00000000e+00"/>
    <Spectator SpecIndex="2" Expression="event_number" Label="event_number" Title="event_number" Unit="" Internal="event_number" Type="F" Min="1.00000000e+00" Max="4.04104576e+08"/>
    <Spectator SpecIndex="3" Expression="mc_campaign" Label="mc_campaign" Title="mc_campaign" Unit="" Internal="mc_campaign" Type="F" Min="1.00000000e+00" Max="3.00000000e+00"/>
    <Spectator SpecIndex="4" Expression="run_number" Label="run_number" Title="run_number" Unit="" Internal="run_number" Type="F" Min="2.76262000e+05" Max="3.64292000e+05"/>
    <Spectator SpecIndex="5" Expression="sampleID" Label="sampleID" Title="sampleID" Unit="" Internal="sampleID" Type="F" Min="3.02480000e+05" Max="7.00347000e+05"/>
    <Spectator SpecIndex="6" Expression="sampleName" Label="sampleName" Title="sampleName" Unit="" Internal="sampleName" Type="F" Min="3.00000000e+00" Max="1.70000000e+01"/>
  </Spectators>
  <Classes NClass="2">
    <Class Name="Signal" Index="0"/>
    <Class Name="Background" Index="1"/>
  </Classes>
  <Transformations NTransformations="1">
    <Transform Name="Normalize">
      <Selection>
        <Input NInputs="20">
          <Input Type="Variable" Label="meff" Expression="meff"/>
          <Input Type="Variable" Label="RCjet2_pt" Expression="RCjet2_pt"/>
          <Input Type="Variable" Label="leptop_pt" Expression="leptop_pt"/>
          <Input Type="Variable" Label="RCjets_n" Expression="RCjets_n"/>
          <Input Type="Variable" Label="RCMHiggs0_pt" Expression="RCMHiggs0_pt"/>
          <Input Type="Variable" Label="dPhiavg_RCjets" Expression="dPhiavg_RCjets"/>
          <Input Type="Variable" Label="mvlq1_RCTTM_drmax" Expression="mvlq1_RCTTM_drmax"/>
          <Input Type="Variable" Label="RCMHiggs0_nconsts" Expression="RCMHiggs0_nconsts"/>
          <Input Type="Variable" Label="RCMHiggs0_nbconsts" Expression="RCMHiggs0_nbconsts"/>
          <Input Type="Variable" Label="dRmin_RCMTT" Expression="dRmin_RCMTT"/>
          <Input Type="Variable" Label="dRmin_RCjets" Expression="dRmin_RCjets"/>
          <Input Type="Variable" Label="mvlq1_rcj_drmax" Expression="mvlq1_rcj_drmax"/>
          <Input Type="Variable" Label="mtbmin" Expression="mtbmin"/>
          <Input Type="Variable" Label="met" Expression="met"/>
          <Input Type="Variable" Label="bjets_n" Expression="bjets_n"/>
          <Input Type="Variable" Label="dPhimin_RCMTT" Expression="dPhimin_RCMTT"/>
          <Input Type="Variable" Label="dRavg_RCjets" Expression="dRavg_RCjets"/>
          <Input Type="Variable" Label="dPhimin_RCjets" Expression="dPhimin_RCjets"/>
          <Input Type="Variable" Label="RCMV0_nconsts" Expression="RCMV0_nconsts"/>
          <Input Type="Variable" Label="RCMV0_pt" Expression="RCMV0_pt"/>
        </Input>
        <Output NOutputs="20">
          <Output Type="Variable" Label="meff" Expression="meff"/>
          <Output Type="Variable" Label="RCjet2_pt" Expression="RCjet2_pt"/>
          <Output Type="Variable" Label="leptop_pt" Expression="leptop_pt"/>
          <Output Type="Variable" Label="RCjets_n" Expression="RCjets_n"/>
          <Output Type="Variable" Label="RCMHiggs0_pt" Expression="RCMHiggs0_pt"/>
          <Output Type="Variable" Label="dPhiavg_RCjets" Expression="dPhiavg_RCjets"/>
          <Output Type="Variable" Label="mvlq1_RCTTM_drmax" Expression="mvlq1_RCTTM_drmax"/>
          <Output Type="Variable" Label="RCMHiggs0_nconsts" Expression="RCMHiggs0_nconsts"/>
          <Output Type="Variable" Label="RCMHiggs0_nbconsts" Expression="RCMHiggs0_nbconsts"/>
          <Output Type="Variable" Label="dRmin_RCMTT" Expression="dRmin_RCMTT"/>
          <Output Type="Variable" Label="dRmin_RCjets" Expression="dRmin_RCjets"/>
          <Output Type="Variable" Label="mvlq1_rcj_drmax" Expression="mvlq1_rcj_drmax"/>
          <Output Type="Variable" Label="mtbmin" Expression="mtbmin"/>
          <Output Type="Variable" Label="met" Expression="met"/>
          <Output Type="Variable" Label="bjets_n" Expression="bjets_n"/>
          <Output Type="Variable" Label="dPhimin_RCMTT" Expression="dPhimin_RCMTT"/>
          <Output Type="Variable" Label="dRavg_RCjets" Expression="dRavg_RCjets"/>
          <Output Type="Variable" Label="dPhimin_RCjets" Expression="dPhimin_RCjets"/>
          <Output Type="Variable" Label="RCMV0_nconsts" Expression="RCMV0_nconsts"/>
          <Output Type="Variable" Label="RCMV0_pt" Expression="RCMV0_pt"/>
        </Output>
      </Selection>
      <Class ClassIndex="0">
        <Ranges>
          <Range Index="0" Min="1.1955372314453125e+03" Max="7.0833134765625000e+03"/>
          <Range Index="1" Min="2.0008181762695312e+02" Max="1.4451610107421875e+03"/>
          <Range Index="2" Min="-1.0000000000000000e+02" Max="3.4201081542968750e+03"/>
          <Range Index="3" Min="3.0000000000000000e+00" Max="7.0000000000000000e+00"/>
          <Range Index="4" Min="0.0000000000000000e+00" Max="2.5820068359375000e+03"/>
          <Range Index="5" Min="5.0164228677749634e-01" Max="2.0943951606750488e+00"/>
          <Range Index="6" Min="-1.5254321289062500e+03" Max="3.9120463867187500e+03"/>
          <Range Index="7" Min="0.0000000000000000e+00" Max="2.0000000000000000e+00"/>
          <Range Index="8" Min="0.0000000000000000e+00" Max="4.0000000000000000e+00"/>
          <Range Index="9" Min="8.0837950110435486e-02" Max="4.3891434669494629e+00"/>
          <Range Index="10" Min="6.0747377574443817e-02" Max="3.2021503448486328e+00"/>
          <Range Index="11" Min="-1.5254321289062500e+03" Max="4.3227709960937500e+03"/>
          <Range Index="12" Min="4.3191338772885501e-04" Max="1.4242314453125000e+03"/>
          <Range Index="13" Min="5.2262597084045410e+00" Max="1.9499426269531250e+03"/>
          <Range Index="14" Min="3.0000000000000000e+00" Max="9.0000000000000000e+00"/>
          <Range Index="15" Min="6.9957971572875977e-04" Max="3.1415469646453857e+00"/>
          <Range Index="16" Min="1.4324884414672852e+00" Max="3.6407668590545654e+00"/>
          <Range Index="17" Min="1.5234947204589844e-04" Max="2.0832316875457764e+00"/>
          <Range Index="18" Min="0.0000000000000000e+00" Max="2.0000000000000000e+00"/>
          <Range Index="19" Min="0.0000000000000000e+00" Max="2.4583303222656250e+03"/>
        </Ranges>
      </Class>
      <Class ClassIndex="1">
        <Ranges>
          <Range Index="0" Min="1.0007340698242188e+03" Max="7.9303334960937500e+03"/>
          <Range Index="1" Min="2.0000210571289062e+02" Max="1.6384431152343750e+03"/>
          <Range Index="2" Min="-1.0000000000000000e+02" Max="2.0879887695312500e+03"/>
          <Range Index="3" Min="3.0000000000000000e+00" Max="7.0000000000000000e+00"/>
          <Range Index="4" Min="0.0000000000000000e+00" Max="2.7407971191406250e+03"/>
          <Range Index="5" Min="4.6303334832191467e-01" Max="2.0943951606750488e+00"/>
          <Range Index="6" Min="-1.3470058593750000e+03" Max="5.0484208984375000e+03"/>
          <Range Index="7" Min="0.0000000000000000e+00" Max="2.0000000000000000e+00"/>
          <Range Index="8" Min="0.0000000000000000e+00" Max="4.0000000000000000e+00"/>
          <Range Index="9" Min="4.9320701509714127e-02" Max="4.9204616546630859e+00"/>
          <Range Index="10" Min="4.9320701509714127e-02" Max="3.4993331432342529e+00"/>
          <Range Index="11" Min="-1.8674587402343750e+03" Max="5.0484208984375000e+03"/>
          <Range Index="12" Min="3.8630756898783147e-04" Max="6.0649291992187500e+02"/>
          <Range Index="13" Min="1.0233315229415894e+00" Max="1.7021522216796875e+03"/>
          <Range Index="14" Min="3.0000000000000000e+00" Max="8.0000000000000000e+00"/>
          <Range Index="15" Min="2.9450654983520508e-04" Max="3.1415693759918213e+00"/>
          <Range Index="16" Min="1.2763701677322388e+00" Max="3.8016073703765869e+00"/>
          <Range Index="17" Min="6.6518783569335938e-05" Max="2.0914502143859863e+00"/>
          <Range Index="18" Min="0.0000000000000000e+00" Max="2.0000000000000000e+00"/>
          <Range Index="19" Min="0.0000000000000000e+00" Max="2.6651870117187500e+03"/>
        </Ranges>
      </Class>
      <Class ClassIndex="2">
        <Ranges>
          <Range Index="0" Min="1.0007340698242188e+03" Max="7.9303334960937500e+03"/>
          <Range Index="1" Min="2.0000210571289062e+02" Max="1.6384431152343750e+03"/>
          <Range Index="2" Min="-1.0000000000000000e+02" Max="3.4201081542968750e+03"/>
          <Range Index="3" Min="3.0000000000000000e+00" Max="7.0000000000000000e+00"/>
          <Range Index="4" Min="0.0000000000000000e+00" Max="2.7407971191406250e+03"/>
          <Range Index="5" Min="4.6303334832191467e-01" Max="2.0943951606750488e+00"/>
          <Range Index="6" Min="-1.5254321289062500e+03" Max="5.0484208984375000e+03"/>
          <Range Index="7" Min="0.0000000000000000e+00" Max="2.0000000000000000e+00"/>
          <Range Index="8" Min="0.0000000000000000e+00" Max="4.0000000000000000e+00"/>
          <Range Index="9" Min="4.9320701509714127e-02" Max="4.9204616546630859e+00"/>
          <Range Index="10" Min="4.9320701509714127e-02" Max="3.4993331432342529e+00"/>
          <Range Index="11" Min="-1.8674587402343750e+03" Max="5.0484208984375000e+03"/>
          <Range Index="12" Min="3.8630756898783147e-04" Max="1.4242314453125000e+03"/>
          <Range Index="13" Min="1.0233315229415894e+00" Max="1.9499426269531250e+03"/>
          <Range Index="14" Min="3.0000000000000000e+00" Max="9.0000000000000000e+00"/>
          <Range Index="15" Min="2.9450654983520508e-04" Max="3.1415693759918213e+00"/>
          <Range Index="16" Min="1.2763701677322388e+00" Max="3.8016073703765869e+00"/>
          <Range Index="17" Min="6.6518783569335938e-05" Max="2.0914502143859863e+00"/>
          <Range Index="18" Min="0.0000000000000000e+00" Max="2.0000000000000000e+00"/>
          <Range Index="19" Min="0.0000000000000000e+00" Max="2.6651870117187500e+03"/>
        </Ranges>
      </Class>
    </Transform>
  </Transformations>
  <MVAPdfs/>
  <Weights>
    <Layout NLayers="6">
      <Layer Index="0" NNeurons="21">
        <Neuron NSynapses="30">
          2.7928567130665773e+00 1.8261412686550283e+01 1.0759675547758707e+00 5.1963489774799791e+00 -1.6229609553818420e+01 -6.9088222172383524e+00 -9.3367989493163162e-01 1.6887300053481042e+00 -3.1643936798384060e+00 -3.9771551827008467e-01 -4.4918500878411578e+00 -4.0401546091428270e-01 -5.5359460608563860e-01 3.2131230619081902e-01 -8.7149422920340447e-01 -2.5937556176597867e+00 -5.4668424071785839e+00 -4.7856247922715323e-01 2.0016776315729548e+00 -7.1705786611240052e-01 -4.4449536528482554e+00 9.1823307200706528e-01 7.0128541208488668e+00 6.4659172308370705e+00 -1.4605837525410310e+00 -1.6080014510456029e+00 8.2830028467211516e+00 -2.4106808967591951e+00 -1.8092376446802749e+00 -1.3047480365583095e-01 
        </Neuron>
        <Neuron NSynapses="30">
          -1.4607413478137206e+00 1.5722900875688690e+00 2.8392524129722716e+00 -2.5430809598304807e+00 -4.5016208133682856e+00 8.2721651239305705e-01 -1.5848054212536635e+00 5.1493719778116596e+00 -4.2616194693566101e-01 -4.0491429024172643e+00 2.8982734524016034e+00 9.1163771797262183e-01 4.5526932060040526e+00 -3.0611824469044344e+00 8.1998118822482091e-01 -3.6329503004892461e+00 6.8049667066248434e+00 1.3413931730056807e+00 8.4472182618290725e-01 7.5940584426330151e+00 -2.8517912935707868e-01 5.5500036767388758e+00 2.5266618017954365e+00 3.8316182090644868e+00 -2.3603150595282125e+00 2.4086804216681323e+00 3.5559214261334753e+00 3.2464645525584056e-02 1.4374724207281708e+00 -4.2944580550850882e+00 
        </Neuron>
        <Neuron NSynapses="30">
          -9.4868195374884152e+00 -1.4548321145393910e+00 3.3170486164748547e-01 1.3233868980188651e-01 6.0537589512448937e+00 -6.5384553935476530e+00 -4.8944536448842536e-02 -3.4209812717548069e+00 1.1083781553744779e-01 1.5449254537698145e+00 -1.2913786663526738e+00 -1.4268717182282775e+00 3.9774985107811673e+00 -4.0514559889248325e+00 2.3278291183238626e+00 -3.7702744539054339e-01 4.5146126762472516e-01 -4.0664147635447394e+00 1.9048142838242972e+00 -6.2762345579613443e-01 5.2077246097122316e+00 1.9908055696899938e+00 5.9546226118278023e-01 -6.7750114501447378e-01 -1.1471071239373651e+00 -5.1127560666772187e-01 -3.6679773394093194e+00 5.9225755724643059e-01 -8.8013590183180668e+00 -7.3036791276474098e+00 
        </Neuron>
        <Neuron NSynapses="30">
          -7.5422480426082716e-01 -1.6815431897586988e+00 3.2117172621657697e+00 4.7000478099964438e-01 2.6094751039639990e+00 4.5494198218741522e+00 -9.8441410702796772e-01 -7.5475929852010404e-01 -6.2946678582381865e-01 3.5622143485572239e-01 -3.8467739594984702e+00 -1.4945585819772398e+00 3.0529518466640684e+00 4.9468653753952632e+00 -2.7786150436151944e+00 3.5347887728115666e+00 2.1990297921052493e+00 8.3464486787549164e-01 -4.6601126071229404e-01 9.2982391852547341e-01 -2.9304443473556834e+00 -1.8072472157926456e+00 -1.3647502684082693e+00 -1.4488831694965417e-02 -1.7284843620505155e+00 1.7184666369040114e+00 -3.6323303075873383e+00 2.8919125236443697e+00 1.3388719632211323e+00 -1.1982677766022454e+00 
        </Neuron>
        <Neuron NSynapses="30">
          -7.3803342901114553e+00 6.9376272388621407e+00 -1.6947292499456452e+00 9.2466578146627099e-01 5.2252455190195093e+00 -7.2471100331420166e-02 -6.3048387179160481e-01 1.5005398450297573e+00 -3.5784362076815563e+00 -9.3091403733979217e-01 -1.1837979068864244e+00 -1.7422257696488459e+00 -3.3184547423533522e-01 -9.2428560189255826e-01 4.4486437184688982e-01 5.0018561502079297e+00 7.6098031905929775e-01 -7.7337115712508397e-01 3.1674841570472165e+00 9.4586313979291337e-01 2.1229802919678371e+00 -5.6999233015115391e-01 -5.0686476411025705e+00 2.9314706303248528e+00 -1.3347477341241178e+00 3.8200875214118429e-01 1.1560355079282769e+00 3.9351994287142986e+00 -1.5282863731354757e+00 3.2657370789285527e+00 
        </Neuron>
        <Neuron NSynapses="30">
          -2.1621395466178335e+00 2.0229918687601556e+00 4.6192430193632328e+00 -5.3662372653153889e-01 2.0776347032816380e+00 -1.3280321579962053e+00 1.2321005577906361e+00 -7.8919516181707772e-01 1.1748704341782679e+00 -2.9842454401711476e+00 6.9260063572289123e+00 5.8269081526638067e-01 5.8924900224724153e-01 -2.0441497071509471e+00 -1.0619383543013297e+00 -2.3541064704072316e+00 -5.2765224342450319e+00 4.9955441532429194e+00 5.8119956540306539e-01 -3.3234757693266239e+00 4.5881268973225788e+00 2.1035668534903271e+00 1.1903403160436852e+00 2.2306247548576543e+00 2.2918050748135035e+00 -3.6251265942240516e+00 -1.2392199888565238e+00 7.1297560439834040e-01 -7.4232018470380845e-01 -4.5033669979242391e-01 
        </Neuron>
        <Neuron NSynapses="30">
          -2.6379852052037123e+00 -1.2221499126022886e+00 9.5415356028983189e-01 -1.0312138287680181e+00 1.2212583189911987e+00 -1.5866934883236086e+00 3.0214504606813430e-01 2.3279547060301331e+00 -9.8711802770830714e-01 -2.5287898653512224e+00 -2.6763334928228972e+00 1.1722424239695295e+00 -2.4971728415366576e-01 6.9894888140567328e+00 -4.8007088475437965e-01 6.8028790606501854e-02 -5.5479456858436276e+00 1.3945168873358322e+00 -2.4578642951575527e-01 2.6774484343935763e-02 -8.4372345982751995e-01 -8.8150269691532801e-01 -2.7271265896465429e+00 -3.3810683606059500e+00 1.5528799537936919e+00 4.2790687081778183e+00 -6.7720103169751749e+00 1.6073928660030168e+00 1.0717056242596661e+00 2.9590569454430389e+00 
        </Neuron>
        <Neuron NSynapses="30">
          8.7973988233787115e-01 8.2674537403906545e-01 -1.1556054188226303e+00 -5.1094035725407227e-01 -1.6792782128197656e-01 3.2221911712986513e+00 6.4531948903325353e-01 -1.8128819581542472e+00 4.4419313766134891e+00 -1.6103467850777835e+00 -1.4059728019370870e+00 -3.0021358289328837e-01 -5.8582613096621505e-01 3.1236233389612666e-01 3.2850497684206146e+00 -1.6611993852608347e+00 1.3715922568165362e+00 -1.1313036799553295e-02 -8.4248951221893051e+00 -1.9983352482381440e+00 -2.7048124593655754e-01 -1.4477046110154634e+00 2.0285531304574142e-01 -3.3316629400557005e+00 1.5024991575633981e+00 -1.8958328565478018e+00 5.5999799651343440e-01 -9.6451809833599866e-01 -5.4947609003485214e+00 -1.6073741843974557e-01 
        </Neuron>
        <Neuron NSynapses="30">
          -3.9680320967497322e+00 -5.3605756186421196e+00 -1.9599917252053933e+00 -3.4678291379766651e-01 -6.0312131824054820e+00 -1.2557348278335367e+00 -1.2595242456024771e+00 6.9909084493884155e-01 1.5778466294350411e+00 3.0882210072370890e+00 1.1710370676332147e+00 -1.0598142451972405e+00 -5.5405009852998566e-01 6.6343112891952805e-01 5.4434883224820005e+00 -1.4917431128143490e+00 -5.0456740423081738e+00 1.3750640003011141e+00 -2.1856194608628225e+00 -2.2866905668276161e+00 4.6455470415431961e+00 8.0916562337120845e-01 1.3139055782225615e+00 -3.1244813203024306e+00 -2.5272263629595865e-01 5.8137048797297763e-01 -2.4998496621187769e+00 1.9644828332039782e-01 -6.2305668315892959e-01 -6.6248964216487916e-01 
        </Neuron>
        <Neuron NSynapses="30">
          -2.3411473465242403e+00 2.5503782586166563e+00 4.7048769257019076e+00 2.6487437229507216e+00 2.5393646175596905e+00 1.8070198742834818e+00 1.4406065798719667e+00 2.1245870982081705e+00 4.9597354053841309e+00 8.4153149500553115e-01 7.3292917265130466e+00 -3.6120800431710526e-01 -1.9043351527186717e-01 1.8787939631669368e+00 -1.9830922530525232e+00 7.0634774460256167e-01 -2.2029829307498390e+00 5.2353913549671038e-01 8.4222223691067222e-01 6.7316371009175091e+00 -2.7341661260668042e+00 -3.0767834793530282e+00 -7.7930342581873733e+00 7.4164880519758913e-01 4.2642357242912438e-01 2.1871035360343663e-01 4.9168456382658467e-02 8.7812474907592175e-01 2.9458064862220779e-01 -4.8322875235718241e+00 
        </Neuron>
        <Neuron NSynapses="30">
          -3.9121005760779735e+00 -3.7149982187445825e+00 5.0068341594451615e+00 -8.4135063999759243e+00 -2.0587969363719552e+00 -1.1236280595170314e+00 -1.1394619769037120e+00 -2.1243508855378619e+00 -8.8820701398338144e+00 -4.0415093209353845e+00 7.2390485706444005e+00 -1.2790740211149429e+00 2.5253780714730119e+00 5.7394165716419945e+00 2.0574130307771825e+00 7.1324579931569121e-01 6.8191672350348114e+00 -2.2157037986410333e+00 2.7889104209934419e+00 3.6412735182070319e+00 -1.6871711777938170e+00 2.6658121908459043e+00 -4.2506342604241915e-01 -2.8455230288597493e+00 4.9034336028725595e-01 2.4253684313658330e+00 5.7553291942631768e+00 2.1271558758021567e+00 -2.5362000943400216e+00 2.0525548410038246e+00 
        </Neuron>
        <Neuron NSynapses="30">
          -4.5944317079313107e-01 4.1339282119685589e-01 -3.6192865903536933e+00 -6.0422908025895463e+00 4.6731845888198205e+00 1.9533354509245204e+00 4.0312216880006330e-01 3.7479397420625169e+00 6.1002185269208760e-02 -1.9557598165391217e-02 -2.0338904639521096e+00 3.4468734964327308e-01 5.9249533956774958e-01 -4.1929664814113279e+00 3.2578894028757904e-01 -6.0655552563841464e-01 1.8132135783454821e+00 1.2308429147448263e-02 -2.6232664863467789e+00 -4.7179028189491099e+00 -1.0899543481098628e+00 -7.0037656744350063e-01 6.7215450435008481e+00 -1.9778509097328452e+00 -8.0292991918104184e-01 -2.2096267854615381e+00 -1.1249115712696002e+01 2.2493879556474830e+00 5.1045281344874081e+00 -6.2399659156723786e+00 
        </Neuron>
        <Neuron NSynapses="30">
          9.0857366655397043e-01 3.2445923242124652e+00 -4.1806944508441664e+00 -9.3572424429408263e-01 1.8453031744835307e+00 -1.6135029310604763e+00 -1.9277966811010185e+00 1.7688428163685304e+00 1.7629161718281867e+00 -2.3187180278641111e+00 4.2986435037743984e+00 -1.2520707676524077e+00 -1.9318944858118421e+00 1.0913460508055223e+01 -6.4250648520253673e-01 -4.4865390287615126e-01 -1.1478094058350483e+00 1.5822229061788736e+01 1.0096784439985651e+00 -9.1861626330513635e-01 2.5237458169153033e+00 -3.5793951591827051e+00 1.1653515784706617e-02 4.1391315872717387e+00 3.7603394610454977e-01 -2.5918101800747695e+00 3.7117554295823494e+00 -2.8598835164509522e+00 3.8099349954127737e+00 -1.5336349991068186e+00 
        </Neuron>
        <Neuron NSynapses="30">
          5.1249810101409770e+00 2.5379661964487985e+00 -7.7953620471726215e-01 -4.1374760992485653e+00 -5.6312208599545182e+00 1.2205102142809110e+00 2.7724964441862238e-01 2.1106032728109696e+00 -8.5802858470994892e-01 -2.2100412951565738e+00 3.5097016574889612e+00 1.9325421229407957e+00 -8.1708657364654258e-01 -3.1109027138914458e+00 1.6769184611221528e+00 -2.1793891799371359e+00 -5.5744239839064855e+00 4.7953656358699250e+00 1.7416451249128556e-01 -9.9132565911415294e-01 1.6237704312379655e+00 -3.8278036551820782e-01 1.6977142643327410e+00 -5.2514683764735368e+00 -3.5878085664133053e-01 -6.4778369805873981e-01 5.3829265601024607e+00 5.5815582572829516e+00 3.6960802120745031e+00 7.9906221578993586e-01 
        </Neuron>
        <Neuron NSynapses="30">
          -8.6935436292402649e-02 7.5635920086161634e-01 3.5531361458282711e+00 -5.8210342599765701e+00 4.7161351123868406e-01 1.0607114676966722e+00 -1.6105105494924858e+00 -1.4315717027863668e+00 -3.3166470609938576e+00 -1.9528964774906656e+00 -2.4744690323876872e+00 -1.6323232150287765e+00 -2.1616313215710639e-01 -1.9280250662017948e+00 4.0263990142662260e+00 3.8266241592977228e+00 -1.6315182444642273e+00 -2.3049026606130698e+00 -5.0323586921074650e+00 2.0013593862407082e+00 7.8268663092514923e-01 -5.3096890977545970e+00 7.6107240621343819e-01 -3.0368994058186594e-01 -1.8023555554158461e+00 2.5940750862286333e+00 -2.4127219302743119e-01 -4.1822401225260162e+00 -4.5230499736968754e-01 -6.1695952818138977e+00 
        </Neuron>
        <Neuron NSynapses="30">
          -5.1159261401086265e-01 -4.5208059173636167e-01 -2.2499430434089613e+00 -2.7452801035654470e+00 -1.5535395549569251e+00 -3.2610687003344516e+00 1.3164855670361830e+00 -7.2791827446303659e+00 1.3881532754605644e-01 5.0720628283203144e+00 1.4745584666184810e-02 -2.6012221600976082e-01 -1.7942774506060832e-01 7.5830712860883109e-01 -3.0157701594673547e-01 -1.0632521407913640e+00 -1.9020151919261712e+00 -3.9732479950096716e-01 -2.2835232270067032e-01 3.3120593796772604e+00 2.2227629098347061e+00 -1.2328943843960295e-01 -2.1351747577040898e+00 4.0086004628476566e+00 -2.5185116145088360e-01 -6.0346643787051182e+00 1.4517838157141849e+00 -1.1843736253302668e+00 3.3703309578692680e+00 2.4652427447908480e+00 
        </Neuron>
        <Neuron NSynapses="30">
          7.1398724909734845e-01 8.5895633581028736e+00 1.9629913926162901e+00 7.5086227340866474e+00 -4.2270961764727261e-01 -1.0909384875601716e-01 -1.2729191853883430e+00 -5.4427145440065261e-01 2.1524293340665914e+00 1.0837460926830287e+00 5.2497816218753961e+00 -1.7864830083317900e+00 -3.7325925456888864e+00 -5.4807863581233862e+00 -1.5547793882908939e-01 -8.5439872196587796e+00 2.0470012136276248e+00 4.6380730682464449e-01 6.8506084835525183e-01 2.6230634345110868e+00 -3.4620545019168265e+00 2.2747402063845263e+00 2.9754623869860346e+00 1.1941736040000386e+00 -6.1630590103223426e-01 -3.6781596262338696e+00 -1.8307043426749066e+00 -1.8698801031498582e+00 -9.5479013002826518e-01 3.0377479344151888e+00 
        </Neuron>
        <Neuron NSynapses="30">
          2.2134785650250337e+00 1.0560514967058952e+00 2.7927317697608331e+00 2.0607424881041156e+00 -1.2806469735504653e+00 -4.6933795485610599e+00 -8.1269791963357541e-01 -2.4924192142276946e+00 -9.3430040742362230e-01 -6.4399404736301513e-01 2.5421360402591668e+00 -2.2896361656894562e+00 7.9868607355402532e-01 -5.0390284499048166e+00 5.7218041039466239e-01 8.4845558385601727e-01 1.6989732883512816e+00 4.1150952339083480e-01 1.0687949543992905e+00 -2.3879936124591383e+00 -2.6236312751395716e+00 -4.9142452086713133e+00 -4.3921545205206997e-02 -1.8773305923594423e+00 -2.0891280178403285e-01 3.6209257721920041e-01 -7.5248146824364115e-01 7.3268701800466762e-01 -3.0058838637167726e+00 -1.3958501476273146e+00 
        </Neuron>
        <Neuron NSynapses="30">
          1.2595711561669037e-01 -5.1263649502213715e-01 -1.3968766703651085e+00 -2.3585529099349239e-01 -3.3391980687763195e-01 3.5278138226377331e+00 -2.2921995417876959e-01 -1.7633843209107241e+00 2.5870009945851922e+00 -8.5878345692997937e-01 -1.1687746566722841e+00 7.3680027456862740e-01 -7.3077461588713766e-01 -2.6068357533733129e+00 2.8462256325136850e+00 -1.7739620822567628e+00 1.4587155340491635e+00 -3.2050800037643495e-01 4.4523860808506666e-01 -4.6363714927274504e+00 4.2679551007848300e+00 7.2021538004246677e-01 1.0117637721567443e+00 3.8393565809085000e+00 3.0594019969688557e-01 -1.3312865123205395e+00 -8.6593092053498344e-01 -8.7896059252356835e+00 -1.7883577545436060e+00 4.8796176565776694e-01 
        </Neuron>
        <Neuron NSynapses="30">
          1.0032719027286947e+00 -7.0981391443247899e-01 1.6280012770659185e+00 2.6792231441049701e+00 3.3609475213975823e+00 -5.1044598770182481e-01 1.4447397908121093e-01 5.1399488651430146e-02 -7.1249792340854845e-01 1.1953760627474513e-01 1.2820336127182215e+00 -1.3368904929254080e-01 1.8129801314192788e+00 -1.4599981880337325e+00 2.4403997648786029e+00 -1.0218990421782697e+00 -1.6759259914902995e+00 3.7236406713965625e-01 1.6100442901394346e-01 2.3407512877693089e+00 -3.7025069231959553e+00 2.3344206442384312e+00 -7.5371282205499925e+00 2.5978040936409883e+00 -2.0669194967438327e+00 3.9904968677346053e-01 7.5884786237812418e-01 -4.0195754802624091e+00 2.9409267203428086e-01 3.8678705573151015e+00 
        </Neuron>
        <Neuron NSynapses="30">
          -8.9039500470462762e+00 1.9377941200426907e+01 2.1796058490086012e+00 -9.0311021483246083e+00 -7.7526828372171757e+00 2.0809605478957538e-01 5.3447970930103617e-01 -2.4022312176660785e+00 -5.7646063444029974e+00 -2.2736722108121699e+00 -4.8349578703607659e+00 1.4857795352172356e+00 1.5320764861158926e+00 2.4871168111744812e+00 1.6214805346025088e-01 4.5700578335951114e+00 -5.8612325441262776e+00 7.6242197106970853e+00 -3.6446247882798288e+00 -1.4005792752682178e+00 2.2399027649445791e+00 -3.5476851144393180e+00 4.0292220816451918e+00 2.2441810425626709e+00 -3.3981679538197163e-01 5.9694931621539693e-01 9.4400909464370153e-01 -3.5358596321794638e+00 -2.8094335003852171e+00 -7.2161544952730150e+00 
        </Neuron>
      </Layer>
      <Layer Index="1" NNeurons="31">
        <Neuron NSynapses="10">
          -1.6750041095263359e+00 -3.3168795156265984e+00 2.5860226134204285e+00 -4.7830428134032985e+00 8.8136840332146094e-01 6.3640956475718169e-01 1.4964095323837601e+00 -9.0684954811752905e-01 2.8322176754957300e+00 -1.0537697485564907e+00 
        </Neuron>
        <Neuron NSynapses="10">
          1.1451548051859010e-01 -3.0289657632991580e+00 -9.0480708260090068e-02 1.1243840494744821e+00 -6.7033362152631364e+00 -7.5951290284499851e-01 -6.1019804766496408e+00 -1.0288820611655953e+00 -5.1109508473911136e-01 7.3412475604172087e+00 
        </Neuron>
        <Neuron NSynapses="10">
          7.6648360274372396e-01 -3.6338148111014315e+00 -1.5689316351055640e+00 9.0303601496765940e-01 -8.7583286355434206e-02 -3.4906539407959436e-01 -2.6166354992118710e+00 -5.8712712189010361e+00 1.7178035497863908e+00 3.8634813838049981e-01 
        </Neuron>
        <Neuron NSynapses="10">
          -9.1532586334594335e-01 1.2172515164341973e+00 1.0190676481173215e+00 -7.5039420073667329e-01 -1.4778452289743731e+00 -2.5571748353617587e+00 3.2227693553265837e+00 6.5709179589722213e+00 1.5843018500580623e+00 1.5372178622877775e+00 
        </Neuron>
        <Neuron NSynapses="10">
          -1.7252566268022282e+00 -2.3080673477944060e+00 -1.7349329908337103e+00 -1.3467293473138706e-01 3.3575460848253145e+00 -2.6683272356744285e+00 1.9724239846900984e+00 -1.3103789530883097e+00 1.1866103257823775e+00 -8.1734774407334196e+00 
        </Neuron>
        <Neuron NSynapses="10">
          1.0747911893371324e-01 3.4084637925428054e+00 4.2655827727903270e+00 -7.1066814936923939e-01 1.6751760814199002e+00 1.3765624907322938e-01 4.3565025802756507e-01 5.1551806384796839e-01 -2.9713825355645453e+00 -2.5520077511047212e+00 
        </Neuron>
        <Neuron NSynapses="10">
          1.0062763835831545e+00 4.9494950760992323e-01 9.1806299627664745e-01 1.2438233724143908e+00 5.7582425960279648e-01 -4.6929179771842761e-01 8.5526230722757290e-01 -2.3737330178967697e-01 -2.5926459622493940e+00 8.9537858292542805e-01 
        </Neuron>
        <Neuron NSynapses="10">
          1.3879896319992804e+00 4.3091785468729746e+00 8.3899966173005291e-01 -1.9422411841714255e+00 -4.6506764484506133e+00 -5.4881723475867283e-01 -4.6647987897675796e+00 -9.9895254568382064e-01 5.9932136295953082e+00 1.2891013384288259e+00 
        </Neuron>
        <Neuron NSynapses="10">
          -3.4213775799766627e-01 3.5283209988637005e+00 2.1446798565134615e+00 -1.4373106666478757e+00 -1.6515364952517682e+00 9.4363841212097954e-01 -5.3600116937398379e-01 1.6091115057154310e+00 4.5865041421814947e+00 -3.9995338215969114e+00 
        </Neuron>
        <Neuron NSynapses="10">
          -3.7981229141418893e-01 2.1855161197905035e+00 -1.3308740793346023e+00 -7.1539472293129180e-01 4.7397072296015166e+00 9.9349145932923633e-01 -2.4999738023847140e+00 -1.5274884484713038e+00 3.8228567575957304e+00 5.0458864502213254e+00 
        </Neuron>
        <Neuron NSynapses="10">
          1.8071684716706244e+00 -2.3996995882096823e+00 -2.7686047895591104e-01 3.0763515239169350e+00 4.2963743126039722e+00 8.0956185837903683e-01 4.3340546547784928e+00 1.1921479677583886e+00 -1.9033623514925990e+00 -5.2302759277534445e+00 
        </Neuron>
        <Neuron NSynapses="10">
          -1.8122484013125947e-01 1.1450709908609840e+00 -1.7524652759253476e+00 3.3642569422587615e-01 -1.3985965093374975e+00 2.2710607516141831e-01 7.2684993274354281e-01 5.4642094019254273e-01 -2.7161582029222382e+00 -7.5593478665392677e-02 
        </Neuron>
        <Neuron NSynapses="10">
          -1.1312635879455790e-01 9.3189497830542500e-01 7.2908787366681593e-01 7.7863530241261358e-01 2.5554940220421596e-01 -5.9234964480507191e-01 1.6072544460834023e-01 1.4314055215597041e+00 -5.6005300170970136e+00 8.8249878995411024e-01 
        </Neuron>
        <Neuron NSynapses="10">
          -1.6448231163136240e+00 -2.4117728164813887e+00 9.8544990798861298e-01 -4.3097105375435127e+00 8.3699964144456445e+00 -3.4583759747439113e-01 -5.7732653008390571e+00 -4.9062948650567053e+00 -2.9258750039495243e+00 -2.0982093167149167e+00 
        </Neuron>
        <Neuron NSynapses="10">
          -8.8600745837707728e-01 9.1615171182610733e-01 9.0702141302645367e-01 7.7169276686030230e-01 1.4324123882013056e+00 -1.2497195454108589e+00 -6.7618768897041264e+00 1.4807207853732423e+00 -2.6324755649001674e+00 4.9356296118207060e-01 
        </Neuron>
        <Neuron NSynapses="10">
          -3.5714309080929003e+00 1.2299560638317542e+00 -6.2840862834079658e-01 -2.7935947698219610e-01 -2.9832170090369194e+00 -2.6975913633403109e-01 -6.6110111013085353e+00 -2.6534025124713110e+00 -2.6717405742347183e-01 -3.9941753490997218e+00 
        </Neuron>
        <Neuron NSynapses="10">
          1.3012404212077291e+00 -5.8023928728011676e-01 -9.8919601670269786e-01 1.8843921682328094e-01 8.9724965772286716e+00 3.4420013667475963e-01 7.4561015546725384e-01 4.8938039818870944e+00 5.2336334264586815e-01 1.1804452976120237e+00 
        </Neuron>
        <Neuron NSynapses="10">
          6.8569535586909969e-01 7.3483021400840964e-01 1.5295586095047613e+00 -1.5550757259695946e-01 -7.6296677294213326e+00 5.8178138815706271e-01 -5.4139587706068477e+00 -8.7174452699049478e+00 -3.5062630184247561e+00 5.3617351887425055e+00 
        </Neuron>
        <Neuron NSynapses="10">
          1.0338864580742262e+00 -4.7710998155796487e+00 -7.1438572387864097e-01 1.4716489666024601e+00 2.6726709350938891e+00 1.4931025382012633e+00 2.7193639674163919e+00 4.0067271936674729e+00 1.5965168475021587e+00 -1.1700034272262833e-01 
        </Neuron>
        <Neuron NSynapses="10">
          -7.0990433680082243e-01 3.1114039950166297e+00 3.6255599993849374e-01 -1.5020832779369506e+00 2.4777161338569034e+00 -1.2907914323931755e+00 3.2951837452658816e+00 3.7467384018445022e+00 1.8276594719694603e+00 1.5398459429796549e+00 
        </Neuron>
        <Neuron NSynapses="10">
          -2.1596793308342161e+00 4.9152024452180836e+00 3.4120088369301316e+00 -4.8526427810034241e+00 -1.5495240201621112e+00 8.3380235433579009e-01 4.0872360523889171e+00 -1.1407723402921743e+00 -1.8650693500104685e+00 -4.2427347477929613e+00 
        </Neuron>
        <Neuron NSynapses="10">
          3.0009112033623458e-01 -3.1517452103771677e+00 -2.1012271636761368e-01 6.2965865061707582e-01 -7.9397253836110515e-01 -2.1105024542431100e-01 -3.4301000872502301e+00 1.2123481222973971e+00 3.6392580510745347e+00 -5.9189162666805306e-01 
        </Neuron>
        <Neuron NSynapses="10">
          -1.7532305186406489e+00 2.6294077904797617e+00 -1.4031727344315073e+00 2.3150335738310845e+00 -1.8055623367765308e+00 2.5120011028042346e+00 -1.0236264255956089e+00 -6.4800543972200852e-01 -1.9594097603450109e+00 7.3447336273323476e+00 
        </Neuron>
        <Neuron NSynapses="10">
          2.6304076055145098e-01 2.3718509318064966e+00 -5.7798417477721031e-01 2.6033833834284636e-01 -4.9039990468020704e+00 1.6894372211269888e-02 1.0516660326077130e+00 -6.9531403474349773e-01 3.4249209836006317e-01 8.0426248869949504e+00 
        </Neuron>
        <Neuron NSynapses="10">
          -3.3771280218211435e-04 7.2074118718947999e-01 1.7330694354627871e+00 2.1851342260618059e+00 -1.7195099670176295e+00 5.5359081155070078e-01 7.8167359451293938e-01 -2.7811396808578910e+00 -2.3163113341225028e+00 1.4349984131190006e+00 
        </Neuron>
        <Neuron NSynapses="10">
          1.5946490939776609e-01 -7.0658143731753198e-01 -1.5950428309120577e+00 2.4167902545923556e-01 1.1702766902867248e+00 -1.4803234773898306e+00 -2.9390081072593857e+00 -1.9105416606935068e+00 -2.3138208583293429e+00 2.6289648241722761e+00 
        </Neuron>
        <Neuron NSynapses="10">
          2.1967244442994418e+00 1.1484019850974154e+00 2.5727283470912878e+00 -1.8302323340871594e+00 2.9652640455207799e+00 4.6392273799717376e-01 -2.2540941064239686e+00 -5.9833073231250697e+00 -2.3950458427476122e+00 2.1877636045185240e+00 
        </Neuron>
        <Neuron NSynapses="10">
          -5.6855882473099573e-01 9.6637061543001468e-01 7.9086292398430091e-01 2.0452900067675204e+00 1.2902610137149297e+00 -1.3174208821093408e-01 4.0921318017799084e+00 5.7435676750731792e+00 5.0334179235577139e+00 -3.1678761318146651e+00 
        </Neuron>
        <Neuron NSynapses="10">
          8.1565836210287090e-01 1.2068732586186146e+00 1.0190115474784269e+00 1.3955657551448368e+00 -3.4856119224753196e-01 3.5769615527162901e-01 -3.7845213027340798e+00 6.1916708247913288e+00 -7.8910352752853319e-01 -1.1296654488604128e+00 
        </Neuron>
        <Neuron NSynapses="10">
          -3.0406847330534013e+00 2.3347292061268545e+00 1.1802426567216076e+00 1.7602133903405277e+00 -1.5890851581908820e+00 4.2576238372994218e-01 5.1362559790163989e+00 2.1068121494397380e+00 3.7304734626454552e+00 1.4324322206542914e+00 
        </Neuron>
        <Neuron NSynapses="10">
          -3.6129511884224397e-01 -1.2261092544623922e+00 2.0272931762193567e+00 2.1449177398061061e+00 -8.3307282649189196e-01 1.1154801652793365e+00 -2.2791399149985500e-01 -1.0989570478854331e+00 -1.6154812536148380e+00 1.7335689593954737e+00 
        </Neuron>
      </Layer>
      <Layer Index="2" NNeurons="11">
        <Neuron NSynapses="10">
          1.6063698791327119e+00 -1.2801229544770518e+00 2.7693740000418587e-01 2.3744615720762421e+00 1.3131315406438887e-02 -2.0452803767242886e+00 1.7585220679218010e-03 -2.7894573856580585e+00 1.8791097119777664e+00 1.7856109693554407e+00 
        </Neuron>
        <Neuron NSynapses="10">
          -6.4338698083480201e+00 -3.0149673290320189e+00 7.0323822634022060e-01 -3.8731459769429106e+00 3.5477616498525966e+00 4.4955851191744296e+00 -2.4725071317510969e+00 -3.4631139064987062e+00 1.7478421271364741e+00 -1.8363471646368452e+00 
        </Neuron>
        <Neuron NSynapses="10">
          8.1644427263114205e-01 1.5771664865440214e+00 1.7453808433549307e+00 2.9573384806979481e+00 -1.8828789070353165e+00 -1.0673385827575135e+00 7.9041900247070229e-01 -1.2142267292406286e+00 -1.1394744652573598e+00 3.6739111507378617e+00 
        </Neuron>
        <Neuron NSynapses="10">
          6.7004186133875105e+00 -8.8735920546663227e-01 -1.5348275206953512e+00 1.8199754501740073e-01 -7.9314880607229388e-01 4.8943135621310772e+00 3.3215366560055166e+00 -1.5943070382284115e+00 1.6043323292225917e-01 2.9755181153159671e-01 
        </Neuron>
        <Neuron NSynapses="10">
          -4.7975819443964252e+00 2.2097354595554997e+00 3.0946259671809031e+00 -5.4632500357459313e-01 -1.9536518960056122e+00 -3.9713002773322890e+00 -1.1321382237384667e+00 2.2308734327010606e+00 -3.3902509404995920e+00 -1.8844361598211032e+00 
        </Neuron>
        <Neuron NSynapses="10">
          3.4527767593825045e+00 8.5165057829690777e-02 1.6482110434217847e+00 9.6552135896678826e-01 -6.7276404549267399e-01 1.9315242740079508e-01 2.2780280145731946e+00 3.5778591978487240e-01 1.1443720287010998e-02 -2.1994421029227036e+00 
        </Neuron>
        <Neuron NSynapses="10">
          -2.2497002957054244e+00 -3.5732646300386643e+00 4.9754541823376908e-01 2.5665895809408878e+00 -3.4022409158445899e+00 -4.4042052662755449e+00 -8.0358624589694969e+00 1.5343397230660512e+00 -5.3632739383387458e+00 -3.3015870898511275e+00 
        </Neuron>
        <Neuron NSynapses="10">
          -3.4135668084299078e+00 1.6000945104331672e+00 1.6254543031200501e+00 -1.0656307460281793e+00 -4.9112228035647485e+00 2.0660334424722970e+00 -2.0873544554739665e+00 -2.8380469256251510e+00 -5.1935080681061514e+00 6.6984279810039569e+00 
        </Neuron>
        <Neuron NSynapses="10">
          -9.0080321247053985e-01 -1.7413940852204004e+00 6.0754305435049727e-01 7.6571083331092793e-01 -7.4036581725966739e+00 -5.0190039585874917e+00 -6.9859521963847486e+00 -6.7598031588049228e+00 5.4776275867614033e-01 -1.1599318091391297e+00 
        </Neuron>
        <Neuron NSynapses="10">
          -2.0539259306369781e-01 -1.1666919427186790e+00 -1.8312307477138607e+00 -3.1705307568910235e+00 -5.2872935121253357e-02 -9.1775087938527533e-01 -4.6017538280970305e-01 2.0181132732125362e+00 8.7383352915949004e+00 -4.2538231726311055e+00 
        </Neuron>
        <Neuron NSynapses="10">
          1.5705044554245260e+00 -1.7584368121774583e+00 5.4476659756781509e-01 -8.9435020135771903e-01 -6.3253556445049541e-01 -5.2477130217180101e-01 3.0505101776510153e+00 5.1800163277899958e-01 1.1483615554059918e+00 3.6621810634608803e-01 
        </Neuron>
      </Layer>
      <Layer Index="3" NNeurons="11">
        <Neuron NSynapses="5">
          -2.6196522988097022e+00 -3.4609404500150702e-02 -2.0328797542338055e+00 -1.4592567589014291e+00 -5.0023104110600380e+00 
        </Neuron>
        <Neuron NSynapses="5">
          -3.5192528860604022e+00 1.6204939689198437e+00 7.4438300300589729e-03 1.8346023732150551e+00 -1.7369264662858261e+00 
        </Neuron>
        <Neuron NSynapses="5">
          2.6676227280018061e+00 7.7064878922051216e-01 -3.0400062382678814e+00 2.2493782751357516e+00 2.7962671383140947e+00 
        </Neuron>
        <Neuron NSynapses="5">
          -1.5255332012271106e+00 2.7035617706620831e+00 -6.7684015016753685e-01 2.3519747859894591e+00 -1.7343561619893091e+00 
        </Neuron>
        <Neuron NSynapses="5">
          7.4553189923164828e-02 -9.1459621168842575e-01 5.2650394858512906e+00 -2.7971684635313800e+00 -1.4429792477285988e+00 
        </Neuron>
        <Neuron NSynapses="5">
          -8.7722538066384392e-01 -3.9958722165091869e+00 2.9709598516468674e+00 -2.3655827256724664e+00 -4.1095132582947530e-01 
        </Neuron>
        <Neuron NSynapses="5">
          -1.2701600467112637e+00 -3.2775110106205356e+00 2.4647583651279152e+00 3.4051324576296943e-01 -1.9779580126476159e+00 
        </Neuron>
        <Neuron NSynapses="5">
          -4.0316281079026794e-01 -3.3142758104221692e+00 2.8435608676960462e+00 -3.7982918503576282e+00 -2.2765279990354750e+00 
        </Neuron>
        <Neuron NSynapses="5">
          -3.6120411863773896e+00 -1.8978999676661785e+00 -4.3895820905234151e-01 -1.8956486458249662e+00 -2.9424262198299731e+00 
        </Neuron>
        <Neuron NSynapses="5">
          2.8718317614573499e+00 3.7446084941568403e+00 -4.0630870408800146e-03 9.2976719139207797e-01 8.9467652083201221e-01 
        </Neuron>
        <Neuron NSynapses="5">
          2.2110913236946073e-01 1.6350075232585479e+00 -1.5893143397085425e+00 -9.5098174539360381e-01 2.0259674894633668e+00 
        </Neuron>
      </Layer>
      <Layer Index="4" NNeurons="6">
        <Neuron NSynapses="1">
          -3.1266845913545476e+00 
        </Neuron>
        <Neuron NSynapses="1">
          -1.8571749400630002e+00 
        </Neuron>
        <Neuron NSynapses="1">
          4.7308018274624359e+00 
        </Neuron>
        <Neuron NSynapses="1">
          -9.1555715478850463e-01 
        </Neuron>
        <Neuron NSynapses="1">
          -2.8439433592995376e+00 
        </Neuron>
        <Neuron NSynapses="1">
          8.6286693179221541e-01 
        </Neuron>
      </Layer>
      <Layer Index="5" NNeurons="1">
        <Neuron NSynapses="0"/>
      </Layer>
    </Layout>
  </Weights>
</MethodSetup>
