<?xml version="1.0"?>
<MethodSetup Method="MLP::MLP_fold4">
  <GeneralInfo>
    <Info name="TMVA Release" value="4.2.1 [262657]"/>
    <Info name="ROOT Release" value="6.20/06 [398342]"/>
    <Info name="Creator" value="tfarooque"/>
    <Info name="Date" value="Wed May  3 13:37:06 2023"/>
    <Info name="Host" value="Linux aibuild16-017.cern.ch 3.10.0-1160.36.2.el7.x86_64 #1 SMP Wed Jul 21 11:57:15 UTC 2021 x86_64 x86_64 x86_64 GNU/Linux"/>
    <Info name="Dir" value="/data/at3/scratch2/farooque/DevPVLQ/VLQAnalysisFramework/run"/>
    <Info name="Training events" value="102712"/>
    <Info name="TrainingTime" value="3.25995132e+03"/>
    <Info name="AnalysisType" value="Classification"/>
  </GeneralInfo>
  <Options>
    <Option name="NCycles" modified="Yes">800</Option>
    <Option name="HiddenLayers" modified="Yes">30,10,10,5</Option>
    <Option name="NeuronType" modified="Yes">sigmoid</Option>
    <Option name="RandomSeed" modified="No">1</Option>
    <Option name="EstimatorType" modified="No">CE</Option>
    <Option name="NeuronInputType" modified="No">sum</Option>
    <Option name="V" modified="Yes">False</Option>
    <Option name="VerbosityLevel" modified="No">Default</Option>
    <Option name="VarTransform" modified="Yes">N</Option>
    <Option name="H" modified="No">False</Option>
    <Option name="CreateMVAPdfs" modified="No">False</Option>
    <Option name="IgnoreNegWeightsInTraining" modified="No">False</Option>
    <Option name="TrainingMethod" modified="No">BP</Option>
    <Option name="LearningRate" modified="Yes">1.000000e-02</Option>
    <Option name="DecayRate" modified="Yes">0.000000e+00</Option>
    <Option name="TestRate" modified="Yes">5</Option>
    <Option name="EpochMonitoring" modified="Yes">False</Option>
    <Option name="Sampling" modified="No">1.000000e+00</Option>
    <Option name="SamplingEpoch" modified="No">1.000000e+00</Option>
    <Option name="SamplingImportance" modified="No">1.000000e+00</Option>
    <Option name="SamplingTraining" modified="No">True</Option>
    <Option name="SamplingTesting" modified="No">False</Option>
    <Option name="ResetStep" modified="No">50</Option>
    <Option name="Tau" modified="No">3.000000e+00</Option>
    <Option name="BPMode" modified="No">sequential</Option>
    <Option name="BatchSize" modified="No">-1</Option>
    <Option name="ConvergenceImprove" modified="No">1.000000e-30</Option>
    <Option name="ConvergenceTests" modified="No">-1</Option>
    <Option name="UseRegulator" modified="No">False</Option>
    <Option name="UpdateLimit" modified="No">10000</Option>
    <Option name="CalculateErrors" modified="No">False</Option>
    <Option name="WeightRange" modified="No">1.000000e+00</Option>
  </Options>
  <Variables NVar="20">
    <Variable VarIndex="0" Expression="meff" Label="meff" Title="meff" Unit="" Internal="meff" Type="D" Min="1.00073407e+03" Max="7.93033350e+03"/>
    <Variable VarIndex="1" Expression="RCjet2_pt" Label="RCjet2_pt" Title="RCjet2_pt" Unit="" Internal="RCjet2_pt" Type="D" Min="2.00002106e+02" Max="1.63844312e+03"/>
    <Variable VarIndex="2" Expression="leptop_pt" Label="leptop_pt" Title="leptop_pt" Unit="" Internal="leptop_pt" Type="D" Min="-1.00000000e+02" Max="3.42010815e+03"/>
    <Variable VarIndex="3" Expression="RCjets_n" Label="RCjets_n" Title="RCjets_n" Unit="" Internal="RCjets_n" Type="D" Min="3.00000000e+00" Max="7.00000000e+00"/>
    <Variable VarIndex="4" Expression="RCMHiggs0_pt" Label="RCMHiggs0_pt" Title="RCMHiggs0_pt" Unit="" Internal="RCMHiggs0_pt" Type="D" Min="0.00000000e+00" Max="2.74079712e+03"/>
    <Variable VarIndex="5" Expression="dPhiavg_RCjets" Label="dPhiavg_RCjets" Title="dPhiavg_RCjets" Unit="" Internal="dPhiavg_RCjets" Type="D" Min="4.63033348e-01" Max="2.09439516e+00"/>
    <Variable VarIndex="6" Expression="mvlq1_RCTTM_drmax" Label="mvlq1_RCTTM_drmax" Title="mvlq1_RCTTM_drmax" Unit="" Internal="mvlq1_RCTTM_drmax" Type="D" Min="-1.52543213e+03" Max="5.04842090e+03"/>
    <Variable VarIndex="7" Expression="RCMHiggs0_nconsts" Label="RCMHiggs0_nconsts" Title="RCMHiggs0_nconsts" Unit="" Internal="RCMHiggs0_nconsts" Type="D" Min="0.00000000e+00" Max="2.00000000e+00"/>
    <Variable VarIndex="8" Expression="RCMHiggs0_nbconsts" Label="RCMHiggs0_nbconsts" Title="RCMHiggs0_nbconsts" Unit="" Internal="RCMHiggs0_nbconsts" Type="D" Min="0.00000000e+00" Max="4.00000000e+00"/>
    <Variable VarIndex="9" Expression="dRmin_RCMTT" Label="dRmin_RCMTT" Title="dRmin_RCMTT" Unit="" Internal="dRmin_RCMTT" Type="D" Min="4.93207015e-02" Max="4.92609024e+00"/>
    <Variable VarIndex="10" Expression="dRmin_RCjets" Label="dRmin_RCjets" Title="dRmin_RCjets" Unit="" Internal="dRmin_RCjets" Type="D" Min="4.93207015e-02" Max="3.49933314e+00"/>
    <Variable VarIndex="11" Expression="mvlq1_rcj_drmax" Label="mvlq1_rcj_drmax" Title="mvlq1_rcj_drmax" Unit="" Internal="mvlq1_rcj_drmax" Type="D" Min="-1.86745874e+03" Max="5.04842090e+03"/>
    <Variable VarIndex="12" Expression="mtbmin" Label="mtbmin" Title="mtbmin" Unit="" Internal="mtbmin" Type="D" Min="3.86307569e-04" Max="1.42423145e+03"/>
    <Variable VarIndex="13" Expression="met" Label="met" Title="met" Unit="" Internal="met" Type="D" Min="1.02333152e+00" Max="1.94994263e+03"/>
    <Variable VarIndex="14" Expression="bjets_n" Label="bjets_n" Title="bjets_n" Unit="" Internal="bjets_n" Type="D" Min="3.00000000e+00" Max="9.00000000e+00"/>
    <Variable VarIndex="15" Expression="dPhimin_RCMTT" Label="dPhimin_RCMTT" Title="dPhimin_RCMTT" Unit="" Internal="dPhimin_RCMTT" Type="D" Min="1.90258026e-04" Max="3.14156938e+00"/>
    <Variable VarIndex="16" Expression="dRavg_RCjets" Label="dRavg_RCjets" Title="dRavg_RCjets" Unit="" Internal="dRavg_RCjets" Type="D" Min="1.16793573e+00" Max="3.80160737e+00"/>
    <Variable VarIndex="17" Expression="dPhimin_RCjets" Label="dPhimin_RCjets" Title="dPhimin_RCjets" Unit="" Internal="dPhimin_RCjets" Type="D" Min="5.45978546e-05" Max="2.09194827e+00"/>
    <Variable VarIndex="18" Expression="RCMV0_nconsts" Label="RCMV0_nconsts" Title="RCMV0_nconsts" Unit="" Internal="RCMV0_nconsts" Type="D" Min="0.00000000e+00" Max="2.00000000e+00"/>
    <Variable VarIndex="19" Expression="RCMV0_pt" Label="RCMV0_pt" Title="RCMV0_pt" Unit="" Internal="RCMV0_pt" Type="D" Min="0.00000000e+00" Max="2.66518701e+03"/>
  </Variables>
  <Spectators NSpec="7">
    <Spectator SpecIndex="0" Expression="VLQtype" Label="VLQtype" Title="VLQtype" Unit="" Internal="VLQtype" Type="F" Min="-1.00000000e+00" Max="3.00000000e+00"/>
    <Spectator SpecIndex="1" Expression="channel" Label="channel" Title="channel" Unit="" Internal="channel" Type="F" Min="1.00000000e+00" Max="5.00000000e+00"/>
    <Spectator SpecIndex="2" Expression="event_number" Label="event_number" Title="event_number" Unit="" Internal="event_number" Type="F" Min="1.00000000e+00" Max="4.04104576e+08"/>
    <Spectator SpecIndex="3" Expression="mc_campaign" Label="mc_campaign" Title="mc_campaign" Unit="" Internal="mc_campaign" Type="F" Min="1.00000000e+00" Max="3.00000000e+00"/>
    <Spectator SpecIndex="4" Expression="run_number" Label="run_number" Title="run_number" Unit="" Internal="run_number" Type="F" Min="2.76262000e+05" Max="3.64292000e+05"/>
    <Spectator SpecIndex="5" Expression="sampleID" Label="sampleID" Title="sampleID" Unit="" Internal="sampleID" Type="F" Min="3.02480000e+05" Max="7.00347000e+05"/>
    <Spectator SpecIndex="6" Expression="sampleName" Label="sampleName" Title="sampleName" Unit="" Internal="sampleName" Type="F" Min="3.00000000e+00" Max="1.70000000e+01"/>
  </Spectators>
  <Classes NClass="2">
    <Class Name="Signal" Index="0"/>
    <Class Name="Background" Index="1"/>
  </Classes>
  <Transformations NTransformations="1">
    <Transform Name="Normalize">
      <Selection>
        <Input NInputs="20">
          <Input Type="Variable" Label="meff" Expression="meff"/>
          <Input Type="Variable" Label="RCjet2_pt" Expression="RCjet2_pt"/>
          <Input Type="Variable" Label="leptop_pt" Expression="leptop_pt"/>
          <Input Type="Variable" Label="RCjets_n" Expression="RCjets_n"/>
          <Input Type="Variable" Label="RCMHiggs0_pt" Expression="RCMHiggs0_pt"/>
          <Input Type="Variable" Label="dPhiavg_RCjets" Expression="dPhiavg_RCjets"/>
          <Input Type="Variable" Label="mvlq1_RCTTM_drmax" Expression="mvlq1_RCTTM_drmax"/>
          <Input Type="Variable" Label="RCMHiggs0_nconsts" Expression="RCMHiggs0_nconsts"/>
          <Input Type="Variable" Label="RCMHiggs0_nbconsts" Expression="RCMHiggs0_nbconsts"/>
          <Input Type="Variable" Label="dRmin_RCMTT" Expression="dRmin_RCMTT"/>
          <Input Type="Variable" Label="dRmin_RCjets" Expression="dRmin_RCjets"/>
          <Input Type="Variable" Label="mvlq1_rcj_drmax" Expression="mvlq1_rcj_drmax"/>
          <Input Type="Variable" Label="mtbmin" Expression="mtbmin"/>
          <Input Type="Variable" Label="met" Expression="met"/>
          <Input Type="Variable" Label="bjets_n" Expression="bjets_n"/>
          <Input Type="Variable" Label="dPhimin_RCMTT" Expression="dPhimin_RCMTT"/>
          <Input Type="Variable" Label="dRavg_RCjets" Expression="dRavg_RCjets"/>
          <Input Type="Variable" Label="dPhimin_RCjets" Expression="dPhimin_RCjets"/>
          <Input Type="Variable" Label="RCMV0_nconsts" Expression="RCMV0_nconsts"/>
          <Input Type="Variable" Label="RCMV0_pt" Expression="RCMV0_pt"/>
        </Input>
        <Output NOutputs="20">
          <Output Type="Variable" Label="meff" Expression="meff"/>
          <Output Type="Variable" Label="RCjet2_pt" Expression="RCjet2_pt"/>
          <Output Type="Variable" Label="leptop_pt" Expression="leptop_pt"/>
          <Output Type="Variable" Label="RCjets_n" Expression="RCjets_n"/>
          <Output Type="Variable" Label="RCMHiggs0_pt" Expression="RCMHiggs0_pt"/>
          <Output Type="Variable" Label="dPhiavg_RCjets" Expression="dPhiavg_RCjets"/>
          <Output Type="Variable" Label="mvlq1_RCTTM_drmax" Expression="mvlq1_RCTTM_drmax"/>
          <Output Type="Variable" Label="RCMHiggs0_nconsts" Expression="RCMHiggs0_nconsts"/>
          <Output Type="Variable" Label="RCMHiggs0_nbconsts" Expression="RCMHiggs0_nbconsts"/>
          <Output Type="Variable" Label="dRmin_RCMTT" Expression="dRmin_RCMTT"/>
          <Output Type="Variable" Label="dRmin_RCjets" Expression="dRmin_RCjets"/>
          <Output Type="Variable" Label="mvlq1_rcj_drmax" Expression="mvlq1_rcj_drmax"/>
          <Output Type="Variable" Label="mtbmin" Expression="mtbmin"/>
          <Output Type="Variable" Label="met" Expression="met"/>
          <Output Type="Variable" Label="bjets_n" Expression="bjets_n"/>
          <Output Type="Variable" Label="dPhimin_RCMTT" Expression="dPhimin_RCMTT"/>
          <Output Type="Variable" Label="dRavg_RCjets" Expression="dRavg_RCjets"/>
          <Output Type="Variable" Label="dPhimin_RCjets" Expression="dPhimin_RCjets"/>
          <Output Type="Variable" Label="RCMV0_nconsts" Expression="RCMV0_nconsts"/>
          <Output Type="Variable" Label="RCMV0_pt" Expression="RCMV0_pt"/>
        </Output>
      </Selection>
      <Class ClassIndex="0">
        <Ranges>
          <Range Index="0" Min="1.2281173095703125e+03" Max="7.0833134765625000e+03"/>
          <Range Index="1" Min="2.0035119628906250e+02" Max="1.4451610107421875e+03"/>
          <Range Index="2" Min="-1.0000000000000000e+02" Max="3.4201081542968750e+03"/>
          <Range Index="3" Min="3.0000000000000000e+00" Max="7.0000000000000000e+00"/>
          <Range Index="4" Min="0.0000000000000000e+00" Max="2.5820068359375000e+03"/>
          <Range Index="5" Min="5.0164228677749634e-01" Max="2.0943951606750488e+00"/>
          <Range Index="6" Min="-1.5254321289062500e+03" Max="3.9120463867187500e+03"/>
          <Range Index="7" Min="0.0000000000000000e+00" Max="2.0000000000000000e+00"/>
          <Range Index="8" Min="0.0000000000000000e+00" Max="4.0000000000000000e+00"/>
          <Range Index="9" Min="8.0837950110435486e-02" Max="4.3161740303039551e+00"/>
          <Range Index="10" Min="6.0747377574443817e-02" Max="3.2259054183959961e+00"/>
          <Range Index="11" Min="-1.5254321289062500e+03" Max="4.3227709960937500e+03"/>
          <Range Index="12" Min="2.0668241195380688e-03" Max="1.4242314453125000e+03"/>
          <Range Index="13" Min="5.2262597084045410e+00" Max="1.9499426269531250e+03"/>
          <Range Index="14" Min="3.0000000000000000e+00" Max="9.0000000000000000e+00"/>
          <Range Index="15" Min="7.9613924026489258e-04" Max="3.1415469646453857e+00"/>
          <Range Index="16" Min="1.4324884414672852e+00" Max="3.6407668590545654e+00"/>
          <Range Index="17" Min="1.5234947204589844e-04" Max="2.0790147781372070e+00"/>
          <Range Index="18" Min="0.0000000000000000e+00" Max="2.0000000000000000e+00"/>
          <Range Index="19" Min="0.0000000000000000e+00" Max="2.4224331054687500e+03"/>
        </Ranges>
      </Class>
      <Class ClassIndex="1">
        <Ranges>
          <Range Index="0" Min="1.0007340698242188e+03" Max="7.9303334960937500e+03"/>
          <Range Index="1" Min="2.0000305175781250e+02" Max="1.3790063476562500e+03"/>
          <Range Index="2" Min="-1.0000000000000000e+02" Max="2.0879887695312500e+03"/>
          <Range Index="3" Min="3.0000000000000000e+00" Max="7.0000000000000000e+00"/>
          <Range Index="4" Min="0.0000000000000000e+00" Max="2.5698986816406250e+03"/>
          <Range Index="5" Min="4.6303334832191467e-01" Max="2.0943951606750488e+00"/>
          <Range Index="6" Min="-1.3470058593750000e+03" Max="5.0484208984375000e+03"/>
          <Range Index="7" Min="0.0000000000000000e+00" Max="2.0000000000000000e+00"/>
          <Range Index="8" Min="0.0000000000000000e+00" Max="4.0000000000000000e+00"/>
          <Range Index="9" Min="4.9320701509714127e-02" Max="4.9260902404785156e+00"/>
          <Range Index="10" Min="4.9320701509714127e-02" Max="3.4993331432342529e+00"/>
          <Range Index="11" Min="-1.8674587402343750e+03" Max="5.0484208984375000e+03"/>
          <Range Index="12" Min="3.8630756898783147e-04" Max="5.5408300781250000e+02"/>
          <Range Index="13" Min="1.0233315229415894e+00" Max="1.7546109619140625e+03"/>
          <Range Index="14" Min="3.0000000000000000e+00" Max="8.0000000000000000e+00"/>
          <Range Index="15" Min="1.9025802612304688e-04" Max="3.1415693759918213e+00"/>
          <Range Index="16" Min="1.1679357290267944e+00" Max="3.7923347949981689e+00"/>
          <Range Index="17" Min="5.4597854614257812e-05" Max="2.0919482707977295e+00"/>
          <Range Index="18" Min="0.0000000000000000e+00" Max="2.0000000000000000e+00"/>
          <Range Index="19" Min="0.0000000000000000e+00" Max="2.6651870117187500e+03"/>
        </Ranges>
      </Class>
      <Class ClassIndex="2">
        <Ranges>
          <Range Index="0" Min="1.0007340698242188e+03" Max="7.9303334960937500e+03"/>
          <Range Index="1" Min="2.0000305175781250e+02" Max="1.4451610107421875e+03"/>
          <Range Index="2" Min="-1.0000000000000000e+02" Max="3.4201081542968750e+03"/>
          <Range Index="3" Min="3.0000000000000000e+00" Max="7.0000000000000000e+00"/>
          <Range Index="4" Min="0.0000000000000000e+00" Max="2.5820068359375000e+03"/>
          <Range Index="5" Min="4.6303334832191467e-01" Max="2.0943951606750488e+00"/>
          <Range Index="6" Min="-1.5254321289062500e+03" Max="5.0484208984375000e+03"/>
          <Range Index="7" Min="0.0000000000000000e+00" Max="2.0000000000000000e+00"/>
          <Range Index="8" Min="0.0000000000000000e+00" Max="4.0000000000000000e+00"/>
          <Range Index="9" Min="4.9320701509714127e-02" Max="4.9260902404785156e+00"/>
          <Range Index="10" Min="4.9320701509714127e-02" Max="3.4993331432342529e+00"/>
          <Range Index="11" Min="-1.8674587402343750e+03" Max="5.0484208984375000e+03"/>
          <Range Index="12" Min="3.8630756898783147e-04" Max="1.4242314453125000e+03"/>
          <Range Index="13" Min="1.0233315229415894e+00" Max="1.9499426269531250e+03"/>
          <Range Index="14" Min="3.0000000000000000e+00" Max="9.0000000000000000e+00"/>
          <Range Index="15" Min="1.9025802612304688e-04" Max="3.1415693759918213e+00"/>
          <Range Index="16" Min="1.1679357290267944e+00" Max="3.7923347949981689e+00"/>
          <Range Index="17" Min="5.4597854614257812e-05" Max="2.0919482707977295e+00"/>
          <Range Index="18" Min="0.0000000000000000e+00" Max="2.0000000000000000e+00"/>
          <Range Index="19" Min="0.0000000000000000e+00" Max="2.6651870117187500e+03"/>
        </Ranges>
      </Class>
    </Transform>
  </Transformations>
  <MVAPdfs/>
  <Weights>
    <Layout NLayers="6">
      <Layer Index="0" NNeurons="21">
        <Neuron NSynapses="30">
          -3.8151628283275114e+00 1.3449649840352826e+01 2.2323243751250850e+00 1.9373175715378503e+00 -1.2602822676746889e+01 -7.5208299893268009e+00 -9.1057084685249423e-01 4.2763431144626818e+00 -6.9218027251087566e+00 1.4452522920515214e+00 -6.9820617626037080e+00 -3.5548905545044801e-01 -3.5358428314416690e+00 -2.3941757353811730e+00 -5.5314276210042679e-01 -2.5268762433667119e-01 -2.3775216637009891e+00 9.1350291235436154e-01 2.4602126616058562e+00 2.4234447300007034e+00 -2.3368269865212321e+00 -1.5328769413399415e+00 6.5489037518447191e+00 6.6671631479550468e+00 -1.2113409561090134e+00 1.3884245363933998e+00 8.0575588965461513e+00 -3.6707826155280507e+00 -3.0832735125451132e+00 1.9993988663483235e+00 
        </Neuron>
        <Neuron NSynapses="30">
          3.5491110589588715e+00 9.4595846555448715e-01 1.5942411722097565e+00 -2.1781653154026230e+00 -2.1325427054558737e+00 -2.6105464619019334e+00 -1.5654513040661193e+00 3.3030819321843787e+00 -6.3583822507556553e-01 -1.2991173228328809e+00 1.0072188847475161e-01 -6.0851907610012190e-01 5.4055966043271599e+00 2.6754239125286383e+00 -1.1608215928863836e+00 -3.3866239707486336e+00 1.0503199860171544e+00 -2.6702727785098301e-02 2.9234326974406861e+00 5.4836236013430630e+00 -4.1148280322978364e-01 2.8521530701236433e+00 4.4092793380678055e+00 3.2350683021488793e+00 -1.7197870947890965e+00 -1.9665056461887248e-01 3.4154842905194949e+00 3.2211968965799709e-01 5.7154575468312254e+00 1.6762242978779904e+00 
        </Neuron>
        <Neuron NSynapses="30">
          -5.9716179482946945e+00 1.4414550105874233e+00 7.8550913308364312e-01 3.1078849848366814e+00 4.7690977012579108e+00 -3.6576560739020372e+00 -7.6852306509655549e-02 -7.8932633460914847e-01 -8.2256380496087889e-01 1.3343110117556156e+00 8.2581696474460842e-01 -6.6608934115683693e-01 6.4605462185291094e+00 -1.4649016067407343e+00 1.0634872984871431e+00 -1.8631060620174225e+00 -2.2784750371210802e+00 -6.7794770571507517e+00 -5.9390458710565774e-01 -2.8176465711222045e+00 3.1445141537469610e+00 -1.7213978955447906e+00 2.0727945737651750e+00 -6.3076168834808644e-01 -1.0896594682505585e+00 -2.0524615526932259e+00 -2.5608003847909879e+00 -4.8257586857797197e-01 -9.2723202921812824e+00 -4.0591872381957366e+00 
        </Neuron>
        <Neuron NSynapses="30">
          1.3739570367579894e+00 -1.8078879928217226e+00 1.9259987203908862e+00 -1.1169735284002291e+00 8.7879000603275759e-01 7.7367065070038272e+00 -9.3558528175568056e-01 3.5076484803643349e-01 2.2614174488393268e+00 -2.3646994806140547e+00 -5.2369785097558745e+00 -1.2129926114515739e+00 1.8547996605085457e+00 -1.1218207527629752e-01 -5.6562124081191745e-01 1.2018321004019532e+00 -2.7299356938796676e-01 1.8442021236229729e+00 -3.0736778720366087e-01 -2.1672686301358075e+00 -3.7226902167585121e+00 2.4346342492323538e+00 -8.3064568239042597e-02 -9.7025887176636239e-01 -1.5064727902996931e+00 7.4451802767163100e+00 -3.9411743798836890e-01 1.5435201822843190e+00 3.3336072702222457e+00 -1.9066320321449803e+00 
        </Neuron>
        <Neuron NSynapses="30">
          -1.0198438383280632e+01 6.7017074245442139e+00 2.7208979940619249e-01 3.9259230819558333e-01 4.5523681807841481e+00 1.8490508600733129e+00 -5.6150865709805742e-01 1.2709981720243118e+00 -4.8051450852073163e-01 -3.2672039356248223e-01 1.6405185098164730e+00 -1.6516024681511976e+00 2.7913713654260226e+00 -1.1358012254008290e+00 7.5073489140996308e-01 2.2046346575489610e+00 -2.6835860556801455e-01 -5.5000975236962890e-01 -5.8503205184326453e-02 5.3262380057734653e+00 5.8674858474543736e+00 2.5658829729165622e+00 -3.0285698916120585e+00 1.2415755907599568e+00 -1.8042645017175856e+00 5.0778857569204561e-01 -2.0841911938610593e+00 4.8524090008635301e-01 -2.1160570815784636e+00 3.1369498056941902e-01 
        </Neuron>
        <Neuron NSynapses="30">
          -3.3822077771698296e+00 -6.3536056731365886e-01 3.0887604367638546e+00 -4.0905406455764881e+00 -2.2358863390521737e+00 -1.3410031402840463e+00 1.2132162688005566e+00 -9.4742385799117548e-02 7.5078135781402890e+00 -8.8473201836652790e-02 5.1703383495119857e+00 4.4604525196582662e-01 -5.7919841416030715e-01 -3.2380171770826993e-01 -2.4509110898146541e-01 -3.7938391394650766e+00 4.6788868422985747e-01 3.0674508715395037e+00 2.3479481493135843e+00 1.7900972557726769e-01 3.4248064315851972e+00 -8.4714827709989046e-02 -2.4000622280352341e-01 8.8816000075131896e-01 2.2540519638248413e+00 -1.1204008142649500e+00 2.3993029772476380e+00 -1.1522518870079996e+00 -5.0297063121864138e-01 -1.8447855199321688e+00 
        </Neuron>
        <Neuron NSynapses="30">
          -1.4593275705689255e+00 -7.7241732495388304e-01 2.6399248567410605e+00 -3.6648047657575997e+00 9.2217977574305021e-01 -2.8378772184008860e+00 3.0914539533382407e-01 1.5133123478422346e+00 3.2099918714864755e+00 -3.2289216341070155e+00 3.1006461527810369e+00 1.0822168198350961e+00 9.1049485918834161e-01 3.9052178671734041e+00 -1.1499014478456970e+00 4.7492120045309894e-01 -2.4256238167323692e+00 3.3243421987271922e+00 -6.8735694683795409e-02 1.2272553763072951e+00 1.2166009631846484e+00 -6.2359237079302055e-01 -4.0428141146119660e+00 -2.4994451718237736e+00 1.3536336901944848e+00 -2.0065159423848464e+00 -2.3533924148936065e+00 1.8320940337474145e+00 2.8452306554490052e+00 3.3279283526357073e+00 
        </Neuron>
        <Neuron NSynapses="30">
          -1.6743028986594236e-01 3.0099035814656638e-01 -1.2458512413525733e+00 -2.2861204211446908e-02 -2.9971575745003159e-01 5.6868577515800443e+00 6.2422867897466194e-01 -6.5508745742089425e-01 3.2102450707969004e+00 2.9110631593126279e-01 -2.0130844834497466e+00 1.3077708109351793e+00 -1.1797432773924679e+00 1.8074453120212858e-01 2.4688789206823514e+00 -2.0046249093564041e+00 4.9789200951860496e-01 -4.3290411301630749e-01 -5.5782472748906269e+00 -2.6559022757394382e+00 7.3545685720559106e-01 2.7467111177654008e-01 9.7318259193840639e-01 -3.1450759245792979e+00 1.2412164484397805e+00 -2.4608649516908629e+00 -1.9333624751142340e+00 -1.4368350131429524e+00 -5.9324246941864915e+00 -1.4271959872016891e+00 
        </Neuron>
        <Neuron NSynapses="30">
          -4.4272774076939099e+00 -2.4049188063738414e+00 -2.4551942364166561e+00 1.0286262448310279e+00 -7.5132233745168318e+00 -6.1402500275837273e+00 -1.3214343978199965e+00 7.5348021898725437e-01 2.5178143690141082e+00 7.3186779177110928e-01 1.5576878808697598e+00 -1.3963270624575574e+00 3.1303924501181596e-01 4.5519052682615504e+00 2.6892620372165084e+00 -4.7820733498005719e-01 3.0672728429044147e+00 2.3382012376630983e+00 -1.1770394898887762e+00 -3.1254658187324815e+00 9.5374445293860088e-01 -9.8626116788558837e-01 -1.6902124535226000e+00 -2.3901590352007323e+00 -3.3037394324519337e-01 -1.1240340099220516e+00 -2.3214532879379131e+00 -5.3505134370117691e-01 1.4585299699435503e-01 1.0711298226207671e+00 
        </Neuron>
        <Neuron NSynapses="30">
          -2.0869611482766675e+00 1.1710571632571467e+00 -1.2720618095001984e-01 -1.2015833987513553e+00 -9.2533647327898219e-02 -1.3271687105052776e+00 1.3568212663915484e+00 1.8436472916506310e+00 2.3453020071681343e+00 2.0944491056094994e+00 2.4159216617918315e+00 -8.0315828086891816e-01 -1.5766001109981409e-01 -6.2203560628396415e-01 -2.1331077467563815e+00 1.1720104699836971e+00 1.9153867927511319e+00 5.1575924073153234e-01 -1.4849013444245927e+00 9.3658377628947260e+00 -6.7164069262100967e-01 1.3108253559764780e+00 -5.7628261903747537e+00 7.5481154557288266e-01 7.8206737326538456e-01 -7.0580218458909083e-01 3.3150211306811279e+00 3.4231726724807783e+00 -5.2239677721085478e+00 -2.1135367080155296e+00 
        </Neuron>
        <Neuron NSynapses="30">
          -1.3563159023890941e+00 -4.0569563419770152e+00 1.1204141602825890e+00 -7.9280339948917504e+00 7.9514499302537600e-01 1.4525766495049031e+00 -1.2105081414758323e+00 -1.8613946313799512e+00 -8.2025366221461091e+00 -3.8062319654586996e+00 1.9056488067368177e-01 -1.9307295444904615e+00 2.5274381932415468e+00 3.3137949475286899e+00 8.3115119873501209e-01 -3.5142958629009029e+00 6.6662305776973483e+00 8.3840891123696659e-01 7.2846756680681279e+00 -1.5171104191192093e+00 -7.0257091230969042e+00 2.1500166109631227e+00 2.5335741113062196e+00 -3.6573294606708107e-01 4.4634199139546166e-01 4.8762208912274536e+00 3.9394096298000183e+00 -5.2399227748008004e-01 -3.8795568788858619e+00 2.5885422810617267e+00 
        </Neuron>
        <Neuron NSynapses="30">
          -4.8755494409942495e+00 1.1387145812468091e+00 -1.2951724924848276e+00 -2.0733440490356374e+00 6.6979503316928577e+00 -4.4288974162816236e-01 3.5878894476990619e-01 2.2456059955978440e+00 -4.9530207271126570e-01 3.3977263165587499e+00 3.2050770596130320e+00 3.8376675110730490e-01 7.6462609596124587e-01 -4.4107607147944270e+00 -2.0730165379850399e-01 2.4073975247295926e-01 -8.1716668611935255e+00 4.2845980505289800e+00 -1.9995905320466552e+00 1.9468807551271783e+00 9.2986516051927781e-01 1.4070112558173344e+00 5.6270113641731614e+00 -1.1064075941551750e+00 -1.0492389892638856e+00 -6.4303908454386711e+00 -8.9435650734023771e+00 4.9114128510393700e+00 1.3751687622613853e+00 -4.8756048227779925e+00 
        </Neuron>
        <Neuron NSynapses="30">
          -1.5255129514472341e+00 1.6102442100240233e+00 -1.7283549729115322e+00 -4.9378730151658123e+00 -3.3103267732294896e+00 -1.4596949176143359e+00 -1.9187353306631403e+00 2.8183301112207343e-01 -2.7868082609572071e+00 -3.0953701172669561e+00 3.7718724628306988e+00 -9.0512781324528691e-01 -5.9204633617470570e+00 1.0112116511301442e+01 9.3000012523907671e-01 -7.0159885059706315e-02 -1.4583299097294262e+00 7.4177175455596354e+00 4.2111356168015819e+00 -1.7408119266798698e+00 -6.5694752964960534e-01 -1.5964828546338354e+00 4.2621246260032680e-01 2.5500774003105167e+00 4.2348632659324043e-01 -1.2683580968227213e+00 9.3850899325865740e+00 -7.0227671344140064e-01 8.6267130511542938e+00 -9.7911703882884566e+00 
        </Neuron>
        <Neuron NSynapses="30">
          3.6878220262823973e+00 3.1254516577727656e+00 -2.2142557453168203e+00 -5.3616096992540898e+00 -3.2395881706585552e+00 -1.7749678979478305e+00 3.0413305715355354e-01 2.2762929764214173e+00 -1.0015511212272816e+00 -3.1786789233198207e+00 4.9390505187898865e+00 2.6825644802596833e+00 -8.8391003844980798e-01 -1.8696722678654152e+00 1.8820855632770417e+00 1.8614574274022972e+00 -1.8167570804090416e-01 4.9182018922204547e+00 2.0277723147833302e+00 4.1381935714922271e+00 8.3945961005215486e-01 -2.3238317535699484e+00 1.0556994369003829e+00 -3.3072198878489387e+00 -3.6118730060719752e-03 -4.8920719429997495e-01 4.1973814085941417e+00 3.1570483925668635e+00 4.7452231517971679e+00 4.2239797972327647e-01 
        </Neuron>
        <Neuron NSynapses="30">
          3.2447210949718480e-01 1.0977400552370593e+00 1.7551071096857922e+00 -5.1534910199820558e+00 -1.1412099902911508e+00 9.1808633847466914e-01 -1.6751949006649240e+00 -2.5798965282033355e+00 -1.8976080078582156e+00 -7.4956411699034697e-01 -1.3576921404460256e+00 -1.7493240435008501e+00 2.9907861459205987e+00 2.7530186134598109e+00 2.7262461990244558e+00 3.7449385590934874e+00 -3.9738005481927665e+00 5.3282575548461686e-01 -6.4322727247841121e+00 -2.5481781906075032e+00 -9.9635936704217232e-01 -2.7507425823913825e+00 -3.1834359770937537e+00 -1.5581686426810113e+00 -1.8569480313607620e+00 5.4499008207882156e+00 -1.0831726092343192e+00 -2.9318110361518825e+00 -2.3125384271935912e+00 -2.7557382530270873e+00 
        </Neuron>
        <Neuron NSynapses="30">
          -1.2277118355245792e-01 3.1767764411840516e-01 -7.3845351452302899e-01 -1.4249326013135324e+00 1.1495557623265903e-01 -1.4834248304097022e+00 1.2293076723987781e+00 -4.6532228992960478e+00 -1.2041184515297834e+00 6.0075437914098204e+00 2.3367212704705563e-02 -7.5139386284546361e-01 -1.1261350081357420e+00 1.3922262422137412e+00 1.2458847710235745e+00 -1.5363754354531785e+00 -1.7196490412448076e+00 -2.7662623539366571e-01 2.3647349989724464e+00 1.5529181875693441e+00 2.6325700743808058e+00 -1.7954769121103857e+00 -1.3151625269153435e+00 4.3888518962510732e+00 5.6192004694562392e-01 1.3924121576342477e-01 -3.1788048540144698e-01 -2.1651330986864754e+00 2.0323885274790734e+00 -9.0355816496087760e-01 
        </Neuron>
        <Neuron NSynapses="30">
          3.0586319734673069e+00 8.4580810619543580e+00 3.4718084759570333e-01 8.0404026694642354e+00 1.7539282479147491e+00 -2.6454065097048676e+00 -1.2719860755368486e+00 -1.6355857061156427e+00 1.7640131967234767e+00 -3.4664614796084542e-01 7.2877740038594208e-01 -3.0801646055396357e+00 -4.2791252565245159e+00 -4.0433336382023821e+00 4.2426631620175381e-01 -8.2731086834069139e+00 -1.1848058297029518e+00 -1.5366804334507713e+00 2.9636127455478749e+00 1.4074864009620818e+00 -4.0895958679321858e+00 3.8307670819790056e+00 9.0313174125179021e+00 -9.6660545549890453e-02 -6.4647624038451512e-01 -1.0246712641686777e+00 -4.8375233663814861e+00 1.1876379156486041e+00 2.3919408207634767e+00 1.1321736131810305e+00 
        </Neuron>
        <Neuron NSynapses="30">
          -8.7788028594675904e-01 1.7788558238907851e-01 4.2286613872840306e-01 2.8998790537079873e+00 -5.6403853720517638e-01 -1.5947518709694979e+00 -8.8172725586785627e-01 -3.2347325538659852e+00 -1.9207785439696046e+00 -2.2094518371965166e+00 3.0491906075390034e+00 -1.6153624146780550e+00 -7.7726781871826833e-01 -4.3210490647365347e+00 -9.0950845866947838e-01 2.0129378881199367e+00 1.0778945038774650e+00 -3.3498516672505932e-02 -3.7972395232460793e-01 1.8657336294707543e+00 -3.0922027352421573e+00 -3.5759212107123624e+00 2.0842796487533746e+00 -3.7327651671568094e+00 -4.1432469472317207e-01 -8.1510069574338062e-01 1.2759478170215055e-01 1.4974246819880961e+00 -4.5778788719720287e-01 -3.4355152209803408e+00 
        </Neuron>
        <Neuron NSynapses="30">
          1.4971687326623015e+00 -1.0912975293283818e+00 -2.5606580781721999e+00 1.7482461119059909e+00 -1.0815463912788847e+00 3.5191818324743843e-02 -3.7081666163688121e-01 -1.0393431889001277e-01 2.4342072180045005e+00 -5.3646551199144976e-01 2.2093590938383372e+00 1.7150934759629695e+00 -4.7495530142404607e-01 -2.0409099831138522e+00 1.4088259852806186e+00 -1.3211730559968731e+00 -1.2957026174572668e+00 -8.6862806093178369e-01 3.6000032575928226e-01 1.1304170155155391e+00 1.7369227956466264e+00 1.6685112709885992e+00 2.1056564137501850e+00 5.0520759347510342e+00 2.0123524585672078e-01 -1.0531023631286086e-01 -1.6642970907379753e+00 -1.0099659582788940e+01 -1.7815474439388053e+00 -1.4614600752809410e+00 
        </Neuron>
        <Neuron NSynapses="30">
          3.1665642463468369e+00 1.7924038528174504e+00 -1.3252618471991276e-01 -7.6547267448084200e-01 6.0814404997053630e+00 2.6990129594572005e+00 6.5481588652601688e-02 3.4724592937202664e-01 1.9998332064943936e+00 2.3802624027262103e+00 -8.9577427566060552e-01 3.6078811758062812e-01 1.8720933601771950e+00 -5.4256453145091026e+00 1.7499193411543823e-01 -5.5990977806609399e+00 1.8919997130482220e+00 -2.5645192133509971e+00 8.1047157765946298e-01 1.2951985399211885e+00 -8.0866750015823374e-01 3.0067501937501793e+00 -4.5199986508851735e+00 1.2510571516497471e+00 -2.2933738140758773e+00 -2.4477023409531302e+00 5.0575254018700688e-01 -2.9045030879021563e+00 -5.4478623521297855e+00 3.6542067670476812e+00 
        </Neuron>
        <Neuron NSynapses="30">
          -7.2797009531375991e+00 2.1633139496216742e+01 2.0510443409607992e+00 -1.1313155544604038e+01 -6.4181116090341161e+00 -1.9793607320306463e+00 5.5027968281418327e-01 -6.8014159067880731e-01 -7.8335522499553276e+00 -1.5910276463465425e+00 -2.6100690869049954e+00 1.6416437613570987e+00 5.0079943117061925e+00 5.7755970893819990e+00 -9.6299085671885853e-01 5.6975969119703000e+00 -4.1373530246254440e+00 4.1557776722964341e+00 -2.6801005487763216e+00 -1.2321154052317327e+00 1.1379946646804635e+00 4.9548418229797830e-01 4.5441193963441719e+00 6.2443893852813359e-01 -3.6560023251398277e-01 -1.8271182912861910e+00 1.0853753756068814e+00 -5.3104372271463109e+00 -1.6520523802498237e+00 -5.4753854456200255e+00 
        </Neuron>
      </Layer>
      <Layer Index="1" NNeurons="31">
        <Neuron NSynapses="10">
          -2.8217702497930636e-01 -1.4890216372895000e+00 1.2168375545092476e+00 5.3466761698247467e-01 -5.6248235317908804e-02 -5.1328002414766460e-01 3.0039336129495062e+00 1.7640125150547561e+00 3.8248178299726359e+00 -4.5896969261349163e+00 
        </Neuron>
        <Neuron NSynapses="10">
          -6.6162370795839864e-01 -1.3097412772220964e+00 1.2462169228827713e+00 1.3895334900614924e+00 -4.4633285681132406e+00 -2.5734168091776675e+00 -4.0916639675684108e+00 -2.0529464152068035e+00 -5.5294214049458859e+00 3.2350169733319816e+00 
        </Neuron>
        <Neuron NSynapses="10">
          -3.9548836912436069e-01 -1.7275660768979757e+00 -1.6303854679922130e+00 3.2944382017877072e-01 -2.5303702251734167e-01 -1.7071196075517517e-01 -1.3982821708237678e+00 -2.3862751193243614e+00 1.0559319882092959e-01 3.6337316193538527e+00 
        </Neuron>
        <Neuron NSynapses="10">
          -1.4024596143505363e+00 1.6374446482758993e+00 -4.1094572121028955e-01 -3.7955237984147687e+00 9.0748006065417863e-01 -4.5251965686872335e+00 3.9546520246939867e+00 4.9656693848264890e+00 9.1352116917700088e-01 5.3481988884323757e+00 
        </Neuron>
        <Neuron NSynapses="10">
          -1.8954746232981239e+00 -1.7833999827130964e+00 -1.5499384654150568e+00 -1.5847782432484985e+00 2.3208004309460630e+00 6.1259117094879934e-01 4.3467817468149486e+00 -5.6110926442289444e-01 -9.5318675421162610e-02 -5.7913978303889282e+00 
        </Neuron>
        <Neuron NSynapses="10">
          1.2250719973748834e+00 -1.1435596214088619e+00 3.3253694975776020e+00 1.8244881149920689e+00 4.7811795179352439e+00 1.5469357189352768e+00 3.3026003912486419e+00 1.4250826716558407e+00 -4.2468176390872525e+00 -2.0896099085024158e+00 
        </Neuron>
        <Neuron NSynapses="10">
          2.7003267674058368e-01 5.6927846033233975e-01 6.3339903733673952e-01 2.5356958653584311e-01 -1.6851180923366010e-01 -4.5036110651406391e-01 1.6798144643204019e-01 2.3804387258573964e-01 -1.7339524940954021e+00 1.7737292403773344e+00 
        </Neuron>
        <Neuron NSynapses="10">
          8.5945789809035855e-01 1.9828259504421244e+00 1.0026780555183652e+00 -6.1818013364030788e+00 -6.7927661810701834e-01 -2.2776600241204359e+00 -2.1674969374149904e+00 -1.7546281826171646e+00 5.0511385442362702e+00 9.8705527355530898e-01 
        </Neuron>
        <Neuron NSynapses="10">
          -6.9849427668483199e-01 1.7059664387796694e+00 2.6122401032116418e+00 1.2522294478451418e-01 -2.1754504095463845e+00 -1.1447512803482156e+00 2.6917317599892252e+00 -2.5802668367304573e+00 5.2090013934978829e+00 -3.8262443685635392e+00 
        </Neuron>
        <Neuron NSynapses="10">
          -1.0531110816985119e+00 2.5994238271586565e+00 -1.4931927116709651e+00 5.3776577295994077e-01 3.8676895190385574e+00 1.0999959040326186e+00 -6.4162853802986453e-01 -6.2249077354385318e-01 4.5867258356899345e+00 3.5990896119703311e+00 
        </Neuron>
        <Neuron NSynapses="10">
          3.3308844122369735e-01 -5.0658889282363527e-02 2.3505889420653245e+00 2.8190432956315683e+00 -1.3403197010462840e+00 3.7984346307719505e+00 4.1190130341286588e+00 -2.5245617223936177e-02 -7.0715131411929599e-01 -6.3522489267144291e+00 
        </Neuron>
        <Neuron NSynapses="10">
          -9.1803438761595901e-01 1.2576853513412585e+00 -2.5330052492387747e+00 -3.6096724953498677e-01 -1.6840096040120762e+00 1.0410184062093859e+00 -1.0826958846205355e+00 4.3072740510804303e-01 -1.7586536200403347e+00 1.4027075848305541e+00 
        </Neuron>
        <Neuron NSynapses="10">
          -5.3824613272430988e-01 7.5462623180515920e-01 7.9684674782541653e-01 2.4387955677684517e-01 -1.5505605304127583e+00 -3.8301821245645751e-01 -3.5943818587536702e+00 -2.7466858782120172e+00 -8.3304478834929121e+00 1.0182416211745675e+00 
        </Neuron>
        <Neuron NSynapses="10">
          -5.4141832161272185e-01 5.4287955191524184e-01 3.0623977099244237e-01 -2.2175708895685577e+00 4.0556442050430910e+00 2.2619059938985755e+00 -3.0487080070076291e+00 -2.5572178475633036e+00 -4.8180193129419759e+00 -3.4131533641542302e+00 
        </Neuron>
        <Neuron NSynapses="10">
          -9.7006581747289999e-01 6.6239517839515805e-01 9.5847301752995373e-01 5.4138677103511841e-02 -1.5395162037511196e+00 -4.8093920001689361e-01 -2.7735993466469115e+00 2.4209804588666189e-01 -2.2134987221327123e+00 2.7232998903729030e-02 
        </Neuron>
        <Neuron NSynapses="10">
          -1.5297052899437069e+00 -8.3638587674884690e-02 1.1096981112926452e-01 -1.8522481512566402e+00 -5.7755477276080693e+00 6.4068153958699997e-02 -6.4446317476557642e+00 -5.0531034209389665e+00 1.6736952966540497e+00 3.0552209090667326e-01 
        </Neuron>
        <Neuron NSynapses="10">
          1.1181472012127329e+00 -1.8584335142387167e+00 -5.9058151375981527e-01 -1.5047023528170700e+00 5.2051817720397464e+00 -5.3941859536015968e-01 1.2600455204830796e+00 -2.8186483622035614e+00 -4.8664333001941124e-01 -6.3232750186378679e+00 
        </Neuron>
        <Neuron NSynapses="10">
          1.4343718256832183e+00 4.0194375487552153e-01 1.6946675547043799e+00 -1.7454592283485446e+00 -4.5851264765504709e+00 2.1523097020972752e+00 -5.4965049172173885e-01 -3.9680229326656393e+00 -2.3310369133552373e+00 4.8322581282272505e+00 
        </Neuron>
        <Neuron NSynapses="10">
          1.6178499091942478e+00 -1.4657759585908825e+00 -1.5747608554761328e+00 -3.8880501679214716e+00 -5.2625818377422828e-01 8.8391602587481999e-01 -1.0124115361320323e+00 4.4733593439960408e+00 1.5988230922148212e+00 -3.9525515782428307e+00 
        </Neuron>
        <Neuron NSynapses="10">
          -1.5715795641165731e+00 1.6384752649771004e+00 8.4835109584458523e-01 -2.0818938318238640e+00 2.0743563024948175e+00 -2.4159762972272789e-01 -2.3518997728863980e+00 6.5022304461487437e+00 1.8314051069705748e+00 3.9708846378539699e+00 
        </Neuron>
        <Neuron NSynapses="10">
          -8.8213889017570057e-01 3.1663415500383256e+00 3.1585217729077013e+00 -9.0864434884858891e-01 -2.1293182182925294e+00 1.7476513531647457e+00 -1.8239271127855621e+00 2.2912968193383279e-01 -1.0552614338326596e+00 -4.0861270642137892e+00 
        </Neuron>
        <Neuron NSynapses="10">
          -1.4465325772796407e+00 1.1790436512829418e-01 -3.3496062863726112e-01 6.0557071740698287e-01 -8.2814108942077899e-02 -6.8438635051823038e-01 -4.0975954688554452e+00 5.0127794960529570e+00 5.0923673591739538e-01 -1.0994643189059274e+00 
        </Neuron>
        <Neuron NSynapses="10">
          -1.8001857614296228e+00 -7.2537816767698149e-01 -2.0753824860573240e+00 -2.4529050203529748e+00 5.1434792208986935e-01 2.0249992488908335e+00 -3.0271878961876992e+00 -2.8404934861034525e+00 -2.2772387507645614e-01 6.1952398014902403e+00 
        </Neuron>
        <Neuron NSynapses="10">
          -3.0590275766972680e-01 2.1995708764098532e+00 -3.6289837005941639e-01 3.3860279668824265e+00 5.6308334684995121e-01 -1.2181273281274110e+00 3.9946190340320475e+00 -3.0956363181126241e+00 3.5411322025127712e-01 5.7442684091451230e+00 
        </Neuron>
        <Neuron NSynapses="10">
          -7.2716135212463273e-01 7.9661291619484720e-01 1.4504962105589636e+00 1.1208037499863177e+00 -2.5213470944737573e+00 5.1322871148916782e-01 -6.1333605915963353e-03 -2.3380656033199996e+00 -1.3646972581518040e+00 2.3160107163215078e+00 
        </Neuron>
        <Neuron NSynapses="10">
          4.0575302051358236e-01 1.0457808277246334e+00 -1.4598443132362360e+00 1.2895934026469140e+00 -7.9358493210854748e+00 -1.9121028529284103e+00 -1.6492040586488981e+00 -2.0296485364064569e+00 3.3639976886327330e+00 1.7052453582019647e+00 
        </Neuron>
        <Neuron NSynapses="10">
          1.4487521711497675e+00 3.3051379973974631e+00 1.2919094263292910e+00 -3.6216254433213962e-01 7.0762840739326993e+00 -4.0308657268921860e-01 -2.3790202046342253e+00 -5.4661114143488403e+00 -5.1600407580307044e+00 4.5495225343832653e+00 
        </Neuron>
        <Neuron NSynapses="10">
          -1.5128213193870950e+00 1.2739233063689273e+00 -1.3860146866341982e+00 3.1025231244037514e+00 3.8603021179070862e+00 -2.0275862477471147e+00 6.8218282282709870e+00 7.5014366655168487e+00 8.3910679595029780e+00 -1.6876891988980092e+00 
        </Neuron>
        <Neuron NSynapses="10">
          5.9187065454877397e-01 -2.9740799801918005e-01 2.5258712210962431e+00 3.8542747348054069e+00 2.6638422764695910e+00 -8.8877625097465274e-01 -7.5868789618576953e+00 6.3484928337750199e+00 -3.3973032364002340e+00 -1.5628904851400041e+00 
        </Neuron>
        <Neuron NSynapses="10">
          -1.8119984385409478e+00 3.4290951858577405e+00 2.0288537641579598e+00 2.2887360676568944e+00 -9.0681478511190433e-02 -1.5689221901088168e+00 4.1164488815379956e+00 2.8538051784252665e+00 3.0897643011462961e+00 5.7648824015455045e+00 
        </Neuron>
        <Neuron NSynapses="10">
          -1.0982977819801130e+00 -1.1949481957812571e+00 1.7542898629186463e+00 1.1758377789687848e+00 -1.6198618296383382e+00 1.1332498904858199e+00 -9.6038489263641424e-01 -6.4862325532593768e-01 -7.9230995466945686e-01 2.6131700094016819e+00 
        </Neuron>
      </Layer>
      <Layer Index="2" NNeurons="11">
        <Neuron NSynapses="10">
          1.6805209709372888e+00 -1.4562015184018937e+00 -6.0614360700005832e-01 1.6280905070116438e+00 1.1587135828263344e-01 -1.6628855666864926e+00 1.3203251847240424e-01 -9.3462764137142051e-01 1.8742624478984726e+00 1.3022985771201558e+00 
        </Neuron>
        <Neuron NSynapses="10">
          -1.8159668829797475e+00 5.2293617848743690e-01 1.0503351697434318e+00 -7.5000187214672798e-01 1.7323397639910327e+00 3.2043777694037581e+00 -3.1834577711981287e+00 -7.7062610389029196e-01 -9.7266522531699939e-01 -2.2098349973382336e+00 
        </Neuron>
        <Neuron NSynapses="10">
          -1.9689048320293334e+00 1.4883240043790973e+00 3.5315076941081012e+00 1.0767208551691472e+00 -1.3508249045992642e+00 -3.8222408949802944e-01 1.2815682283335510e+00 -2.1683158929460578e+00 -5.4588454221896399e-01 1.4018409567342627e+00 
        </Neuron>
        <Neuron NSynapses="10">
          3.2753586686421445e+00 -1.5813428254396484e+00 -3.5164679016214073e+00 -3.7738092845489652e+00 -1.1760219276922401e+00 7.6724912854482452e-01 1.2279069421731130e+00 -2.6741502811108138e+00 9.7467062186139330e-01 1.4564070080162455e+00 
        </Neuron>
        <Neuron NSynapses="10">
          -2.8682175177790059e-01 2.3014730577550244e+00 3.3984163266817164e+00 2.3406525348490250e+00 -2.3567213620696146e+00 -2.9796088193894525e+00 -6.4295635272722595e-01 1.6744805361693640e+00 -7.2423205287266796e+00 -2.6145033628909036e+00 
        </Neuron>
        <Neuron NSynapses="10">
          4.8430332449389839e+00 1.6800144698608286e+00 9.2888884963290697e-01 1.7815539933398645e+00 2.1227945031112165e+00 4.9978689927018996e-02 2.3822242909942526e+00 7.8915199827912030e-01 -3.7524055448876510e+00 -3.4266707540519517e+00 
        </Neuron>
        <Neuron NSynapses="10">
          -6.2008464071189628e+00 -2.6216836071893379e+00 1.8840304215086159e-01 3.4998858270243001e+00 -4.9283625880007298e+00 -5.3663812404824487e+00 -2.9636529161192207e+00 4.4885400879686360e-01 -9.9608510685388263e-01 2.6062693764754350e+00 
        </Neuron>
        <Neuron NSynapses="10">
          -2.5668127621047194e+00 6.4482440426842491e-01 3.9282568989033297e+00 -2.9427887199163600e+00 -4.3912630606580381e+00 -3.0492040629793005e+00 -1.8103886296703533e+00 -2.2175479338706716e+00 -7.0944298673361423e+00 4.5999802716379916e+00 
        </Neuron>
        <Neuron NSynapses="10">
          5.1520417807623238e-02 -3.2064121160768670e+00 -3.2989721537182914e+00 9.4482699120860425e-01 -8.6653737691640131e+00 -5.3539818577539977e+00 -7.9267001618210129e+00 -4.5954083318877395e+00 1.3160032397874870e+00 -6.6333007113644171e-01 
        </Neuron>
        <Neuron NSynapses="10">
          2.3766827912099551e+00 -2.0332850344338693e+00 -6.5999046097633540e-01 -3.4664418699890494e+00 2.9316525865570026e-01 2.8373913972469174e+00 2.8031534139350827e+00 3.5403409730744033e+00 7.1162419072770726e+00 -4.6142522380951227e+00 
        </Neuron>
        <Neuron NSynapses="10">
          1.6289563562787932e+00 -1.5079953053217319e+00 1.2167388746057302e+00 -1.2963477851112544e+00 -1.7590193369396001e+00 -1.4612847348032290e-01 3.0118696218623819e+00 6.3240764311587550e-01 1.9449609602883169e+00 1.2627019640170332e+00 
        </Neuron>
      </Layer>
      <Layer Index="3" NNeurons="11">
        <Neuron NSynapses="5">
          -2.6710933309764648e+00 8.9117464826715320e-01 -1.9125871478256555e+00 -2.4510862280866834e+00 -4.0162383038159675e+00 
        </Neuron>
        <Neuron NSynapses="5">
          -3.1826265915557594e+00 -2.7844876258621015e-01 -3.7109668625258420e-02 -1.7219710415417016e-03 -1.2560984895536478e+00 
        </Neuron>
        <Neuron NSynapses="5">
          1.9596174746249744e+00 -1.8266388089316694e+00 -3.1966454761952154e+00 2.4286713231143828e+00 2.1411053643245017e+00 
        </Neuron>
        <Neuron NSynapses="5">
          2.1617321034299580e-01 3.1309137687796063e+00 -3.5621384327396416e-01 3.5748743387183164e+00 -7.4723233270410172e-01 
        </Neuron>
        <Neuron NSynapses="5">
          1.0587633122922011e-01 -3.9406028867531923e-01 5.8198541596067237e+00 -2.7488207743555226e+00 -1.2474454704921485e+00 
        </Neuron>
        <Neuron NSynapses="5">
          -6.6931043249322564e-01 -3.4450526247156188e+00 3.3908165125333238e+00 -1.7268612724309118e+00 2.4889262670952295e-01 
        </Neuron>
        <Neuron NSynapses="5">
          1.5834688033916336e-01 -3.5571065872644487e+00 2.1337410492301263e+00 -1.1072385398426747e+00 -1.4785058272688507e+00 
        </Neuron>
        <Neuron NSynapses="5">
          3.3383231417322343e-02 -2.0877615698603296e+00 1.1600797028595091e+00 -2.9303968834898431e+00 -2.0894147243954801e+00 
        </Neuron>
        <Neuron NSynapses="5">
          -4.3845090161992459e+00 -2.4933063710157994e+00 5.1622817945672188e-02 -1.8114016047404933e+00 -2.1339426663581675e+00 
        </Neuron>
        <Neuron NSynapses="5">
          3.8171345215323860e+00 2.3768062904311549e+00 1.0218298479235870e+00 -2.4876452854275928e+00 7.5456134031390343e-01 
        </Neuron>
        <Neuron NSynapses="5">
          -1.2327740905994091e+00 1.6107048551342624e+00 -2.1170488576791313e+00 -1.3573338356524163e+00 1.3065295584698955e+00 
        </Neuron>
      </Layer>
      <Layer Index="4" NNeurons="6">
        <Neuron NSynapses="1">
          -3.2104800702586260e+00 
        </Neuron>
        <Neuron NSynapses="1">
          -1.8165331432341709e+00 
        </Neuron>
        <Neuron NSynapses="1">
          4.8727197264328366e+00 
        </Neuron>
        <Neuron NSynapses="1">
          -2.2977499529874676e+00 
        </Neuron>
        <Neuron NSynapses="1">
          -2.0839326435195415e+00 
        </Neuron>
        <Neuron NSynapses="1">
          8.5082655377236527e-01 
        </Neuron>
      </Layer>
      <Layer Index="5" NNeurons="1">
        <Neuron NSynapses="0"/>
      </Layer>
    </Layout>
  </Weights>
</MethodSetup>
