<?xml version="1.0"?>
<MethodSetup Method="MLP::MLP_fold5">
  <GeneralInfo>
    <Info name="TMVA Release" value="4.2.1 [262657]"/>
    <Info name="ROOT Release" value="6.20/06 [398342]"/>
    <Info name="Creator" value="tfarooque"/>
    <Info name="Date" value="Wed May  3 14:31:41 2023"/>
    <Info name="Host" value="Linux aibuild16-017.cern.ch 3.10.0-1160.36.2.el7.x86_64 #1 SMP Wed Jul 21 11:57:15 UTC 2021 x86_64 x86_64 x86_64 GNU/Linux"/>
    <Info name="Dir" value="/data/at3/scratch2/farooque/DevPVLQ/VLQAnalysisFramework/run"/>
    <Info name="Training events" value="102965"/>
    <Info name="TrainingTime" value="3.27066309e+03"/>
    <Info name="AnalysisType" value="Classification"/>
  </GeneralInfo>
  <Options>
    <Option name="NCycles" modified="Yes">800</Option>
    <Option name="HiddenLayers" modified="Yes">30,10,10,5</Option>
    <Option name="NeuronType" modified="Yes">sigmoid</Option>
    <Option name="RandomSeed" modified="No">1</Option>
    <Option name="EstimatorType" modified="No">CE</Option>
    <Option name="NeuronInputType" modified="No">sum</Option>
    <Option name="V" modified="Yes">False</Option>
    <Option name="VerbosityLevel" modified="No">Default</Option>
    <Option name="VarTransform" modified="Yes">N</Option>
    <Option name="H" modified="No">False</Option>
    <Option name="CreateMVAPdfs" modified="No">False</Option>
    <Option name="IgnoreNegWeightsInTraining" modified="No">False</Option>
    <Option name="TrainingMethod" modified="No">BP</Option>
    <Option name="LearningRate" modified="Yes">1.000000e-02</Option>
    <Option name="DecayRate" modified="Yes">0.000000e+00</Option>
    <Option name="TestRate" modified="Yes">5</Option>
    <Option name="EpochMonitoring" modified="Yes">False</Option>
    <Option name="Sampling" modified="No">1.000000e+00</Option>
    <Option name="SamplingEpoch" modified="No">1.000000e+00</Option>
    <Option name="SamplingImportance" modified="No">1.000000e+00</Option>
    <Option name="SamplingTraining" modified="No">True</Option>
    <Option name="SamplingTesting" modified="No">False</Option>
    <Option name="ResetStep" modified="No">50</Option>
    <Option name="Tau" modified="No">3.000000e+00</Option>
    <Option name="BPMode" modified="No">sequential</Option>
    <Option name="BatchSize" modified="No">-1</Option>
    <Option name="ConvergenceImprove" modified="No">1.000000e-30</Option>
    <Option name="ConvergenceTests" modified="No">-1</Option>
    <Option name="UseRegulator" modified="No">False</Option>
    <Option name="UpdateLimit" modified="No">10000</Option>
    <Option name="CalculateErrors" modified="No">False</Option>
    <Option name="WeightRange" modified="No">1.000000e+00</Option>
  </Options>
  <Variables NVar="20">
    <Variable VarIndex="0" Expression="meff" Label="meff" Title="meff" Unit="" Internal="meff" Type="D" Min="1.00073407e+03" Max="7.93033350e+03"/>
    <Variable VarIndex="1" Expression="RCjet2_pt" Label="RCjet2_pt" Title="RCjet2_pt" Unit="" Internal="RCjet2_pt" Type="D" Min="2.00002106e+02" Max="1.63844312e+03"/>
    <Variable VarIndex="2" Expression="leptop_pt" Label="leptop_pt" Title="leptop_pt" Unit="" Internal="leptop_pt" Type="D" Min="-1.00000000e+02" Max="3.42010815e+03"/>
    <Variable VarIndex="3" Expression="RCjets_n" Label="RCjets_n" Title="RCjets_n" Unit="" Internal="RCjets_n" Type="D" Min="3.00000000e+00" Max="7.00000000e+00"/>
    <Variable VarIndex="4" Expression="RCMHiggs0_pt" Label="RCMHiggs0_pt" Title="RCMHiggs0_pt" Unit="" Internal="RCMHiggs0_pt" Type="D" Min="0.00000000e+00" Max="2.74079712e+03"/>
    <Variable VarIndex="5" Expression="dPhiavg_RCjets" Label="dPhiavg_RCjets" Title="dPhiavg_RCjets" Unit="" Internal="dPhiavg_RCjets" Type="D" Min="4.63033348e-01" Max="2.09439516e+00"/>
    <Variable VarIndex="6" Expression="mvlq1_RCTTM_drmax" Label="mvlq1_RCTTM_drmax" Title="mvlq1_RCTTM_drmax" Unit="" Internal="mvlq1_RCTTM_drmax" Type="D" Min="-1.52543213e+03" Max="5.04842090e+03"/>
    <Variable VarIndex="7" Expression="RCMHiggs0_nconsts" Label="RCMHiggs0_nconsts" Title="RCMHiggs0_nconsts" Unit="" Internal="RCMHiggs0_nconsts" Type="D" Min="0.00000000e+00" Max="2.00000000e+00"/>
    <Variable VarIndex="8" Expression="RCMHiggs0_nbconsts" Label="RCMHiggs0_nbconsts" Title="RCMHiggs0_nbconsts" Unit="" Internal="RCMHiggs0_nbconsts" Type="D" Min="0.00000000e+00" Max="4.00000000e+00"/>
    <Variable VarIndex="9" Expression="dRmin_RCMTT" Label="dRmin_RCMTT" Title="dRmin_RCMTT" Unit="" Internal="dRmin_RCMTT" Type="D" Min="4.93207015e-02" Max="4.92609024e+00"/>
    <Variable VarIndex="10" Expression="dRmin_RCjets" Label="dRmin_RCjets" Title="dRmin_RCjets" Unit="" Internal="dRmin_RCjets" Type="D" Min="4.93207015e-02" Max="3.49933314e+00"/>
    <Variable VarIndex="11" Expression="mvlq1_rcj_drmax" Label="mvlq1_rcj_drmax" Title="mvlq1_rcj_drmax" Unit="" Internal="mvlq1_rcj_drmax" Type="D" Min="-1.86745874e+03" Max="5.04842090e+03"/>
    <Variable VarIndex="12" Expression="mtbmin" Label="mtbmin" Title="mtbmin" Unit="" Internal="mtbmin" Type="D" Min="3.86307569e-04" Max="1.42423145e+03"/>
    <Variable VarIndex="13" Expression="met" Label="met" Title="met" Unit="" Internal="met" Type="D" Min="1.02333152e+00" Max="1.94994263e+03"/>
    <Variable VarIndex="14" Expression="bjets_n" Label="bjets_n" Title="bjets_n" Unit="" Internal="bjets_n" Type="D" Min="3.00000000e+00" Max="9.00000000e+00"/>
    <Variable VarIndex="15" Expression="dPhimin_RCMTT" Label="dPhimin_RCMTT" Title="dPhimin_RCMTT" Unit="" Internal="dPhimin_RCMTT" Type="D" Min="1.90258026e-04" Max="3.14156938e+00"/>
    <Variable VarIndex="16" Expression="dRavg_RCjets" Label="dRavg_RCjets" Title="dRavg_RCjets" Unit="" Internal="dRavg_RCjets" Type="D" Min="1.16793573e+00" Max="3.80160737e+00"/>
    <Variable VarIndex="17" Expression="dPhimin_RCjets" Label="dPhimin_RCjets" Title="dPhimin_RCjets" Unit="" Internal="dPhimin_RCjets" Type="D" Min="5.45978546e-05" Max="2.09194827e+00"/>
    <Variable VarIndex="18" Expression="RCMV0_nconsts" Label="RCMV0_nconsts" Title="RCMV0_nconsts" Unit="" Internal="RCMV0_nconsts" Type="D" Min="0.00000000e+00" Max="2.00000000e+00"/>
    <Variable VarIndex="19" Expression="RCMV0_pt" Label="RCMV0_pt" Title="RCMV0_pt" Unit="" Internal="RCMV0_pt" Type="D" Min="0.00000000e+00" Max="2.66518701e+03"/>
  </Variables>
  <Spectators NSpec="7">
    <Spectator SpecIndex="0" Expression="VLQtype" Label="VLQtype" Title="VLQtype" Unit="" Internal="VLQtype" Type="F" Min="-1.00000000e+00" Max="3.00000000e+00"/>
    <Spectator SpecIndex="1" Expression="channel" Label="channel" Title="channel" Unit="" Internal="channel" Type="F" Min="1.00000000e+00" Max="5.00000000e+00"/>
    <Spectator SpecIndex="2" Expression="event_number" Label="event_number" Title="event_number" Unit="" Internal="event_number" Type="F" Min="1.00000000e+00" Max="4.04104576e+08"/>
    <Spectator SpecIndex="3" Expression="mc_campaign" Label="mc_campaign" Title="mc_campaign" Unit="" Internal="mc_campaign" Type="F" Min="1.00000000e+00" Max="3.00000000e+00"/>
    <Spectator SpecIndex="4" Expression="run_number" Label="run_number" Title="run_number" Unit="" Internal="run_number" Type="F" Min="2.76262000e+05" Max="3.64292000e+05"/>
    <Spectator SpecIndex="5" Expression="sampleID" Label="sampleID" Title="sampleID" Unit="" Internal="sampleID" Type="F" Min="3.02480000e+05" Max="7.00347000e+05"/>
    <Spectator SpecIndex="6" Expression="sampleName" Label="sampleName" Title="sampleName" Unit="" Internal="sampleName" Type="F" Min="3.00000000e+00" Max="1.70000000e+01"/>
  </Spectators>
  <Classes NClass="2">
    <Class Name="Signal" Index="0"/>
    <Class Name="Background" Index="1"/>
  </Classes>
  <Transformations NTransformations="1">
    <Transform Name="Normalize">
      <Selection>
        <Input NInputs="20">
          <Input Type="Variable" Label="meff" Expression="meff"/>
          <Input Type="Variable" Label="RCjet2_pt" Expression="RCjet2_pt"/>
          <Input Type="Variable" Label="leptop_pt" Expression="leptop_pt"/>
          <Input Type="Variable" Label="RCjets_n" Expression="RCjets_n"/>
          <Input Type="Variable" Label="RCMHiggs0_pt" Expression="RCMHiggs0_pt"/>
          <Input Type="Variable" Label="dPhiavg_RCjets" Expression="dPhiavg_RCjets"/>
          <Input Type="Variable" Label="mvlq1_RCTTM_drmax" Expression="mvlq1_RCTTM_drmax"/>
          <Input Type="Variable" Label="RCMHiggs0_nconsts" Expression="RCMHiggs0_nconsts"/>
          <Input Type="Variable" Label="RCMHiggs0_nbconsts" Expression="RCMHiggs0_nbconsts"/>
          <Input Type="Variable" Label="dRmin_RCMTT" Expression="dRmin_RCMTT"/>
          <Input Type="Variable" Label="dRmin_RCjets" Expression="dRmin_RCjets"/>
          <Input Type="Variable" Label="mvlq1_rcj_drmax" Expression="mvlq1_rcj_drmax"/>
          <Input Type="Variable" Label="mtbmin" Expression="mtbmin"/>
          <Input Type="Variable" Label="met" Expression="met"/>
          <Input Type="Variable" Label="bjets_n" Expression="bjets_n"/>
          <Input Type="Variable" Label="dPhimin_RCMTT" Expression="dPhimin_RCMTT"/>
          <Input Type="Variable" Label="dRavg_RCjets" Expression="dRavg_RCjets"/>
          <Input Type="Variable" Label="dPhimin_RCjets" Expression="dPhimin_RCjets"/>
          <Input Type="Variable" Label="RCMV0_nconsts" Expression="RCMV0_nconsts"/>
          <Input Type="Variable" Label="RCMV0_pt" Expression="RCMV0_pt"/>
        </Input>
        <Output NOutputs="20">
          <Output Type="Variable" Label="meff" Expression="meff"/>
          <Output Type="Variable" Label="RCjet2_pt" Expression="RCjet2_pt"/>
          <Output Type="Variable" Label="leptop_pt" Expression="leptop_pt"/>
          <Output Type="Variable" Label="RCjets_n" Expression="RCjets_n"/>
          <Output Type="Variable" Label="RCMHiggs0_pt" Expression="RCMHiggs0_pt"/>
          <Output Type="Variable" Label="dPhiavg_RCjets" Expression="dPhiavg_RCjets"/>
          <Output Type="Variable" Label="mvlq1_RCTTM_drmax" Expression="mvlq1_RCTTM_drmax"/>
          <Output Type="Variable" Label="RCMHiggs0_nconsts" Expression="RCMHiggs0_nconsts"/>
          <Output Type="Variable" Label="RCMHiggs0_nbconsts" Expression="RCMHiggs0_nbconsts"/>
          <Output Type="Variable" Label="dRmin_RCMTT" Expression="dRmin_RCMTT"/>
          <Output Type="Variable" Label="dRmin_RCjets" Expression="dRmin_RCjets"/>
          <Output Type="Variable" Label="mvlq1_rcj_drmax" Expression="mvlq1_rcj_drmax"/>
          <Output Type="Variable" Label="mtbmin" Expression="mtbmin"/>
          <Output Type="Variable" Label="met" Expression="met"/>
          <Output Type="Variable" Label="bjets_n" Expression="bjets_n"/>
          <Output Type="Variable" Label="dPhimin_RCMTT" Expression="dPhimin_RCMTT"/>
          <Output Type="Variable" Label="dRavg_RCjets" Expression="dRavg_RCjets"/>
          <Output Type="Variable" Label="dPhimin_RCjets" Expression="dPhimin_RCjets"/>
          <Output Type="Variable" Label="RCMV0_nconsts" Expression="RCMV0_nconsts"/>
          <Output Type="Variable" Label="RCMV0_pt" Expression="RCMV0_pt"/>
        </Output>
      </Selection>
      <Class ClassIndex="0">
        <Ranges>
          <Range Index="0" Min="1.1955372314453125e+03" Max="7.0833134765625000e+03"/>
          <Range Index="1" Min="2.0008181762695312e+02" Max="1.3186612548828125e+03"/>
          <Range Index="2" Min="-1.0000000000000000e+02" Max="3.4201081542968750e+03"/>
          <Range Index="3" Min="3.0000000000000000e+00" Max="7.0000000000000000e+00"/>
          <Range Index="4" Min="0.0000000000000000e+00" Max="2.5820068359375000e+03"/>
          <Range Index="5" Min="7.3843473196029663e-01" Max="2.0943951606750488e+00"/>
          <Range Index="6" Min="-1.5254321289062500e+03" Max="3.6876545410156250e+03"/>
          <Range Index="7" Min="0.0000000000000000e+00" Max="2.0000000000000000e+00"/>
          <Range Index="8" Min="0.0000000000000000e+00" Max="4.0000000000000000e+00"/>
          <Range Index="9" Min="2.0064905285835266e-01" Max="4.3891434669494629e+00"/>
          <Range Index="10" Min="6.0747377574443817e-02" Max="3.2259054183959961e+00"/>
          <Range Index="11" Min="-1.5254321289062500e+03" Max="4.3227709960937500e+03"/>
          <Range Index="12" Min="4.3191338772885501e-04" Max="1.4242314453125000e+03"/>
          <Range Index="13" Min="5.8208022117614746e+00" Max="1.9499426269531250e+03"/>
          <Range Index="14" Min="3.0000000000000000e+00" Max="9.0000000000000000e+00"/>
          <Range Index="15" Min="6.9957971572875977e-04" Max="3.1415469646453857e+00"/>
          <Range Index="16" Min="1.4325251579284668e+00" Max="3.6407668590545654e+00"/>
          <Range Index="17" Min="1.5711784362792969e-04" Max="2.0832316875457764e+00"/>
          <Range Index="18" Min="0.0000000000000000e+00" Max="2.0000000000000000e+00"/>
          <Range Index="19" Min="0.0000000000000000e+00" Max="2.4583303222656250e+03"/>
        </Ranges>
      </Class>
      <Class ClassIndex="1">
        <Ranges>
          <Range Index="0" Min="1.0007340698242188e+03" Max="7.9303334960937500e+03"/>
          <Range Index="1" Min="2.0000210571289062e+02" Max="1.6384431152343750e+03"/>
          <Range Index="2" Min="-1.0000000000000000e+02" Max="2.0879887695312500e+03"/>
          <Range Index="3" Min="3.0000000000000000e+00" Max="7.0000000000000000e+00"/>
          <Range Index="4" Min="0.0000000000000000e+00" Max="2.7407971191406250e+03"/>
          <Range Index="5" Min="5.4095596075057983e-01" Max="2.0943951606750488e+00"/>
          <Range Index="6" Min="-1.3470058593750000e+03" Max="5.0484208984375000e+03"/>
          <Range Index="7" Min="0.0000000000000000e+00" Max="2.0000000000000000e+00"/>
          <Range Index="8" Min="0.0000000000000000e+00" Max="4.0000000000000000e+00"/>
          <Range Index="9" Min="4.9320701509714127e-02" Max="4.9260902404785156e+00"/>
          <Range Index="10" Min="4.9320701509714127e-02" Max="3.4942989349365234e+00"/>
          <Range Index="11" Min="-1.8674587402343750e+03" Max="5.0484208984375000e+03"/>
          <Range Index="12" Min="3.8630756898783147e-04" Max="6.0649291992187500e+02"/>
          <Range Index="13" Min="1.0233315229415894e+00" Max="1.7546109619140625e+03"/>
          <Range Index="14" Min="3.0000000000000000e+00" Max="8.0000000000000000e+00"/>
          <Range Index="15" Min="1.9025802612304688e-04" Max="3.1415693759918213e+00"/>
          <Range Index="16" Min="1.1679357290267944e+00" Max="3.8016073703765869e+00"/>
          <Range Index="17" Min="5.4597854614257812e-05" Max="2.0919482707977295e+00"/>
          <Range Index="18" Min="0.0000000000000000e+00" Max="2.0000000000000000e+00"/>
          <Range Index="19" Min="0.0000000000000000e+00" Max="2.6651870117187500e+03"/>
        </Ranges>
      </Class>
      <Class ClassIndex="2">
        <Ranges>
          <Range Index="0" Min="1.0007340698242188e+03" Max="7.9303334960937500e+03"/>
          <Range Index="1" Min="2.0000210571289062e+02" Max="1.6384431152343750e+03"/>
          <Range Index="2" Min="-1.0000000000000000e+02" Max="3.4201081542968750e+03"/>
          <Range Index="3" Min="3.0000000000000000e+00" Max="7.0000000000000000e+00"/>
          <Range Index="4" Min="0.0000000000000000e+00" Max="2.7407971191406250e+03"/>
          <Range Index="5" Min="5.4095596075057983e-01" Max="2.0943951606750488e+00"/>
          <Range Index="6" Min="-1.5254321289062500e+03" Max="5.0484208984375000e+03"/>
          <Range Index="7" Min="0.0000000000000000e+00" Max="2.0000000000000000e+00"/>
          <Range Index="8" Min="0.0000000000000000e+00" Max="4.0000000000000000e+00"/>
          <Range Index="9" Min="4.9320701509714127e-02" Max="4.9260902404785156e+00"/>
          <Range Index="10" Min="4.9320701509714127e-02" Max="3.4942989349365234e+00"/>
          <Range Index="11" Min="-1.8674587402343750e+03" Max="5.0484208984375000e+03"/>
          <Range Index="12" Min="3.8630756898783147e-04" Max="1.4242314453125000e+03"/>
          <Range Index="13" Min="1.0233315229415894e+00" Max="1.9499426269531250e+03"/>
          <Range Index="14" Min="3.0000000000000000e+00" Max="9.0000000000000000e+00"/>
          <Range Index="15" Min="1.9025802612304688e-04" Max="3.1415693759918213e+00"/>
          <Range Index="16" Min="1.1679357290267944e+00" Max="3.8016073703765869e+00"/>
          <Range Index="17" Min="5.4597854614257812e-05" Max="2.0919482707977295e+00"/>
          <Range Index="18" Min="0.0000000000000000e+00" Max="2.0000000000000000e+00"/>
          <Range Index="19" Min="0.0000000000000000e+00" Max="2.6651870117187500e+03"/>
        </Ranges>
      </Class>
    </Transform>
  </Transformations>
  <MVAPdfs/>
  <Weights>
    <Layout NLayers="6">
      <Layer Index="0" NNeurons="21">
        <Neuron NSynapses="30">
          -3.6715371071673446e+00 1.3206218686805226e+01 3.6374446206655158e+00 8.3892692583389792e+00 -9.8522166179313402e+00 -7.9964712464307963e+00 -9.6024097131952779e-01 3.7455199593693695e+00 -6.9562486985728555e-01 -1.1279977978896103e+00 -1.0264519347895394e+01 1.4570841730869419e-01 -2.7588531922203114e+00 -1.1078017426384641e+00 -1.0555368108090011e+00 3.1332862915521931e+00 -3.5285481825677976e+00 4.1122942505780741e-01 1.5710626292231271e+00 6.0881948021968080e-01 -6.5547261596126963e-02 -8.0432256314726764e+00 6.2904580372868972e+00 2.5090014338060800e+00 -1.2986189929580751e+00 -3.8347557337785743e-01 3.7406073588641267e+00 -3.3299170011044068e+00 -4.6800996632178782e+00 -7.9464401236520110e-01 
        </Neuron>
        <Neuron NSynapses="30">
          -9.8179847802240128e-01 1.1962968275114239e+00 -2.1168760832668027e-01 1.7657976168932181e+00 -4.0779529204573706e+00 -4.1618455563365639e+00 -1.5448713881620848e+00 5.1986459249129577e+00 -2.6945739932813906e+00 3.1314599635371465e-01 5.8153315987631382e+00 8.0502613994804539e-01 5.0148134414062522e+00 4.9704522877229405e+00 6.3746275816172052e-02 6.4251268541428963e-01 4.8444903920679501e+00 -7.7197100064348190e-01 3.7006787588737583e-01 7.0946855514927503e+00 -1.2547382179302167e+00 6.7221885396859604e-01 1.4719173495218998e+00 -2.3954556712892576e+00 -2.0345139849504377e+00 -1.9194737619128326e+00 8.6748161501642662e-01 1.2107168906083181e+00 4.7382329250462076e+00 4.2274001083200324e-01 
        </Neuron>
        <Neuron NSynapses="30">
          -4.4630415014197222e+00 3.7080470302077839e+00 -1.5247744148292981e+00 9.5385173694439351e-01 4.9103482749638099e+00 2.3039970947520808e-01 6.3862813033081625e-02 -3.1903008043902621e+00 -1.7551316530052756e+00 -1.4526366801695372e+00 3.7962646554989810e-01 -1.1451662074608726e+00 2.4052059102974863e+00 -3.2898624768609885e-01 2.0940848922356983e+00 -4.6932943815510636e-01 -3.5749519948133970e+00 -5.6720761526698320e+00 5.3774957231314655e+00 1.4001265557204039e+00 1.0566263436385230e+00 -4.0432264627111109e-01 -3.1344680904143285e+00 -9.0071512531636788e-01 -9.5938412687690944e-01 -2.7113663199436373e+00 -2.4375891403597745e+00 4.5115370457935802e+00 -4.4361979749479454e+00 -7.3867530200305920e+00 
        </Neuron>
        <Neuron NSynapses="30">
          -2.9742950803390107e+00 -2.3035784143813278e+00 1.6815365938005158e+00 -1.2423780889317530e-01 -1.9235582656991694e+00 6.9100738521337428e+00 -9.8172781125249231e-01 -1.2622787187519440e+00 -2.1859374894685249e-01 -3.2009808014829066e-01 -3.9155383321918840e+00 -1.4811417678552945e+00 -2.9668213476146921e+00 6.4078854708415472e-05 -1.3169578907911386e+00 2.3022517516626313e+00 -9.0852605320477797e-01 2.9312249233853733e+00 -3.3556634950977373e+00 -1.3333049365449063e+00 -6.4678809371680295e+00 -3.3639688954587821e-01 4.5654342562365953e+00 -1.1628680858114286e+00 -1.6399745123620106e+00 3.2228266446998299e+00 -3.6815055723414697e-01 2.2946510882855433e+00 4.3327135985788461e+00 -2.7939990093666092e+00 
        </Neuron>
        <Neuron NSynapses="30">
          -7.6002146673924988e+00 6.1895213422950786e+00 1.1456067502508251e+00 3.0252481198701613e+00 2.8679913556779604e+00 1.7057235013348424e+00 -4.6449740009591084e-01 -3.1700300763458893e+00 -8.6243892910375619e-01 2.0368081816141917e-01 -4.6918373455380297e-01 -1.3562297899442930e+00 3.3377128513375762e+00 -1.1523601505338203e+00 3.3935273304120189e-01 3.7718867982846906e+00 -6.2366119728567211e-02 -6.9153675002290527e-01 8.0894131504003985e-01 7.0484010902326455e-01 2.4208387164314793e+00 9.1949496617263093e-01 -4.3465986773807535e+00 -1.8970649986574664e+00 -1.6811174461213576e+00 1.1913880355663402e+00 1.5796944106413537e+00 2.6451594117884070e+00 -2.5574486966223655e+00 5.3256243779782797e-01 
        </Neuron>
        <Neuron NSynapses="30">
          -4.0632494535900552e+00 5.7508630894236512e-01 1.7579120098461187e+00 1.1902805529303306e+00 2.2714436438496248e+00 1.7094085107451222e+00 1.1267983551131973e+00 8.9595460853517406e-01 2.8919177847015511e+00 -7.0634387157635070e-01 1.6035574725398578e+00 4.7563207464874341e-01 -1.5348329535475747e+00 -2.0132249413968006e+00 1.5996406587663278e-01 2.6354061468520204e-03 -2.4656273604147487e+00 3.7790039901198065e+00 -1.9622917656379446e+00 -1.6446708345244383e+00 2.4584230847848403e+00 1.7976590839257545e+00 -2.0527383914391151e+00 1.3503831509020583e+00 2.2907139836488679e+00 -3.0089348029415239e+00 4.6335007090797475e-01 4.2744065329557648e+00 -1.6272045254931375e+00 -1.3938965456760493e+00 
        </Neuron>
        <Neuron NSynapses="30">
          4.6752592569903340e-01 -9.4291710013985863e-01 2.0252502504351453e+00 -3.4622441574980489e+00 -1.8210133040549811e-01 -3.5329052801929652e+00 2.7095517338806957e-01 1.8215357742466556e+00 -8.3761452618219057e-01 -9.8792602994754808e-01 2.7112524522839165e+00 1.6319187250982485e+00 1.2250005799409383e+00 3.2962730785885097e-01 -8.2754921297060380e-01 1.8792658724609507e-01 -1.3449439706997153e+00 1.5415490146133677e+00 1.5863335628163127e+00 1.7539589995173619e+00 -5.1655274689236241e-01 1.0246656730939874e+00 -3.1389585495525657e-01 -3.4913571609355678e+00 1.4029326571109060e+00 -2.1425059448060439e+00 -1.1663389713505870e+00 1.6928704850883789e+00 -1.2418623329285519e-01 4.9773903216323889e+00 
        </Neuron>
        <Neuron NSynapses="30">
          7.9522732761547144e-01 1.7331693446720983e-01 -1.5286448939946999e+00 -5.9204675660926831e-01 1.6116519174940345e+00 3.6246195638315979e+00 6.7196094350394020e-01 1.7337380492873209e+00 5.5771478614334464e+00 -8.8802488811735136e-01 -2.2090964866765099e+00 1.5505046875508117e-02 1.7416972547341958e+00 2.1935044807064887e+00 3.4114467465186333e+00 -2.9234288211882808e+00 1.2504563445307211e+00 2.2709651140000953e-01 -6.3113743336071391e+00 -5.9581928235899371e+00 -2.1015595428588019e-01 1.5778740088822724e-01 3.8673145088661460e+00 1.5295140167202590e+00 1.2044953686734123e+00 -2.3765384706634065e+00 5.0023980964979375e-01 -6.3699747822710029e-01 -4.4828245072216921e+00 -7.1717163644090232e-01 
        </Neuron>
        <Neuron NSynapses="30">
          -3.5798368322139109e+00 -1.7557603178955627e+00 -3.1861975394888784e+00 1.4059746701292852e+00 4.3147535982218937e-01 -1.2073309264518606e+00 -1.1909670677654267e+00 -1.2229788893523612e+00 -1.6993722413568415e+00 -1.3097095642879879e+00 -2.4285778110375777e+00 -2.7028539261453526e+00 3.9932187828714127e-01 6.6224058954878160e+00 2.5919442514272970e+00 -8.0126405595638572e-01 -5.8624954773416071e+00 1.2927886069378522e+00 2.0088215894463555e+00 -3.5491963279871759e+00 6.5453625678039771e+00 4.7374786387652561e+00 2.0847150332751676e+00 -2.7766032333165374e+00 -3.6382297709967459e-01 3.5978237435805762e+00 5.2579804679593591e-02 -1.2546590382549827e+00 4.0014499920208593e+00 -1.1360263620091309e+00 
        </Neuron>
        <Neuron NSynapses="30">
          -4.6912050847808224e+00 -1.5707638871261023e+00 2.6447442711397877e+00 1.7802346795353350e+00 -3.9319357790453244e+00 1.0802814281382149e+00 1.4473295072145975e+00 3.0313389208079200e+00 2.7048976503811244e+00 -6.3399437047358820e-01 7.5987158359520244e+00 8.1176796782657890e-01 -9.4615827807940769e-02 8.4730552955960270e-01 -4.3275693395959068e-02 -2.6419170729655064e+00 -4.6177676610851410e+00 4.8042842264819852e-01 1.3207384868926864e+00 6.4275994378821295e+00 -4.8951153116416082e+00 6.5118480197576628e-02 -4.3575041938542789e+00 1.1510816159345942e+00 7.8398630614605846e-01 -3.4819945261035818e+00 -1.9714353075783280e+00 5.4796205486988310e+00 -2.2936399906446820e+00 -1.2749410588756200e+00 
        </Neuron>
        <Neuron NSynapses="30">
          -5.2046781221593683e+00 -3.9109517121495494e+00 1.2413641288435564e+00 -4.9177983893541688e+00 1.4405078782583742e+00 1.7308632159634425e+00 -1.1323854893393903e+00 -4.4169989282722462e+00 -6.1182678922303682e+00 -1.5107318904638531e+00 1.5119745700147706e+00 -4.6749891344811650e-01 9.6507661819956669e-01 4.1371874743832073e+00 -1.3156266911650956e+00 8.2388034969729773e-01 3.3426400912923571e+00 1.3821621509680604e+00 2.9434248895032726e+00 2.7820785212364290e+00 -3.3549022759559826e+00 -1.4138508172854598e+00 2.7780563131268909e-01 -1.9354214387183206e+00 5.1276914520538441e-01 1.0558363033551965e+00 5.2820171428633964e+00 1.9382417397612643e+00 -2.1705870221457690e+00 7.6191782057304502e-01 
        </Neuron>
        <Neuron NSynapses="30">
          -4.5929080109156200e+00 -1.3825045563512732e+00 -3.0470819598084647e-01 1.3788852071917905e+00 -3.6556873530391090e+00 -1.1012869063704929e+00 3.1584292147377419e-01 2.5450445196508888e+00 2.7051146861488651e-01 -3.1320013209531256e-01 -2.5301356844043257e+00 5.6801803979827314e-01 3.4415221264821447e+00 -5.3509879767626547e+00 -1.7557201544374710e+00 -2.2943474665298733e-03 3.7288632192408069e+00 1.0886627069208570e+00 -1.3944183413452576e+00 -1.0843017651347200e+01 -2.1132344897691260e+00 1.6372658089100636e+00 5.8487964257306837e+00 3.9682131417351263e-01 -9.7434705312572101e-01 -2.6736122993925582e+00 -1.8955420089368364e+01 -1.1915458849607097e-01 -1.2513652866165614e+00 -4.9219310706569299e+00 
        </Neuron>
        <Neuron NSynapses="30">
          6.0589670995358302e-01 1.0630259525732664e+00 1.5707970705917593e-01 -7.4826746902627770e+00 2.5007452404599260e+00 -2.7062685793726917e+00 -1.8305133232420714e+00 -1.9994149790092368e+00 -1.7110494709326403e+00 -2.5030509983768687e+00 2.6471635556219204e+00 -1.1292887690931011e+00 -1.4208671946302049e+00 4.4442937856265132e+00 1.5845545843564173e+00 -2.5040872237063265e+00 2.0997827638470530e+00 1.6283431446384217e+01 5.4871182239031868e-01 6.9041166444418267e-01 -2.4196431807085141e+00 -6.0852620150579275e+00 -2.9284077022958135e+00 2.4985054634864650e+00 4.6099967831082195e-01 -1.5307809776486733e-01 6.4491930523924585e+00 5.8930851973887433e-01 3.1825831359351699e+00 -4.0720791060200936e+00 
        </Neuron>
        <Neuron NSynapses="30">
          7.3435779818680151e+00 4.4769281848984690e+00 -1.5800303326836413e+00 -5.0434885027264151e+00 -4.3700746002551369e+00 3.1858538258569977e-02 3.6745095696260277e-01 5.8636347919081588e+00 1.3764867004030462e-01 -1.0400883222336754e+00 1.4634159003972043e+00 2.4493768156781699e+00 -1.9060266156305978e+00 -1.9531091732444561e+00 9.9276246139428570e-01 1.2861512794413659e+00 -1.6769267604816451e+00 2.4537093640983789e+00 -3.5164170540188766e+00 -7.2281155186411207e-03 4.5149975607161918e-01 -4.9050087764400914e+00 -1.4648881840701089e+00 4.3422150189962178e-02 -9.7396531344368972e-02 -1.6085449550498316e+00 3.8444628458267665e+00 4.9944665773856185e+00 5.8012765362847407e+00 3.3854583758684087e+00 
        </Neuron>
        <Neuron NSynapses="30">
          -2.7019829670500779e+00 1.2724757735723706e+00 9.6899460321216957e-01 -4.5268567414774301e+00 -2.8871690375592314e+00 1.4675487445221855e+00 -1.6897085747793625e+00 -1.4135850535136338e-01 -2.9135499188029912e+00 -1.9346336975092995e-01 -1.7227519911524927e+00 -9.7273670585877670e-01 -1.0537267255795071e+00 1.5967131417352527e+00 2.7353503169898907e+00 5.7944336594938735e+00 -1.3439813883440572e+00 -2.9351025676898619e+00 -3.7195529604655047e+00 8.5996814343873507e-01 2.3162076195295698e+00 -2.6182093069156696e+00 -1.4140826365307164e+00 -2.5300813033420013e+00 -1.9481627935947188e+00 2.6504711857154852e+00 -1.4109607912110356e+00 -3.5664549520084274e+00 -2.2559943687583890e+00 -3.5702859171055032e+00 
        </Neuron>
        <Neuron NSynapses="30">
          1.6806511851222257e+00 5.2254929779517578e-01 -1.6822762157206933e-01 -1.8447499396111242e+00 2.7188115960923098e+00 -8.9153149797328524e-01 1.3753894313611110e+00 -4.1048962545745198e+00 1.0144097766711655e+00 7.2866996257339156e-01 4.5464974880821041e-01 -7.4478395762470506e-01 1.7664397636345178e-01 9.4940735405849286e-01 -1.3920168768989452e-01 -7.0342442811195105e-01 -8.3342108410946436e-01 5.3901569455770360e-01 -9.5052105157390465e-01 3.1560509879662013e+00 -3.4201655933432069e+00 -1.1246041358017482e+00 3.7864905660920756e+00 3.0903958810421730e+00 4.4458095740959380e-01 -1.5269774407193633e+00 2.0945921826395115e+00 -2.5186745582769463e+00 1.6927151794316766e+00 -1.3291003915560329e-01 
        </Neuron>
        <Neuron NSynapses="30">
          -5.3602995258041564e-01 7.7747508290791680e+00 2.5571641262934377e+00 9.9652712479426597e+00 -6.9783481950316173e-01 -9.8472514050750382e-01 -1.3298813007382251e+00 -6.4177410400345158e-01 3.3081453870161304e+00 7.0941380324845826e-01 -1.1598348755948562e+00 -9.7892489869267962e-01 -6.2176161179410503e+00 -4.2496806322063367e+00 -3.0508252529696123e-02 -5.4480173327172376e-01 5.0755741606887010e+00 -4.0723750031720923e-01 6.2292325469630434e+00 -6.5582325334908331e-01 -6.9012794375166786e+00 1.5305917416738883e+00 -5.3444839319746140e-01 3.0998753346028725e+00 -5.9028939612301001e-01 -1.8154569056573533e+00 -4.2764963684176900e+00 -1.8294709200018480e+00 1.2997684021420011e+00 -1.3763137463184809e+00 
        </Neuron>
        <Neuron NSynapses="30">
          1.9776846057907300e+00 -6.2075781871973124e-01 3.0428582318404254e+00 2.1873509355500973e+00 1.5720369710665305e+00 -2.5720715753474481e+00 -8.4004211518406946e-01 2.0257118225840158e+00 9.1676932358139318e-01 -1.0572883550158516e-01 9.0810699552046559e-01 -2.1604586480319519e+00 6.3342726514372327e-01 -7.0724407130794456e+00 -2.1970289515779107e-01 1.1483759933820517e+00 9.6376461820120296e-01 5.5364752235772807e-01 1.1952040850493781e+00 -3.4600579675625349e+00 -1.2641366242744664e-01 -3.0362949692716987e+00 2.7811572152498174e+00 -1.4210892607813723e+00 -4.3774147701984345e-01 -1.2733525549564757e+00 -9.4759376630540704e-01 5.1591342031304099e-01 -1.6959384318790542e+00 -1.8302131404176059e+00 
        </Neuron>
        <Neuron NSynapses="30">
          -6.8568914184519658e-01 -5.5995780447042309e-01 4.4192264020877425e-01 1.8457666008341425e+00 1.6986179622840103e+00 6.2750820570005017e-01 -3.3542079288817334e-01 -1.5266275742070818e+00 5.3184531615536397e+00 -4.2103029125235764e-01 3.3365872923757305e+00 -1.6500767667063534e-01 3.6683217356121878e-01 -2.1541973972410871e+00 3.5901996182582501e+00 -3.1834812405592179e+00 1.5809220833289355e+00 -9.8876222172142647e-02 1.1123998479200251e-01 -1.2852859980935066e-01 1.3197643976091962e+00 1.8605120357195057e+00 6.3951974692511993e+00 -5.9985382399844911e-01 8.2750406256997894e-02 3.6562787966144628e-01 1.1677893706185810e-01 -7.3713940469823003e+00 -5.0872763017603884e+00 -1.2925423338839757e+00 
        </Neuron>
        <Neuron NSynapses="30">
          3.0757935553871252e+00 -5.1525355669330453e-01 -1.1729712887968213e+00 -1.9210799954920479e-01 1.8985084126247582e+00 1.2366175594671043e+00 1.6612763164676814e-01 -1.9696441821551820e+00 2.4950168864877762e+00 -2.1051733994293476e+00 3.3631018955255954e+00 1.0784381010040626e-01 4.1203862501039348e+00 -5.0478658416908955e+00 2.9027619387124785e-02 -7.1585690513814528e+00 -3.4459990936884761e+00 -6.0993601931639529e-01 -2.2847296464202773e+00 2.2817013180591799e+00 -7.4019543424398215e-01 5.8642456933421743e+00 -2.4171110784828764e+00 2.0083856316720676e+00 -2.3922103801666368e+00 -1.0936251663091598e+00 -2.0763818577894905e-01 -5.9140574948509581e+00 -6.7791142695468638e+00 3.7621516801756401e+00 
        </Neuron>
        <Neuron NSynapses="30">
          -9.0642926699318398e+00 2.0823332877729637e+01 2.7391791330688982e+00 -8.0849039540136225e+00 -1.1510127201074235e+01 -3.3591592697611632e+00 4.3954639043014271e-01 -7.6657906537840359e-01 -5.2272864900191145e+00 8.8712325028864258e-01 -2.0238644446212977e+00 1.1550338967949585e+00 1.5288313025443048e-01 4.2979874660446828e+00 -1.5147930566936085e+00 9.0295193022388602e+00 -8.2428557722671876e+00 6.1303445952761626e+00 -2.6617374615214247e+00 -2.7793016214861694e+00 1.9982351606376230e+00 -5.4537764931731454e+00 5.7198974506828204e+00 -2.9081117838079003e+00 -3.2405809396769358e-01 -2.8399178771080180e+00 8.0366871376520210e-01 -3.8695965155129577e+00 -4.1367093849287171e+00 -4.4956232791917659e+00 
        </Neuron>
      </Layer>
      <Layer Index="1" NNeurons="31">
        <Neuron NSynapses="10">
          -1.8876035227817151e-01 -6.6849037107650555e-01 1.8225415584884177e+00 -1.4717719160851499e+00 3.4024668614465883e+00 -3.2610674198948297e-01 -3.0511688567373041e-01 2.3181658259798592e+00 9.5971029435357691e-01 -3.8944889147605761e+00 
        </Neuron>
        <Neuron NSynapses="10">
          2.1644423740324710e+00 -1.3318678279205303e+00 3.8995246984292318e+00 1.9841675182486107e-01 -4.7447505133979151e+00 -9.5401332899659175e-01 -3.5817771951964743e+00 -9.3858779549483573e-01 -6.7336439129918197e+00 3.2788670218740772e+00 
        </Neuron>
        <Neuron NSynapses="10">
          1.5190958713076891e-01 -1.1487092288435430e+00 -2.4464973821177587e+00 -5.9759762513739811e-01 5.0172605800999925e-01 7.6618143040132647e-01 -2.2257119502307208e+00 -8.2183530989009039e+00 7.6726992480145573e-01 3.3903394256697528e+00 
        </Neuron>
        <Neuron NSynapses="10">
          1.4096944773173867e+00 1.9503174337428606e+00 2.9639168868816710e+00 -7.6082112578410088e-01 2.2622468844196284e+00 -1.9452796848548282e+00 6.3685849304118207e+00 4.9803608189125264e+00 9.2296440015668013e-01 4.7018813496728225e+00 
        </Neuron>
        <Neuron NSynapses="10">
          -1.6036453842901650e+00 -8.2912622641273670e-01 -5.9701209317409465e-01 -1.9223072326055596e-01 4.6781609774197062e+00 -2.2021990969584571e+00 4.0680893541603016e+00 -3.2441385880440303e+00 4.6229460201818900e-01 -6.6571330297777918e+00 
        </Neuron>
        <Neuron NSynapses="10">
          1.7305076807582631e+00 6.3887108080496102e-01 1.3260153219342270e+00 -1.3401243763084634e+00 1.5734040412823502e+00 3.8060010912875503e-01 1.6044530269812054e+00 1.4848699487703123e+00 -2.6690037934490669e+00 -4.9547171581757716e+00 
        </Neuron>
        <Neuron NSynapses="10">
          3.5711289637510335e-01 8.7509421688069533e-01 -3.2987857227209250e-01 9.4158133832254542e-01 5.7298830833416037e-01 -6.3031838266709417e-01 -1.8456005973005540e-01 2.6000973960638601e-01 -1.0691204700837791e+00 2.4816145513302499e+00 
        </Neuron>
        <Neuron NSynapses="10">
          -1.0075429749657501e+00 1.8942282302694817e+00 -1.0592834504415425e+00 -4.7951168709406849e-01 -3.1584502558955934e+00 -5.7343468780493823e-01 -2.5263053613403876e+00 -1.4930787476841250e+00 -3.6450523673833157e-01 3.9415502681728460e+00 
        </Neuron>
        <Neuron NSynapses="10">
          -7.6724790886762129e-01 1.2280067452574550e+00 2.4208761127384459e+00 -1.4492663529205888e-01 3.4510178741007360e+00 3.1732041101733432e-04 1.2045443694527254e+00 7.0726268795880998e-01 3.6996484022822202e+00 -5.2365580935140066e-01 
        </Neuron>
        <Neuron NSynapses="10">
          -1.0314493798082094e+00 1.8543881436644494e+00 -2.5148105807252508e+00 -6.5999450144803218e-01 1.7018053518454048e+00 -3.2432989299136503e-02 -1.1039437718491683e+00 -5.4782805863666373e-01 2.4235473200434816e+00 3.3720683722198541e+00 
        </Neuron>
        <Neuron NSynapses="10">
          1.1990711303832120e+00 -1.2366334792067055e+00 1.1805546032886582e+00 1.8624568407227871e+00 3.8558307349802567e+00 6.4050315994098894e-01 4.3421552272636452e+00 -8.2514427839591964e-01 -2.1480868065476821e+00 -6.8501483407638730e+00 
        </Neuron>
        <Neuron NSynapses="10">
          -9.0641151864443292e-01 1.5321360619728519e+00 -3.0281476716945135e+00 9.8807751879681008e-02 -1.6352458938743759e+00 5.2429564823233840e-02 -3.8186135817683770e-01 6.8752732176424147e-01 -1.7119932720133670e+00 1.3383218819030236e+00 
        </Neuron>
        <Neuron NSynapses="10">
          -6.2721018564240161e-01 9.0334927172776436e-01 -1.2028599293945430e+00 1.2723946323201198e+00 1.3791959806272787e+00 -1.1172099826226511e-01 -1.3800472661827772e+00 -2.2366457627500784e+00 -6.8568270119521593e+00 -7.5015514195975541e-01 
        </Neuron>
        <Neuron NSynapses="10">
          -2.1151997919404657e+00 2.3308568286646286e-01 -7.8354401969606380e-01 -1.1994871016473141e+00 9.1010888685630835e+00 5.5148497728071989e-02 -4.5457802842335413e+00 -3.4556954480395858e+00 -2.7574207910644541e+00 1.8886372415937844e+00 
        </Neuron>
        <Neuron NSynapses="10">
          -9.2024522015458032e-01 5.8745794311764510e-01 -1.3030445026699746e+00 1.5083021022852980e+00 8.2500273589962936e-01 -1.3296427404036468e+00 -3.7003326599145061e+00 1.8467364355198329e-01 -2.5743732296698827e+00 3.6427273885708664e+00 
        </Neuron>
        <Neuron NSynapses="10">
          -1.2989389129121698e+00 8.4255928835013116e-01 1.0292396313976526e+00 -8.3212011578519851e-01 -2.0958589920414434e+00 8.7979066362012581e-02 -7.5443822621534045e+00 -5.6259103954460183e+00 -3.7993243542931325e+00 -1.7117966735205374e+00 
        </Neuron>
        <Neuron NSynapses="10">
          4.4593712938857752e+00 -1.4559252773881455e+00 3.0125124127675189e+00 4.4663389977700013e-01 4.2678867847516138e+00 1.0668869067854823e+00 -7.4403799967434392e-01 2.7672238862499086e+00 9.8997285820975711e-01 7.9536833786621219e-01 
        </Neuron>
        <Neuron NSynapses="10">
          1.3517881444856634e+00 1.0268355833861238e+00 1.1355300541439057e+00 -1.7826795951445604e+00 9.8249055213086833e-01 3.3310423765935360e-01 -2.7774403918646491e+00 -6.3111396386895144e+00 -5.2102863110108313e+00 9.0622399910866864e+00 
        </Neuron>
        <Neuron NSynapses="10">
          2.3456260474032038e+00 -1.7532415346325578e+00 6.4276985143446108e-01 1.8956872327002830e-01 -3.6520814345106505e+00 5.2443498809048772e-01 -3.5905781362984102e+00 6.9449384504909037e+00 1.9599923081117925e+00 -2.5651619189798072e+00 
        </Neuron>
        <Neuron NSynapses="10">
          -2.1184556212793120e+00 1.3528238374101833e+00 1.6124374291566714e+00 -1.7964743712429352e+00 7.6854623891302980e+00 -3.8677282577977234e-01 2.1782533105414643e+00 -3.7348616411696928e-01 2.6054767647232430e-01 6.3318249143258187e+00 
        </Neuron>
        <Neuron NSynapses="10">
          -1.5231977811374988e+00 1.6932106741970290e+00 9.8107534957599363e-01 -1.2819227606610795e+00 -1.7704188053921361e+00 1.1987502867100750e+00 -3.7693277586911667e-01 -2.1131142094159938e+00 -3.1270403787791872e+00 -4.7525938680005853e+00 
        </Neuron>
        <Neuron NSynapses="10">
          -9.9344221869914584e-01 1.0072745817452229e+00 -8.3760442619535702e-01 5.6442185130868372e-01 -5.9436933561354994e+00 5.3813367843548288e-01 3.6828193622571979e+00 2.0462840088324979e-03 3.8608344148764679e+00 -3.9931992901241382e+00 
        </Neuron>
        <Neuron NSynapses="10">
          -2.2615195099165577e+00 -4.3163723342768628e-01 -4.0607278210901212e+00 1.5877419789972642e+00 -3.4805583007508272e+00 1.4851881140652927e+00 -2.3818945323748335e+00 2.4055999691508547e+00 1.4632002315865114e-01 6.7120284030445969e+00 
        </Neuron>
        <Neuron NSynapses="10">
          -6.4918848702202747e-01 1.8782113264041265e+00 8.7543313964709280e-01 4.0151504048857761e-01 -4.2594546807686695e-01 2.9162218829434045e-01 5.7766915775899252e-01 1.1823618014703168e+00 4.9697200338949763e+00 1.5521328569518380e+00 
        </Neuron>
        <Neuron NSynapses="10">
          -6.4301027214225837e-01 1.1001780433741688e+00 4.5200779998977830e-01 1.8671226473235079e+00 -1.7861329717203225e+00 3.6653812093636945e-01 -3.8825781960336031e-01 -2.2273102058580654e+00 -7.4520463872876730e-01 3.0562980423920276e+00 
        </Neuron>
        <Neuron NSynapses="10">
          7.4951886578413496e-01 7.8514429431402422e-01 -1.7967723280555019e+00 3.5386394682566130e-01 1.6741840760482931e+00 -1.5137351217098256e+00 -3.2946474750045986e+00 2.0722793827526447e+00 5.7820340147226181e+00 2.9164086397390760e+00 
        </Neuron>
        <Neuron NSynapses="10">
          -6.5360034060957517e-01 1.5760033928235995e+00 2.6462685945462132e+00 7.3039010489446859e-02 -3.4991316753595756e+00 8.1667987496393590e-01 -3.7088839581946633e+00 -4.8266327448338249e+00 -1.3819358979142362e+00 2.3785406764488504e+00 
        </Neuron>
        <Neuron NSynapses="10">
          -8.3189468213154394e-01 1.2074809663918675e+00 9.7399834559315246e-01 8.0614401582694684e-01 6.5188469948278636e+00 3.8117324046081708e-01 6.3630926933602074e+00 3.6206230312414451e+00 6.3775907723923053e+00 -3.2153787324399818e+00 
        </Neuron>
        <Neuron NSynapses="10">
          3.8373262334775599e-01 -9.9050549000713706e-01 3.5934613985427002e+00 1.9075636326640932e+00 -4.3281478583315200e+00 5.1671423607027045e-01 -1.7581863741994610e+00 5.0409949082288579e+00 -3.4735681953207737e-01 -2.3961127321681395e+00 
        </Neuron>
        <Neuron NSynapses="10">
          -2.3359674730210211e+00 1.4528847396107631e+00 1.8660333043795174e-01 2.0546433808188582e+00 -4.1469794450144208e+00 1.1415006442974776e+00 4.5167022225826043e+00 3.6110014601705447e+00 3.3001597261262483e+00 5.4396374843735018e-01 
        </Neuron>
        <Neuron NSynapses="10">
          -1.0126124654702782e+00 -8.9138558422437963e-01 7.9076910014528257e-01 1.8591638116924363e+00 -8.5740564509865702e-01 9.5168863007474236e-01 -1.3225409987176235e+00 -5.6134412550244261e-01 -4.9211332642173679e-02 3.3509391122638590e+00 
        </Neuron>
      </Layer>
      <Layer Index="2" NNeurons="11">
        <Neuron NSynapses="10">
          1.8374228977408631e+00 -3.4579153837925491e+00 -2.4067904783557670e-01 2.2116517042895563e+00 -1.5137791170901613e+00 -1.9781500834605783e+00 -2.3990639740422197e-02 -1.8310151447331835e+00 9.1333105364152645e-01 2.8989353573428422e+00 
        </Neuron>
        <Neuron NSynapses="10">
          -1.2130236023048757e+00 -3.9614271497937703e-01 1.3123386563716120e+00 2.6932466250175846e-01 5.7229780499570015e-01 7.3876933712760351e-01 -6.8695218265532498e-01 -2.1723807478518662e+00 3.8741360832229543e-01 -1.6117073262813186e+00 
        </Neuron>
        <Neuron NSynapses="10">
          -2.9228435842528064e+00 3.1070279322450487e+00 3.2294268113870084e+00 1.6552064426364672e+00 -6.3955941488766233e-01 -2.3061520679609274e-01 7.7975204953060717e-01 2.0021830434096562e-02 2.1625749810869423e-02 1.0912529906711887e+00 
        </Neuron>
        <Neuron NSynapses="10">
          1.2953160090877247e+00 4.7654981977145494e-01 -5.1337574900129224e-01 -4.3588813380968533e-01 -2.9282921322534081e+00 1.8638349658516375e+00 1.6017000680999443e+00 -1.8227441226200023e+00 -2.9733549024839800e-01 5.7145508777792153e-01 
        </Neuron>
        <Neuron NSynapses="10">
          -1.1931851172166958e+00 1.6605757221478139e+00 3.6091225363148265e+00 8.8606673400747515e-01 -5.6108396485103706e-01 -7.9150572270504931e+00 -3.5235780449285437e+00 6.2887346827436630e-01 -3.0545974185453431e+00 -4.2342029845272684e+00 
        </Neuron>
        <Neuron NSynapses="10">
          2.1340519922799834e+00 1.9505536759524811e+00 2.2040522687737267e+00 6.6437261477940268e-01 5.2438035166348262e-01 -4.8387307885623182e-01 2.9523395476442147e+00 -3.3628764472023696e-02 -8.7673126008853197e-01 -2.1489205088778673e+00 
        </Neuron>
        <Neuron NSynapses="10">
          -4.3688355936842811e+00 -6.3195490378677572e+00 -2.7787822377242888e+00 1.4931983184532314e+00 -3.3287366457130014e+00 -2.1395675247706629e+00 -4.0838563991363586e+00 -2.1605997714239611e+00 1.3501981768690048e+00 8.0160133283516000e-01 
        </Neuron>
        <Neuron NSynapses="10">
          -3.2769154839972510e+00 3.8699597219835186e-01 2.6328526954616089e+00 -1.6515630243320751e+00 -3.9563552466898844e+00 -2.6554554529330074e+00 -4.5764494382847039e+00 -2.9132785609350256e+00 -3.9666226666574822e+00 5.3789336123124398e+00 
        </Neuron>
        <Neuron NSynapses="10">
          -8.2110289645768280e+00 -2.2960910350545065e+00 -1.7206805244181969e+00 -9.2212557709262222e-01 -8.0767159528560946e+00 -1.8362081871663707e+00 -3.6694942606709069e+00 -5.0799550699104516e+00 -4.3414237069249406e+00 -5.2062966365982388e-01 
        </Neuron>
        <Neuron NSynapses="10">
          5.6662565443691628e+00 -8.7100213661077464e-01 -1.0746825921015393e+00 -3.4932763854218059e+00 6.2648781102754281e-01 5.2786165497764710e+00 -7.1092469065833319e-01 3.2122847361402864e+00 5.6661672964278358e+00 -4.6167378418275513e+00 
        </Neuron>
        <Neuron NSynapses="10">
          1.8314260617311606e+00 1.8209728107940454e-01 7.9763073549153429e-01 -1.0472960062588559e+00 7.5582026404378033e-01 -6.7005981562885575e-01 2.7927353296454571e+00 2.0170378150252322e-01 6.4358179981208963e-01 -2.1413031014199629e-01 
        </Neuron>
      </Layer>
      <Layer Index="3" NNeurons="11">
        <Neuron NSynapses="5">
          -2.4358500252735147e+00 -8.4742917474891799e-01 -1.2285352743787723e+00 -3.1436822765761381e+00 -5.9475434827663038e+00 
        </Neuron>
        <Neuron NSynapses="5">
          -3.8130762314647138e+00 2.1046043188017247e-01 3.6886435806506603e+00 4.0771857993285981e-01 -1.9264681138260267e+00 
        </Neuron>
        <Neuron NSynapses="5">
          1.6377602751503322e+00 3.2835442634765061e-01 -1.3337339212371497e+00 3.4720231829824337e+00 3.0437940357568838e+00 
        </Neuron>
        <Neuron NSynapses="5">
          -1.8543541649238937e-01 2.3432754515133341e+00 -4.6634331438421012e-01 2.5771050042185211e+00 -4.7565514076344567e-01 
        </Neuron>
        <Neuron NSynapses="5">
          4.7530960272893392e-02 1.3431265797575725e-01 1.8128776653523719e+00 -5.3377264273321696e+00 -2.3032297588790471e+00 
        </Neuron>
        <Neuron NSynapses="5">
          -1.0660020124590399e+00 -4.2200782148370193e+00 3.6430978719722158e+00 -9.2906387411419544e-01 -1.5847353546074701e+00 
        </Neuron>
        <Neuron NSynapses="5">
          -5.4904810640680132e-02 -9.9157897407974793e-01 4.0601332900322555e+00 2.5403692844594405e+00 -2.3486873878797345e+00 
        </Neuron>
        <Neuron NSynapses="5">
          -7.8047590076505757e-01 -8.4356262192926312e-01 1.6750171954113653e+00 -3.2147764757339861e+00 -3.0414907575176797e+00 
        </Neuron>
        <Neuron NSynapses="5">
          -3.1798467016244638e+00 -3.1883954187392294e+00 1.0149975795029069e+00 -1.3240101753233673e+00 -4.2755050288269419e-01 
        </Neuron>
        <Neuron NSynapses="5">
          3.1996660416409770e+00 2.4447220738494999e+00 -3.5816217596848090e+00 -1.1662917216048749e+00 4.6264999963061071e-01 
        </Neuron>
        <Neuron NSynapses="5">
          -8.1326533024681813e-01 3.5664562240776781e-01 3.0482544223323832e-01 -1.1929015334672464e-01 2.2544235633143113e+00 
        </Neuron>
      </Layer>
      <Layer Index="4" NNeurons="6">
        <Neuron NSynapses="1">
          -3.0207879043242056e+00 
        </Neuron>
        <Neuron NSynapses="1">
          -1.7296737471345751e+00 
        </Neuron>
        <Neuron NSynapses="1">
          4.6698840766837408e+00 
        </Neuron>
        <Neuron NSynapses="1">
          -4.0926100556032283e+00 
        </Neuron>
        <Neuron NSynapses="1">
          -1.7869165261197923e+00 
        </Neuron>
        <Neuron NSynapses="1">
          -5.3926064791609739e-02 
        </Neuron>
      </Layer>
      <Layer Index="5" NNeurons="1">
        <Neuron NSynapses="0"/>
      </Layer>
    </Layout>
  </Weights>
</MethodSetup>
