<?xml version="1.0"?>
<MethodSetup Method="MLP::MLP_fold3">
  <GeneralInfo>
    <Info name="TMVA Release" value="4.2.1 [262657]"/>
    <Info name="ROOT Release" value="6.20/06 [398342]"/>
    <Info name="Creator" value="tfarooque"/>
    <Info name="Date" value="Wed May  3 12:42:41 2023"/>
    <Info name="Host" value="Linux aibuild16-017.cern.ch 3.10.0-1160.36.2.el7.x86_64 #1 SMP Wed Jul 21 11:57:15 UTC 2021 x86_64 x86_64 x86_64 GNU/Linux"/>
    <Info name="Dir" value="/data/at3/scratch2/farooque/DevPVLQ/VLQAnalysisFramework/run"/>
    <Info name="Training events" value="102733"/>
    <Info name="TrainingTime" value="3.27514557e+03"/>
    <Info name="AnalysisType" value="Classification"/>
  </GeneralInfo>
  <Options>
    <Option name="NCycles" modified="Yes">800</Option>
    <Option name="HiddenLayers" modified="Yes">30,10,10,5</Option>
    <Option name="NeuronType" modified="Yes">sigmoid</Option>
    <Option name="RandomSeed" modified="No">1</Option>
    <Option name="EstimatorType" modified="No">CE</Option>
    <Option name="NeuronInputType" modified="No">sum</Option>
    <Option name="V" modified="Yes">False</Option>
    <Option name="VerbosityLevel" modified="No">Default</Option>
    <Option name="VarTransform" modified="Yes">N</Option>
    <Option name="H" modified="No">False</Option>
    <Option name="CreateMVAPdfs" modified="No">False</Option>
    <Option name="IgnoreNegWeightsInTraining" modified="No">False</Option>
    <Option name="TrainingMethod" modified="No">BP</Option>
    <Option name="LearningRate" modified="Yes">1.000000e-02</Option>
    <Option name="DecayRate" modified="Yes">0.000000e+00</Option>
    <Option name="TestRate" modified="Yes">5</Option>
    <Option name="EpochMonitoring" modified="Yes">False</Option>
    <Option name="Sampling" modified="No">1.000000e+00</Option>
    <Option name="SamplingEpoch" modified="No">1.000000e+00</Option>
    <Option name="SamplingImportance" modified="No">1.000000e+00</Option>
    <Option name="SamplingTraining" modified="No">True</Option>
    <Option name="SamplingTesting" modified="No">False</Option>
    <Option name="ResetStep" modified="No">50</Option>
    <Option name="Tau" modified="No">3.000000e+00</Option>
    <Option name="BPMode" modified="No">sequential</Option>
    <Option name="BatchSize" modified="No">-1</Option>
    <Option name="ConvergenceImprove" modified="No">1.000000e-30</Option>
    <Option name="ConvergenceTests" modified="No">-1</Option>
    <Option name="UseRegulator" modified="No">False</Option>
    <Option name="UpdateLimit" modified="No">10000</Option>
    <Option name="CalculateErrors" modified="No">False</Option>
    <Option name="WeightRange" modified="No">1.000000e+00</Option>
  </Options>
  <Variables NVar="20">
    <Variable VarIndex="0" Expression="meff" Label="meff" Title="meff" Unit="" Internal="meff" Type="D" Min="1.00073407e+03" Max="7.93033350e+03"/>
    <Variable VarIndex="1" Expression="RCjet2_pt" Label="RCjet2_pt" Title="RCjet2_pt" Unit="" Internal="RCjet2_pt" Type="D" Min="2.00002106e+02" Max="1.63844312e+03"/>
    <Variable VarIndex="2" Expression="leptop_pt" Label="leptop_pt" Title="leptop_pt" Unit="" Internal="leptop_pt" Type="D" Min="-1.00000000e+02" Max="3.42010815e+03"/>
    <Variable VarIndex="3" Expression="RCjets_n" Label="RCjets_n" Title="RCjets_n" Unit="" Internal="RCjets_n" Type="D" Min="3.00000000e+00" Max="7.00000000e+00"/>
    <Variable VarIndex="4" Expression="RCMHiggs0_pt" Label="RCMHiggs0_pt" Title="RCMHiggs0_pt" Unit="" Internal="RCMHiggs0_pt" Type="D" Min="0.00000000e+00" Max="2.74079712e+03"/>
    <Variable VarIndex="5" Expression="dPhiavg_RCjets" Label="dPhiavg_RCjets" Title="dPhiavg_RCjets" Unit="" Internal="dPhiavg_RCjets" Type="D" Min="4.63033348e-01" Max="2.09439516e+00"/>
    <Variable VarIndex="6" Expression="mvlq1_RCTTM_drmax" Label="mvlq1_RCTTM_drmax" Title="mvlq1_RCTTM_drmax" Unit="" Internal="mvlq1_RCTTM_drmax" Type="D" Min="-1.52543213e+03" Max="5.04842090e+03"/>
    <Variable VarIndex="7" Expression="RCMHiggs0_nconsts" Label="RCMHiggs0_nconsts" Title="RCMHiggs0_nconsts" Unit="" Internal="RCMHiggs0_nconsts" Type="D" Min="0.00000000e+00" Max="2.00000000e+00"/>
    <Variable VarIndex="8" Expression="RCMHiggs0_nbconsts" Label="RCMHiggs0_nbconsts" Title="RCMHiggs0_nbconsts" Unit="" Internal="RCMHiggs0_nbconsts" Type="D" Min="0.00000000e+00" Max="4.00000000e+00"/>
    <Variable VarIndex="9" Expression="dRmin_RCMTT" Label="dRmin_RCMTT" Title="dRmin_RCMTT" Unit="" Internal="dRmin_RCMTT" Type="D" Min="4.93207015e-02" Max="4.92609024e+00"/>
    <Variable VarIndex="10" Expression="dRmin_RCjets" Label="dRmin_RCjets" Title="dRmin_RCjets" Unit="" Internal="dRmin_RCjets" Type="D" Min="4.93207015e-02" Max="3.49933314e+00"/>
    <Variable VarIndex="11" Expression="mvlq1_rcj_drmax" Label="mvlq1_rcj_drmax" Title="mvlq1_rcj_drmax" Unit="" Internal="mvlq1_rcj_drmax" Type="D" Min="-1.86745874e+03" Max="5.04842090e+03"/>
    <Variable VarIndex="12" Expression="mtbmin" Label="mtbmin" Title="mtbmin" Unit="" Internal="mtbmin" Type="D" Min="3.86307569e-04" Max="1.42423145e+03"/>
    <Variable VarIndex="13" Expression="met" Label="met" Title="met" Unit="" Internal="met" Type="D" Min="1.02333152e+00" Max="1.94994263e+03"/>
    <Variable VarIndex="14" Expression="bjets_n" Label="bjets_n" Title="bjets_n" Unit="" Internal="bjets_n" Type="D" Min="3.00000000e+00" Max="9.00000000e+00"/>
    <Variable VarIndex="15" Expression="dPhimin_RCMTT" Label="dPhimin_RCMTT" Title="dPhimin_RCMTT" Unit="" Internal="dPhimin_RCMTT" Type="D" Min="1.90258026e-04" Max="3.14156938e+00"/>
    <Variable VarIndex="16" Expression="dRavg_RCjets" Label="dRavg_RCjets" Title="dRavg_RCjets" Unit="" Internal="dRavg_RCjets" Type="D" Min="1.16793573e+00" Max="3.80160737e+00"/>
    <Variable VarIndex="17" Expression="dPhimin_RCjets" Label="dPhimin_RCjets" Title="dPhimin_RCjets" Unit="" Internal="dPhimin_RCjets" Type="D" Min="5.45978546e-05" Max="2.09194827e+00"/>
    <Variable VarIndex="18" Expression="RCMV0_nconsts" Label="RCMV0_nconsts" Title="RCMV0_nconsts" Unit="" Internal="RCMV0_nconsts" Type="D" Min="0.00000000e+00" Max="2.00000000e+00"/>
    <Variable VarIndex="19" Expression="RCMV0_pt" Label="RCMV0_pt" Title="RCMV0_pt" Unit="" Internal="RCMV0_pt" Type="D" Min="0.00000000e+00" Max="2.66518701e+03"/>
  </Variables>
  <Spectators NSpec="7">
    <Spectator SpecIndex="0" Expression="VLQtype" Label="VLQtype" Title="VLQtype" Unit="" Internal="VLQtype" Type="F" Min="-1.00000000e+00" Max="3.00000000e+00"/>
    <Spectator SpecIndex="1" Expression="channel" Label="channel" Title="channel" Unit="" Internal="channel" Type="F" Min="1.00000000e+00" Max="5.00000000e+00"/>
    <Spectator SpecIndex="2" Expression="event_number" Label="event_number" Title="event_number" Unit="" Internal="event_number" Type="F" Min="1.00000000e+00" Max="4.04104576e+08"/>
    <Spectator SpecIndex="3" Expression="mc_campaign" Label="mc_campaign" Title="mc_campaign" Unit="" Internal="mc_campaign" Type="F" Min="1.00000000e+00" Max="3.00000000e+00"/>
    <Spectator SpecIndex="4" Expression="run_number" Label="run_number" Title="run_number" Unit="" Internal="run_number" Type="F" Min="2.76262000e+05" Max="3.64292000e+05"/>
    <Spectator SpecIndex="5" Expression="sampleID" Label="sampleID" Title="sampleID" Unit="" Internal="sampleID" Type="F" Min="3.02480000e+05" Max="7.00347000e+05"/>
    <Spectator SpecIndex="6" Expression="sampleName" Label="sampleName" Title="sampleName" Unit="" Internal="sampleName" Type="F" Min="3.00000000e+00" Max="1.70000000e+01"/>
  </Spectators>
  <Classes NClass="2">
    <Class Name="Signal" Index="0"/>
    <Class Name="Background" Index="1"/>
  </Classes>
  <Transformations NTransformations="1">
    <Transform Name="Normalize">
      <Selection>
        <Input NInputs="20">
          <Input Type="Variable" Label="meff" Expression="meff"/>
          <Input Type="Variable" Label="RCjet2_pt" Expression="RCjet2_pt"/>
          <Input Type="Variable" Label="leptop_pt" Expression="leptop_pt"/>
          <Input Type="Variable" Label="RCjets_n" Expression="RCjets_n"/>
          <Input Type="Variable" Label="RCMHiggs0_pt" Expression="RCMHiggs0_pt"/>
          <Input Type="Variable" Label="dPhiavg_RCjets" Expression="dPhiavg_RCjets"/>
          <Input Type="Variable" Label="mvlq1_RCTTM_drmax" Expression="mvlq1_RCTTM_drmax"/>
          <Input Type="Variable" Label="RCMHiggs0_nconsts" Expression="RCMHiggs0_nconsts"/>
          <Input Type="Variable" Label="RCMHiggs0_nbconsts" Expression="RCMHiggs0_nbconsts"/>
          <Input Type="Variable" Label="dRmin_RCMTT" Expression="dRmin_RCMTT"/>
          <Input Type="Variable" Label="dRmin_RCjets" Expression="dRmin_RCjets"/>
          <Input Type="Variable" Label="mvlq1_rcj_drmax" Expression="mvlq1_rcj_drmax"/>
          <Input Type="Variable" Label="mtbmin" Expression="mtbmin"/>
          <Input Type="Variable" Label="met" Expression="met"/>
          <Input Type="Variable" Label="bjets_n" Expression="bjets_n"/>
          <Input Type="Variable" Label="dPhimin_RCMTT" Expression="dPhimin_RCMTT"/>
          <Input Type="Variable" Label="dRavg_RCjets" Expression="dRavg_RCjets"/>
          <Input Type="Variable" Label="dPhimin_RCjets" Expression="dPhimin_RCjets"/>
          <Input Type="Variable" Label="RCMV0_nconsts" Expression="RCMV0_nconsts"/>
          <Input Type="Variable" Label="RCMV0_pt" Expression="RCMV0_pt"/>
        </Input>
        <Output NOutputs="20">
          <Output Type="Variable" Label="meff" Expression="meff"/>
          <Output Type="Variable" Label="RCjet2_pt" Expression="RCjet2_pt"/>
          <Output Type="Variable" Label="leptop_pt" Expression="leptop_pt"/>
          <Output Type="Variable" Label="RCjets_n" Expression="RCjets_n"/>
          <Output Type="Variable" Label="RCMHiggs0_pt" Expression="RCMHiggs0_pt"/>
          <Output Type="Variable" Label="dPhiavg_RCjets" Expression="dPhiavg_RCjets"/>
          <Output Type="Variable" Label="mvlq1_RCTTM_drmax" Expression="mvlq1_RCTTM_drmax"/>
          <Output Type="Variable" Label="RCMHiggs0_nconsts" Expression="RCMHiggs0_nconsts"/>
          <Output Type="Variable" Label="RCMHiggs0_nbconsts" Expression="RCMHiggs0_nbconsts"/>
          <Output Type="Variable" Label="dRmin_RCMTT" Expression="dRmin_RCMTT"/>
          <Output Type="Variable" Label="dRmin_RCjets" Expression="dRmin_RCjets"/>
          <Output Type="Variable" Label="mvlq1_rcj_drmax" Expression="mvlq1_rcj_drmax"/>
          <Output Type="Variable" Label="mtbmin" Expression="mtbmin"/>
          <Output Type="Variable" Label="met" Expression="met"/>
          <Output Type="Variable" Label="bjets_n" Expression="bjets_n"/>
          <Output Type="Variable" Label="dPhimin_RCMTT" Expression="dPhimin_RCMTT"/>
          <Output Type="Variable" Label="dRavg_RCjets" Expression="dRavg_RCjets"/>
          <Output Type="Variable" Label="dPhimin_RCjets" Expression="dPhimin_RCjets"/>
          <Output Type="Variable" Label="RCMV0_nconsts" Expression="RCMV0_nconsts"/>
          <Output Type="Variable" Label="RCMV0_pt" Expression="RCMV0_pt"/>
        </Output>
      </Selection>
      <Class ClassIndex="0">
        <Ranges>
          <Range Index="0" Min="1.1955372314453125e+03" Max="7.0833134765625000e+03"/>
          <Range Index="1" Min="2.0008181762695312e+02" Max="1.4451610107421875e+03"/>
          <Range Index="2" Min="-1.0000000000000000e+02" Max="3.4201081542968750e+03"/>
          <Range Index="3" Min="3.0000000000000000e+00" Max="7.0000000000000000e+00"/>
          <Range Index="4" Min="0.0000000000000000e+00" Max="2.4999260253906250e+03"/>
          <Range Index="5" Min="5.0164228677749634e-01" Max="2.0943951606750488e+00"/>
          <Range Index="6" Min="-1.5254321289062500e+03" Max="3.9120463867187500e+03"/>
          <Range Index="7" Min="0.0000000000000000e+00" Max="2.0000000000000000e+00"/>
          <Range Index="8" Min="0.0000000000000000e+00" Max="4.0000000000000000e+00"/>
          <Range Index="9" Min="8.0837950110435486e-02" Max="4.3891434669494629e+00"/>
          <Range Index="10" Min="8.0837950110435486e-02" Max="3.2259054183959961e+00"/>
          <Range Index="11" Min="-1.5254321289062500e+03" Max="4.3227709960937500e+03"/>
          <Range Index="12" Min="4.3191338772885501e-04" Max="9.7659692382812500e+02"/>
          <Range Index="13" Min="5.2262597084045410e+00" Max="1.6879926757812500e+03"/>
          <Range Index="14" Min="3.0000000000000000e+00" Max="9.0000000000000000e+00"/>
          <Range Index="15" Min="6.9957971572875977e-04" Max="3.1415469646453857e+00"/>
          <Range Index="16" Min="1.4324884414672852e+00" Max="3.6407668590545654e+00"/>
          <Range Index="17" Min="1.5234947204589844e-04" Max="2.0832316875457764e+00"/>
          <Range Index="18" Min="0.0000000000000000e+00" Max="2.0000000000000000e+00"/>
          <Range Index="19" Min="0.0000000000000000e+00" Max="2.4583303222656250e+03"/>
        </Ranges>
      </Class>
      <Class ClassIndex="1">
        <Ranges>
          <Range Index="0" Min="1.0007340698242188e+03" Max="7.8973833007812500e+03"/>
          <Range Index="1" Min="2.0000210571289062e+02" Max="1.6384431152343750e+03"/>
          <Range Index="2" Min="-1.0000000000000000e+02" Max="2.0116832275390625e+03"/>
          <Range Index="3" Min="3.0000000000000000e+00" Max="6.0000000000000000e+00"/>
          <Range Index="4" Min="0.0000000000000000e+00" Max="2.7407971191406250e+03"/>
          <Range Index="5" Min="4.6303334832191467e-01" Max="2.0943951606750488e+00"/>
          <Range Index="6" Min="-1.3470058593750000e+03" Max="5.0484208984375000e+03"/>
          <Range Index="7" Min="0.0000000000000000e+00" Max="2.0000000000000000e+00"/>
          <Range Index="8" Min="0.0000000000000000e+00" Max="4.0000000000000000e+00"/>
          <Range Index="9" Min="1.4499756693840027e-01" Max="4.9260902404785156e+00"/>
          <Range Index="10" Min="6.1271097511053085e-02" Max="3.4993331432342529e+00"/>
          <Range Index="11" Min="-1.6974862060546875e+03" Max="5.0484208984375000e+03"/>
          <Range Index="12" Min="3.8630756898783147e-04" Max="6.0649291992187500e+02"/>
          <Range Index="13" Min="2.6774230003356934e+00" Max="1.7546109619140625e+03"/>
          <Range Index="14" Min="3.0000000000000000e+00" Max="8.0000000000000000e+00"/>
          <Range Index="15" Min="1.9025802612304688e-04" Max="3.1415667533874512e+00"/>
          <Range Index="16" Min="1.1679357290267944e+00" Max="3.8016073703765869e+00"/>
          <Range Index="17" Min="5.4597854614257812e-05" Max="2.0919482707977295e+00"/>
          <Range Index="18" Min="0.0000000000000000e+00" Max="2.0000000000000000e+00"/>
          <Range Index="19" Min="0.0000000000000000e+00" Max="2.6651870117187500e+03"/>
        </Ranges>
      </Class>
      <Class ClassIndex="2">
        <Ranges>
          <Range Index="0" Min="1.0007340698242188e+03" Max="7.8973833007812500e+03"/>
          <Range Index="1" Min="2.0000210571289062e+02" Max="1.6384431152343750e+03"/>
          <Range Index="2" Min="-1.0000000000000000e+02" Max="3.4201081542968750e+03"/>
          <Range Index="3" Min="3.0000000000000000e+00" Max="7.0000000000000000e+00"/>
          <Range Index="4" Min="0.0000000000000000e+00" Max="2.7407971191406250e+03"/>
          <Range Index="5" Min="4.6303334832191467e-01" Max="2.0943951606750488e+00"/>
          <Range Index="6" Min="-1.5254321289062500e+03" Max="5.0484208984375000e+03"/>
          <Range Index="7" Min="0.0000000000000000e+00" Max="2.0000000000000000e+00"/>
          <Range Index="8" Min="0.0000000000000000e+00" Max="4.0000000000000000e+00"/>
          <Range Index="9" Min="8.0837950110435486e-02" Max="4.9260902404785156e+00"/>
          <Range Index="10" Min="6.1271097511053085e-02" Max="3.4993331432342529e+00"/>
          <Range Index="11" Min="-1.6974862060546875e+03" Max="5.0484208984375000e+03"/>
          <Range Index="12" Min="3.8630756898783147e-04" Max="9.7659692382812500e+02"/>
          <Range Index="13" Min="2.6774230003356934e+00" Max="1.7546109619140625e+03"/>
          <Range Index="14" Min="3.0000000000000000e+00" Max="9.0000000000000000e+00"/>
          <Range Index="15" Min="1.9025802612304688e-04" Max="3.1415667533874512e+00"/>
          <Range Index="16" Min="1.1679357290267944e+00" Max="3.8016073703765869e+00"/>
          <Range Index="17" Min="5.4597854614257812e-05" Max="2.0919482707977295e+00"/>
          <Range Index="18" Min="0.0000000000000000e+00" Max="2.0000000000000000e+00"/>
          <Range Index="19" Min="0.0000000000000000e+00" Max="2.6651870117187500e+03"/>
        </Ranges>
      </Class>
    </Transform>
  </Transformations>
  <MVAPdfs/>
  <Weights>
    <Layout NLayers="6">
      <Layer Index="0" NNeurons="21">
        <Neuron NSynapses="30">
          -3.9006713075746067e+00 1.7023277823140415e+01 -1.1674107376322975e+00 1.8279080452782579e+00 -1.2922028731588133e+01 1.2997800071204637e+00 -9.5674426122720213e-01 8.4323400595093769e+00 -7.2465289314867387e-01 1.6197535161069976e+00 -6.3310648326401848e+00 1.1742717096075752e+00 -2.6947020526332626e+00 1.0548787815525061e-01 2.9347237334913140e-01 -7.5614707110010615e-01 -6.0016138829766783e+00 5.1435743138279717e+00 -1.4123434959727714e+00 -1.7780371220828040e+00 -2.1193746096982533e+00 1.7158126670941507e+00 2.3227373292844984e+00 2.9831947313280688e-01 -2.4608876778737536e+00 2.9537949414692849e-01 6.7959917413769553e+00 -3.6327689134229462e+00 3.0313138819536634e-01 1.5891463213336601e+00 
        </Neuron>
        <Neuron NSynapses="30">
          6.6552157758324937e-01 4.7143255219189282e+00 6.3808676395735597e-01 -3.7815397744920789e+00 -9.1933593878038911e-01 -3.5587700580471564e+00 -1.6032962427329223e+00 3.4717038470323591e+00 -1.8899439408544210e+00 3.7446219673553394e-01 4.6689144427403401e-01 1.9219643290311876e+00 5.9693981804044745e+00 3.0913203795372448e+00 -8.4000971923064183e-01 -4.7466918895526300e+00 -8.6968135860062679e-01 2.5601099762046258e+00 5.4712984313908626e+00 5.8577935159372183e+00 3.4388243757190855e+00 7.0165675356932136e+00 -3.0181691539228956e+00 2.0750309315635045e+00 -4.8443421971091988e-01 -2.1367057996633778e+00 -1.5786443249145694e+00 9.3175208154370459e-01 9.1206721904997101e-01 6.6249721723663013e-01 
        </Neuron>
        <Neuron NSynapses="30">
          -7.3349355405751862e+00 3.8829975942506934e-01 -8.8970995260303420e-01 2.5612482785558326e+00 2.9085628119411862e+00 1.0067248768022092e+00 6.6587544976827603e-02 1.1093970400668636e+00 2.5744772576135531e+00 -1.2242941283509583e+00 3.6266849499723453e+00 -3.8743868249111140e+00 4.3457786197487840e+00 -2.4510311837311467e+00 2.1533756888713858e+00 5.3359208011512127e-01 -4.0610657573347941e+00 -2.1564076683375304e+00 -1.9396927814339087e+00 -1.4080342300653101e-01 3.5854759498844402e+00 6.9532744272434344e-01 -2.0108549033096330e+00 -1.1725775558548841e+00 -6.9934805224229657e-01 -1.7399543520641483e+00 4.9902893665479203e-01 -7.0195283939192610e+00 -4.7684569080145147e+00 2.6179441042092124e+00 
        </Neuron>
        <Neuron NSynapses="30">
          -2.3533817635649621e+00 -1.5647750179227615e+00 2.1233165916653474e+00 2.1936986857598888e+00 6.7771307250542856e-01 3.6769760265690450e+00 -8.9444756941456804e-01 -2.3345510040681489e-01 1.1146386698578694e-02 1.4914700807290717e+00 -2.7230963072783392e+00 1.4972208203179822e+00 2.3929091826541775e+00 7.6523300105540804e-01 -9.5882932538022014e-01 1.6530668611571735e+00 -2.2973059314465774e+00 -1.0079421967865276e+00 -2.0436928121561420e+00 1.0101354732162771e+00 -5.4072127012433491e+00 2.6066925178105191e+00 1.0156660153589097e+00 -3.2299803082186234e+00 -2.0302386639800121e+00 5.1661715187039583e+00 1.4821524098421599e+00 1.8420588840365590e+00 2.4352212415157513e+00 -4.1882301605508010e+00 
        </Neuron>
        <Neuron NSynapses="30">
          -3.7883444012851393e+00 -1.0095991886624438e+00 2.0115625229981215e-01 2.0902861735585287e+00 -3.4663037496541653e+00 4.9144136486811335e-01 -5.5116527335080201e-01 -1.4426937355073342e+00 -5.1505111502745589e+00 5.1232520837254096e+00 1.0844170931800590e-01 -3.4157697751340677e+00 1.6918339630318098e+00 -5.5678996384742101e+00 9.3414767103237917e-01 4.1304160028693691e+00 3.6807692732143837e+00 -4.6410210234047899e-01 1.8738683102888958e+00 2.2423159918702464e+00 6.9617713424687295e+00 7.6352933278414670e-01 -9.8141967991041501e-01 -4.4131989403656640e+00 -1.0113883807111974e+00 3.0229702564481151e+00 1.4657432073319105e+00 1.2920617015133815e+00 -1.1361464317112409e+00 5.4347660935074051e+00 
        </Neuron>
        <Neuron NSynapses="30">
          -1.3153328810936022e+00 -9.3417822978094756e-01 1.6278175741725334e-01 -8.8364107236571166e-01 -1.3671550336505478e+00 -1.2909381762789987e+00 1.1446263089511706e+00 5.5584757380084937e-01 4.5652648290137163e+00 -2.5481394288483061e+00 1.5461054740655105e+00 -1.8722847541566617e-01 1.8992809857966264e+00 1.6084636334802347e+00 2.5306020102646838e+00 -6.9125909459684487e-01 5.3107741061657538e+00 -3.3207198068536870e-01 -6.4501746473119610e+00 -4.6900771763130811e+00 -1.9555079544024518e+00 6.6912524070508084e-01 -4.4501458082036622e+00 4.0917398497079605e+00 2.2677625288484817e-04 -6.0440490432899994e+00 2.4069252012701501e+00 2.6926505270484444e+00 4.3318745428752932e+00 -5.2563898410488044e+00 
        </Neuron>
        <Neuron NSynapses="30">
          -1.7686682365373978e+00 7.2681694975088096e-01 1.6790111960322920e+00 -4.1094006046185525e+00 5.2620749663127038e+00 -1.0962662608631164e+00 1.9009329009160494e-01 2.2619708760727164e-01 1.8965078780246480e+00 -1.7766995638411316e+00 -1.9461335712992449e+00 1.0298521036854411e+00 -5.2746788029456215e-01 1.9606156703238389e-01 -2.1889263121793232e-01 1.6467151166426679e+00 -3.9299807209945143e+00 2.4769341146787451e+00 -8.7137103566203344e-01 -7.4214170907515933e-02 -3.3586154605881164e+00 -1.0482888236082717e+00 -1.0430035121182530e+00 -3.0670114825979331e+00 -7.0580958559742046e-01 -4.3111314680955406e+00 -5.2066363108978786e+00 4.2436490914241558e+00 1.1582418588628191e-01 1.5674265827525846e+00 
        </Neuron>
        <Neuron NSynapses="30">
          1.4238384778852026e-01 2.6985231213226033e+00 -1.7728975210249540e+00 -1.4344776127473027e+00 3.2943544997123060e+00 5.9943369021053376e+00 6.8948874517418524e-01 1.5811846244872010e+00 5.7641177242034924e+00 -7.3279637400173780e-01 -3.6921920641096331e+00 4.5361281384721835e-01 -5.6906889011449868e-01 3.0599719515719741e+00 8.7593504182608839e-01 -2.6440089427284952e+00 4.4316322354482454e+00 1.3669963097601741e+00 -1.4139244298778992e+00 -3.0135296799509184e+00 1.5617672479451705e+00 -1.5201475031031833e+00 9.8153110052786630e-01 1.6631472233395023e-01 2.6687641994567746e-01 -1.2782265317881043e+00 -2.7393762486644289e-02 -3.3124739631219274e-01 -4.5052651101692043e-01 -9.7377278316700611e-01 
        </Neuron>
        <Neuron NSynapses="30">
          -3.3184805637975727e+00 -4.0811184141166281e+00 -2.2512986888216413e+00 2.9616130465527690e+00 -2.8710072766535228e+00 -5.2953151608541926e-01 -1.4244365449742216e+00 1.1728911229928187e-02 -1.2600131159754024e+00 7.6152516412872920e-02 -2.2887862269318942e+00 6.7219019623785492e-01 3.4286573926924496e-02 6.1063214663341236e+00 4.7193900871221546e+00 2.9670428723433562e-01 -2.3605527000483220e-01 1.6070839843571585e+00 -3.4411745004083665e+00 -5.7366359758225494e-01 1.2535758396057397e+00 1.6767558747733473e+00 -3.7395071962380338e-01 -5.1739350520654059e-01 1.0783786536167108e+00 -1.6148305844667195e+00 -2.0094588455926871e-01 7.6295383581013965e-01 4.8879410207573465e-01 -1.1421878467000419e+00 
        </Neuron>
        <Neuron NSynapses="30">
          -2.4305892110243943e+00 2.1613129729780636e+00 9.8362625069779264e-01 -3.8389676723052286e+00 -1.7740100807618095e+00 1.6601127221446507e-01 1.4474423765917257e+00 -1.7434059882958681e+00 8.6515763338466485e+00 -1.7638455420810280e+00 -1.1785451218438510e+00 -8.8460350288482359e-01 -2.5347897487469879e+00 -1.4997240331549431e+00 -1.0166622280105857e+00 -1.7500054988561822e+00 -3.2497426525968818e+00 2.1266081151344154e+00 -1.9742633711925552e+00 8.2480164601090031e+00 1.5340462843132252e+00 2.0229300481300103e+00 -1.7009561544210600e-01 1.3799022424066074e-01 -9.9011210078378875e-01 1.7159466067289650e-01 -1.7923566658778545e+00 1.2057984286721040e+00 -2.1817553106520307e+00 -1.8894322458403161e+00 
        </Neuron>
        <Neuron NSynapses="30">
          -4.8870734987831996e+00 -3.3216186659212750e+00 3.7614743771841961e+00 -4.5955166428444576e+00 5.3505828151019397e-01 5.1741668314777653e+00 -1.1668358352978405e+00 -2.8071062860486538e+00 -2.8181181473060448e+00 -2.2939810075244442e+00 1.5813621107002527e+00 -1.4552657847956230e+00 3.0543836911342366e+00 5.0039898861113841e+00 -1.8765212174421764e-01 -2.0314726219586229e-01 6.8798221903902190e+00 -5.8256827391930939e+00 3.4920736945481273e-01 4.8842534878628934e+00 -1.5130458198594527e+00 -4.0233629197184282e+00 -1.7529579846862378e-01 -2.6557617401311520e+00 -6.6034733257460343e-01 2.2624001351949934e+00 7.8821964064435006e+00 -7.1966929170618177e-01 -9.5738051001397662e-01 2.7852306409468421e+00 
        </Neuron>
        <Neuron NSynapses="30">
          -3.0994053362459706e+00 6.6048865435441206e-01 -1.2388408690600887e+00 -3.5377606624285876e+00 -1.3817314644058891e+00 -1.5469862579208833e+00 3.1366914844625099e-01 -2.9135759278259172e+00 -8.6851330703249630e-02 -5.9821021004912911e-01 -8.6644401578783317e+00 1.3886923105227502e+00 -2.1931322077291232e-01 -5.6035969152959533e+00 -2.2760884106865303e-01 9.4883744783860288e-02 -1.2574057333959565e+00 1.1970040268220001e+00 2.6880093379836576e+00 -7.1252309160020699e+00 -1.8291920662358909e+00 1.4863935219469817e+00 -3.1479898030945317e+00 -1.1467841295582244e+00 -4.3424089796982157e+00 1.6826986592967844e-01 -9.5932865580314850e+00 2.0206565160191712e+00 3.0045133661872279e+00 1.8221637799061585e+00 
        </Neuron>
        <Neuron NSynapses="30">
          1.7283204229876041e+00 -9.4925573340139802e-01 -5.2641047982522116e-01 -6.2472508327085370e+00 4.7315503117475716e-01 -3.0472811351630575e+00 -1.6391064879528283e+00 -4.4423807982390731e+00 -9.5796379536279586e-01 -3.0000915410557139e+00 2.4602477444387612e+00 -1.3137777079729067e+00 -2.5257344230183301e+00 7.3089646376680681e+00 -2.4455782102533152e-01 2.0858202872046796e+00 -3.6371849616244956e-01 3.1431959923579100e+00 2.4731782478873496e+00 1.2355216912909874e+00 2.2455726576196236e-01 9.3164860384145831e-01 -9.8844155159126057e-01 4.0424236783327094e+00 9.7931535959849481e-01 -2.7284859293234618e+00 7.6417585311139700e+00 5.3841426327949202e+00 1.3831977731384603e+01 -3.4425380332865942e+00 
        </Neuron>
        <Neuron NSynapses="30">
          6.4783475888193607e+00 2.5135565008096581e+00 -4.0555372183961484e+00 -1.7814751237817543e+00 -2.7073171768767850e+00 -1.6015647873831609e-01 3.3845875096626088e-01 9.0287247042429608e-01 2.7272801201901886e-01 -2.4063772747961574e+00 -5.6564511820483193e-02 -1.4414203980962543e+00 -1.2027610074278619e+00 1.8465695114346717e-02 1.1654395249140159e+00 2.4299251626092331e+00 3.8468844047014528e-01 6.6700119393935022e+00 -6.9942555933322970e-01 -4.7482863458251536e+00 -1.8296912003685935e+00 -4.1112088795174309e+00 1.5257796676260171e+00 -3.1921043022818756e+00 -2.7278559913026797e-02 -6.4335079512127658e-01 5.0759628390284943e+00 3.5715177749055522e+00 2.1624848284530267e+00 7.5712539441195514e-01 
        </Neuron>
        <Neuron NSynapses="30">
          -1.8467914088075832e+00 1.9287232480375698e+00 3.1898385736541242e+00 -8.5912965567264425e+00 -3.4816346906265899e-01 -1.2177875356467616e-01 -1.7355176167756974e+00 -1.3205858776464383e+00 -1.9655005133939181e+00 3.8419366795544518e-01 1.4475296462776930e+00 -1.2361781071218572e+00 -7.0968542731571282e-01 4.8799982141843135e+00 1.5471011820318479e+00 4.7451721186147182e+00 6.0998507969206228e+00 -6.0215454282874492e-01 -2.9852125389985162e+00 1.9556669182101316e+00 -4.8237193681287698e+00 -4.4699939979922938e+00 -3.2587117808093757e+00 -2.5305613407395694e-01 -2.2532629751143967e+00 -7.7586575003894809e-01 -2.3823382147184899e+00 -4.6227804495447238e+00 2.0978288492823141e+00 -8.8136792971454359e+00 
        </Neuron>
        <Neuron NSynapses="30">
          -6.4757417907492940e-02 8.0023569635259395e-01 4.9673824273097128e-01 6.6368709642481316e-01 3.0581993336646205e+00 -2.6176187837968223e+00 1.3633082625689719e+00 -4.8095523748737081e+00 -2.0058471763949552e+00 4.0969121115799867e+00 -8.1548102098044661e-01 -1.3601899273063260e+00 -8.3765186423809590e-01 -4.9073002623086531e-01 9.6250731961510805e-01 1.1615332309315494e+00 -3.3291915106423415e+00 -4.7712493932050002e+00 -1.0609176730927761e+00 5.7242232775415296e+00 -2.8355912203884488e+00 -1.7550296512042066e-01 -4.5982624226331730e+00 4.8232872707978771e+00 4.3006794585346775e+00 -1.3517873936730935e+00 2.2586936714535644e+00 -2.6564478484671089e-01 1.4233024189409800e+00 1.8428958710770402e+00 
        </Neuron>
        <Neuron NSynapses="30">
          -2.0147131494383316e-01 9.0997268391156005e+00 3.4220584232269355e+00 1.1556013632064918e+01 -5.2136126706104582e+00 -1.2251185070296466e+00 -1.2912788490753260e+00 -1.8194560548899046e+00 -3.3075822580426861e-01 3.3385088480036451e+00 3.3300443127947386e+00 -3.4368023821113947e+00 -3.2240108028197341e+00 -6.4531064946665335e+00 7.1984325129581017e-01 -8.1554563664895223e+00 7.5862471096999062e-01 -2.7392108713509780e+00 3.8641464762813111e+00 2.5735834051406052e+00 -4.8401824809129748e+00 6.0451558749149115e+00 6.6164227539942591e+00 2.4774475772014797e+00 -2.0136412112630087e+00 -1.9902772025761446e+00 -4.5463213964687466e+00 3.4630710077683402e-01 9.7492353751423644e-01 -1.2912781901028672e+00 
        </Neuron>
        <Neuron NSynapses="30">
          1.2358607449615591e+00 -3.2156694359161986e-01 3.7719174428985580e+00 4.1249180046461422e+00 1.4433926773220851e+00 1.1478571653197110e-01 -9.2454674932355596e-01 2.5920334296320342e+00 3.9400711317018017e-01 -1.3703665140576435e+00 -2.2449947067755649e+00 -2.5809514228259167e+00 -2.2100257876177734e-01 -5.3882123111562974e+00 -2.7240498455188966e-01 1.0131272281198065e+00 -1.6675958806938631e+00 4.2374657187134215e+00 4.3585688176796769e+00 -2.6024150778915942e+00 -3.6991667712232865e+00 -2.2575099010972646e+00 3.7266602544800373e+00 -3.7247745305284443e+00 1.4757998975906221e+00 -1.9097535902893754e+00 -2.5352674960618260e-01 -9.7946634509616537e-01 3.9883381289331865e-01 -2.0749557629386435e+00 
        </Neuron>
        <Neuron NSynapses="30">
          -6.7981360857406437e-01 4.9694925156752091e-02 -1.4198617257224824e+00 5.5999350674768333e-01 8.3987085037686993e-01 4.1078954158341396e-01 -6.7343112950134187e-01 -2.2512776490193209e+00 2.0593937168297676e+00 -4.5413795210205460e-01 4.3140159196798820e+00 2.6583434034333235e+00 3.8175543709118381e-02 -2.7527570281782605e+00 3.7486134875365040e-01 7.1542201691557811e-02 2.5879362763395291e+00 8.2951480944585898e-01 4.0610203777647129e+00 -2.6358126032319745e-01 7.5006899038515884e-01 2.6687002137936946e+00 2.9619310164947166e+00 2.6398366471006378e+00 5.1659419736685297e-01 -2.0841764348722971e-01 1.1178436571785327e-01 -1.1178252466258636e+01 -6.6445750919369340e-01 -2.0939481745123527e+00 
        </Neuron>
        <Neuron NSynapses="30">
          2.8620470891160696e+00 -7.6056906453578677e-01 -2.9602949843582174e+00 3.0478210289526078e+00 4.8340297928799787e+00 3.5892696943074363e+00 1.5194740865625961e-01 -6.1754794900880072e-01 2.8695451946429560e+00 -6.2818656795080328e+00 1.7244627718119512e+00 -8.5936525617515400e-02 2.0009034642380965e+00 -3.9954108790368545e+00 -2.9021693432044204e-01 -6.6089182827281308e+00 -1.8436118222293540e+00 -3.0203051540008126e+00 -5.8805404108161454e+00 1.3523321749345576e+00 -4.9338194357038008e+00 -1.5550859494346405e+00 -1.7133405933105115e+00 8.8506546965807598e-01 -1.9313160414607109e+00 -7.0248793579370716e-01 1.6812977758794098e-01 -2.0124030100717767e+00 -2.3324910957702469e+00 2.2917979682679457e+00 
        </Neuron>
        <Neuron NSynapses="30">
          -8.1163373700610038e+00 1.6717184149866945e+01 2.5999423106036224e+00 -9.8520195450196635e+00 -8.3195604595916564e+00 4.8360742293476671e+00 4.7157555024728554e-01 -2.3337168968764628e+00 -4.8457473069219015e+00 -1.9370959766917444e+00 -9.9612625420357392e-01 1.5313687104993536e+00 1.5722594822936580e+00 3.8691910574536172e+00 -6.1132809742592076e-01 7.6895901390156132e+00 -4.9433084380925889e+00 8.8821281305325055e+00 -2.4471004545230111e+00 -1.4196153341704481e+00 -9.7402965026165012e-01 1.2362923912511765e+00 1.0628775308495340e+00 -3.0295457908219623e+00 -1.0495370432690332e+00 -3.4429473281896170e+00 4.3537315186007550e+00 -8.7965159968028370e+00 5.2493707050849254e+00 2.0580962743039477e-01 
        </Neuron>
      </Layer>
      <Layer Index="1" NNeurons="31">
        <Neuron NSynapses="10">
          -1.6431272277969919e+00 -3.2511047471523895e+00 2.5028296663219618e+00 -9.8803480836432822e-01 -2.9300759215326253e+00 -3.3160831714885561e+00 1.4513132328087213e+00 1.1365510742016949e+00 2.3876110556449470e+00 -5.0372830666617618e+00 
        </Neuron>
        <Neuron NSynapses="10">
          1.1005962963004194e+00 -2.7317418170613958e+00 1.6269243113312282e+00 8.0761745886456027e-01 -7.2427251299790696e-01 1.4513837824710139e+00 -3.8635696731774058e+00 -5.1043419518447153e-01 -4.8587395032042009e+00 6.8692119111869223e+00 
        </Neuron>
        <Neuron NSynapses="10">
          2.8419916716721411e-01 -5.4537023449678512e-01 -1.4030235623205352e+00 -7.1242374412301446e-01 1.4419572076601048e+00 3.8265197505034716e+00 -3.9058152923257015e+00 -4.6233671762733097e+00 -7.5919878524892104e-01 -8.5138809685715144e-01 
        </Neuron>
        <Neuron NSynapses="10">
          -1.9371717839017006e+00 5.8316651913336406e+00 -8.8706418581600124e-02 -1.4351396924405400e+00 -3.2672220550144666e+00 -4.8792244138135619e+00 2.4554746393165936e+00 2.1466342214805976e+00 3.5875391571972446e+00 8.5572780758615714e+00 
        </Neuron>
        <Neuron NSynapses="10">
          -1.4894633640137023e+00 -7.2002589426021668e-01 -4.0058448238900173e+00 -1.4118971574516118e-01 3.7167287725555864e+00 -4.2939317247837794e+00 4.5854228289461609e+00 -1.4046186780393433e+00 -6.7220073762729138e-01 -3.4755849379763610e+00 
        </Neuron>
        <Neuron NSynapses="10">
          1.8896420724908893e+00 3.1756182059674325e+00 3.9512310647596820e+00 -9.9023148560111962e-01 3.7370824975610755e+00 -7.9365127807745306e-01 3.0169429082358041e+00 -2.1389288120945062e+00 -7.7855699798612354e+00 -1.3674129926182392e+00 
        </Neuron>
        <Neuron NSynapses="10">
          1.3752286338857493e+00 1.5835161967528226e+00 9.8967978608039275e-01 1.2920248339066838e+00 4.5778545641093205e-01 -9.1566093945355098e-01 6.1843932997817863e-01 -1.6725105538871381e+00 -3.2484805086834219e+00 1.1219694070451687e+00 
        </Neuron>
        <Neuron NSynapses="10">
          -1.4151329899975154e+00 2.7685302236940195e+00 -1.0223724862192107e+00 -7.8731466981771736e-01 -3.3704761767165046e+00 -4.3788769661560751e+00 -5.5475568668248858e+00 1.3613034561034389e+00 5.0420711566833747e+00 4.7962616341581183e+00 
        </Neuron>
        <Neuron NSynapses="10">
          -2.1558507165476719e+00 -1.1019703819139015e+00 1.8599906628441345e+00 5.0255316909405112e-01 -1.2347472963501445e+00 -2.4783292165436004e+00 4.7450968549888266e+00 -1.4039199169204957e+00 6.9044994042702852e+00 -2.7461810845790944e+00 
        </Neuron>
        <Neuron NSynapses="10">
          -3.4516085896660447e+00 1.2170862232714432e+00 -1.6788637257291945e+00 -3.0454598353666779e-01 -8.6709573013035257e-01 3.4511772964623932e+00 -9.3194064076340533e-01 4.1516185711824054e+00 2.8842056896373269e-01 3.7968625245155123e+00 
        </Neuron>
        <Neuron NSynapses="10">
          -6.0536663347889763e-01 -2.0736586261931680e+00 3.0680145852763535e-01 2.1078776078583079e+00 4.6237442861017168e+00 -1.7614774437612413e+00 4.6636456154095240e+00 2.6743967934293758e+00 -1.8065973512156275e-01 -2.5263498028971507e+00 
        </Neuron>
        <Neuron NSynapses="10">
          2.4892859136862238e+00 3.3742649933962054e+00 -1.7123084835619522e+00 3.0918726791987644e-01 -3.1817456778323199e+00 4.7154485748156082e-02 1.9275862981453765e-01 -1.9091846890762283e-03 -2.3926024288699499e+00 -1.7823762681906075e+00 
        </Neuron>
        <Neuron NSynapses="10">
          2.2974386662177184e+00 1.3132861045607587e+00 -1.2150796057687911e+00 1.0899056059188081e+00 -1.5849393465382036e-01 -1.0867367966964236e+00 3.5588457296553444e-01 -2.8789552932396867e+00 -6.2911843063664401e+00 1.9707888088376546e+00 
        </Neuron>
        <Neuron NSynapses="10">
          1.4880848120151449e+00 -6.9991324876705452e-01 -3.1078322659624935e+00 -1.0548891432063796e+00 6.1761563715998422e+00 2.9794358257860636e+00 -5.1078778473996005e+00 -3.8042776749301721e+00 -2.4790678256367271e+00 3.1400389777225248e+00 
        </Neuron>
        <Neuron NSynapses="10">
          -2.3218172167074705e-01 1.0058987567728108e+00 1.3033858710585093e+00 1.5977643573080684e+00 2.2704110270071558e-02 -2.0103919841378253e+00 -3.1440517379688422e+00 2.2963824521454850e+00 1.8497027891986609e-01 2.7301199305554755e+00 
        </Neuron>
        <Neuron NSynapses="10">
          1.2872395282258371e+00 -1.2930336361145949e+00 -1.0847966595722258e+00 -5.0691998497864821e-01 -4.1496388120116015e+00 2.0414837954009495e+00 -9.2631268913548581e+00 -3.1489249986726802e+00 1.0916467275636821e+00 -2.6108770317565058e+00 
        </Neuron>
        <Neuron NSynapses="10">
          1.9077899599217771e+00 -6.5599399390373903e-02 -1.8284760739788366e+00 3.7383925868866935e-01 2.9883843534440873e+00 -1.7431497927356845e+00 2.8575077754822056e+00 -1.0792745453928680e+00 5.2768533722671949e+00 -3.3023642468795869e+00 
        </Neuron>
        <Neuron NSynapses="10">
          6.6762762198660008e-01 4.4745752844564981e+00 -4.0483533442194869e-01 -9.2161049137453666e-01 -1.4739729996212572e+00 2.2995583156474048e-01 -1.9261647507503965e+00 -2.9125783020083960e+00 -5.0039913602073289e+00 4.6016820092304700e+00 
        </Neuron>
        <Neuron NSynapses="10">
          4.7566822002681457e+00 -2.3855359403706706e+00 -2.9365542609732400e+00 2.2424537042808203e-02 4.0796428806882945e-01 2.7176073726187884e+00 -1.6215208508779320e+00 5.6710560511624539e+00 5.0627640176899646e+00 -4.4143937853737691e-01 
        </Neuron>
        <Neuron NSynapses="10">
          -2.3051043837601974e+00 1.9199596481470378e+00 5.4323488682956023e-01 -1.8218350804584484e+00 -1.6835370914502064e+00 -5.6208036150435632e+00 1.2646538877822950e+00 3.1690001588789536e+00 2.7131396719415188e+00 -3.9495977104126418e+00 
        </Neuron>
        <Neuron NSynapses="10">
          9.5143273247977822e-01 2.1762362889313578e+00 1.7376170994070779e+00 -7.2719504236503929e-01 -2.9661936013334524e+00 -1.9543537207892261e+00 -5.1707084593813413e+00 1.7068088964447750e+00 -3.3815458212226730e+00 -6.5737284568846395e+00 
        </Neuron>
        <Neuron NSynapses="10">
          -1.7357709343366785e+00 1.7072124860340858e+00 -3.5675279095169183e+00 5.8011880002626537e-01 -3.4883508404370280e+00 3.5927250719004622e+00 -4.7481890885377193e-01 2.8628398315234946e+00 2.9791578350701764e+00 2.0629496865135635e+00 
        </Neuron>
        <Neuron NSynapses="10">
          -3.8329815709415116e+00 -4.2247340921654155e+00 -3.0351985735466633e+00 2.0939350097366853e+00 -1.1649826897846487e+00 3.2476842625122355e+00 -6.3122453398837056e-02 1.4301272714807525e+00 2.9673131722301682e+00 6.2977445583503666e+00 
        </Neuron>
        <Neuron NSynapses="10">
          -2.8933130130032545e+00 2.8629357411212291e+00 -5.1756022595769458e-01 7.5631000294900608e-01 7.6566704280182618e-01 1.8591457848024620e+00 3.4174146593966235e+00 2.8705048091294412e+00 3.3704689583231988e+00 1.1811650221736349e-01 
        </Neuron>
        <Neuron NSynapses="10">
          7.9543128103399785e-01 1.7847489723743575e+00 2.8011222302034917e+00 2.2329313279055283e+00 -3.1013392266958091e+00 1.0050043736754872e+00 -2.2507506728147919e-01 -5.5256748973361818e+00 -1.7445427352674296e+00 1.8064657870181955e+00 
        </Neuron>
        <Neuron NSynapses="10">
          -7.5125250099558435e-02 -1.3130339156210433e-01 -3.1177388694336052e+00 6.2264903237639568e-01 3.1552963546290429e+00 -4.4009807128288454e+00 -3.7261897909877666e+00 -2.2995792803613977e+00 6.3299495876785352e+00 1.4515407007782073e+00 
        </Neuron>
        <Neuron NSynapses="10">
          2.5266400264915689e+00 3.2787489089634794e+00 2.6976186235224482e+00 9.0816738155068855e-02 1.0740313217776547e+00 3.4364023204900365e+00 -1.0909782797175114e+00 -2.6116397766932313e+00 -2.2039258856410204e+00 5.9309313001466366e+00 
        </Neuron>
        <Neuron NSynapses="10">
          -3.9751809558128315e+00 1.5370477009702042e+00 -1.2776472812914896e-01 9.7165701733625132e-01 4.9833977036330923e+00 -2.6555869178165148e+00 1.2044649436447729e+01 6.0325967677236232e+00 6.8955564580160029e+00 -3.7118435113221944e+00 
        </Neuron>
        <Neuron NSynapses="10">
          3.0983917334625501e+00 -1.0787989378542839e+00 3.5969645983218932e+00 2.1086301832788896e+00 -8.7800536298637188e-01 1.6669094132839308e+00 -5.8229185421717942e+00 -2.1603443400285699e-01 -5.4880900590751454e+00 -4.6413681861619893e-01 
        </Neuron>
        <Neuron NSynapses="10">
          -1.1077572589425169e+00 2.8946207932712689e+00 1.7108131767516448e+00 1.5541994385753191e+00 -1.6488286170226640e+00 -9.1430306207311773e-01 -5.4399769534322271e+00 4.1071210244037930e+00 3.0444257209578698e+00 -2.0006119721893892e-01 
        </Neuron>
        <Neuron NSynapses="10">
          -1.0878001036675694e-01 -1.8816368742584033e-01 2.0915689526320396e+00 2.2184899515593783e+00 -9.4030054436820365e-01 6.5927751377066768e-01 -4.8135220568807618e-01 -2.5683886533362101e+00 -2.3149427623327772e+00 1.9513461241631216e+00 
        </Neuron>
      </Layer>
      <Layer Index="2" NNeurons="11">
        <Neuron NSynapses="10">
          1.3504077890213930e+00 -5.9821135045385532e+00 -3.1640513487234752e-03 1.2313870210452775e+00 2.6834224726728353e+00 -5.0623985057696785e+00 -9.4728973392335980e-01 -1.2063968098190476e+00 3.4909231241892207e+00 4.5380072529089386e+00 
        </Neuron>
        <Neuron NSynapses="10">
          -2.6784081210309760e+00 -2.6734766833902519e+00 2.3044090331439318e+00 -7.6420149057601039e-01 3.2583137406286911e+00 5.3215900528152582e-01 -2.6109526467273545e+00 -4.3348192695041066e+00 -2.5932578241189468e+00 -4.2724131317451097e-01 
        </Neuron>
        <Neuron NSynapses="10">
          -2.1959482787070832e+00 3.2789612513463053e+00 1.5835592294091638e+00 6.0619959304781079e-01 -2.2522172890041969e-01 3.8193322565189227e+00 4.8815673760629652e+00 -1.5943193868693848e+00 1.7607046674031961e+00 2.7976302192226963e+00 
        </Neuron>
        <Neuron NSynapses="10">
          2.5305952641114380e+00 -1.5847843419743466e+00 2.5750776984739193e-01 -1.4242826267621915e+00 -3.6630262763812174e+00 1.6050437133029281e+00 5.5979802736954742e-01 -6.5322019324506442e-01 -1.2377850642123811e+00 1.3875229840724737e+00 
        </Neuron>
        <Neuron NSynapses="10">
          -1.8064779702581015e+00 1.0420422765825637e+00 2.3125645878836707e+00 -3.2753339409478166e-01 -7.0876042223201208e-01 -4.7634736912444309e+00 -1.0074281518303447e+00 3.2057466357383368e-01 -5.0350722636831424e+00 -8.6582220083548656e-01 
        </Neuron>
        <Neuron NSynapses="10">
          5.4346229358403209e+00 2.7918319955401816e+00 1.7786620468923608e+00 -1.7246270022542948e-01 1.0848323546586538e+00 4.6841034992816372e-01 4.3493181603288056e+00 2.9359636706943393e+00 -3.0254078898042824e-01 -4.0619740127489479e+00 
        </Neuron>
        <Neuron NSynapses="10">
          -6.5469660287738209e+00 4.2529974027203676e-01 -1.6390365090270307e+00 -3.1057935739141604e-02 -3.7525264750081426e+00 -4.0571261229489943e+00 -4.0730136695342312e+00 1.2853044334529156e+00 -2.5907278994006271e+00 -1.0630439000796641e+00 
        </Neuron>
        <Neuron NSynapses="10">
          -4.1049467523163514e+00 3.2501839362757030e+00 1.9371033232197452e+00 -8.3992779013214591e-01 -3.2041342290522601e+00 -1.6221845575228235e+00 -2.3325255965265552e+00 -2.1578813253431677e+00 -5.5329972481110019e+00 3.6039728097687274e+00 
        </Neuron>
        <Neuron NSynapses="10">
          -3.0931956196064099e+00 2.1271515686641664e+00 -1.0162518888655971e+00 1.3652081950587111e-01 -5.4036782333862430e+00 -5.1892367378114468e+00 -1.6151989416111368e+00 -6.9186578883510030e+00 1.1758213907438297e+00 -1.6384328500729535e+00 
        </Neuron>
        <Neuron NSynapses="10">
          -9.5360345277018854e-01 -6.1539134008183727e-01 6.6138199858913205e-01 -2.3384623153563791e+00 -2.5234837106078261e+00 4.3592616257946641e+00 -1.7582252635280839e+00 6.0110539976196291e+00 7.3293687418589153e+00 -3.8131471802484942e+00 
        </Neuron>
        <Neuron NSynapses="10">
          2.9431008776671344e+00 -1.8667999702556195e+00 1.5666249171523887e+00 -2.1101750527185601e+00 -1.3918205294407454e-01 -9.7412603317776525e-01 1.7484405909793841e+00 1.2427211314735258e+00 -2.0205963322234577e-01 5.5040644909453962e-01 
        </Neuron>
      </Layer>
      <Layer Index="3" NNeurons="11">
        <Neuron NSynapses="5">
          -3.0397530417960446e+00 -6.0341811002345758e-01 4.0740199855282494e-01 -1.5180186501910311e+00 -4.1060563565693808e+00 
        </Neuron>
        <Neuron NSynapses="5">
          -1.7689442796815380e+00 -5.8777978086545324e-01 2.1856964817996962e+00 3.5880689295021568e+00 -2.8341116628930035e-01 
        </Neuron>
        <Neuron NSynapses="5">
          2.2163895474536544e+00 -2.9926178796536956e-01 -2.3413206374085314e+00 3.6402092003196311e+00 3.8638863307138527e+00 
        </Neuron>
        <Neuron NSynapses="5">
          -2.9239710734474239e-01 1.0288716304526062e+00 -8.5399073315731655e-01 1.3314192027368530e+00 -1.2202788821718069e+00 
        </Neuron>
        <Neuron NSynapses="5">
          1.1791564886606250e-01 7.2987508965444828e-02 2.6884295043966073e+00 -4.1791014307693990e+00 -2.6012320763899672e+00 
        </Neuron>
        <Neuron NSynapses="5">
          -3.0750712510108040e+00 -2.8389640503365676e+00 4.4075792743363209e+00 3.5057603845321306e-01 -2.4661024885450917e+00 
        </Neuron>
        <Neuron NSynapses="5">
          6.7239906418829520e-01 -2.2907102788608196e+00 4.6463050061567692e+00 1.3815520262281636e-01 -1.6199326144723916e+00 
        </Neuron>
        <Neuron NSynapses="5">
          -2.4407366740484089e+00 -6.7296313397039242e-01 -1.2075139277149023e-02 -1.2049534403037208e+00 -7.1244496520572032e+00 
        </Neuron>
        <Neuron NSynapses="5">
          -4.4297608074177104e+00 -2.5924456322861213e+00 4.6172677137075180e+00 -1.1034758452276441e+00 -1.4911187492121789e+00 
        </Neuron>
        <Neuron NSynapses="5">
          2.7504838614938096e+00 2.0458471566813907e+00 -1.6602580545359502e+00 -2.2539400482467347e+00 -4.9401507400165112e-01 
        </Neuron>
        <Neuron NSynapses="5">
          -4.5571240329198148e-01 -2.0014410306258254e-01 -6.2664863126526127e-01 7.0953341769843303e-01 2.9424110927031122e+00 
        </Neuron>
      </Layer>
      <Layer Index="4" NNeurons="6">
        <Neuron NSynapses="1">
          -1.6778470349345844e+00 
        </Neuron>
        <Neuron NSynapses="1">
          -1.2657055145422076e+00 
        </Neuron>
        <Neuron NSynapses="1">
          4.0710929900975792e+00 
        </Neuron>
        <Neuron NSynapses="1">
          -3.7922074842248401e+00 
        </Neuron>
        <Neuron NSynapses="1">
          -1.9544376186826220e+00 
        </Neuron>
        <Neuron NSynapses="1">
          4.5349815480990124e-01 
        </Neuron>
      </Layer>
      <Layer Index="5" NNeurons="1">
        <Neuron NSynapses="0"/>
      </Layer>
    </Layout>
  </Weights>
</MethodSetup>
