<?xml version="1.0"?>
<MethodSetup Method="MLP::MLP_fold2">
  <GeneralInfo>
    <Info name="TMVA Release" value="4.2.1 [262657]"/>
    <Info name="ROOT Release" value="6.20/06 [398342]"/>
    <Info name="Creator" value="tfarooque"/>
    <Info name="Date" value="Wed May  3 11:48:01 2023"/>
    <Info name="Host" value="Linux aibuild16-017.cern.ch 3.10.0-1160.36.2.el7.x86_64 #1 SMP Wed Jul 21 11:57:15 UTC 2021 x86_64 x86_64 x86_64 GNU/Linux"/>
    <Info name="Dir" value="/data/at3/scratch2/farooque/DevPVLQ/VLQAnalysisFramework/run"/>
    <Info name="Training events" value="103218"/>
    <Info name="TrainingTime" value="3.31338267e+03"/>
    <Info name="AnalysisType" value="Classification"/>
  </GeneralInfo>
  <Options>
    <Option name="NCycles" modified="Yes">800</Option>
    <Option name="HiddenLayers" modified="Yes">30,10,10,5</Option>
    <Option name="NeuronType" modified="Yes">sigmoid</Option>
    <Option name="RandomSeed" modified="No">1</Option>
    <Option name="EstimatorType" modified="No">CE</Option>
    <Option name="NeuronInputType" modified="No">sum</Option>
    <Option name="V" modified="Yes">False</Option>
    <Option name="VerbosityLevel" modified="No">Default</Option>
    <Option name="VarTransform" modified="Yes">N</Option>
    <Option name="H" modified="No">False</Option>
    <Option name="CreateMVAPdfs" modified="No">False</Option>
    <Option name="IgnoreNegWeightsInTraining" modified="No">False</Option>
    <Option name="TrainingMethod" modified="No">BP</Option>
    <Option name="LearningRate" modified="Yes">1.000000e-02</Option>
    <Option name="DecayRate" modified="Yes">0.000000e+00</Option>
    <Option name="TestRate" modified="Yes">5</Option>
    <Option name="EpochMonitoring" modified="Yes">False</Option>
    <Option name="Sampling" modified="No">1.000000e+00</Option>
    <Option name="SamplingEpoch" modified="No">1.000000e+00</Option>
    <Option name="SamplingImportance" modified="No">1.000000e+00</Option>
    <Option name="SamplingTraining" modified="No">True</Option>
    <Option name="SamplingTesting" modified="No">False</Option>
    <Option name="ResetStep" modified="No">50</Option>
    <Option name="Tau" modified="No">3.000000e+00</Option>
    <Option name="BPMode" modified="No">sequential</Option>
    <Option name="BatchSize" modified="No">-1</Option>
    <Option name="ConvergenceImprove" modified="No">1.000000e-30</Option>
    <Option name="ConvergenceTests" modified="No">-1</Option>
    <Option name="UseRegulator" modified="No">False</Option>
    <Option name="UpdateLimit" modified="No">10000</Option>
    <Option name="CalculateErrors" modified="No">False</Option>
    <Option name="WeightRange" modified="No">1.000000e+00</Option>
  </Options>
  <Variables NVar="20">
    <Variable VarIndex="0" Expression="meff" Label="meff" Title="meff" Unit="" Internal="meff" Type="D" Min="1.00073407e+03" Max="7.93033350e+03"/>
    <Variable VarIndex="1" Expression="RCjet2_pt" Label="RCjet2_pt" Title="RCjet2_pt" Unit="" Internal="RCjet2_pt" Type="D" Min="2.00002106e+02" Max="1.63844312e+03"/>
    <Variable VarIndex="2" Expression="leptop_pt" Label="leptop_pt" Title="leptop_pt" Unit="" Internal="leptop_pt" Type="D" Min="-1.00000000e+02" Max="3.42010815e+03"/>
    <Variable VarIndex="3" Expression="RCjets_n" Label="RCjets_n" Title="RCjets_n" Unit="" Internal="RCjets_n" Type="D" Min="3.00000000e+00" Max="7.00000000e+00"/>
    <Variable VarIndex="4" Expression="RCMHiggs0_pt" Label="RCMHiggs0_pt" Title="RCMHiggs0_pt" Unit="" Internal="RCMHiggs0_pt" Type="D" Min="0.00000000e+00" Max="2.74079712e+03"/>
    <Variable VarIndex="5" Expression="dPhiavg_RCjets" Label="dPhiavg_RCjets" Title="dPhiavg_RCjets" Unit="" Internal="dPhiavg_RCjets" Type="D" Min="4.63033348e-01" Max="2.09439516e+00"/>
    <Variable VarIndex="6" Expression="mvlq1_RCTTM_drmax" Label="mvlq1_RCTTM_drmax" Title="mvlq1_RCTTM_drmax" Unit="" Internal="mvlq1_RCTTM_drmax" Type="D" Min="-1.52543213e+03" Max="5.04842090e+03"/>
    <Variable VarIndex="7" Expression="RCMHiggs0_nconsts" Label="RCMHiggs0_nconsts" Title="RCMHiggs0_nconsts" Unit="" Internal="RCMHiggs0_nconsts" Type="D" Min="0.00000000e+00" Max="2.00000000e+00"/>
    <Variable VarIndex="8" Expression="RCMHiggs0_nbconsts" Label="RCMHiggs0_nbconsts" Title="RCMHiggs0_nbconsts" Unit="" Internal="RCMHiggs0_nbconsts" Type="D" Min="0.00000000e+00" Max="4.00000000e+00"/>
    <Variable VarIndex="9" Expression="dRmin_RCMTT" Label="dRmin_RCMTT" Title="dRmin_RCMTT" Unit="" Internal="dRmin_RCMTT" Type="D" Min="4.93207015e-02" Max="4.92609024e+00"/>
    <Variable VarIndex="10" Expression="dRmin_RCjets" Label="dRmin_RCjets" Title="dRmin_RCjets" Unit="" Internal="dRmin_RCjets" Type="D" Min="4.93207015e-02" Max="3.49933314e+00"/>
    <Variable VarIndex="11" Expression="mvlq1_rcj_drmax" Label="mvlq1_rcj_drmax" Title="mvlq1_rcj_drmax" Unit="" Internal="mvlq1_rcj_drmax" Type="D" Min="-1.86745874e+03" Max="5.04842090e+03"/>
    <Variable VarIndex="12" Expression="mtbmin" Label="mtbmin" Title="mtbmin" Unit="" Internal="mtbmin" Type="D" Min="3.86307569e-04" Max="1.42423145e+03"/>
    <Variable VarIndex="13" Expression="met" Label="met" Title="met" Unit="" Internal="met" Type="D" Min="1.02333152e+00" Max="1.94994263e+03"/>
    <Variable VarIndex="14" Expression="bjets_n" Label="bjets_n" Title="bjets_n" Unit="" Internal="bjets_n" Type="D" Min="3.00000000e+00" Max="9.00000000e+00"/>
    <Variable VarIndex="15" Expression="dPhimin_RCMTT" Label="dPhimin_RCMTT" Title="dPhimin_RCMTT" Unit="" Internal="dPhimin_RCMTT" Type="D" Min="1.90258026e-04" Max="3.14156938e+00"/>
    <Variable VarIndex="16" Expression="dRavg_RCjets" Label="dRavg_RCjets" Title="dRavg_RCjets" Unit="" Internal="dRavg_RCjets" Type="D" Min="1.16793573e+00" Max="3.80160737e+00"/>
    <Variable VarIndex="17" Expression="dPhimin_RCjets" Label="dPhimin_RCjets" Title="dPhimin_RCjets" Unit="" Internal="dPhimin_RCjets" Type="D" Min="5.45978546e-05" Max="2.09194827e+00"/>
    <Variable VarIndex="18" Expression="RCMV0_nconsts" Label="RCMV0_nconsts" Title="RCMV0_nconsts" Unit="" Internal="RCMV0_nconsts" Type="D" Min="0.00000000e+00" Max="2.00000000e+00"/>
    <Variable VarIndex="19" Expression="RCMV0_pt" Label="RCMV0_pt" Title="RCMV0_pt" Unit="" Internal="RCMV0_pt" Type="D" Min="0.00000000e+00" Max="2.66518701e+03"/>
  </Variables>
  <Spectators NSpec="7">
    <Spectator SpecIndex="0" Expression="VLQtype" Label="VLQtype" Title="VLQtype" Unit="" Internal="VLQtype" Type="F" Min="-1.00000000e+00" Max="3.00000000e+00"/>
    <Spectator SpecIndex="1" Expression="channel" Label="channel" Title="channel" Unit="" Internal="channel" Type="F" Min="1.00000000e+00" Max="5.00000000e+00"/>
    <Spectator SpecIndex="2" Expression="event_number" Label="event_number" Title="event_number" Unit="" Internal="event_number" Type="F" Min="1.00000000e+00" Max="4.04104576e+08"/>
    <Spectator SpecIndex="3" Expression="mc_campaign" Label="mc_campaign" Title="mc_campaign" Unit="" Internal="mc_campaign" Type="F" Min="1.00000000e+00" Max="3.00000000e+00"/>
    <Spectator SpecIndex="4" Expression="run_number" Label="run_number" Title="run_number" Unit="" Internal="run_number" Type="F" Min="2.76262000e+05" Max="3.64292000e+05"/>
    <Spectator SpecIndex="5" Expression="sampleID" Label="sampleID" Title="sampleID" Unit="" Internal="sampleID" Type="F" Min="3.02480000e+05" Max="7.00347000e+05"/>
    <Spectator SpecIndex="6" Expression="sampleName" Label="sampleName" Title="sampleName" Unit="" Internal="sampleName" Type="F" Min="3.00000000e+00" Max="1.70000000e+01"/>
  </Spectators>
  <Classes NClass="2">
    <Class Name="Signal" Index="0"/>
    <Class Name="Background" Index="1"/>
  </Classes>
  <Transformations NTransformations="1">
    <Transform Name="Normalize">
      <Selection>
        <Input NInputs="20">
          <Input Type="Variable" Label="meff" Expression="meff"/>
          <Input Type="Variable" Label="RCjet2_pt" Expression="RCjet2_pt"/>
          <Input Type="Variable" Label="leptop_pt" Expression="leptop_pt"/>
          <Input Type="Variable" Label="RCjets_n" Expression="RCjets_n"/>
          <Input Type="Variable" Label="RCMHiggs0_pt" Expression="RCMHiggs0_pt"/>
          <Input Type="Variable" Label="dPhiavg_RCjets" Expression="dPhiavg_RCjets"/>
          <Input Type="Variable" Label="mvlq1_RCTTM_drmax" Expression="mvlq1_RCTTM_drmax"/>
          <Input Type="Variable" Label="RCMHiggs0_nconsts" Expression="RCMHiggs0_nconsts"/>
          <Input Type="Variable" Label="RCMHiggs0_nbconsts" Expression="RCMHiggs0_nbconsts"/>
          <Input Type="Variable" Label="dRmin_RCMTT" Expression="dRmin_RCMTT"/>
          <Input Type="Variable" Label="dRmin_RCjets" Expression="dRmin_RCjets"/>
          <Input Type="Variable" Label="mvlq1_rcj_drmax" Expression="mvlq1_rcj_drmax"/>
          <Input Type="Variable" Label="mtbmin" Expression="mtbmin"/>
          <Input Type="Variable" Label="met" Expression="met"/>
          <Input Type="Variable" Label="bjets_n" Expression="bjets_n"/>
          <Input Type="Variable" Label="dPhimin_RCMTT" Expression="dPhimin_RCMTT"/>
          <Input Type="Variable" Label="dRavg_RCjets" Expression="dRavg_RCjets"/>
          <Input Type="Variable" Label="dPhimin_RCjets" Expression="dPhimin_RCjets"/>
          <Input Type="Variable" Label="RCMV0_nconsts" Expression="RCMV0_nconsts"/>
          <Input Type="Variable" Label="RCMV0_pt" Expression="RCMV0_pt"/>
        </Input>
        <Output NOutputs="20">
          <Output Type="Variable" Label="meff" Expression="meff"/>
          <Output Type="Variable" Label="RCjet2_pt" Expression="RCjet2_pt"/>
          <Output Type="Variable" Label="leptop_pt" Expression="leptop_pt"/>
          <Output Type="Variable" Label="RCjets_n" Expression="RCjets_n"/>
          <Output Type="Variable" Label="RCMHiggs0_pt" Expression="RCMHiggs0_pt"/>
          <Output Type="Variable" Label="dPhiavg_RCjets" Expression="dPhiavg_RCjets"/>
          <Output Type="Variable" Label="mvlq1_RCTTM_drmax" Expression="mvlq1_RCTTM_drmax"/>
          <Output Type="Variable" Label="RCMHiggs0_nconsts" Expression="RCMHiggs0_nconsts"/>
          <Output Type="Variable" Label="RCMHiggs0_nbconsts" Expression="RCMHiggs0_nbconsts"/>
          <Output Type="Variable" Label="dRmin_RCMTT" Expression="dRmin_RCMTT"/>
          <Output Type="Variable" Label="dRmin_RCjets" Expression="dRmin_RCjets"/>
          <Output Type="Variable" Label="mvlq1_rcj_drmax" Expression="mvlq1_rcj_drmax"/>
          <Output Type="Variable" Label="mtbmin" Expression="mtbmin"/>
          <Output Type="Variable" Label="met" Expression="met"/>
          <Output Type="Variable" Label="bjets_n" Expression="bjets_n"/>
          <Output Type="Variable" Label="dPhimin_RCMTT" Expression="dPhimin_RCMTT"/>
          <Output Type="Variable" Label="dRavg_RCjets" Expression="dRavg_RCjets"/>
          <Output Type="Variable" Label="dPhimin_RCjets" Expression="dPhimin_RCjets"/>
          <Output Type="Variable" Label="RCMV0_nconsts" Expression="RCMV0_nconsts"/>
          <Output Type="Variable" Label="RCMV0_pt" Expression="RCMV0_pt"/>
        </Output>
      </Selection>
      <Class ClassIndex="0">
        <Ranges>
          <Range Index="0" Min="1.1955372314453125e+03" Max="6.9886518554687500e+03"/>
          <Range Index="1" Min="2.0008181762695312e+02" Max="1.4451610107421875e+03"/>
          <Range Index="2" Min="-1.0000000000000000e+02" Max="2.2945056152343750e+03"/>
          <Range Index="3" Min="3.0000000000000000e+00" Max="7.0000000000000000e+00"/>
          <Range Index="4" Min="0.0000000000000000e+00" Max="2.5820068359375000e+03"/>
          <Range Index="5" Min="5.0164228677749634e-01" Max="2.0943951606750488e+00"/>
          <Range Index="6" Min="-1.4400467529296875e+03" Max="3.9120463867187500e+03"/>
          <Range Index="7" Min="0.0000000000000000e+00" Max="2.0000000000000000e+00"/>
          <Range Index="8" Min="0.0000000000000000e+00" Max="4.0000000000000000e+00"/>
          <Range Index="9" Min="8.0837950110435486e-02" Max="4.3891434669494629e+00"/>
          <Range Index="10" Min="6.0747377574443817e-02" Max="3.2259054183959961e+00"/>
          <Range Index="11" Min="-1.4400467529296875e+03" Max="4.0405097656250000e+03"/>
          <Range Index="12" Min="4.3191338772885501e-04" Max="1.4242314453125000e+03"/>
          <Range Index="13" Min="5.2262597084045410e+00" Max="1.9499426269531250e+03"/>
          <Range Index="14" Min="3.0000000000000000e+00" Max="9.0000000000000000e+00"/>
          <Range Index="15" Min="6.9957971572875977e-04" Max="3.1412200927734375e+00"/>
          <Range Index="16" Min="1.4324884414672852e+00" Max="3.4663994312286377e+00"/>
          <Range Index="17" Min="1.5234947204589844e-04" Max="2.0832316875457764e+00"/>
          <Range Index="18" Min="0.0000000000000000e+00" Max="2.0000000000000000e+00"/>
          <Range Index="19" Min="0.0000000000000000e+00" Max="2.4583303222656250e+03"/>
        </Ranges>
      </Class>
      <Class ClassIndex="1">
        <Ranges>
          <Range Index="0" Min="1.0007537231445312e+03" Max="7.9303334960937500e+03"/>
          <Range Index="1" Min="2.0000210571289062e+02" Max="1.6384431152343750e+03"/>
          <Range Index="2" Min="-1.0000000000000000e+02" Max="2.0879887695312500e+03"/>
          <Range Index="3" Min="3.0000000000000000e+00" Max="7.0000000000000000e+00"/>
          <Range Index="4" Min="0.0000000000000000e+00" Max="2.7407971191406250e+03"/>
          <Range Index="5" Min="4.6303334832191467e-01" Max="2.0943951606750488e+00"/>
          <Range Index="6" Min="-1.2722036132812500e+03" Max="4.4521352539062500e+03"/>
          <Range Index="7" Min="0.0000000000000000e+00" Max="2.0000000000000000e+00"/>
          <Range Index="8" Min="0.0000000000000000e+00" Max="4.0000000000000000e+00"/>
          <Range Index="9" Min="4.9320701509714127e-02" Max="4.9260902404785156e+00"/>
          <Range Index="10" Min="4.9320701509714127e-02" Max="3.4993331432342529e+00"/>
          <Range Index="11" Min="-1.8674587402343750e+03" Max="4.4744702148437500e+03"/>
          <Range Index="12" Min="4.1532926843501627e-04" Max="6.0649291992187500e+02"/>
          <Range Index="13" Min="1.0233315229415894e+00" Max="1.7546109619140625e+03"/>
          <Range Index="14" Min="3.0000000000000000e+00" Max="8.0000000000000000e+00"/>
          <Range Index="15" Min="1.9025802612304688e-04" Max="3.1415693759918213e+00"/>
          <Range Index="16" Min="1.1679357290267944e+00" Max="3.8016073703765869e+00"/>
          <Range Index="17" Min="5.4597854614257812e-05" Max="2.0919482707977295e+00"/>
          <Range Index="18" Min="0.0000000000000000e+00" Max="2.0000000000000000e+00"/>
          <Range Index="19" Min="0.0000000000000000e+00" Max="2.4810324707031250e+03"/>
        </Ranges>
      </Class>
      <Class ClassIndex="2">
        <Ranges>
          <Range Index="0" Min="1.0007537231445312e+03" Max="7.9303334960937500e+03"/>
          <Range Index="1" Min="2.0000210571289062e+02" Max="1.6384431152343750e+03"/>
          <Range Index="2" Min="-1.0000000000000000e+02" Max="2.2945056152343750e+03"/>
          <Range Index="3" Min="3.0000000000000000e+00" Max="7.0000000000000000e+00"/>
          <Range Index="4" Min="0.0000000000000000e+00" Max="2.7407971191406250e+03"/>
          <Range Index="5" Min="4.6303334832191467e-01" Max="2.0943951606750488e+00"/>
          <Range Index="6" Min="-1.4400467529296875e+03" Max="4.4521352539062500e+03"/>
          <Range Index="7" Min="0.0000000000000000e+00" Max="2.0000000000000000e+00"/>
          <Range Index="8" Min="0.0000000000000000e+00" Max="4.0000000000000000e+00"/>
          <Range Index="9" Min="4.9320701509714127e-02" Max="4.9260902404785156e+00"/>
          <Range Index="10" Min="4.9320701509714127e-02" Max="3.4993331432342529e+00"/>
          <Range Index="11" Min="-1.8674587402343750e+03" Max="4.4744702148437500e+03"/>
          <Range Index="12" Min="4.1532926843501627e-04" Max="1.4242314453125000e+03"/>
          <Range Index="13" Min="1.0233315229415894e+00" Max="1.9499426269531250e+03"/>
          <Range Index="14" Min="3.0000000000000000e+00" Max="9.0000000000000000e+00"/>
          <Range Index="15" Min="1.9025802612304688e-04" Max="3.1415693759918213e+00"/>
          <Range Index="16" Min="1.1679357290267944e+00" Max="3.8016073703765869e+00"/>
          <Range Index="17" Min="5.4597854614257812e-05" Max="2.0919482707977295e+00"/>
          <Range Index="18" Min="0.0000000000000000e+00" Max="2.0000000000000000e+00"/>
          <Range Index="19" Min="0.0000000000000000e+00" Max="2.4810324707031250e+03"/>
        </Ranges>
      </Class>
    </Transform>
  </Transformations>
  <MVAPdfs/>
  <Weights>
    <Layout NLayers="6">
      <Layer Index="0" NNeurons="21">
        <Neuron NSynapses="30">
          -6.2011715227925324e+00 1.7842364090930868e+01 8.2556284470769514e-01 7.1163418102728293e-01 -6.6067656357327165e+00 -5.2078182301974465e+00 -8.6847184227216168e-01 4.0481496473429459e+00 -3.8889757043209219e+00 4.6147554904989868e-01 -1.0717594241975307e+01 -5.3164370784114867e-01 -5.5845337777821613e-01 1.3623724292115413e+00 -7.8895341974840300e-02 -4.1129392110569292e+00 -8.2181511640387086e+00 1.3617512763411630e+00 -1.2528809560250056e+00 -2.4959862695081138e-02 -4.4937034641603164e+00 -4.3543846241474489e+00 5.6373519239978584e+00 4.6225202646011425e+00 -3.5934135162707426e+00 2.6309408701707770e-01 3.7422467063886886e+00 -2.1000735972586981e+00 -2.1461570049425882e+00 4.0286181602979765e-01 
        </Neuron>
        <Neuron NSynapses="30">
          2.9397006768350059e-01 3.9459559967285833e+00 1.7954003785339869e+00 -5.0036600155402464e+00 -2.4035280348089172e+00 1.3322640733158692e-01 -1.5856829100299792e+00 2.5951550278507107e+00 -3.9707914038110879e+00 2.0031199374609585e+00 1.7531724867819618e+00 7.3826713415068224e-01 3.8868806771310824e+00 2.2262351082970588e+00 -1.4981188769859581e+00 -6.0310050263308765e+00 -1.3918899632832173e+00 6.6320441576663069e-01 8.5422143148928409e-01 5.1336568048956606e+00 -4.7109898151836693e-01 6.6266863451165925e+00 2.0871215746445646e+00 -2.9914840057455372e+00 -1.2979945198049070e+00 1.5097626547668823e+00 1.7118960604744782e+00 -2.2511733330397545e+00 4.3895881746338743e+00 -1.5353338820839750e+00 
        </Neuron>
        <Neuron NSynapses="30">
          -2.6054675636111964e+00 -1.1128257834429796e+00 -4.7374889484018032e+00 2.8263293566038294e+00 1.7510487160336063e+00 -3.4594697988880561e+00 -1.2721553401549471e-01 9.5366419164617278e-01 -1.3769998903968121e+00 9.4214751682168074e-01 1.3743491417989567e-01 -1.7928643093850671e+00 3.9687704621892141e+00 -1.4642173402981238e+00 2.0220952479665244e+00 1.8038826560456422e-01 -3.1269018880687747e+00 -5.1689341297723654e+00 7.0495569058161700e-01 1.5516929727980575e+00 5.6063141850811364e+00 1.4383480023312221e+00 -2.8557253900558681e+00 2.6914191400626541e+00 -7.6798861960347664e-01 -2.9097852388573995e+00 4.2781330378890081e-01 1.1773752769151156e+00 -1.0435609907103743e+01 -3.1297238749716882e+00 
        </Neuron>
        <Neuron NSynapses="30">
          -1.1872039109767591e+00 -3.4507220779291687e+00 2.9191465664509861e+00 1.6105134435845649e+00 -4.9632944737617803e+00 3.2154769439720016e-01 -9.5421762010987243e-01 -1.2381098449369856e+00 1.4289826958292298e+00 -4.6016085045782412e-01 2.3463559593659500e-01 -1.6156119285962225e+00 4.0856692159153551e-02 1.3857167037145230e+00 -1.6304379347489857e+00 3.2520504894998119e+00 7.9071432794714860e-02 -6.9768051983660140e-01 -1.4400216610784426e+00 9.2465632941456444e-01 -3.4061411743905974e+00 -4.6845487678976339e+00 1.9271153114111330e+00 -7.5522695368072912e-01 1.3874839513252526e+00 2.1674198856742874e-01 7.3611673112087417e-01 1.0702480908766197e+00 1.0353044998005081e+00 -2.5457574154804106e+00 
        </Neuron>
        <Neuron NSynapses="30">
          -7.6177204131213125e+00 4.1602537642382940e+00 -2.5827809179862862e+00 3.5097668934410868e+00 2.2271821919021360e+00 2.0292076595416897e-01 -6.0082456453825483e-01 -3.7930195304965224e+00 -9.4958451253196319e-01 9.1186612024922520e-01 3.3982394228181950e-01 -1.8296338231788021e+00 2.4544180025946711e+00 -3.5371645098847617e+00 6.6431223898645997e-01 1.9543204328801340e+00 3.0628185937647481e+00 2.1131235135121396e-01 1.6675607731310238e-01 2.7879071618255167e+00 6.5051216125005995e+00 1.1973367892215483e+00 -1.7877039324346351e+00 -1.9299562004753128e+00 -1.6506520955666300e+00 2.0139479820379398e+00 -2.0730226637222388e-01 5.8568171724696318e+00 -3.2298496201410738e+00 4.5420610689623047e+00 
        </Neuron>
        <Neuron NSynapses="30">
          -3.0582092266562894e-01 -1.1573403957838349e+00 1.2741025339362022e+00 -3.1846806744925154e+00 -1.5676997475451500e+00 -2.0259972250527216e+00 1.1953046538274645e+00 -1.6526520484688803e+00 6.5183392008238661e+00 2.8527257563942793e-01 1.9416850899000961e+00 7.9670430541773229e-01 -9.2297518636286868e-01 4.4878770323527331e+00 9.1213082715835492e-01 7.1521307939183842e-01 -1.1871988363334780e+00 3.2003029642068794e+00 -4.5532574652499029e+00 1.4162109952960442e+00 2.2137366111180099e+00 3.0297343501591532e+00 1.1621539001109214e-01 2.1759999316113161e+00 1.3426948710880391e+00 -1.5900393172264575e+00 -5.2408132504578964e-01 -1.9244042306231113e-01 2.4003795449446748e+00 -1.9769364720351665e+00 
        </Neuron>
        <Neuron NSynapses="30">
          -1.2786888933078115e+00 -2.4203075428861465e-01 2.0483872346173788e+00 -1.9232491285150526e+00 3.2159271159559344e+00 -1.5291452056884742e+00 3.4924182242845553e-01 -1.2124811276262493e+00 3.4614843076377237e+00 -1.6522000750416039e+00 4.0131306102448212e+00 1.0359905525130684e+00 9.3900347988003563e-02 -1.1782103937394410e+00 -1.3970681180062940e+00 3.4746824726421526e+00 1.7474337983710369e+00 2.0765001502509315e+00 1.2628805875445306e+00 8.3833614063989714e-01 3.0837323512155890e-01 -1.6927896074635129e+00 1.7791912259706355e+00 -5.5283154414859688e+00 1.5071602739017924e+00 5.3328336031255450e+00 -2.0795355366498618e+00 2.8195531125313775e+00 -4.7583877853714478e-02 -2.0098011294738494e+00 
        </Neuron>
        <Neuron NSynapses="30">
          2.1606795035260676e-01 3.9311346646013628e-01 -3.1989137525914919e+00 -5.2680902010855002e-01 2.1426716518895556e-01 5.0411820877959403e+00 5.6074919171225268e-01 1.6314341485012949e+00 4.5949757982705828e+00 -3.8009340357139965e+00 -1.4455944466952608e+00 1.5555325870492992e-02 9.8882839859097860e-01 9.8184560527329356e-01 -4.5279451984211116e-01 -8.4245000654799096e-01 1.6350124979957277e+00 2.9011732376088606e-01 -7.9972299143852839e+00 -2.5406435332990616e+00 -8.2804586809505565e-01 4.4022755731484375e-01 6.5124862552187490e-01 1.0416643723877173e+00 -9.9392544063409372e-01 -1.5381423060142068e+00 8.6105389543272515e-01 -1.4643105430175611e+00 -4.2626279864772929e+00 -2.6700719179307331e-01 
        </Neuron>
        <Neuron NSynapses="30">
          -9.6101634382625323e-01 -3.0234734712524833e+00 -8.5499380017816040e-01 9.4347619314333619e-01 -3.2234864300843906e+00 -2.1920723578316337e+00 -1.0384822913789598e+00 -8.1548035014284554e-04 1.8871989522883750e+00 -9.8537574070132283e-01 7.4603944823888532e-02 -1.2717801484108346e+00 7.2759933115209197e-01 6.2332434389886240e+00 2.7501309530146294e+00 -1.6137483944619868e+00 -4.4422494230963103e+00 7.8264148687057356e-01 -5.5745611828947406e-01 1.4705772381596280e+00 4.2146890970759081e+00 1.7019619614837995e+00 1.8665229251735893e+00 -1.2415870420106012e+00 -1.2403118526087091e+00 1.4609500741666521e+00 -1.3768872333946505e-01 -4.7860754346119577e-01 2.2039813822222514e+00 1.9236978708537082e+00 
        </Neuron>
        <Neuron NSynapses="30">
          -1.9179350421021233e+00 3.8245901635419743e-01 8.7824393027702596e-01 6.8666140236359341e-01 3.0388039927704584e+00 4.2943398174849057e-01 1.3099027430357737e+00 1.9264971286419947e+00 4.9886323729862072e+00 2.0165477680055036e-01 -3.9387197105146354e+00 -3.3814238078275211e-01 4.3043959098172979e-01 -3.0918759045986750e+00 -2.6003415663980736e+00 -2.0898088906830146e+00 2.0861044753759286e+00 7.2706664509980623e-01 -2.1761260558962463e+00 4.9983991555446865e+00 2.1842903292591278e+00 -1.0439531240294393e+00 1.2822321911503163e+00 2.5798873416595738e+00 1.8624031307607158e+00 -1.4433040445972194e+00 -2.0838072314195935e-01 4.6370613873116309e+00 -2.1010454992066254e+00 -3.1214554972565036e+00 
        </Neuron>
        <Neuron NSynapses="30">
          -5.6887031860380652e+00 -1.7558325362087559e+00 3.0377317362405643e-01 -6.9068650423900406e+00 7.1552840167314402e+00 7.3294545117723098e-01 -1.2610998872551846e+00 -7.5626272225350784e+00 -1.0454219990417620e+01 -1.5835931027429786e+00 2.1822512307185460e-02 -1.2582817567361992e+00 9.9708740730156814e-02 4.9411526171012206e+00 3.8007528998560314e-01 1.2198996657490799e+00 5.0678602435901787e+00 -2.4927914098624333e-02 3.7304953955401543e+00 1.3536028100105111e+00 -1.3937079124693317e+00 7.2925133911750439e-01 1.2242954285997829e+00 -5.3955541836173264e+00 2.1186191443716562e+00 2.9928653839432808e+00 5.5349582729375921e+00 -5.4784820350699781e-01 -2.1053292878945085e+00 3.2936783606441589e+00 
        </Neuron>
        <Neuron NSynapses="30">
          -5.5348879762138159e+00 1.9301928386243512e+00 -2.7826653290892672e-01 -6.6557515621878389e+00 -1.3566473941251838e+00 2.5251843120791349e+00 4.4653791582795371e-01 1.1579406982665539e+00 5.0903569854515707e-01 -2.4118557201708790e+00 3.1037305275583860e+00 3.1193113181844639e-01 3.4887414948368671e+00 -1.5309515701024670e+00 9.8056790682281514e-01 -2.6450626661985677e+00 -2.4001336301357323e-03 1.3184567658323105e+00 6.8245409804648008e-02 -3.1542044201977271e-01 8.0827843482113804e-02 3.7565479796162995e+00 1.0026800945498124e+01 9.4981242700714208e-01 -9.3878170187293408e-01 1.2850401356099103e-01 -1.6289330486886165e+01 3.2553557059735190e+00 -3.0285926570092605e+00 -9.9874108756730376e-02 
        </Neuron>
        <Neuron NSynapses="30">
          2.6177400387317390e-01 5.8687475629444217e+00 2.6360847673449939e-01 -1.6178810303947797e+00 5.2497994999453992e+00 -2.3239850975985488e+00 -1.8874580611194671e+00 -3.2291304543694896e+00 3.4144763125615807e-01 -3.8922857910451283e+00 4.2702681261393911e+00 -1.4955230541096920e+00 -2.1885700485206052e+00 1.0644688174325532e+01 1.0472856482328063e+00 5.1274054062959955e+00 -2.7783497133618877e+00 1.3672865982027574e+01 3.1994636541128041e+00 6.1310976878260315e-01 -3.7942801704112350e-01 -4.9698424187677341e+00 -2.5934114577653102e+00 5.1815934300943098e+00 6.5825565685070542e-01 -5.4574082109253463e-01 3.9831250991611302e+00 2.3850757602882294e-01 5.8422933977736466e+00 -3.9611010535983482e+00 
        </Neuron>
        <Neuron NSynapses="30">
          6.0770954678479852e+00 9.3940440368271083e-01 -3.4153264647666153e+00 -5.8958791715155439e+00 -3.8595823545250090e+00 2.3504804719471764e-01 5.4420835423765435e-01 4.4139275984986535e+00 -4.4696705541268306e-01 -1.5704643057229772e+00 -2.7716004763852204e+00 1.5897560406228211e+00 -3.6885529717882122e+00 -4.5074240282051853e-01 1.0437118604557423e+00 1.4381804063983392e+00 2.0473216233787670e+00 6.0741838967207364e+00 3.1474729492435449e-01 8.5727213278218051e-01 1.4710276863062615e+00 -3.2216918904882923e+00 2.0502963310896156e+00 -1.7334960722233781e+00 5.1390936662865561e-01 1.7582105098610947e+00 3.1495552005708634e+00 3.9013336562850944e+00 5.5386776211171584e+00 -1.8407052464109117e+00 
        </Neuron>
        <Neuron NSynapses="30">
          -4.4623054038657628e+00 -3.2874389673586391e-01 4.7953987958949966e+00 -7.9326532786458284e+00 -4.1996942939730095e+00 1.3047692520818983e+00 -1.6793542951732701e+00 2.4248463344052986e+00 -3.4527803430442894e-01 2.0362446609141109e+00 1.9383726108017680e+00 -1.8554270897088001e+00 -9.7960194373393439e-01 -1.4350871855507228e+00 3.3070074077362759e+00 3.6721306383720265e+00 -2.1387807321405905e+00 -3.2878388348748491e+00 -2.2706310175052282e+00 -6.1740600835846395e+00 -8.6476558349955668e-01 -2.6208867016079429e+00 -2.4930294025800093e+00 -3.3288377909938633e+00 5.9428853446350483e-01 -2.5506409015386025e+00 -7.7915240990848722e-01 -5.8289629176646294e+00 -3.5340396351240977e+00 -5.7234851554161432e+00 
        </Neuron>
        <Neuron NSynapses="30">
          -2.0679836234225785e-01 4.5127122121866686e-01 1.2572980821235960e+00 -1.9406903202357491e+00 2.2903408511713912e+00 -1.3492240343926547e+00 1.2361872869927699e+00 -4.3965928318525753e+00 -2.3407777055291783e+00 1.6816236501624025e+00 -1.9104913227084781e+00 1.3605873763609805e-01 6.6328569383395442e-01 5.0685581819297953e-01 1.0081529173908279e+00 1.9342476633012529e+00 -3.2254160326039233e-01 8.5607713411562120e-02 -2.8787652692582855e+00 6.5731792604757828e+00 -2.1479283000379539e+00 -2.4168092843813125e+00 2.8358585602313685e-01 5.4473945130720685e+00 1.9619174923542300e+00 -1.1452176121712778e+00 2.5603381978988728e-02 -3.1164296118361530e+00 1.8433052927834883e+00 1.7135900991489132e+00 
        </Neuron>
        <Neuron NSynapses="30">
          5.4015888594262773e-01 8.9250639973987074e+00 2.3196668229472746e+00 3.8804348051758595e+00 -4.0468453204548531e+00 -4.2336174475682786e-01 -1.2772895759640952e+00 2.3952213334275951e+00 5.8296966625657003e+00 4.4616648645857522e+00 3.6489242186687489e+00 -1.8313555400888948e+00 -5.4190642055610878e+00 -5.3007251236390180e+00 -9.6258391437402863e-02 -1.0333543666263013e+01 1.7359307257343741e+00 -3.7330656582325067e-01 5.0656665864518189e+00 -1.6265926838946811e+00 -7.2749940269204387e+00 1.2507369603441700e+00 6.5540474892622163e+00 2.5169012994027078e+00 -1.7876428087059353e+00 -2.3294632696004238e+00 -2.9789884502115416e+00 -1.3322403680844721e+00 -1.9195059497640032e+00 1.9894569658081889e+00 
        </Neuron>
        <Neuron NSynapses="30">
          4.8724445512631726e-01 1.7053724481864545e+00 1.2478846987011265e+00 3.6155748700624981e+00 -1.5260859292154902e+00 -7.6670202632775393e+00 -9.5544752691560975e-01 3.9535319711808823e+00 -3.9001324567036305e-01 -4.7605310164741521e+00 3.0930272752079637e+00 -1.8938177047897000e+00 9.1077073640305029e-01 -2.6589304234451170e+00 9.7471998597337228e-01 2.8878534074272849e-01 4.0744974089452279e+00 4.3639257899547346e-01 -1.4767454551417472e-01 -2.6033836021181531e+00 -1.1556254238767831e+00 -2.8817019915865858e+00 -2.0630308425438532e-01 -1.4537580196271813e+00 1.4352750909746492e+00 -1.5414367975810861e+00 -1.0687635293546811e+00 1.4693824878260864e+00 -1.8147215181469456e+00 -3.3614074235752205e+00 
        </Neuron>
        <Neuron NSynapses="30">
          -7.0018782460759077e-01 -3.7359447442342519e-01 -2.1145329672783459e+00 5.4828083814051665e-01 1.3153410772595304e+00 4.8328069183522517e+00 -2.3545972981065780e-01 3.6881408433347768e-01 4.7757356194238625e+00 -2.7738571703771182e+00 1.9608093873573220e+00 8.2361813360476355e-01 -1.5161744573464912e-02 -7.0327217299415712e-01 3.9441628318383812e-02 -1.1077948163598663e+00 6.8827689003152692e-01 1.9757528698548518e-01 1.2609346684841243e+00 1.3069563846209709e+00 -1.0098983314931604e+00 2.3116353123856186e+00 4.6334698983737042e+00 5.9929454296401308e-01 -1.7118258677185703e+00 -1.2023265411615618e+00 -1.0664644863748038e-01 -9.7853224228759146e+00 2.2711422924830488e-01 -4.0020642743741125e-01 
        </Neuron>
        <Neuron NSynapses="30">
          3.5705321210113512e+00 -4.2919856901840880e+00 4.3872596919925433e-03 1.3824280364550947e+00 3.8286536584795625e+00 6.0583711408393592e-01 1.6705545345410183e-01 -2.8147498298729530e+00 2.1533747091984683e+00 -1.3281363701942719e+00 1.3593388679595868e+00 -2.0329475978558803e-01 2.3443738080712366e+00 -1.2039443947475190e+00 3.9257614441687370e-02 -3.7731824729271772e+00 -3.1348712479246958e+00 -1.9278299236674439e+00 -3.6633259659836184e+00 -7.9957497137942105e-02 2.0074937707285856e+00 4.6204785929006444e+00 -1.1931702425103226e+00 -1.9556445426936679e+00 -5.0964445045671765e+00 -1.0960542451418762e+00 4.9992501951938201e-01 -5.8795546019158840e+00 -3.9184703331690365e+00 4.0401133210913143e+00 
        </Neuron>
        <Neuron NSynapses="30">
          -9.6522835554527457e+00 1.7877986515404594e+01 1.8194078338087583e+00 -9.6428167010477139e+00 -6.8903589095684854e+00 1.1633874736718404e+00 4.9607718131620582e-01 4.4835365258301019e-01 -2.9496713529590783e+00 5.9945808166114023e-01 -1.3263291074655428e+00 1.7076960568815522e+00 -7.1447658031406391e-01 6.0569324691885331e+00 -1.0065311055278532e+00 5.0823883088204820e+00 -9.8097498416552327e+00 6.3014407893577511e+00 -4.2136895915227877e+00 -3.7108994003652875e+00 6.3570675244764780e+00 -3.9176215983927412e+00 5.7300542390267477e+00 -2.0352580626711592e+00 -5.2130312523970346e-01 -2.6820306865336532e+00 3.5355524920069579e+00 -5.2625071925271296e+00 -4.6059864210330650e+00 -3.9277891995306011e+00 
        </Neuron>
      </Layer>
      <Layer Index="1" NNeurons="31">
        <Neuron NSynapses="10">
          1.7449851086405026e+00 -3.0148695804524084e+00 1.5192592175438062e+00 -4.2271233953329784e-01 1.7263478407412307e+00 -2.3618478820770163e+00 1.3676878690160768e+00 2.1512512616652035e+00 3.2227754547379561e+00 -1.3280646508373124e+00 
        </Neuron>
        <Neuron NSynapses="10">
          1.4097341440220759e+00 -8.6197539631305353e-01 1.1334353192737503e+00 -2.6749770453687712e-02 -2.3657634575665409e+00 -4.9076686975237432e-01 -4.2976897492325890e+00 9.1354408660438935e-01 -2.3200940281184539e+00 7.6307179690685549e+00 
        </Neuron>
        <Neuron NSynapses="10">
          -2.9119070512281936e-01 -1.1195428675499546e+00 -4.7928290337730622e-01 -7.3367411366903257e-01 -3.8037258482091850e-02 -6.3912428747716010e-01 -2.4891149495127016e+00 -6.8598579012978300e+00 1.0909108478364080e+00 -5.9283221072381520e-01 
        </Neuron>
        <Neuron NSynapses="10">
          -2.8751409186134342e+00 2.4331813489172140e+00 1.0872343735973391e+00 7.2244791618622861e-01 -1.1463775543364076e+00 -2.9675534774742487e+00 3.2883845489867687e+00 5.2203935892259317e+00 -1.5351782116502799e-01 7.9265235026804302e+00 
        </Neuron>
        <Neuron NSynapses="10">
          -4.0436697371882495e+00 -1.9655592145885212e+00 -2.3926540343566542e+00 7.8084757476240030e-01 6.9771830870031639e+00 -3.5631283096564519e+00 1.8588648087273429e+00 -3.0515100072398660e+00 -1.7641078020117926e-01 -5.0788261132396304e+00 
        </Neuron>
        <Neuron NSynapses="10">
          1.0492790498067994e+00 1.4902835936603522e+00 1.4070310484444712e+00 3.3628952808496615e-01 3.0058369823915774e+00 7.5477900679329912e-01 -4.2583803546332293e+00 1.0292282045779566e+00 -4.2870521540041953e+00 -4.0928155107704933e+00 
        </Neuron>
        <Neuron NSynapses="10">
          2.0063129879888288e+00 8.6730345401625319e-01 1.3150112030443957e+00 3.9584646646749766e-01 4.1066925888631201e-01 -1.0404926228646527e+00 3.1349482093012533e+00 -6.7749576037496761e-01 -1.9021487945932114e+00 2.1648081238060852e+00 
        </Neuron>
        <Neuron NSynapses="10">
          3.1449777008569537e+00 2.2029416548932428e+00 1.4692456626702284e+00 -1.1221117459950833e+00 -4.7051593960408118e+00 -3.1193689037961074e+00 -5.5280719087905874e+00 -4.0285432081498351e+00 1.5255546201177861e+00 3.6912622637735688e+00 
        </Neuron>
        <Neuron NSynapses="10">
          5.4727985769089837e-01 1.5314677793564195e+00 8.4335162836332145e-01 6.8061541918546109e-01 -1.7249273484204553e+00 -1.2916040468927887e+00 6.2290267388085212e+00 -1.6902275535536084e+00 4.5759891077460102e+00 1.5874053760271820e+00 
        </Neuron>
        <Neuron NSynapses="10">
          -1.5657184242151964e-01 1.7111898531395482e+00 -1.3234584446489963e+00 -1.8140257232538132e-01 3.9297920295884925e+00 9.5459067229515693e-01 -1.6332124416673601e+00 -3.4535919312345422e+00 -2.3634031224494934e-01 7.5508474425435050e+00 
        </Neuron>
        <Neuron NSynapses="10">
          1.9208924570135952e+00 -2.1567296156931834e+00 4.3639248593636859e+00 -6.3994336295932663e-01 1.9628865288370763e+00 6.0252500457296621e-01 5.1219025998645584e+00 7.1763984172720130e-01 -1.2618341626134719e+00 -4.3005407731970307e+00 
        </Neuron>
        <Neuron NSynapses="10">
          8.2956366244655522e-01 1.5248943453306825e+00 -1.3569517150406363e+00 -4.9060078902371890e-01 -1.2381019221615475e+00 -4.4426857487283672e-01 2.9956208026119655e+00 1.6378468563986651e-01 -2.0647472038658825e+00 1.0158667819275760e+00 
        </Neuron>
        <Neuron NSynapses="10">
          -1.3097672051230993e+00 9.6041774703952343e-01 1.2809266498851892e+00 -1.0199526958849461e+00 2.9622124094117930e-01 1.4144062656941565e+00 2.0730763004470808e-02 -2.6763968715351520e+00 -6.2322590294001117e+00 7.3751221352245100e-01 
        </Neuron>
        <Neuron NSynapses="10">
          -2.0822917966255368e+00 -1.1796030446252186e+00 5.0488076897605949e-01 -1.4155688775367974e+00 4.7991498077090986e+00 -2.3768068272130889e+00 -6.5504010972587263e+00 -3.0616613453356427e+00 -3.2277190471406234e+00 -1.3392307791806224e+00 
        </Neuron>
        <Neuron NSynapses="10">
          -1.2972950306781035e+00 5.3333191737300079e-01 9.5380608365735831e-01 6.7498483158995348e-01 -1.3628321510318124e+00 -1.7754182490372586e-01 -2.5180134182850527e+00 -2.8073163790865768e-01 -1.1187576185525738e+00 2.5470723332692873e+00 
        </Neuron>
        <Neuron NSynapses="10">
          -1.6573676986642794e+00 -9.2649349781795154e-01 2.8643404913297159e+00 -1.8222155278933516e+00 -7.0289846787102066e+00 1.2980835827083854e+00 -7.4015767539765740e+00 -3.8976695317277481e+00 -1.6655946919995088e+00 -4.5861968403981193e+00 
        </Neuron>
        <Neuron NSynapses="10">
          2.6127632719942997e+00 -2.2434832868551182e+00 1.3508719287968025e+00 1.4044737596499979e+00 4.6227259225560511e+00 3.6444326891713499e+00 5.5339922444700118e-01 3.3932955739039503e+00 1.7237766810932353e+00 -2.3827614093660379e+00 
        </Neuron>
        <Neuron NSynapses="10">
          8.4111442055110219e-01 -9.1749183356176001e-01 1.9214667693651204e+00 -3.3682013742571151e+00 -3.4191889132741133e+00 6.2716889788054098e-01 -3.7181401985571143e+00 -7.6252073351809582e+00 -3.2308644165215821e+00 5.7132637939243232e+00 
        </Neuron>
        <Neuron NSynapses="10">
          -5.2313617390536737e-01 -2.5467178436761639e-01 -2.4096742210787565e+00 2.2594192194658387e+00 -4.7571781703792686e+00 3.2903932797957713e+00 -1.2923961107395285e+00 4.0067181067063782e+00 1.6092930944367088e+00 -3.1241774441982267e-01 
        </Neuron>
        <Neuron NSynapses="10">
          -2.0056527298345346e+00 6.6192039999226837e-01 -2.2165032017237292e+00 1.3661402210349730e-01 2.5616900256125827e+00 -4.1325269701449177e+00 2.6505955401210226e+00 3.1612807712572688e+00 3.5071106402646937e+00 1.6039751801825475e-01 
        </Neuron>
        <Neuron NSynapses="10">
          -1.2706254259152738e+00 1.6171239916475705e-01 2.0730415776099789e+00 -1.8228449131957545e+00 -3.0586264591886123e+00 1.0847869719641363e+00 -2.3577839198526038e+00 2.8805953248045807e-01 -3.8576150096429918e+00 -1.3703861253747920e+00 
        </Neuron>
        <Neuron NSynapses="10">
          -1.5189066938748921e+00 3.9299445075108022e+00 -3.0277707305354231e+00 9.5925507308041325e-01 -3.3931465865114618e+00 -1.8589377941807987e+00 -1.3199737905935230e-01 3.5279398233677837e+00 3.2194803794909488e+00 -3.5649660184684642e+00 
        </Neuron>
        <Neuron NSynapses="10">
          -1.6411146546483251e+00 -1.4743573554044518e+00 -2.7312025848513088e+00 7.1871289436860653e-01 -1.6649283057337037e+00 4.2423326171925018e+00 -2.0940313322148887e+00 9.9876665004668830e-01 -3.0005724798315363e-02 5.8360279708905889e+00 
        </Neuron>
        <Neuron NSynapses="10">
          -3.1503082269468154e+00 1.4478583679509285e+00 -1.3856113697839436e+00 1.3610722112617408e+00 -2.7712740564692673e-01 -1.7879369383053987e+00 -1.3709283591424433e+00 1.0966383332368710e+00 5.3562775150036224e+00 -2.7169867314719780e+00 
        </Neuron>
        <Neuron NSynapses="10">
          2.5334042192099215e-01 1.0912478473109173e+00 2.7697218035272848e+00 -1.1719786139844246e+00 -1.1283104520679295e+00 3.0076515806731718e+00 8.5523721064720104e-01 -4.1684668029510386e+00 -3.1750079483823579e+00 2.7812658994200525e+00 
        </Neuron>
        <Neuron NSynapses="10">
          2.1129619389380303e+00 9.7135279255808016e-01 -2.1663270219478474e+00 -3.1224763555180068e-01 6.4336132085488895e-01 -1.5086191445063999e+00 -2.4450142371776336e+00 -2.3164046885448601e+00 6.6837119790247890e+00 1.7165062516714245e+00 
        </Neuron>
        <Neuron NSynapses="10">
          -4.4030367440046358e-01 1.1117559159009129e+00 1.6348810104831994e+00 -5.5611652776792732e-02 -1.9334964915008428e+00 4.4822331174932311e+00 -1.2679168152792926e+00 -5.8766569890870430e+00 -2.6283650774002615e-01 4.8635320040942016e+00 
        </Neuron>
        <Neuron NSynapses="10">
          -3.9172544084288985e+00 2.1870934971585192e+00 2.1104657497181847e-01 3.2604312996733462e+00 4.4136099590466085e+00 9.7683591299011063e-01 8.4390653142356147e+00 6.7859835132286674e+00 5.7562812872340885e+00 -3.3234903610691529e+00 
        </Neuron>
        <Neuron NSynapses="10">
          1.4961839772039822e+00 -2.5358571194754527e+00 -7.3202453974424675e-01 2.1456906019727180e+00 -2.4007567601052475e+00 7.7324836200159341e-01 -5.0034241749639587e+00 8.9306373167741224e+00 -1.7817961981100183e+00 -2.6983639463097888e+00 
        </Neuron>
        <Neuron NSynapses="10">
          -2.8630933744336917e+00 4.7239464788587071e+00 1.1129393580625349e+00 1.2508050541869438e+00 -2.2793679128318982e+00 1.5381188513298123e+00 1.3182424998154108e+00 -1.6682692696839634e+00 3.2947910693619828e+00 1.0369266952229510e+00 
        </Neuron>
        <Neuron NSynapses="10">
          6.3884549012814740e-01 -8.8620702041479371e-01 2.4490735038846512e+00 1.3014278151174812e+00 -1.0217032059104383e+00 4.6426704159749460e-01 2.0571884668774487e+00 -1.5513794474598404e+00 -8.9265235876143234e-01 3.0091879805752604e+00 
        </Neuron>
      </Layer>
      <Layer Index="2" NNeurons="11">
        <Neuron NSynapses="10">
          2.2154921951551825e+00 -3.5718040125813810e+00 -9.7793072649725588e-01 2.4844996184228352e+00 -8.2236653475311383e-01 -1.1799708484888269e+00 -2.3267825798362076e+00 -2.5728352299210728e+00 3.9167423172984721e+00 2.4319764587403379e+00 
        </Neuron>
        <Neuron NSynapses="10">
          -2.8840845666141413e-01 5.3517985105106558e-01 9.8399291272105804e-01 2.2229112154329571e+00 1.9473638463081904e+00 -1.7702114878393901e-02 -3.8981977132566725e+00 -1.1400692271365251e+00 1.8026376588056922e-01 -1.8198565146190402e+00 
        </Neuron>
        <Neuron NSynapses="10">
          -3.3518580636329975e+00 1.4495237249356445e+00 2.1780839468625599e+00 1.5208702350849872e+00 -7.2718518120450104e-01 5.1554363245456414e-01 5.1227269875139205e+00 -1.7053682416578793e+00 9.4018869475329669e-01 9.7326293585893231e-01 
        </Neuron>
        <Neuron NSynapses="10">
          2.3782927368655491e+00 -1.7040074326677386e+00 -5.6532381637024431e-01 -7.6577355152992943e-01 -3.0834768358066218e+00 1.6377009324833844e+00 1.8764079884130935e+00 -3.2116276628159586e+00 9.0825418197916286e-01 5.4013390609774248e-01 
        </Neuron>
        <Neuron NSynapses="10">
          2.4330219330085430e+00 2.2032087433995229e+00 2.2650809755730994e+00 1.9384882201884619e+00 -1.8048001036813472e+00 -3.8193091782098172e+00 -1.8547200317462189e+00 5.1610738819810176e-01 -9.5743600033009120e+00 -2.2500539332487448e+00 
        </Neuron>
        <Neuron NSynapses="10">
          -4.2003825893120067e-01 -5.5934542495499384e-01 5.3697991124646005e-01 -1.3800816042617259e+00 1.6665047999490443e+00 -1.2360865081606809e+00 5.9410011810288550e+00 1.1096602262715742e+00 -4.4501181475884319e+00 -2.3229412990391443e+00 
        </Neuron>
        <Neuron NSynapses="10">
          -3.7540165544923321e+00 -3.0706832178185950e+00 5.6395454275729073e-01 2.4727814363259908e+00 -5.0014374454916499e+00 -3.4767893550771629e+00 -4.6236885349666768e+00 1.9220984803368790e+00 -2.8283105013539172e+00 -3.6698601272640718e-01 
        </Neuron>
        <Neuron NSynapses="10">
          -4.7804753315510613e+00 1.4973143993950002e+00 3.1024527242382938e+00 -2.0465283399491856e+00 -3.8109511959409588e+00 -4.0256478039811441e+00 -3.0251137463124840e+00 -4.1286492114087086e+00 -6.3042636272084138e+00 1.5217982568873776e+00 
        </Neuron>
        <Neuron NSynapses="10">
          -6.9752151538063449e+00 -8.0312252292116715e-01 4.4108522210179524e-01 -1.5624539945623270e+00 -8.0829501350760804e+00 -3.1092868645368550e+00 -5.6158656065393258e+00 -5.5077018126804616e+00 2.3668485743548402e+00 -1.1314546023926007e+00 
        </Neuron>
        <Neuron NSynapses="10">
          4.0450188841867982e+00 2.2493264160775244e+00 -2.9131407125767511e-01 -4.3816092510958926e+00 -2.3065566635141472e+00 1.7691988362203088e+00 1.2153708122658242e+00 3.5484877766427960e+00 4.6763303430352385e+00 -1.9788680435558406e+00 
        </Neuron>
        <Neuron NSynapses="10">
          1.8065882956292660e+00 -2.0579421137291614e+00 -9.4629131088358326e-02 -1.7436684238953033e+00 5.7507237806522860e-01 -4.1407467181298280e-01 2.0795221328837572e+00 3.8974711081507102e-01 1.8475190251130502e+00 -5.6048231066201888e-02 
        </Neuron>
      </Layer>
      <Layer Index="3" NNeurons="11">
        <Neuron NSynapses="5">
          -2.5791359858090579e+00 3.9294507728392808e-01 -1.2658245559916310e+00 -1.6948954530841243e+00 -5.4348536450474638e+00 
        </Neuron>
        <Neuron NSynapses="5">
          -3.5440534728343791e+00 -1.4253323237657023e+00 1.7006670205225165e+00 1.3894681529245574e+00 1.6828506953069420e+00 
        </Neuron>
        <Neuron NSynapses="5">
          1.5410298986272473e+00 -3.6319699719226378e-01 -1.6306804896960914e+00 3.6969094726632781e+00 2.9025353928846735e+00 
        </Neuron>
        <Neuron NSynapses="5">
          9.3117779982106885e-01 2.9970843860482943e+00 -3.9733480206753917e+00 1.4537602880841687e+00 -1.2082207750204716e+00 
        </Neuron>
        <Neuron NSynapses="5">
          -2.5017336682129517e-02 1.7478718714342492e-01 1.7699284212345041e+00 -5.2561502643799036e+00 -2.5423474873430596e+00 
        </Neuron>
        <Neuron NSynapses="5">
          -1.6184165298644735e+00 -2.5928259433036738e+00 2.9819289669283928e+00 -7.6838714272060538e-01 -1.5445371325494159e+00 
        </Neuron>
        <Neuron NSynapses="5">
          1.3488366115496803e-01 -2.1117843080416390e+00 4.7279304292765048e+00 -2.2990200885014489e-01 -2.4014169665425422e+00 
        </Neuron>
        <Neuron NSynapses="5">
          -9.6746746144920170e-01 -7.3682072055998049e-01 1.4929961380522745e+00 -3.0312764965838741e+00 -3.3875735000645708e+00 
        </Neuron>
        <Neuron NSynapses="5">
          -4.5013437996912469e+00 -2.0903066878622720e+00 9.5747248366676474e-01 -4.0264799116058320e-02 -3.4235186220774261e+00 
        </Neuron>
        <Neuron NSynapses="5">
          2.3179054062705369e+00 1.2857917020364560e+00 4.0345761241835543e-01 -1.6898103568429257e+00 -3.8474187358885142e-01 
        </Neuron>
        <Neuron NSynapses="5">
          -1.0522993293997547e+00 -2.6388815741156552e-01 -3.5297807788375690e-01 2.5103959151005950e-01 2.2578517857382496e+00 
        </Neuron>
      </Layer>
      <Layer Index="4" NNeurons="6">
        <Neuron NSynapses="1">
          -1.9694410400060733e+00 
        </Neuron>
        <Neuron NSynapses="1">
          -2.3179452365167230e+00 
        </Neuron>
        <Neuron NSynapses="1">
          3.6521003746937839e+00 
        </Neuron>
        <Neuron NSynapses="1">
          -4.3816655405285019e+00 
        </Neuron>
        <Neuron NSynapses="1">
          -2.2834186479602967e+00 
        </Neuron>
        <Neuron NSynapses="1">
          1.6945735547628837e+00 
        </Neuron>
      </Layer>
      <Layer Index="5" NNeurons="1">
        <Neuron NSynapses="0"/>
      </Layer>
    </Layout>
  </Weights>
</MethodSetup>
